{"learner":{"attributes":{"scikit_learn":"{\"_estimator_type\": \"classifier\"}"},"feature_names":["vote_delay","author_avg_efficiency","author_reputation","author_avg_payout"],"feature_types":["float","float","float","float"],"gradient_booster":{"model":{"gbtree_model_param":{"num_parallel_tree":"1","num_trees":"100"},"iteration_indptr":[0,1,2,3,4,5,6,7,8,9,10,11,12,13,14,15,16,17,18,19,20,21,22,23,24,25,26,27,28,29,30,31,32,33,34,35,36,37,38,39,40,41,42,43,44,45,46,47,48,49,50,51,52,53,54,55,56,57,58,59,60,61,62,63,64,65,66,67,68,69,70,71,72,73,74,75,76,77,78,79,80,81,82,83,84,85,86,87,88,89,90,91,92,93,94,95,96,97,98,99,100],"tree_info":[0,0,0,0,0,0,0,0,0,0,0,0,0,0,0,0,0,0,0,0,0,0,0,0,0,0,0,0,0,0,0,0,0,0,0,0,0,0,0,0,0,0,0,0,0,0,0,0,0,0,0,0,0,0,0,0,0,0,0,0,0,0,0,0,0,0,0,0,0,0,0,0,0,0,0,0,0,0,0,0,0,0,0,0,0,0,0,0,0,0,0,0,0,0,0,0,0,0,0,0],"trees":[{"base_weights":[-1.4563425E-1,-1.0157052E0,3.253716E0,-1.2869498E0,1.41739E-1,1.6643924E0,1.0923539E0,-3.890721E-1,-1.342836E-1,4.430915E-1,-2.0311177E-1,5.573676E-1,7.706017E-2,1.3304389E-1,1.0057229E0,8.7810457E-1,-4.056507E-1,-6.5495275E-2,1.3166769E0,7.706017E-2,2.9206488E-1,-2.060401E-1,2.8029513E-2,5.530818E-1,6.561987E-3],"categories":[],"categories_nodes":[],"categories_segments":[],"categories_sizes":[],"default_left":[0,0,0,0,0,0,0,0,0,0,0,0,0,0,0,0,0,0,0,0,0,0,0,0,0],"id":0,"left_children":[1,3,5,7,9,11,-1,-1,-1,13,-1,-1,-1,15,17,19,21,-1,23,-1,-1,-1,-1,-1,-1],"loss_changes":[4.4180768E2,3.7482033E1,1.2692047E1,2.2476196E-1,6.0878E0,1.6500683E0,0E0,0E0,0E0,2.9626787E0,0E0,0E0,0E0,5.412004E0,2.6298194E0,8.2083225E-2,1.185976E0,0E0,3.4048824E0,0E0,0E0,0E0,0E0,0E0,0E0],"parents":[2147483647,0,0,1,1,2,2,3,3,4,4,5,5,9,9,13,13,14,14,15,15,16,16,18,18],"right_children":[2,4,6,8,10,12,-1,-1,-1,14,-1,-1,-1,16,18,20,22,-1,24,-1,-1,-1,-1,-1,-1],"split_conditions":[5.2474354E1,1.9533045E1,6.496551E1,1.7518005E1,4.15E0,6.3413456E1,1.0923539E0,-3.890721E-1,-1.342836E-1,7.515E1,-2.0311177E-1,5.573676E-1,7.706017E-2,6.902E1,1.35E0,2.75E0,3.8804066E1,-6.5495275E-2,1.5E0,7.706017E-2,2.9206488E-1,-2.060401E-1,2.8029513E-2,5.530818E-1,6.561987E-3],"split_indices":[1,1,1,1,0,1,0,0,0,2,0,0,0,2,0,0,1,0,0,0,0,0,0,0,0],"split_type":[0,0,0,0,0,0,0,0,0,0,0,0,0,0,0,0,0,0,0,0,0,0,0,0,0],"sum_hessian":[1.4725926E2,1.178074E2,2.945185E1,9.535037E1,2.2457037E1,6.810741E0,2.2641111E1,9.36937E1,1.6566666E0,1.675074E1,5.7062964E0,5.7062964E0,1.1044445E0,1.1596666E1,5.154074E0,4.601852E0,6.994815E0,1.1044445E0,4.0496297E0,1.1044445E0,3.4974074E0,4.2337036E0,2.761111E0,2.577037E0,1.4725926E0],"tree_param":{"num_deleted":"0","num_feature":"4","num_nodes":"25","size_leaf_vector":"1"}},{"base_weights":[-1.6887198E-1,-1.1154246E0,1.2446808E0,-3.5656434E-1,-3.735428E-1,4.2106393E-1,5.172765E-1,2.2707526E-1,-6.1598134E-1,2.6446091E-2,1.0399002E0,-1.7047071E-1,-2.9573154E-1,4.0320304E-1,-5.0501496E-1,-4.9721077E-4,3.7342E-1,-1.8470207E-1,1.712614E-1,-9.5423445E-2,9.916363E-1,-2.511841E-1,-1.7102021E-1,1.413296E-1,-1.131946E-1,3.8917282E-1,2.8254805E-2,1.2941058E-1,-2.5502437E-1],"categories":[],"categories_nodes":[],"categories_segments":[],"categories_sizes":[],"default_left":[0,0,0,0,0,0,0,0,0,0,0,0,0,0,0,0,0,0,0,0,0,0,0,0,0,0,0,0,0],"id":1,"left_children":[1,3,5,-1,7,9,-1,-1,11,13,15,17,-1,19,21,-1,-1,-1,-1,23,25,-1,27,-1,-1,-1,-1,-1,-1],"loss_changes":[1.872549E2,4.098137E0,2.1466545E1,0E0,2.924758E0,5.3448534E0,0E0,0E0,1.139658E0,3.0988588E0,1.8240404E0,1.938782E0,0E0,2.7403657E0,5.7172716E-1,0E0,0E0,0E0,0E0,1.1029352E0,1.0363092E0,0E0,2.1949496E0,0E0,0E0,0E0,0E0,0E0,0E0],"parents":[2147483647,0,0,1,1,2,2,4,4,5,5,8,8,9,9,10,10,11,11,13,13,14,14,19,19,20,20,22,22],"right_children":[2,4,6,-1,8,10,-1,-1,12,14,16,18,-1,20,22,-1,-1,-1,-1,24,26,-1,28,-1,-1,-1,-1,-1,-1],"split_conditions":[2.7290201E1,1.7518005E1,6.0623993E1,-3.5656434E-1,6.677E1,7.543E1,5.172765E-1,2.2707526E-1,7.296E1,6.971E1,1.35E0,4.1E0,-2.9573154E-1,4.7273476E1,3.8804066E1,-4.9721077E-4,3.7342E-1,-1.8470207E-1,1.712614E-1,6.677E1,5.4623055E1,-2.511841E-1,4.5260353E1,1.413296E-1,-1.131946E-1,3.8917282E-1,2.8254805E-2,1.2941058E-1,-2.5502437E-1],"split_indices":[1,1,1,0,2,2,0,0,2,2,0,0,0,1,1,0,0,0,0,2,1,0,1,0,0,0,0,0,0],"split_type":[0,0,0,0,0,0,0,0,0,0,0,0,0,0,0,0,0,0,0,0,0,0,0,0,0,0,0,0,0],"sum_hessian":[1.379135E2,8.2727715E1,5.5185776E1,7.475725E1,7.970467E0,2.0999466E1,3.418631E1,1.0327561E0,6.9377112E0,1.3459429E1,7.540037E0,3.8093417E0,3.1283696E0,8.017261E0,5.4421687E0,1.4021488E0,6.1378884E0,2.485952E0,1.3233896E0,4.793327E0,3.2239337E0,1.9727583E0,3.4694102E0,1.3696061E0,3.4237204E0,2.0726666E0,1.1512672E0,2.0317874E0,1.4376228E0],"tree_param":{"num_deleted":"0","num_feature":"4","num_nodes":"29","size_leaf_vector":"1"}},{"base_weights":[-1.5758523E-1,-1.0304223E0,8.968583E-1,-3.3488357E-1,-3.0244568E-1,3.634049E-1,1.3354869E0,1.15645036E-1,-2.662034E-1,5.515615E-1,-3.491381E-1,9.496485E-1,4.5998356E-1,1.8286958E-1,-1.3326792E-1,3.1455868E-1,7.493574E-1,6.427032E-2,-5.9184194E-1,2.482543E-1,3.2534677E-1,-5.3136057E-1,1.3302624E-1,-9.083504E-2,6.2412125E-1,8.8158613E-1,-2.6073761E-2,-6.726634E-2,1.0242551E-1,-2.4420114E-1,-2.8022483E-2,1.2615064E-1,-1.1327632E-2,-3.851323E-2,-1.9893965E-1,1.513457E-1,-1.1091744E-1,3.3590364E-1,5.9384327E-2,6.543621E-2,3.2772386E-1],"categories":[],"categories_nodes":[],"categories_segments":[],"categories_sizes":[],"default_left":[0,0,0,0,0,0,0,0,0,0,0,0,0,0,0,0,0,0,0,0,0,0,0,0,0,0,0,0,0,0,0,0,0,0,0,0,0,0,0,0,0],"id":2,"left_children":[1,3,5,-1,7,9,11,13,-1,15,17,19,-1,-1,21,23,25,27,29,31,-1,33,-1,35,37,39,-1,-1,-1,-1,-1,-1,-1,-1,-1,-1,-1,-1,-1,-1,-1],"loss_changes":[1.12618126E2,3.8414078E0,1.2500195E1,0E0,2.162971E0,3.7340631E0,8.3958817E-1,7.94062E-1,0E0,7.620745E-1,6.531507E-1,9.433956E-1,0E0,0E0,1.3090606E0,1.4881091E0,1.2795625E0,3.299944E-1,3.6254954E-1,1.816216E-1,0E0,8.591586E-2,0E0,1.1514167E0,1.171094E0,1.0881767E0,0E0,0E0,0E0,0E0,0E0,0E0,0E0,0E0,0E0,0E0,0E0,0E0,0E0,0E0,0E0],"parents":[2147483647,0,0,1,1,2,2,4,4,5,5,6,6,7,7,9,9,10,10,11,11,14,14,15,15,16,16,17,17,18,18,19,19,21,21,23,23,24,24,25,25],"right_children":[2,4,6,-1,8,10,12,14,-1,16,18,20,-1,-1,22,24,26,28,30,32,-1,34,-1,36,38,40,-1,-1,-1,-1,-1,-1,-1,-1,-1,-1,-1,-1,-1,-1,-1],"split_conditions":[2.7290201E1,1.7518005E1,6.496551E1,-3.3488357E-1,7.296E1,3.3E0,1.11763115E2,6.677E1,-2.662034E-1,4.9457382E1,3.7740482E1,1.4E0,4.5998356E-1,1.8286958E-1,4.1E0,7.239E1,6.3413456E1,5.75E0,4.7273476E1,1.35E0,3.2534677E-1,3.1E0,1.3302624E-1,6.677E1,3.9761272E1,1.35E0,-2.6073761E-2,-6.726634E-2,1.0242551E-1,-2.4420114E-1,-2.8022483E-2,1.2615064E-1,-1.1327632E-2,-3.851323E-2,-1.9893965E-1,1.513457E-1,-1.1091744E-1,3.3590364E-1,5.9384327E-2,6.543621E-2,3.2772386E-1],"split_indices":[1,1,1,0,2,0,1,2,0,1,1,0,0,0,0,2,1,0,1,0,0,0,0,2,1,0,0,0,0,0,0,0,0,0,0,0,0,0,0,0,0],"split_type":[0,0,0,0,0,0,0,0,0,0,0,0,0,0,0,0,0,0,0,0,0,0,0,0,0,0,0,0,0,0,0,0,0,0,0,0,0,0,0,0,0],"sum_hessian":[1.2035936E2,6.586284E1,5.4496525E1,5.8437435E1,7.4254E0,2.5415312E1,2.9081211E1,4.7980175E0,2.627382E0,2.0284771E1,5.130542E0,1.18216305E1,1.725958E1,1.1222392E0,3.6757784E0,1.0406194E1,9.878577E0,2.169805E0,2.9607368E0,2.364326E0,9.457304E0,2.2211218E0,1.4546566E0,4.811616E0,5.5945773E0,8.483068E0,1.3955088E0,1.1567158E0,1.0130892E0,1.6100026E0,1.350734E0,1.182163E0,1.182163E0,1.0338006E0,1.1873213E0,1.2769402E0,3.5346758E0,1.834326E0,3.7602515E0,2.5362282E0,5.9468403E0],"tree_param":{"num_deleted":"0","num_feature":"4","num_nodes":"41","size_leaf_vector":"1"}},{"base_weights":[-1.3680363E-1,-9.6239704E-1,7.0677257E-1,-3.190167E-1,-2.577802E-1,2.1779731E-1,1.0667067E0,8.998928E-2,-2.4186875E-1,3.7548937E-2,2.781018E-1,6.936409E-1,1.2728055E0,1.4902095E-1,-1.2221803E-1,1.7447723E-1,-6.721679E-1,4.2460808E-1,9.823332E-1,1.3583304E-1,3.9550948E-1,-1.9720449E-1,2.3169659E-1,-3.7428904E-2,3.3312225E-1,-2.9672058E-2,-2.837175E-1,6.744641E-1,2.394841E-2,3.2928386E-1,7.9749174E-2,-7.680393E-2,1.9560319E-1,1.1895897E-1,-6.697489E-2,2.598703E-1,4.2997234E-2,-1.1611434E-1,1.4057277E-1],"categories":[],"categories_nodes":[],"categories_segments":[],"categories_sizes":[],"default_left":[0,0,0,0,0,0,0,0,0,0,0,0,0,0,0,0,0,0,0,0,0,0,0,0,0,0,0,0,0,0,0,0,0,0,0,0,0,0,0],"id":3,"left_children":[1,3,5,-1,7,9,11,13,-1,15,-1,17,19,-1,21,23,25,27,29,-1,-1,-1,31,33,-1,-1,-1,35,37,-1,-1,-1,-1,-1,-1,-1,-1,-1,-1],"loss_changes":[7.330246E1,3.5061111E0,8.946411E0,0E0,1.5945072E0,2.952526E0,1.4071312E0,5.5984247E-1,0E0,2.029341E0,0E0,5.7674694E-1,7.507515E-2,0E0,1.0240039E0,3.4701245E0,4.377967E-1,8.232434E-1,1.5518093E-1,0E0,0E0,0E0,8.8640106E-1,1.3031961E0,0E0,0E0,0E0,3.981259E-1,9.593572E-1,0E0,0E0,0E0,0E0,0E0,0E0,0E0,0E0,0E0,0E0],"parents":[2147483647,0,0,1,1,2,2,4,4,5,5,6,6,7,7,9,9,11,11,12,12,14,14,15,15,16,16,17,17,18,18,22,22,23,23,27,27,28,28],"right_children":[2,4,6,-1,8,10,12,14,-1,16,-1,18,20,-1,22,24,26,28,30,-1,-1,-1,32,34,-1,-1,-1,36,38,-1,-1,-1,-1,-1,-1,-1,-1,-1,-1],"split_conditions":[2.7290201E1,1.7518005E1,6.1412384E1,-3.190167E-1,7.296E1,7.769E1,7.9914246E1,6.677E1,-2.4186875E-1,5.5165337E1,2.781018E-1,2.85E0,1.25E0,1.4902095E-1,7.174E1,5.2474354E1,6.966E1,2.15E0,7.414407E1,1.3583304E-1,3.9550948E-1,-1.9720449E-1,4.1E0,1.4E0,3.3312225E-1,-2.9672058E-2,-2.837175E-1,6.8558304E1,7.259701E1,3.2928386E-1,7.9749174E-2,-7.680393E-2,1.9560319E-1,1.1895897E-1,-6.697489E-2,2.598703E-1,4.2997234E-2,-1.1611434E-1,1.4057277E-1],"split_indices":[1,1,1,0,2,2,1,2,0,1,0,0,0,0,2,1,2,0,1,0,0,0,0,0,0,0,0,1,1,0,0,0,0,0,0,0,0,0,0],"split_type":[0,0,0,0,0,0,0,0,0,0,0,0,0,0,0,0,0,0,0,0,0,0,0,0,0,0,0,0,0,0,0,0,0,0,0,0,0,0,0],"sum_hessian":[1.0327478E2,5.212252E1,5.115226E1,4.5143047E1,6.979473E0,2.2368904E1,2.8783358E1,4.7827005E0,2.1967726E0,1.8675413E1,3.6934903E0,1.1796226E1,1.6987131E1,1.180046E0,3.6026545E0,1.628722E1,2.3881943E0,7.3849635E0,4.4112616E0,1.4698216E0,1.551731E1,1.0928564E0,2.509798E0,1.4063156E1,2.2240632E0,1.2113245E0,1.1768699E0,4.1275754E0,3.257388E0,3.341704E0,1.0695577E0,1.342701E0,1.167097E0,3.8764055E0,1.0186751E1,2.569097E0,1.5584786E0,1.7600073E0,1.4973807E0],"tree_param":{"num_deleted":"0","num_feature":"4","num_nodes":"39","size_leaf_vector":"1"}},{"base_weights":[-1.1227688E-1,-9.696286E-1,5.2724737E-1,-3.062918E-1,-2.8349507E-1,1.5811875E-1,9.762485E-1,4.654012E-2,-1.5361698E-1,2.8840795E-1,-5.9830195E-1,6.5326416E-1,3.522857E-1,5.457218E-1,1.2839265E-1,-2.3166688E-1,-7.947819E-2,8.214561E-2,2.3520696E-1,1.758366E-1,8.1273264E-1,-1.8257637E-1,3.3120227E-1,-4.2106725E-2,8.104943E-2,2.3386054E-1,-1.0646775E-1,4.1940536E-2,3.0759153E-1,-1.8496284E-1,1.0592467E-1,4.5421015E-2,2.8026158E-1],"categories":[],"categories_nodes":[],"categories_segments":[],"categories_sizes":[],"default_left":[0,0,0,0,0,0,0,0,0,0,0,0,0,0,0,0,0,0,0,0,0,0,0,0,0,0,0,0,0,0,0,0,0],"id":4,"left_children":[1,3,5,-1,7,9,11,-1,-1,13,15,17,-1,19,21,-1,-1,23,-1,25,27,29,31,-1,-1,-1,-1,-1,-1,-1,-1,-1,-1],"loss_changes":[4.976405E1,1.074997E0,8.480333E0,0E0,4.8856038E-1,3.108013E0,7.2402763E-1,0E0,0E0,1.0039053E0,6.803119E-2,7.6563835E-1,0E0,8.1445694E-1,1.1572216E0,0E0,0E0,1.7127568E-1,0E0,1.9875809E0,6.2246704E-1,1.9632716E0,1.0382556E0,0E0,0E0,0E0,0E0,0E0,0E0,0E0,0E0,0E0,0E0],"parents":[2147483647,0,0,1,1,2,2,4,4,5,5,6,6,9,9,10,10,11,11,13,13,14,14,17,17,19,19,20,20,21,21,22,22],"right_children":[2,4,6,-1,8,10,12,-1,-1,14,16,18,-1,20,22,-1,-1,24,-1,26,28,30,32,-1,-1,-1,-1,-1,-1,-1,-1,-1,-1],"split_conditions":[2.1162346E1,1.7518005E1,6.496551E1,-3.062918E-1,3.1E0,4.2E0,1.11763115E2,4.654012E-2,-1.5361698E-1,6.966E1,5.95E0,1.4E0,3.522857E-1,4.7273476E1,7.515E1,-2.3166688E-1,-7.947819E-2,7.325439E1,2.3520696E-1,6.677E1,1.35E0,3.15E0,2.35E0,-4.2106725E-2,8.104943E-2,2.3386054E-1,-1.0646775E-1,4.1940536E-2,3.0759153E-1,-1.8496284E-1,1.0592467E-1,4.5421015E-2,2.8026158E-1],"split_indices":[1,1,1,0,0,0,1,0,0,2,0,0,0,1,2,0,0,1,0,2,0,0,0,0,0,0,0,0,0,0,0,0,0],"split_type":[0,0,0,0,0,0,0,0,0,0,0,0,0,0,0,0,0,0,0,0,0,0,0,0,0,0,0,0,0,0,0,0,0],"sum_hessian":[8.882868E1,3.7730576E1,5.1098103E1,3.4649693E1,3.0808804E0,2.8785442E1,2.2312662E1,1.1654823E0,1.915398E0,2.5083647E1,3.7017965E0,1.0114819E1,1.2197843E1,8.693523E0,1.6390123E1,1.5676005E0,2.134196E0,2.187715E0,7.9271035E0,4.3399744E0,4.353549E0,6.5092387E0,9.880884E0,1.1180823E0,1.0696326E0,1.8110847E0,2.5288894E0,1.4430423E0,2.910507E0,3.512539E0,2.9966996E0,8.575107E0,1.3057784E0],"tree_param":{"num_deleted":"0","num_feature":"4","num_nodes":"33","size_leaf_vector":"1"}},{"base_weights":[-9.380058E-2,-9.1926366E-1,4.2996034E-1,-3.0485174E-1,-3.949226E-1,1.24381445E-1,8.542882E-1,-2.1117438E-1,8.216204E-2,2.3031375E-1,-5.2455705E-1,5.3340185E-1,3.2395107E-1,2.5870112E-1,-1.8634358E-1,4.281283E-1,9.389664E-2,-2.094134E-1,-6.543442E-2,2.7962208E-1,3.0709574E-1,-4.0252574E-2,6.25916E-1,-4.047569E-1,1.960684E-1,-1.8439944E-1,6.394778E-1,1.5311491E-1,-2.2206967E-1,2.441426E-1,3.7020247E-2,-2.242362E-1,4.7016244E-2,-6.477288E-2,9.5234506E-2,-1.0973917E-1,1.83218E-2,9.2877954E-2,2.4220346E-1],"categories":[],"categories_nodes":[],"categories_segments":[],"categories_sizes":[],"default_left":[0,0,0,0,0,0,0,0,0,0,0,0,0,0,0,0,0,0,0,0,0,0,0,0,0,0,0,0,0,0,0,0,0,0,0,0,0,0,0],"id":5,"left_children":[1,3,5,-1,7,9,11,-1,13,15,17,19,-1,-1,-1,21,23,-1,-1,-1,25,27,29,31,33,35,37,-1,-1,-1,-1,-1,-1,-1,-1,-1,-1,-1,-1],"loss_changes":[3.397034E1,1.1467228E0,6.1427155E0,0E0,9.995149E-1,2.127242E0,8.719444E-1,0E0,2.4047687E0,6.556475E-1,8.1719995E-2,6.37079E-1,0E0,0E0,0E0,9.7417367E-1,9.221697E-1,0E0,0E0,0E0,1.4280186E0,1.9122032E0,5.8531713E-1,7.212176E-1,7.887763E-1,2.0096639E-1,2.7376175E-2,0E0,0E0,0E0,0E0,0E0,0E0,0E0,0E0,0E0,0E0,0E0,0E0],"parents":[2147483647,0,0,1,1,2,2,4,4,5,5,6,6,8,8,9,9,10,10,11,11,15,15,16,16,20,20,21,21,22,22,23,23,24,24,25,25,26,26],"right_children":[2,4,6,-1,8,10,12,-1,14,16,18,20,-1,-1,-1,22,24,-1,-1,-1,26,28,30,32,34,36,38,-1,-1,-1,-1,-1,-1,-1,-1,-1,-1,-1,-1],"split_conditions":[2.1162346E1,1.3441124E1,6.496551E1,-3.0485174E-1,7.283E1,4.2E0,1.11763115E2,-2.1117438E-1,7.419E1,6.983E1,5.95E0,6.8558304E1,3.2395107E-1,2.5870112E-1,-1.8634358E-1,3.9761272E1,7.174E1,-2.094134E-1,-6.543442E-2,2.7962208E-1,2.2E0,3.700816E1,5.5165337E1,3.1E0,1.35E0,7.325439E1,7.580699E1,1.5311491E-1,-2.2206967E-1,2.441426E-1,3.7020247E-2,-2.242362E-1,4.7016244E-2,-6.477288E-2,9.5234506E-2,-1.0973917E-1,1.83218E-2,9.2877954E-2,2.4220346E-1],"split_indices":[1,1,1,0,2,0,1,0,2,2,0,1,0,0,0,1,2,0,0,0,0,1,1,0,0,1,1,0,0,0,0,0,0,0,0,0,0,0,0],"split_type":[0,0,0,0,0,0,0,0,0,0,0,0,0,0,0,0,0,0,0,0,0,0,0,0,0,0,0,0,0,0,0,0,0,0,0,0,0,0,0],"sum_hessian":[7.665805E1,2.9465076E1,4.7192974E1,2.4077139E1,5.387937E0,2.8187164E1,1.9005808E1,2.9814806E0,2.4064567E0,2.4786177E1,3.4009883E0,9.233825E0,9.771983E0,1.0336819E0,1.3727748E0,9.243731E0,1.5542446E1,1.3556238E0,2.0453644E0,2.214324E0,7.0195003E0,2.980974E0,6.2627563E0,2.139414E0,1.3403032E1,3.0115392E0,4.0079613E0,1.8200784E0,1.1608957E0,4.10748E0,2.1552763E0,1.1228548E0,1.0165592E0,2.8729856E0,1.0530046E1,1.449912E0,1.5616273E0,2.3109212E0,1.6970401E0],"tree_param":{"num_deleted":"0","num_feature":"4","num_nodes":"39","size_leaf_vector":"1"}},{"base_weights":[-8.122745E-2,-9.480385E-1,3.042565E-1,-2.9667842E-1,-3.857213E-1,4.5599196E-2,7.616425E-1,-1.3478766E-2,-1.609623E-1,1.3112113E-1,-4.2176673E-1,4.5943552E-1,3.022551E-1,-1.1097829E-2,2.529773E-1,-1.9148009E-1,-2.000441E-1,2.4973746E-1,2.595352E-1,1.6761585E-1,-1.9995676E-1,3.0007893E-1,9.324741E-2,-4.8524934E-1,1.02588914E-1,-1.0836166E-1,4.6175173E-1,-2.9339571E-3,1.6103834E-1,1.1935587E-1,-1.752374E-2,-3.9715E-2,-1.7960428E-1,-1.8514635E-2,2.160055E-1],"categories":[],"categories_nodes":[],"categories_segments":[],"categories_sizes":[],"default_left":[0,0,0,0,0,0,0,0,0,0,0,0,0,0,0,0,0,0,0,0,0,0,0,0,0,0,0,0,0,0,0,0,0,0,0],"id":6,"left_children":[1,3,5,-1,7,9,11,-1,-1,13,15,17,-1,19,21,23,-1,-1,25,27,-1,-1,29,31,-1,-1,33,-1,-1,-1,-1,-1,-1,-1,-1],"loss_changes":[2.3215452E1,1.0977173E-1,5.6736135E0,0E0,1.3459337E-1,1.3297324E0,8.274851E-1,0E0,0E0,4.8312405E-1,1.6401863E-1,5.0194025E-1,0E0,1.7219695E0,1.6934069E0,8.033772E-1,0E0,0E0,1.1361059E0,7.6499975E-1,0E0,0E0,6.438954E-1,4.228407E-2,0E0,0E0,8.912376E-1,0E0,0E0,0E0,0E0,0E0,0E0,0E0,0E0],"parents":[2147483647,0,0,1,1,2,2,4,4,5,5,6,6,9,9,10,10,11,11,13,13,14,14,15,15,18,18,19,19,22,22,23,23,26,26],"right_children":[2,4,6,-1,8,10,12,-1,-1,14,16,18,-1,20,22,24,-1,-1,26,28,-1,-1,30,32,-1,-1,34,-1,-1,-1,-1,-1,-1,-1,-1],"split_conditions":[1.7518005E1,1.3441124E1,6.496551E1,-2.9667842E-1,5.75E0,4.2E0,1.11763115E2,-1.3478766E-2,-1.609623E-1,2.35E0,3.7740482E1,6.8558304E1,3.022551E-1,1.5E0,2.8E0,2.7290201E1,-2.000441E-1,2.4973746E-1,7.259701E1,7.769E1,-1.9995676E-1,3.0007893E-1,6.699E1,2.1011574E1,1.02588914E-1,-1.0836166E-1,2.2E0,-2.9339571E-3,1.6103834E-1,1.1935587E-1,-1.752374E-2,-3.9715E-2,-1.7960428E-1,-1.8514635E-2,2.160055E-1],"split_indices":[1,1,1,0,0,0,1,0,0,0,1,1,0,0,0,1,0,0,1,2,0,0,2,1,0,0,0,0,0,0,0,0,0,0,0],"split_type":[0,0,0,0,0,0,0,0,0,0,0,0,0,0,0,0,0,0,0,0,0,0,0,0,0,0,0,0,0,0,0,0,0,0,0],"sum_hessian":[6.761461E1,2.0364044E1,4.7250565E1,1.827639E1,2.0876544E0,3.088463E1,1.6365934E1,1.0386413E0,1.0490131E0,2.6715487E1,4.169143E0,8.628781E0,7.7371535E0,1.2747149E1,1.3968337E1,3.0676618E0,1.1014813E0,1.9066062E0,6.722175E0,1.0600885E1,2.146264E0,1.5331903E0,1.2435147E1,2.0364985E0,1.0311631E0,1.4585762E0,5.2635984E0,7.817818E0,2.7830672E0,3.5937853E0,8.841361E0,1.022562E0,1.0139365E0,1.9903998E0,3.2731988E0],"tree_param":{"num_deleted":"0","num_feature":"4","num_nodes":"35","size_leaf_vector":"1"}},{"base_weights":[-6.636022E-2,-8.229441E-1,2.8404197E-1,-2.887863E-1,-3.2627854E-1,1.2613891E-1,2.6790798E-1,-1.873569E-1,9.3001395E-2,2.0299618E-1,-1.7806967E-1,2.1777646E-1,-1.7182712E-1,6.606097E-2,3.5128656E-1,1.4422138E-1,-6.17678E-1,-2.5984696E-1,2.0374176E-1,-6.1768096E-2,4.487876E-1,-7.77878E-2,1.7085184E-1,-2.5589067E-1,-3.1679586E-2,5.6170117E-2,-2.7973214E-1,1.2524348E-1,-8.2869925E-2,7.355352E-2,2.1624167E-1],"categories":[],"categories_nodes":[],"categories_segments":[],"categories_sizes":[],"default_left":[0,0,0,0,0,0,0,0,0,0,0,0,0,0,0,0,0,0,0,0,0,0,0,0,0,0,0,0,0,0,0],"id":7,"left_children":[1,3,5,-1,7,9,-1,-1,11,13,15,-1,-1,17,19,21,23,25,27,-1,29,-1,-1,-1,-1,-1,-1,-1,-1,-1,-1],"loss_changes":[1.6533E1,1.0537901E0,3.9995313E0,0E0,7.8845805E-1,8.573471E-1,0E0,0E0,1.8055232E0,5.5564904E-1,1.1682281E0,0E0,0E0,7.7322567E-1,8.2330704E-1,1.0409689E0,3.20938E-1,1.7402954E0,1.3305197E0,0E0,4.7487855E-1,0E0,0E0,0E0,0E0,0E0,0E0,0E0,0E0,0E0,0E0],"parents":[2147483647,0,0,1,1,2,2,4,4,5,5,8,8,9,9,10,10,13,13,14,14,15,15,16,16,17,17,18,18,20,20],"right_children":[2,4,6,-1,8,10,-1,-1,12,14,16,-1,-1,18,20,22,24,26,28,-1,30,-1,-1,-1,-1,-1,-1,-1,-1,-1,-1],"split_conditions":[2.1162346E1,1.3441124E1,7.9914246E1,-2.887863E-1,7.283E1,3.3E0,2.6790798E-1,-1.873569E-1,7.296E1,2.2E0,7.194E1,2.1777646E-1,-1.7182712E-1,7.515E1,3.663518E1,6.966E1,5.95E0,6.983E1,1.5E0,-6.1768096E-2,7.194E1,-7.77878E-2,1.7085184E-1,-2.5589067E-1,-3.1679586E-2,5.6170117E-2,-2.7973214E-1,1.2524348E-1,-8.2869925E-2,7.355352E-2,2.1624167E-1],"split_indices":[1,1,1,0,2,0,0,0,2,0,2,0,0,2,1,2,0,2,0,0,2,0,0,0,0,0,0,0,0,0,0],"split_type":[0,0,0,0,0,0,0,0,0,0,0,0,0,0,0,0,0,0,0,0,0,0,0,0,0,0,0,0,0,0,0],"sum_hessian":[6.04814E1,1.8717737E1,4.1763664E1,1.3876964E1,4.8407736E0,3.412306E1,7.640607E0,2.5426261E0,2.2981472E0,2.7506372E1,6.6166844E0,1.1318027E0,1.1663446E0,1.5052233E1,1.245414E1,4.2054586E0,2.4112253E0,4.206826E0,1.0845407E1,1.689217E0,1.0764923E1,2.3582437E0,1.8472152E0,1.1959927E0,1.2152327E0,2.9605432E0,1.246283E0,7.593964E0,3.2514427E0,7.2440114E0,3.5209112E0],"tree_param":{"num_deleted":"0","num_feature":"4","num_nodes":"31","size_leaf_vector":"1"}},{"base_weights":[-6.319181E-2,-8.733506E-1,1.8390675E-1,-2.806157E-1,-8.396176E-2,-4.0607536E-3,6.0811806E-1,5.683161E-2,-3.5225677E-1,3.399708E-1,2.6832628E-1,9.2956066E-2,-1.04520105E-1,-3.6038898E-2,-1.3797297E-1,2.1876135E-1,1.4816475E-1,3.3335105E-2,1.8629527E-1,-9.444222E-2,3.2409787E-1,-4.576538E-2,5.6488875E-2,-2.9564044E-2,1.4058591E-1],"categories":[],"categories_nodes":[],"categories_segments":[],"categories_sizes":[],"default_left":[0,0,0,0,0,0,0,0,0,0,0,0,0,0,0,0,0,0,0,0,0,0,0,0,0],"id":8,"left_children":[1,3,5,-1,-1,7,9,11,13,15,-1,17,-1,-1,-1,-1,19,21,-1,-1,23,-1,-1,-1,-1],"loss_changes":[1.1352042E1,2.2564983E-1,3.4841933E0,0E0,0E0,6.8261534E-1,7.257104E-1,4.343713E-1,6.446397E-2,5.295044E-1,0E0,7.9788536E-1,0E0,0E0,0E0,0E0,6.702084E-1,7.3216796E-1,0E0,0E0,3.8503027E-1,0E0,0E0,0E0,0E0],"parents":[2147483647,0,0,1,1,2,2,5,5,6,6,7,7,8,8,9,9,11,11,16,16,17,17,20,20],"right_children":[2,4,6,-1,-1,8,10,12,14,16,-1,18,-1,-1,-1,-1,20,22,-1,-1,24,-1,-1,-1,-1],"split_conditions":[1.7518005E1,1.3441124E1,6.496551E1,-2.806157E-1,-8.396176E-2,4.2E0,1.11763115E2,6.3413456E1,6E0,6.8558304E1,2.6832628E-1,6.1412384E1,-1.04520105E-1,-3.6038898E-2,-1.3797297E-1,2.1876135E-1,1.4E0,2.1E0,1.8629527E-1,-9.444222E-2,7.259701E1,-4.576538E-2,5.6488875E-2,-2.9564044E-2,1.4058591E-1],"split_indices":[1,1,1,0,0,0,1,1,0,1,0,1,0,0,0,0,0,0,0,0,1,0,0,0,0],"split_type":[0,0,0,0,0,0,0,0,0,0,0,0,0,0,0,0,0,0,0,0,0,0,0,0,0],"sum_hessian":[5.490428E1,1.2239703E1,4.2664577E1,1.0559803E1,1.6799005E0,3.0250877E1,1.2413699E1,2.6460297E1,3.7905817E0,7.5396347E0,4.8740644E0,2.5002092E1,1.4582047E0,1.8713584E0,1.9192233E0,1.5640049E0,5.97563E0,2.342073E1,1.5813612E0,1.4281256E0,4.547504E0,1.0654949E1,1.2765781E1,1.2398275E0,3.3076766E0],"tree_param":{"num_deleted":"0","num_feature":"4","num_nodes":"25","size_leaf_vector":"1"}},{"base_weights":[-5.0533764E-2,-8.3109564E-1,1.4810476E-1,-2.717488E-1,-7.214181E-2,4.1456994E-2,7.636406E-1,-2.8424766E-2,2.6059562E-1,7.056407E-2,2.587739E-1,2.1081018E-1,-1.9943215E-1,1.8393064E-1,1.8189013E-2,-2.0226552E-1,3.3214447E-1,4.3424267E-2,-3.7773463E-1,-1.8955255E-1,1.94352E-1,1.4888379E-1,-2.2370292E-1,-5.1679458E-3,1.4161132E-1,-8.576951E-2,1.4263912E-1,-3.0336905E-1,-2.9175999E-2,-8.6328216E-2,-7.380497E-3,1.3765198E-1,-3.56019E-2],"categories":[],"categories_nodes":[],"categories_segments":[],"categories_sizes":[],"default_left":[0,0,0,0,0,0,0,0,0,0,0,0,0,0,0,0,0,0,0,0,0,0,0,0,0,0,0,0,0,0,0,0,0],"id":9,"left_children":[1,3,5,-1,-1,7,9,11,13,-1,-1,15,17,-1,19,21,23,25,27,29,31,-1,-1,-1,-1,-1,-1,-1,-1,-1,-1,-1,-1],"loss_changes":[8.126721E0,2.5105524E-1,2.7252612E0,0E0,0E0,5.7176036E-1,1.18355274E-1,1.222066E0,7.586558E-1,0E0,0E0,6.941598E-1,7.67008E-1,0E0,2.6990917E-1,1.6841191E0,4.9921274E-1,1.30769E0,1.6960266E0,4.8462972E-2,3.806498E-1,0E0,0E0,0E0,0E0,0E0,0E0,0E0,0E0,0E0,0E0,0E0,0E0],"parents":[2147483647,0,0,1,1,2,2,5,5,6,6,7,7,8,8,11,11,12,12,14,14,15,15,16,16,17,17,18,18,19,19,20,20],"right_children":[2,4,6,-1,-1,8,10,12,14,-1,-1,16,18,-1,20,22,24,26,28,30,32,-1,-1,-1,-1,-1,-1,-1,-1,-1,-1,-1,-1],"split_conditions":[1.7518005E1,1.3441124E1,7.9914246E1,-2.717488E-1,-7.214181E-2,8.025E1,1.3E0,6.983E1,1.5E0,7.056407E-2,2.587739E-1,3.475722E1,3.9761272E1,1.8393064E-1,2.2E0,6.619E1,2.75E0,2.7290201E1,4.451265E1,6.662585E1,2.5E0,1.4888379E-1,-2.2370292E-1,-5.1679458E-3,1.4161132E-1,-8.576951E-2,1.4263912E-1,-3.0336905E-1,-2.9175999E-2,-8.6328216E-2,-7.380497E-3,1.3765198E-1,-3.56019E-2],"split_indices":[1,1,1,0,0,2,0,2,0,0,0,1,1,0,0,2,0,1,1,1,0,0,0,0,0,0,0,0,0,0,0,0,0],"split_type":[0,0,0,0,0,0,0,0,0,0,0,0,0,0,0,0,0,0,0,0,0,0,0,0,0,0,0,0,0,0,0,0,0],"sum_hessian":[5.06198E1,9.622735E0,4.0997066E1,8.068156E0,1.5545791E0,3.5852596E1,5.144471E0,2.784372E1,8.008877E0,1.3439391E0,3.8005323E0,1.1509486E1,1.6334232E1,2.6402333E0,5.3686433E0,2.461713E0,9.047773E0,7.2355404E0,9.098692E0,2.4286418E0,2.9400012E0,1.1150585E0,1.3466544E0,2.8377082E0,6.2100654E0,4.2977977E0,2.9377432E0,1.992681E0,7.106011E0,1.0556233E0,1.3730185E0,1.3410592E0,1.5989422E0],"tree_param":{"num_deleted":"0","num_feature":"4","num_nodes":"33","size_leaf_vector":"1"}},{"base_weights":[-4.3300685E-2,-2.619007E-1,1.00175485E-1,2.1961892E-2,2.3966983E-1,-5.922752E-2,2.7876705E-1,1.5522517E-1,-2.0293657E-1,1.8435578E-1,2.0908851E-2,-5.1394198E-2,4.001734E-1,-2.8920048E-1,-9.384444E-2,1.6535953E-1,-1.1207802E-1,1.4545473E-1,-6.804935E-2,1.0833425E-2,1.5267535E-1,1.3683994E-2,-1.8794045E-1,-6.566635E-3,1.4323322E-1],"categories":[],"categories_nodes":[],"categories_segments":[],"categories_sizes":[],"default_left":[0,0,0,0,0,0,0,0,0,0,0,0,0,0,0,0,0,0,0,0,0,0,0,0,0],"id":10,"left_children":[1,-1,3,5,-1,7,9,11,13,-1,15,17,19,-1,21,23,-1,-1,-1,-1,-1,-1,-1,-1,-1],"loss_changes":[5.818488E0,0E0,2.2745805E0,8.2440376E-1,0E0,9.642391E-1,8.081462E-1,6.6384566E-1,1.450084E0,0E0,4.264225E-1,8.41966E-1,2.1637022E-1,0E0,1.3163111E0,3.246683E-1,0E0,0E0,0E0,0E0,0E0,0E0,0E0,0E0,0E0],"parents":[2147483647,0,0,2,2,3,3,5,5,6,6,7,7,8,8,10,10,11,11,12,12,14,14,15,15],"right_children":[2,-1,4,6,-1,8,10,12,14,-1,16,18,20,-1,22,24,-1,-1,-1,-1,-1,-1,-1,-1,-1],"split_conditions":[1.3441124E1,-2.619007E-1,1.11763115E2,8.025E1,2.3966983E-1,6.983E1,1.55E0,4.7273476E1,1.3E0,1.8435578E-1,7.496321E1,1.35E0,1.35E0,-2.8920048E-1,5.45E0,2.7E0,-1.1207802E-1,1.4545473E-1,-6.804935E-2,1.0833425E-2,1.5267535E-1,1.3683994E-2,-1.8794045E-1,-6.566635E-3,1.4323322E-1],"split_indices":[1,0,1,2,0,2,0,1,0,0,1,0,0,0,0,0,0,0,0,0,0,0,0,0,0],"split_type":[0,0,0,0,0,0,0,0,0,0,0,0,0,0,0,0,0,0,0,0,0,0,0,0,0],"sum_hessian":[4.71428E1,6.2006574E0,4.0942142E1,3.774813E1,3.1940098E0,2.9265242E1,8.482891E0,1.1710252E1,1.755499E1,3.0840461E0,5.398845E0,6.7807326E0,4.9295187E0,1.2184029E0,1.6336588E1,4.377004E0,1.0218407E0,1.2367617E0,5.543971E0,1.4401532E0,3.4893656E0,1.3671354E1,2.6652327E0,3.3168077E0,1.0601964E0],"tree_param":{"num_deleted":"0","num_feature":"4","num_nodes":"25","size_leaf_vector":"1"}},{"base_weights":[-3.5852253E-2,-2.5092962E-1,7.96896E-2,1.4897099E-2,2.241572E-1,-5.1317558E-2,2.236215E-1,1.306712E-1,-1.7311446E-1,5.105618E-1,1.8892609E-2,2.4819786E-2,1.5609124E-1,-2.5929123E-1,-7.850548E-2,5.672534E-2,2.0308259E-1,1.4098999E-1,-9.1063604E-2,-4.6223164E-2,7.9873495E-2,-1.1610155E-1,3.9539948E-2,-4.645977E-2,7.942829E-2],"categories":[],"categories_nodes":[],"categories_segments":[],"categories_sizes":[],"default_left":[0,0,0,0,0,0,0,0,0,0,0,0,0,0,0,0,0,0,0,0,0,0,0,0,0],"id":11,"left_children":[1,-1,3,5,-1,7,9,11,13,15,17,19,-1,-1,21,-1,-1,23,-1,-1,-1,-1,-1,-1,-1],"loss_changes":[4.2582164E0,0E0,1.7409723E0,5.35938E-1,0E0,6.7921364E-1,5.381967E-1,5.004089E-1,1.1207137E0,7.764852E-2,2.9794574E-1,5.0909275E-1,0E0,0E0,1.1596211E0,0E0,0E0,2.3814623E-1,0E0,0E0,0E0,0E0,0E0,0E0,0E0],"parents":[2147483647,0,0,2,2,3,3,5,5,6,6,7,7,8,8,9,9,10,10,11,11,14,14,17,17],"right_children":[2,-1,4,6,-1,8,10,12,14,16,18,20,-1,-1,22,-1,-1,24,-1,-1,-1,-1,-1,-1,-1],"split_conditions":[1.3441124E1,-2.5092962E-1,1.11763115E2,8.025E1,2.241572E-1,6.983E1,1.55E0,6.0623993E1,1.3E0,1.35E0,7.496321E1,6.835E1,1.5609124E-1,-2.5929123E-1,7.24E1,5.672534E-2,2.0308259E-1,2.1E0,-9.1063604E-2,-4.6223164E-2,7.9873495E-2,-1.1610155E-1,3.9539948E-2,-4.645977E-2,7.942829E-2],"split_indices":[1,0,1,2,0,2,0,1,0,0,1,2,0,0,2,0,0,0,0,0,0,0,0,0,0],"split_type":[0,0,0,0,0,0,0,0,0,0,0,0,0,0,0,0,0,0,0,0,0,0,0,0,0],"sum_hessian":[4.4313946E1,4.8020096E0,3.9511936E1,3.694783E1,2.564107E0,2.8622053E1,8.325775E0,1.1446239E1,1.7175814E1,2.8447864E0,5.480989E0,9.837414E0,1.6088253E0,1.0884358E0,1.6087378E1,1.698817E0,1.1459695E0,4.3837385E0,1.0972501E0,5.8582387E0,3.9791753E0,6.1806674E0,9.906711E0,1.2189035E0,3.1648352E0],"tree_param":{"num_deleted":"0","num_feature":"4","num_nodes":"25","size_leaf_vector":"1"}},{"base_weights":[-2.7662478E-2,-2.388495E-1,6.5521024E-2,-2.0957269E-2,4.6438807E-1,3.0422036E-2,-3.7974975E-1,2.2879854E-1,2.0885247E-1,-2.8381478E-2,5.162129E-1,-2.0283972E-1,2.4964176E-2,-5.1604845E-2,1.4944927E-1,1.8132351E-1,-1.1378781E-1,-1.0434175E-1,3.605742E-1,1.6423208E-1,-6.4021833E-3,-1.0862832E-1,2.705139E-2],"categories":[],"categories_nodes":[],"categories_segments":[],"categories_sizes":[],"default_left":[0,0,0,0,0,0,0,0,0,0,0,0,0,0,0,0,0,0,0,0,0,0,0],"id":12,"left_children":[1,-1,3,5,7,9,11,13,-1,15,17,-1,-1,-1,-1,19,21,-1,-1,-1,-1,-1,-1],"loss_changes":[3.1498258E0,0E0,1.3723053E0,6.2764883E-1,2.2742271E-1,8.762149E-1,6.4087325E-1,6.2569076E-1,0E0,5.1945704E-1,2.3783119E0,0E0,0E0,0E0,0E0,6.3835865E-1,1.0660805E0,0E0,0E0,0E0,0E0,0E0,0E0],"parents":[2147483647,0,0,2,2,3,3,4,4,5,5,6,6,7,7,9,9,10,10,15,15,16,16],"right_children":[2,-1,4,6,8,10,12,14,-1,16,18,-1,-1,-1,-1,20,22,-1,-1,-1,-1,-1,-1],"split_conditions":[1.3441124E1,-2.388495E-1,7.259701E1,5.45E0,1.11763115E2,4.1E0,2.8285723E1,2.2E0,2.0885247E-1,6.902E1,7.13E1,-2.0283972E-1,2.4964176E-2,-5.1604845E-2,1.4944927E-1,3.700816E1,7.515E1,-1.0434175E-1,3.605742E-1,1.6423208E-1,-6.4021833E-3,-1.0862832E-1,2.705139E-2],"split_indices":[1,0,1,0,1,0,1,0,0,2,2,0,0,0,0,1,2,0,0,0,0,0,0],"split_type":[0,0,0,0,0,0,0,0,0,0,0,0,0,0,0,0,0,0,0,0,0,0,0],"sum_hessian":[4.225631E1,3.7538145E0,3.8502495E1,3.2420803E1,6.0816903E0,2.916025E1,3.2605557E0,4.0015736E0,2.0801167E0,2.685153E1,2.3087196E0,1.7071922E0,1.5533634E0,1.7536117E0,2.247962E0,7.445914E0,1.9405617E1,1.2395703E0,1.0691493E0,2.0469105E0,5.399003E0,8.401735E0,1.10038805E1],"tree_param":{"num_deleted":"0","num_feature":"4","num_nodes":"23","size_leaf_vector":"1"}},{"base_weights":[-1.793492E-2,-2.2582746E-1,5.8329854E-2,1.3416067E-2,1.9392475E-1,-2.8834308E-2,1.8778044E-1,1.9519107E-2,-3.5976505E-1,1.7726251E-1,2.1440856E-2,1.7434037E-1,-3.0880952E-2,-1.869833E-1,1.1769904E-2,-9.805616E-2,1.9097432E-1,1.1554592E-1,-2.1836566E-2,-4.1061796E-2,1.2942503E-1],"categories":[],"categories_nodes":[],"categories_segments":[],"categories_sizes":[],"default_left":[0,0,0,0,0,0,0,0,0,0,0,0,0,0,0,0,0,0,0,0,0],"id":13,"left_children":[1,-1,3,5,-1,7,9,11,13,-1,15,-1,17,-1,-1,-1,19,-1,-1,-1,-1],"loss_changes":[2.3651478E0,0E0,1.007012E0,2.7612427E-1,0E0,4.9420813E-1,4.7683102E-1,7.96717E-1,4.3796247E-1,0E0,4.2884326E-1,0E0,4.8477772E-1,0E0,0E0,0E0,4.3782648E-1,0E0,0E0,0E0,0E0],"parents":[2147483647,0,0,2,2,3,3,5,5,6,6,7,7,8,8,10,10,12,12,16,16],"right_children":[2,-1,4,6,-1,8,10,12,14,-1,16,-1,18,-1,-1,-1,20,-1,-1,-1,-1],"split_conditions":[1.3441124E1,-2.2582746E-1,1.11763115E2,6.496551E1,1.9392475E-1,5.45E0,6.8558304E1,1.9858402E1,2.8285723E1,1.7726251E-1,7.259701E1,1.7434037E-1,1.25E0,-1.869833E-1,1.1769904E-2,-9.805616E-2,2.2E0,1.1554592E-1,-2.1836566E-2,-4.1061796E-2,1.2942503E-1],"split_indices":[1,0,1,1,0,0,1,1,1,0,1,0,0,0,0,0,0,0,0,0,0],"split_type":[0,0,0,0,0,0,0,0,0,0,0,0,0,0,0,0,0,0,0,0,0],"sum_hessian":[4.0420284E1,2.9665716E0,3.7453712E1,3.5746468E1,1.7072456E0,2.9446012E1,6.300456E0,2.651311E1,2.932903E0,1.094911E0,5.205545E0,1.3161886E0,2.519692E1,1.4278156E0,1.5050875E0,1.4004525E0,3.8050926E0,1.5563056E0,2.3640615E1,1.7921774E0,2.0129151E0],"tree_param":{"num_deleted":"0","num_feature":"4","num_nodes":"21","size_leaf_vector":"1"}},{"base_weights":[-8.495764E-3,-2.1215625E-1,5.4066785E-2,8.555034E-3,5.078065E-1,9.021422E-2,-1.4205374E-2,2.808545E-2,1.9245742E-1,-1.2209083E-1,9.024843E-2,-2.4061947E-1,1.3779262E-1,3.951182E-1,-4.9416933E-2,-3.8001813E-2,-2.0169115E-1,2.172559E-1,-1.7139692E-2,1.9246284E-2,-2.0763028E-1],"categories":[],"categories_nodes":[],"categories_segments":[],"categories_sizes":[],"default_left":[0,0,0,0,0,0,0,0,0,0,0,0,0,0,0,0,0,0,0,0,0],"id":14,"left_children":[1,-1,3,5,7,-1,9,-1,-1,11,13,15,-1,17,19,-1,-1,-1,-1,-1,-1],"loss_changes":[1.7945465E0,0E0,7.7637047E-1,2.3951578E-1,1.2987024E-1,0E0,3.9162976E-1,0E0,0E0,1.2847571E0,7.746929E-1,6.4333874E-1,0E0,8.871723E-1,9.970756E-1,0E0,0E0,0E0,0E0,0E0,0E0],"parents":[2147483647,0,0,2,2,3,3,4,4,6,6,9,9,10,10,11,11,13,13,14,14],"right_children":[2,-1,4,6,8,-1,10,-1,-1,12,14,16,-1,18,20,-1,-1,-1,-1,-1,-1],"split_conditions":[1.3441124E1,-2.1215625E-1,7.9914246E1,1.25E0,7.562E1,9.021422E-2,7.24E1,2.808545E-2,1.9245742E-1,6.2785698E1,3.9761272E1,5.5165337E1,1.3779262E-1,7.552E1,3.25E0,-3.8001813E-2,-2.0169115E-1,2.172559E-1,-1.7139692E-2,1.9246284E-2,-2.0763028E-1],"split_indices":[1,0,1,0,2,0,2,0,0,1,1,1,0,2,0,0,0,0,0,0,0],"split_type":[0,0,0,0,0,0,0,0,0,0,0,0,0,0,0,0,0,0,0,0,0],"sum_hessian":[3.9179214E1,2.3730924E0,3.680612E1,3.4376854E1,2.4292698E0,1.6019257E0,3.277493E1,1.007789E0,1.4214807E0,1.6039562E1,1.6735365E1,1.3810238E1,2.2293248E0,4.683315E0,1.2052051E1,1.1949503E1,1.8607349E0,2.362795E0,2.32052E0,1.1007117E1,1.0449333E0],"tree_param":{"num_deleted":"0","num_feature":"4","num_nodes":"21","size_leaf_vector":"1"}},{"base_weights":[-7.2427364E-3,-4.278732E-1,7.712484E-2,-1.720412E-1,-2.0414603E-1,4.0395815E-2,1.7042398E-1,-1.644446E-1,1.22406304E-1,1.7894857E-1,-3.1436745E-2,-4.84174E-2,2.4666438E-1,-2.9578385E-1,1.1435203E-1,2.7414752E-2,4.9369282E-1,-3.0323926E-1,4.3718837E-2,1.6794752E-1,-7.745696E-2,-8.874439E-2,6.47375E-2,2.2429701E-2,1.8379503E-1,-5.5000227E-2,1.9223718E-1,-4.0307596E-2,7.804601E-2],"categories":[],"categories_nodes":[],"categories_segments":[],"categories_sizes":[],"default_left":[0,0,0,0,0,0,0,0,0,0,0,0,0,0,0,0,0,0,0,0,0,0,0,0,0,0,0,0,0],"id":15,"left_children":[1,3,5,7,-1,9,-1,-1,-1,11,13,-1,15,17,19,21,23,-1,25,27,-1,-1,-1,-1,-1,-1,-1,-1,-1],"loss_changes":[1.427905E0,3.1718886E-1,5.82709E-1,1.2439877E0,0E0,3.2735398E-1,0E0,0E0,0E0,2.976207E-1,8.870521E-1,0E0,5.132204E-1,2.0222569E0,3.4267792E-1,4.420384E-1,1.7916572E-1,0E0,9.964529E-1,4.1714853E-1,0E0,0E0,0E0,0E0,0E0,0E0,0E0,0E0,0E0],"parents":[2147483647,0,0,1,1,2,2,3,3,5,5,9,9,10,10,12,12,13,13,14,14,15,15,16,16,18,18,19,19],"right_children":[2,4,6,8,-1,10,-1,-1,-1,12,14,-1,16,18,20,22,24,-1,26,28,-1,-1,-1,-1,-1,-1,-1,-1,-1],"split_conditions":[2.1162346E1,7.296E1,1.11763115E2,7.283E1,-2.0414603E-1,6.983E1,1.7042398E-1,-1.644446E-1,1.22406304E-1,3.475722E1,7.543E1,-4.84174E-2,6.764E1,3.05E0,2.95E0,4.6098537E1,2.75E0,-3.0323926E-1,6.1412384E1,1.35E0,-7.745696E-2,-8.874439E-2,6.47375E-2,2.2429701E-2,1.8379503E-1,-5.5000227E-2,1.9223718E-1,-4.0307596E-2,7.804601E-2],"split_indices":[1,2,1,2,0,2,0,0,0,1,2,0,2,0,0,1,0,0,1,0,0,0,0,0,0,0,0,0,0],"split_type":[0,0,0,0,0,0,0,0,0,0,0,0,0,0,0,0,0,0,0,0,0,0,0,0,0,0,0,0,0],"sum_hessian":[3.830686E1,5.7195306E0,3.2587334E1,3.676865E0,2.0426655E0,3.1326067E1,1.2612662E0,2.2639542E0,1.412911E0,1.0186622E1,2.1139444E1,1.4608785E0,8.725743E0,7.1486034E0,1.3990842E1,5.211375E0,3.5143678E0,1.6649104E0,5.483693E0,1.2711321E1,1.2795206E0,1.708863E0,3.502512E0,1.1373866E0,2.3769813E0,4.474925E0,1.0087683E0,2.8640575E0,9.847263E0],"tree_param":{"num_deleted":"0","num_feature":"4","num_nodes":"29","size_leaf_vector":"1"}},{"base_weights":[-1.0910957E-2,-1.8634129E-1,3.3545434E-2,3.6982868E-3,1.5746966E-1,-2.3269208E-2,2.3923786E-1,1.0703795E-1,-9.51541E-2,1.1694608E-1,-1.5351078E-2,-1.7160153E-1,1.9120306E-1,-5.098876E-1,-1.8569397E-2,1.1615912E-1,-1.953166E-1,2.1554957E-1,1.3007856E-2,-1.8387553E-1,-4.7489565E-2,1.587747E-2,-1.416123E-1],"categories":[],"categories_nodes":[],"categories_segments":[],"categories_sizes":[],"default_left":[0,0,0,0,0,0,0,0,0,0,0,0,0,0,0,0,0,0,0,0,0,0,0],"id":16,"left_children":[1,-1,3,5,-1,7,9,11,13,-1,-1,15,17,19,21,-1,-1,-1,-1,-1,-1,-1,-1],"loss_changes":[1.0487349E0,0E0,5.299155E-1,2.2912967E-1,0E0,3.1453934E-1,1.8194024E-1,3.1475538E-1,6.724491E-1,0E0,0E0,1.1405065E0,7.255248E-1,2.2834718E-2,6.461835E-1,0E0,0E0,0E0,0E0,0E0,0E0,0E0,0E0],"parents":[2147483647,0,0,2,2,3,3,5,5,6,6,7,7,8,8,11,11,12,12,13,13,14,14],"right_children":[2,-1,4,6,-1,8,10,12,14,-1,-1,16,18,20,22,-1,-1,-1,-1,-1,-1,-1,-1],"split_conditions":[1.3441124E1,-1.8634129E-1,1.11763115E2,8.304E1,1.5746966E-1,6.983E1,6.2785698E1,3.475722E1,1.35E0,1.1694608E-1,-1.5351078E-2,6.619E1,3.7740482E1,1.3E0,5.45E0,1.1615912E-1,-1.953166E-1,2.1554957E-1,1.3007856E-2,-1.8387553E-1,-4.7489565E-2,1.587747E-2,-1.416123E-1],"split_indices":[1,0,1,2,0,2,1,1,0,0,0,2,1,0,0,0,0,0,0,0,0,0,0],"split_type":[0,0,0,0,0,0,0,0,0,0,0,0,0,0,0,0,0,0,0,0,0,0,0],"sum_hessian":[3.689002E1,1.6241691E0,3.526585E1,3.419614E1,1.06971E0,3.149178E1,2.7043612E0,1.1022344E1,2.0469437E1,1.5554898E0,1.1488713E0,2.3160133E0,8.70633E0,2.3087747E0,1.8160662E1,1.1583678E0,1.1576457E0,1.061292E0,7.6450377E0,1.2107046E0,1.0980701E0,1.6450384E1,1.7102768E0],"tree_param":{"num_deleted":"0","num_feature":"4","num_nodes":"23","size_leaf_vector":"1"}},{"base_weights":[-1.2894179E-2,-1.7283374E-1,2.4385493E-2,-1.05684735E-2,1.2962905E-1,8.593247E-2,-3.3146136E-2,-9.805352E-2,-4.5744795E-3,7.6515876E-2,-1.6375014E-1,-1.80365E-4,2.203433E-1,-1.7163208E-1,-9.927158E-4],"categories":[],"categories_nodes":[],"categories_segments":[],"categories_sizes":[],"default_left":[0,0,0,0,0,0,0,0,0,0,0,0,0,0,0],"id":17,"left_children":[1,-1,3,5,-1,-1,7,-1,9,11,13,-1,-1,-1,-1],"loss_changes":[7.9500216E-1,0E0,5.1539266E-1,2.3742671E-1,0E0,0E0,2.711045E-1,0E0,4.0775383E-1,1.0643024E0,6.960361E-1,0E0,0E0,0E0,0E0],"parents":[2147483647,0,0,2,2,3,3,6,6,8,8,9,9,10,10],"right_children":[2,-1,4,6,-1,-1,8,-1,10,12,14,-1,-1,-1,-1],"split_conditions":[1.3441124E1,-1.7283374E-1,7.9914246E1,1.25E0,1.2962905E-1,8.593247E-2,6.607E1,-9.805352E-2,5.5165337E1,5.2474354E1,6.0623993E1,-1.80365E-4,2.203433E-1,-1.7163208E-1,-9.927158E-4],"split_indices":[1,0,1,0,0,0,2,0,1,1,1,0,0,0,0],"split_type":[0,0,0,0,0,0,0,0,0,0,0,0,0,0,0],"sum_hessian":[3.619429E1,1.3496773E0,3.4844612E1,3.2990356E1,1.8542559E0,1.5050055E0,3.1485352E1,1.8658708E0,2.961948E1,1.996687E1,9.652611E0,1.8766418E1,1.2004513E0,1.9989698E0,7.6536417E0],"tree_param":{"num_deleted":"0","num_feature":"4","num_nodes":"15","size_leaf_vector":"1"}},{"base_weights":[-9.253881E-3,-1.5998268E-1,2.2544682E-2,-1.8932581E-2,2.6727954E-1,1.4853202E-1,-6.141392E-2,-4.662689E-4,3.619577E-1,-1.9239403E-1,3.5379797E-1,-3.1436312E-1,9.5817796E-4,2.0943086E-1,-2.5554238E-2,4.2526066E-2,-1.256942E-1,2.0796707E-1,1.6563624E-2,1.205815E-3,-4.1447207E-1,1.559225E-1,-7.933419E-2,-7.990844E-2,8.987132E-2,-1.436355E-1,-4.1397315E-2,3.6082346E-2,-7.835371E-2],"categories":[],"categories_nodes":[],"categories_segments":[],"categories_sizes":[],"default_left":[0,0,0,0,0,0,0,0,0,0,0,0,0,0,0,0,0,0,0,0,0,0,0,0,0,0,0,0,0],"id":18,"left_children":[1,-1,3,5,7,9,11,-1,13,15,17,19,21,-1,-1,-1,-1,-1,23,-1,25,-1,27,-1,-1,-1,-1,-1,-1],"loss_changes":[6.2249523E-1,0E0,3.654143E-1,2.317151E-1,1.3318825E-1,5.3159535E-1,4.052214E-1,0E0,6.3930726E-1,2.9690546E-1,5.02086E-1,1.6357267E-1,9.403639E-1,0E0,0E0,0E0,0E0,0E0,3.4202832E-1,0E0,2.8204322E-3,0E0,7.413998E-1,0E0,0E0,0E0,0E0,0E0,0E0],"parents":[2147483647,0,0,2,2,3,3,4,4,5,5,6,6,8,8,9,9,10,10,11,11,12,12,18,18,20,20,22,22],"right_children":[2,-1,4,6,8,10,12,-1,14,16,18,20,22,-1,-1,-1,-1,-1,24,-1,26,-1,28,-1,-1,-1,-1,-1,-1],"split_conditions":[1.3441124E1,-1.5998268E-1,7.259701E1,6.699E1,7.472E1,3.9761272E1,1.35E0,-4.662689E-4,2.15E0,2.2154428E1,4.9457382E1,6.983E1,1.4E0,2.0943086E-1,-2.5554238E-2,4.2526066E-2,-1.256942E-1,2.0796707E-1,6.0623993E1,1.205815E-3,5.5165337E1,1.559225E-1,3.9761272E1,-7.990844E-2,8.987132E-2,-1.436355E-1,-4.1397315E-2,3.6082346E-2,-7.835371E-2],"split_indices":[1,0,1,2,2,1,0,0,0,1,1,2,0,0,0,0,0,0,1,0,1,0,1,0,0,0,0,0,0],"split_type":[0,0,0,0,0,0,0,0,0,0,0,0,0,0,0,0,0,0,0,0,0,0,0,0,0,0,0,0,0],"sum_hessian":[3.5636116E1,1.136519E0,3.44996E1,3.0288921E1,4.2106767E0,5.623654E0,2.4665268E1,1.352866E0,2.8578105E0,2.137008E0,3.486646E0,4.079755E0,2.0585514E1,1.3109845E0,1.546826E0,1.0148311E0,1.1221769E0,1.21158E0,2.275066E0,1.2055434E0,2.8742113E0,2.0254705E0,1.8560043E1,1.1671119E0,1.1079541E0,1.7381798E0,1.1360315E0,9.009272E0,9.550772E0],"tree_param":{"num_deleted":"0","num_feature":"4","num_nodes":"29","size_leaf_vector":"1"}},{"base_weights":[-4.1809315E-3,-2.957795E-1,4.61929E-2,-4.3355617E-1,1.24007715E-2,2.9084426E-1,1.8485623E-3,-9.444619E-3,-2.086704E-1,-8.579649E-3,1.9373484E-1,-1.76074E-1,4.5898627E-2,1.7215964E-1,-1.9069876E-1,1.709454E-1,-3.6335565E-2,7.349712E-2,1.3010393E-1,-3.5012087E-1,5.271954E-2,-6.152779E-2,8.884497E-2,-2.2066021E-1,3.564245E-2,-8.495921E-2,3.674904E-2],"categories":[],"categories_nodes":[],"categories_segments":[],"categories_sizes":[],"default_left":[0,0,0,0,0,0,0,0,0,0,0,0,0,0,0,0,0,0,0,0,0,0,0,0,0,0,0],"id":19,"left_children":[1,3,5,7,-1,9,11,-1,-1,13,-1,-1,15,-1,-1,17,19,21,-1,23,25,-1,-1,-1,-1,-1,-1],"loss_changes":[5.4556215E-1,2.7194172E-1,3.43826E-1,3.9627314E-1,0E0,5.2248895E-1,7.4994516E-1,0E0,0E0,1.688894E0,0E0,0E0,2.8246278E-1,0E0,0E0,2.4548882E-1,4.943848E-1,6.2559193E-1,0E0,7.915082E-1,3.6601496E-1,0E0,0E0,0E0,0E0,0E0,0E0],"parents":[2147483647,0,0,1,1,2,2,3,3,5,5,6,6,9,9,12,12,15,15,16,16,17,17,19,19,20,20],"right_children":[2,4,6,8,-1,10,12,-1,-1,14,-1,-1,16,-1,-1,18,20,22,-1,24,26,-1,-1,-1,-1,-1,-1],"split_conditions":[2.1162346E1,5.35E0,2.9239782E1,3.1E0,1.24007715E-2,2.7290201E1,3.475722E1,-9.444619E-3,-2.086704E-1,7.177E1,1.9373484E-1,-1.76074E-1,7.12E1,1.7215964E-1,-1.9069876E-1,6.966E1,1.35E0,4.7273476E1,1.3010393E-1,7.769E1,7.194E1,-6.152779E-2,8.884497E-2,-2.2066021E-1,3.564245E-2,-8.495921E-2,3.674904E-2],"split_indices":[1,0,1,0,0,1,1,0,0,2,0,0,2,0,0,2,0,1,0,2,2,0,0,0,0,0,0],"split_type":[0,0,0,0,0,0,0,0,0,0,0,0,0,0,0,0,0,0,0,0,0,0,0,0,0,0,0],"sum_hessian":[3.5210876E1,4.4690776E0,3.07418E1,2.9694202E0,1.4996576E0,3.8641574E0,2.6877644E1,1.6135215E0,1.3558986E0,2.6252995E0,1.2388582E0,1.0130954E0,2.5864548E1,1.4050916E0,1.2202077E0,9.833219E0,1.603133E1,8.106319E0,1.7268988E0,2.895951E0,1.3135379E1,3.6358738E0,4.4704456E0,1.277463E0,1.6184881E0,1.7331543E0,1.1402225E1],"tree_param":{"num_deleted":"0","num_feature":"4","num_nodes":"27","size_leaf_vector":"1"}},{"base_weights":[-1.2861027E-2,-2.5685003E-1,2.888949E-2,-4.268739E-2,-1.6367517E-1,4.4153337E-4,1.0503844E-1,-1.2305392E-1,1.21128805E-1,1.1297233E-1,-2.9685568E-2,-1.3432385E-1,7.270845E-3,7.619563E-2,-2.1257555E-1,5.9460313E-3,1.6061367E-1,-2.5428924E-1,1.8961964E-2],"categories":[],"categories_nodes":[],"categories_segments":[],"categories_sizes":[],"default_left":[0,0,0,0,0,0,0,0,0,0,0,0,0,0,0,0,0,0,0],"id":20,"left_children":[1,3,5,7,-1,9,-1,-1,-1,-1,11,-1,13,15,17,-1,-1,-1,-1],"loss_changes":[3.6897382E-1,3.0364358E-1,2.8502148E-1,8.416413E-1,0E0,3.47374E-1,0E0,0E0,0E0,0E0,4.4196075E-1,0E0,4.2642927E-1,5.4199713E-1,1.2314944E0,0E0,0E0,0E0,0E0],"parents":[2147483647,0,0,1,1,2,2,3,3,5,5,10,10,12,12,13,13,14,14],"right_children":[2,4,6,8,-1,10,-1,-1,-1,-1,12,-1,14,16,18,-1,-1,-1,-1],"split_conditions":[2.1162346E1,7.296E1,7.9914246E1,7.283E1,-1.6367517E-1,1.25E0,1.0503844E-1,-1.2305392E-1,1.21128805E-1,1.1297233E-1,6.607E1,-1.3432385E-1,6.3413456E1,6.1412384E1,6.496551E1,5.9460313E-3,1.6061367E-1,-2.5428924E-1,1.8961964E-2],"split_indices":[1,2,1,2,0,0,0,0,0,0,2,0,1,1,1,0,0,0,0],"split_type":[0,0,0,0,0,0,0,0,0,0,0,0,0,0,0,0,0,0,0],"sum_hessian":[3.449282E1,4.287099E0,3.0205723E1,3.1204271E0,1.1666719E0,2.8668316E1,1.537408E0,1.7561257E0,1.3643013E0,1.2731895E0,2.7395126E1,1.3222272E0,2.6072899E1,2.0347195E1,5.7257037E0,1.9051357E1,1.2958378E0,1.1057935E0,4.6199102E0],"tree_param":{"num_deleted":"0","num_feature":"4","num_nodes":"19","size_leaf_vector":"1"}},{"base_weights":[-1.3903623E-2,-2.2692607E-1,2.1243352E-2,-3.6162E-1,2.2671213E-2,2.2530708E-1,-1.5517522E-2,-1.4938035E-3,-1.8634215E-1,-3.2841906E-2,1.5759659E-1,-2.867794E-1,2.4191499E-2,1.3493077E-1,-1.7588106E-1,6.759749E-2,-1.7743635E-1,-5.925798E-3,9.0851605E-2,4.0888097E-2,-2.4950276E-1,-2.1839388E-2,7.837324E-2,-1.42561E-1,5.9689112E-2],"categories":[],"categories_nodes":[],"categories_segments":[],"categories_sizes":[],"default_left":[0,0,0,0,0,0,0,0,0,0,0,0,0,0,0,0,0,0,0,0,0,0,0,0,0],"id":21,"left_children":[1,3,5,7,-1,9,11,-1,-1,13,-1,15,17,-1,-1,-1,-1,19,-1,21,23,-1,-1,-1,-1],"loss_changes":[2.6688525E-1,2.3279333E-1,2.3573995E-1,3.3584613E-1,0E0,3.8825104E-1,2.9959112E-1,0E0,0E0,1.2027609E0,0E0,6.8671036E-1,2.0842494E-1,0E0,0E0,0E0,0E0,2.7475953E-1,0E0,5.2806497E-1,4.8738575E-1,0E0,0E0,0E0,0E0],"parents":[2147483647,0,0,1,1,2,2,3,3,5,5,6,6,9,9,11,11,12,12,17,17,19,19,20,20],"right_children":[2,4,6,8,-1,10,12,-1,-1,14,-1,16,18,-1,-1,-1,-1,20,-1,22,24,-1,-1,-1,-1],"split_conditions":[2.1162346E1,5.35E0,2.9239782E1,3.1E0,2.2671213E-2,2.7290201E1,3.700816E1,-1.4938035E-3,-1.8634215E-1,7.177E1,1.5759659E-1,6.902E1,7.9914246E1,1.3493077E-1,-1.7588106E-1,6.759749E-2,-1.7743635E-1,3.3E0,9.0851605E-2,2.85E0,4.7E0,-2.1839388E-2,7.837324E-2,-1.42561E-1,5.9689112E-2],"split_indices":[1,0,1,0,0,1,1,0,0,2,0,2,1,0,0,0,0,0,0,0,0,0,0,0,0],"split_type":[0,0,0,0,0,0,0,0,0,0,0,0,0,0,0,0,0,0,0,0,0,0,0,0,0],"sum_hessian":[3.400217E1,4.04278E0,2.9959389E1,2.6620069E0,1.380773E0,3.7902572E0,2.6169132E1,1.5504793E0,1.1115276E0,2.5159395E0,1.2743176E0,2.54712E0,2.3622011E1,1.4440098E0,1.0719297E0,1.0472769E0,1.4998432E0,2.2201157E1,1.4208555E0,1.9320095E1,2.8810608E0,1.3186535E1,6.1335607E0,1.8768678E0,1.0041931E0],"tree_param":{"num_deleted":"0","num_feature":"4","num_nodes":"25","size_leaf_vector":"1"}},{"base_weights":[-1.3708737E-2,-8.8899426E-2,1.03186155E-2,9.731272E-2,-1.395418E-2,-1.1787601E-1,2.2399608E-2,-3.2973077E-2,2.706176E-1,1.4056632E-2,-1.5929043E-1,-7.1508765E-2,6.661806E-1,-3.7621535E-2,4.12485E-2,2.6177928E-1,3.9571784E-2],"categories":[],"categories_nodes":[],"categories_segments":[],"categories_sizes":[],"default_left":[0,0,0,0,0,0,0,0,0,0,0,0,0,0,0,0,0],"id":22,"left_children":[1,-1,3,-1,5,-1,7,9,11,13,-1,-1,15,-1,-1,-1,-1],"loss_changes":[2.380345E-1,0E0,2.5500387E-1,0E0,4.4221196E-1,0E0,4.164711E-1,5.961361E-1,1.2695234E0,4.2937154E-1,0E0,0E0,2.5631356E-1,0E0,0E0,0E0,0E0],"parents":[2147483647,0,0,2,2,4,4,6,6,7,7,8,8,9,9,12,12],"right_children":[2,-1,4,-1,6,-1,8,10,12,14,-1,-1,16,-1,-1,-1,-1],"split_conditions":[1.7518005E1,-8.8899426E-2,2.0678743E1,9.731272E-2,2.2763094E1,-1.1787601E-1,3.7E0,3.25E0,6.966E1,7.515E1,-1.5929043E-1,-7.1508765E-2,7.212E1,-3.7621535E-2,4.12485E-2,2.6177928E-1,3.9571784E-2],"split_indices":[1,0,1,0,1,0,0,0,2,2,0,0,2,0,0,0,0],"split_type":[0,0,0,0,0,0,0,0,0,0,0,0,0,0,0,0,0],"sum_hessian":[3.3602863E1,1.7449332E0,3.1857931E1,1.3985701E0,3.045936E1,1.8076365E0,2.8651724E1,2.413486E1,4.516865E0,2.2940203E1,1.194656E0,2.1490462E0,2.3678186E0,1.0763535E1,1.2176669E1,1.2511854E0,1.116633E0],"tree_param":{"num_deleted":"0","num_feature":"4","num_nodes":"17","size_leaf_vector":"1"}},{"base_weights":[-1.127942E-2,1.8614617E-1,-5.462429E-2,-3.4073398E-2,3.4026897E-1,-3.4081408E-1,2.3061996E-4,1.8862693E-1,4.2774837E-2,-2.838062E-2,-1.9732712E-1,2.0128933E-1,-8.112307E-2,-7.072519E-2,9.064387E-2,6.930609E-2,-8.3859436E-2,-4.4456802E-2,4.575089E-1,-1.303523E-3,-4.524718E-1,-1.2793058E-1,2.7998173E-1,3.3661686E-2,2.0462562E-1,-1.4802529E-1,6.8914145E-2,-1.9073793E-1,-1.4982221E-2,1.2224526E-1,2.894429E-3,-3.947857E-3,1.3000375E-1],"categories":[],"categories_nodes":[],"categories_segments":[],"categories_sizes":[],"default_left":[0,0,0,0,0,0,0,0,0,0,0,0,0,0,0,0,0,0,0,0,0,0,0,0,0,0,0,0,0,0,0,0,0],"id":23,"left_children":[1,3,5,-1,7,9,11,-1,13,15,-1,17,19,-1,-1,-1,-1,21,23,25,27,-1,29,-1,-1,-1,31,-1,-1,-1,-1,-1,-1],"loss_changes":[3.023309E-1,3.3305442E-1,4.5171058E-1,0E0,3.5580784E-1,4.396025E-1,4.2754856E-1,0E0,3.0733994E-1,2.8449467E-1,0E0,4.9442723E-1,5.510591E-1,0E0,0E0,0E0,0E0,7.086345E-1,2.1618378E-1,5.9798926E-1,2.1100593E-1,0E0,1.0549271E-1,0E0,0E0,0E0,4.5916492E-1,0E0,0E0,0E0,0E0,0E0,0E0],"parents":[2147483647,0,0,1,1,2,2,4,4,5,5,6,6,8,8,9,9,11,11,12,12,17,17,18,18,19,19,20,20,22,22,26,26],"right_children":[2,4,6,-1,8,10,12,-1,14,16,-1,18,20,-1,-1,-1,-1,22,24,26,28,-1,30,-1,-1,-1,32,-1,-1,-1,-1,-1,-1],"split_conditions":[6.699E1,3.9761272E1,2.2763094E1,-3.4073398E-2,4.9457382E1,1.9858402E1,3.9761272E1,1.8862693E-1,6.0623993E1,5.4E0,-1.9732712E-1,3.15E0,3.25E0,-7.072519E-2,9.064387E-2,6.930609E-2,-8.3859436E-2,7.239E1,3.4198204E1,4.2808353E1,5.6599957E1,-1.2793058E-1,1.5E0,3.3661686E-2,2.0462562E-1,-1.4802529E-1,3.1E0,-1.9073793E-1,-1.4982221E-2,1.2224526E-1,2.894429E-3,-3.947857E-3,1.3000375E-1],"split_indices":[2,1,1,0,1,1,1,0,1,0,0,0,0,0,0,0,0,2,1,1,1,0,0,0,0,0,0,0,0,0,0,0,0],"split_type":[0,0,0,0,0,0,0,0,0,0,0,0,0,0,0,0,0,0,0,0,0,0,0,0,0,0,0,0,0,0,0,0,0],"sum_hessian":[3.3141598E1,5.3732376E0,2.776836E1,1.9140441E0,3.4591932E0,3.6278872E0,2.4140472E1,1.1908691E0,2.2683241E0,2.3756163E0,1.2522708E0,6.529391E0,1.7611082E1,1.1376888E0,1.1306355E0,1.2080431E0,1.1675733E0,3.75468E0,2.774711E0,1.5321345E1,2.289736E0,1.5800387E0,2.1746411E0,1.6844201E0,1.0902909E0,1.1605768E0,1.4160769E1,1.1750877E0,1.1146483E0,1.1329494E0,1.0416919E0,1.2344544E1,1.8162247E0],"tree_param":{"num_deleted":"0","num_feature":"4","num_nodes":"33","size_leaf_vector":"1"}},{"base_weights":[-1.0394368E-2,2.2929013E-1,-3.8193107E-2,1.2636337E-1,-2.4635606E-3,-3.4797302E-1,1.6270034E-2,-1.6438815E-1,2.4773998E-2,-3.401392E-2,2.366009E-1,6.3004685E-3,-1.3027845E-1,-6.482942E-2,5.522342E-1,-1.1626831E-1,9.9628896E-2,2.1240076E-1,3.7124135E-2,4.5199677E-2,-1.6175443E-1,-1.170323E-3,1.3272884E-1],"categories":[],"categories_nodes":[],"categories_segments":[],"categories_sizes":[],"default_left":[0,0,0,0,0,0,0,0,0,0,0,0,0,0,0,0,0,0,0,0,0,0,0],"id":24,"left_children":[1,3,5,-1,-1,7,9,-1,-1,11,13,15,-1,-1,17,19,21,-1,-1,-1,-1,-1,-1],"loss_changes":[2.3294716E-1,1.693604E-1,5.2881056E-1,0E0,0E0,4.4831473E-1,3.1080234E-1,0E0,0E0,3.7584704E-1,8.6282766E-1,2.6316538E-1,0E0,0E0,1.3578498E-1,1.2065958E0,4.6396303E-1,0E0,0E0,0E0,0E0,0E0,0E0],"parents":[2147483647,0,0,1,1,2,2,5,5,6,6,9,9,10,10,11,11,14,14,15,15,16,16],"right_children":[2,4,6,-1,-1,8,10,-1,-1,12,14,16,-1,-1,18,20,22,-1,-1,-1,-1,-1,-1],"split_conditions":[6.619E1,3.475722E1,2.2763094E1,1.2636337E-1,-2.4635606E-3,5.35E0,3.7E0,-1.6438815E-1,2.4773998E-2,3.25E0,6.966E1,7.515E1,-1.3027845E-1,-6.482942E-2,7.212E1,5.5165337E1,7.259701E1,2.1240076E-1,3.7124135E-2,4.5199677E-2,-1.6175443E-1,-1.170323E-3,1.3272884E-1],"split_indices":[2,1,1,0,0,0,0,0,0,0,2,2,0,0,2,1,1,0,0,0,0,0,0],"split_type":[0,0,0,0,0,0,0,0,0,0,0,0,0,0,0,0,0,0,0,0,0,0,0],"sum_hessian":[3.264735E1,2.6396563E0,3.0007696E1,1.0321162E0,1.6075401E0,3.6810682E0,2.6326628E1,2.327349E0,1.3537192E0,2.2123274E1,4.203354E0,2.0993036E1,1.1302363E0,1.8562981E0,2.347056E0,8.968654E0,1.2024384E1,1.2428944E0,1.1041615E0,5.8929133E0,3.0757403E0,9.994532E0,2.0298512E0],"tree_param":{"num_deleted":"0","num_feature":"4","num_nodes":"23","size_leaf_vector":"1"}},{"base_weights":[-5.95501E-3,2.7786076E-2,-2.5693452E-1,-2.320679E-2,3.397436E-1,-1.7310116E-1,2.818201E-2,1.3557445E-1,-1.1270666E-1,-1.9615334E-2,1.7363413E-1,-1.1592661E-2,2.9868683E-1,-1.6525178E-1,-2.650313E-2,1.5678635E-1,-1.2948391E-1,1.4916296E-1,7.577955E-2,-2.867737E-1,6.2310226E-2,-1.1078733E-2,1.396171E-1,-1.0632419E-1,1.19922966E-1,-1.4069915E-1,9.5247775E-3,6.809064E-2,-4.941981E-2],"categories":[],"categories_nodes":[],"categories_segments":[],"categories_sizes":[],"default_left":[0,0,0,0,0,0,0,0,0,0,0,0,0,0,0,0,0,0,0,0,0,0,0,0,0,0,0,0,0],"id":25,"left_children":[1,3,5,7,9,-1,-1,11,13,-1,-1,15,17,-1,19,21,-1,-1,23,25,27,-1,-1,-1,-1,-1,-1,-1,-1],"loss_changes":[2.8900456E-1,4.8897278E-1,5.0813997E-1,3.9797637E-1,4.5550612E-1,0E0,0E0,2.4738799E-1,6.564818E-1,0E0,0E0,5.1354223E-1,1.7725602E-1,0E0,3.8534975E-1,3.300773E-1,0E0,0E0,6.2497354E-1,2.6001096E-1,5.112182E-1,0E0,0E0,0E0,0E0,0E0,0E0,0E0,0E0],"parents":[2147483647,0,0,1,1,2,2,3,3,4,4,7,7,8,8,11,11,12,12,14,14,15,15,18,18,19,19,20,20],"right_children":[2,4,6,8,10,-1,-1,12,14,-1,-1,16,18,-1,20,22,-1,-1,24,26,28,-1,-1,-1,-1,-1,-1,-1,-1],"split_conditions":[5.45E0,3.7E0,2.8285723E1,7.12E1,7.176E1,-1.7310116E-1,2.818201E-2,4.7273476E1,7.239E1,-1.9615334E-2,1.7363413E-1,4.451265E1,5.5165337E1,-1.6525178E-1,1.35E0,3.9761272E1,-1.2948391E-1,1.4916296E-1,6.0623993E1,8.142E1,5.806957E1,-1.1078733E-2,1.396171E-1,-1.0632419E-1,1.19922966E-1,-1.4069915E-1,9.5247775E-3,6.809064E-2,-4.941981E-2],"split_indices":[0,0,1,2,2,0,0,1,2,0,0,1,1,0,0,1,0,0,1,2,1,0,0,0,0,0,0,0,0],"split_type":[0,0,0,0,0,0,0,0,0,0,0,0,0,0,0,0,0,0,0,0,0,0,0,0,0,0,0,0,0],"sum_hessian":[3.2284683E1,2.924266E1,3.0420241E0,2.5929768E1,3.3128943E0,1.2538152E0,1.788209E0,9.161536E0,1.676823E1,1.4989268E0,1.8139676E0,5.3045073E0,3.8570287E0,1.8706418E0,1.4897589E1,4.2339187E0,1.0705887E0,1.3892148E0,2.467814E0,3.2231345E0,1.1674455E1,3.1419826E0,1.0919359E0,1.0197233E0,1.4480906E0,1.7497245E0,1.4734101E0,6.7670827E0,4.9073715E0],"tree_param":{"num_deleted":"0","num_feature":"4","num_nodes":"29","size_leaf_vector":"1"}},{"base_weights":[-8.432732E-3,1.6184413E-1,-4.68438E-2,-3.523381E-2,3.0814716E-1,-1.1458082E-1,-1.9230494E-2,1.5976474E-1,6.281005E-2,-2.345862E-1,3.3850998E-2,-4.814321E-2,7.774952E-2,6.868081E-2,-1.895129E-1,1.6822374E-1,-1.9513E-2,-9.871073E-2,1.3303764E-1,1.0504231E-1,-5.6988433E-2,-1.8926896E-1,9.305754E-3],"categories":[],"categories_nodes":[],"categories_segments":[],"categories_sizes":[],"default_left":[0,0,0,0,0,0,0,0,0,0,0,0,0,0,0,0,0,0,0,0,0,0,0],"id":26,"left_children":[1,3,5,-1,7,-1,9,-1,11,13,15,-1,-1,17,-1,-1,19,-1,-1,-1,21,-1,-1],"loss_changes":[2.2182243E-1,2.9171604E-1,2.4713546E-1,0E0,2.0767426E-1,0E0,3.1043494E-1,0E0,1.830293E-1,6.887589E-1,6.324155E-1,0E0,0E0,7.332428E-1,0E0,0E0,3.1137308E-1,0E0,0E0,0E0,1.0277284E0,0E0,0E0],"parents":[2147483647,0,0,1,1,2,2,4,4,6,6,8,8,9,9,10,10,13,13,16,16,20,20],"right_children":[2,4,6,-1,8,-1,10,-1,12,14,16,-1,-1,18,-1,-1,20,-1,-1,-1,22,-1,-1],"split_conditions":[6.699E1,3.9761272E1,6.835E1,-3.523381E-2,4.9457382E1,-1.1458082E-1,2.7290201E1,1.5976474E-1,6.0623993E1,7.296E1,2.9239782E1,-4.814321E-2,7.774952E-2,4.1E0,-1.895129E-1,1.6822374E-1,6.867E1,-9.871073E-2,1.3303764E-1,1.0504231E-1,3.700816E1,-1.8926896E-1,9.305754E-3],"split_indices":[2,1,2,0,1,0,1,0,1,2,1,0,0,0,0,0,2,0,0,0,1,0,0],"split_type":[0,0,0,0,0,0,0,0,0,0,0,0,0,0,0,0,0,0,0,0,0,0,0],"sum_hessian":[3.1755978E1,5.2535276E0,2.6502449E1,1.8737706E0,3.3797572E0,1.0407821E0,2.5461666E1,1.1537639E0,2.2259932E0,4.358705E0,2.1102962E1,1.1270609E0,1.0989324E0,2.9403408E0,1.4183643E0,1.0663459E0,2.0036615E1,1.4857284E0,1.4546124E0,1.0763537E0,1.8960262E1,1.7007581E0,1.7259504E1],"tree_param":{"num_deleted":"0","num_feature":"4","num_nodes":"23","size_leaf_vector":"1"}},{"base_weights":[-8.050034E-3,-2.7931318E-2,8.076629E-2,-4.405864E-3,-1.0944412E-1,-3.297736E-2,1.0853669E-1,6.380024E-3,-3.2307586E-1,1.10218294E-1,-3.7456162E-2,-1.5625522E-1,-8.405146E-3,1.0583765E-1,-2.1740308E-2],"categories":[],"categories_nodes":[],"categories_segments":[],"categories_sizes":[],"default_left":[0,0,0,0,0,0,0,0,0,0,0,0,0,0,0],"id":27,"left_children":[1,3,-1,5,-1,7,-1,9,11,-1,13,-1,-1,-1,-1],"loss_changes":[1.8493278E-1,2.4357387E-1,0E0,3.2507354E-1,0E0,3.2951155E-1,0E0,4.2892957E-1,1.8646923E-1,0E0,3.5759616E-1,0E0,0E0,0E0,0E0],"parents":[2147483647,0,0,1,1,3,3,5,5,7,7,8,8,10,10],"right_children":[2,4,-1,6,-1,8,-1,10,12,-1,14,-1,-1,-1,-1],"split_conditions":[7.9914246E1,7.496321E1,8.076629E-2,7.259701E1,-1.0944412E-1,5.45E0,1.0853669E-1,2.0678743E1,2.8285723E1,1.10218294E-1,1.25E0,-1.5625522E-1,-8.405146E-3,1.0583765E-1,-2.1740308E-2],"split_indices":[1,1,0,1,0,0,0,1,1,0,0,0,0,0,0],"split_type":[0,0,0,0,0,0,0,0,0,0,0,0,0,0,0],"sum_hessian":[3.1183762E1,2.9936476E1,1.247285E0,2.8929337E1,1.0071393E0,2.7679644E1,1.2496938E0,2.5234156E1,2.4454863E0,1.9330868E0,2.330107E1,1.0059582E0,1.439528E0,1.1711087E0,2.2129961E1],"tree_param":{"num_deleted":"0","num_feature":"4","num_nodes":"15","size_leaf_vector":"1"}},{"base_weights":[-2.430089E-3,-7.860527E-2,5.895806E-2,5.1626008E-2,-2.3672104E-1,1.277422E-1,4.356976E-3,2.340656E-1,-1.7807886E-1,-5.6419164E-1,1.5569526E-1,7.750115E-2,-3.0561185E-1,-1.6686812E-1,5.326546E-1,-1.6696729E-1,9.1575414E-2,-2.3294775E-1,-3.0800136E-2,9.130988E-2,-2.7246153E-2,-2.969584E-2,1.340386E-1,-1.3755155E-2,-1.2609015E-1,2.5312362E-2,-9.986397E-2,7.816874E-3,2.422726E-1,-7.426429E-2,1.04523554E-1,-1.8259831E-1,2.3125713E-1,8.365801E-3,-1.0387071E-1,-1.9757306E-2,1.6027379E-1],"categories":[],"categories_nodes":[],"categories_segments":[],"categories_sizes":[],"default_left":[0,0,0,0,0,0,0,0,0,0,0,0,0,0,0,0,0,0,0,0,0,0,0,0,0,0,0,0,0,0,0,0,0,0,0,0,0],"id":28,"left_children":[1,3,5,7,9,-1,11,13,15,17,19,21,23,25,27,-1,29,-1,-1,-1,-1,31,-1,-1,-1,-1,-1,-1,-1,-1,-1,33,35,-1,-1,-1,-1],"loss_changes":[1.5447424E-1,3.1548953E-1,3.6499977E-1,4.1452956E-1,9.656329E-1,0E0,4.08039E-1,7.3422956E-1,5.108672E-1,3.063097E-1,1.7024681E-1,5.8782154E-1,8.317873E-2,1.5581962E-1,4.4249797E-1,0E0,3.902368E-1,0E0,0E0,0E0,0E0,5.284584E-1,0E0,0E0,0E0,0E0,0E0,0E0,0E0,0E0,0E0,2.9355764E-1,4.802091E-1,0E0,0E0,0E0,0E0],"parents":[2147483647,0,0,1,1,2,2,3,3,4,4,6,6,7,7,8,8,9,9,10,10,11,11,12,12,13,13,14,14,16,16,21,21,31,31,32,32],"right_children":[2,4,6,8,10,-1,12,14,16,18,20,22,24,26,28,-1,30,-1,-1,-1,-1,32,-1,-1,-1,-1,-1,-1,-1,-1,-1,34,36,-1,-1,-1,-1],"split_conditions":[2.2E0,1.4E0,2.65E0,5.3287743E1,5.2474354E1,1.277422E-1,7.402E1,4.451265E1,5.806957E1,7.912E1,2.1E0,7.24E1,2.9239782E1,7.152E1,1.35E0,-1.6696729E-1,7.472E1,-2.3294775E-1,-3.0800136E-2,9.130988E-2,-2.7246153E-2,4.7273476E1,1.340386E-1,-1.3755155E-2,-1.2609015E-1,2.5312362E-2,-9.986397E-2,7.816874E-3,2.422726E-1,-7.426429E-2,1.04523554E-1,3.2E0,3.2E0,8.365801E-3,-1.0387071E-1,-1.9757306E-2,1.6027379E-1],"split_indices":[0,0,0,1,1,0,2,1,1,2,0,2,1,2,0,0,2,0,0,0,0,1,0,0,0,0,0,0,0,0,0,0,0,0,0,0,0],"split_type":[0,0,0,0,0,0,0,0,0,0,0,0,0,0,0,0,0,0,0,0,0,0,0,0,0,0,0,0,0,0,0,0,0,0,0,0,0],"sum_hessian":[3.104271E1,1.3727766E1,1.7314943E1,7.896963E0,5.830803E0,1.362458E0,1.5952484E1,4.390718E0,3.5062451E0,2.9398046E0,2.8909984E0,1.3513613E1,2.4388719E0,2.0624645E0,2.3282535E0,1.0161042E0,2.490141E0,1.5461335E0,1.393671E0,1.6570044E0,1.2339941E0,1.1186139E1,2.327473E0,1.1757245E0,1.2631474E0,1.0162399E0,1.0462247E0,1.2041447E0,1.1241088E0,1.0887446E0,1.4013963E0,7.2426524E0,3.9434872E0,3.530723E0,3.7119293E0,2.386194E0,1.5572932E0],"tree_param":{"num_deleted":"0","num_feature":"4","num_nodes":"37","size_leaf_vector":"1"}},{"base_weights":[-1.4482172E-3,1.4676642E-1,-3.5363108E-2,-3.0045455E-2,2.7646074E-1,-2.4879172E-1,1.3845271E-3,1.3987005E-1,6.3543744E-2,-1.3117331E-1,3.8656488E-2,2.1911058E-1,-8.641589E-2,-4.2609043E-2,7.247016E-2,1.4027106E-3,4.3084013E-1,-1.0599699E-2,-1.3475746E-1,-1.0725567E-1,8.4276825E-2,2.7235635E-2,1.8889168E-1,-1.3835874E-1,5.6292754E-2,-5.7247076E-3,1.17029764E-1],"categories":[],"categories_nodes":[],"categories_segments":[],"categories_sizes":[],"default_left":[0,0,0,0,0,0,0,0,0,0,0,0,0,0,0,0,0,0,0,0,0,0,0,0,0,0,0],"id":29,"left_children":[1,3,5,-1,7,9,11,-1,13,-1,-1,15,17,-1,-1,19,21,23,-1,-1,-1,-1,-1,-1,25,-1,-1],"loss_changes":[1.6373435E-1,2.2199017E-1,2.0797291E-1,0E0,1.4185238E-1,3.334777E-1,4.696814E-1,0E0,1.4987549E-1,0E0,0E0,3.247743E-1,4.7711816E-1,0E0,0E0,5.502512E-1,1.8453634E-1,4.9362975E-1,0E0,0E0,0E0,0E0,0E0,0E0,3.6979204E-1,0E0,0E0],"parents":[2147483647,0,0,1,1,2,2,4,4,5,5,6,6,8,8,11,11,12,12,15,15,16,16,17,17,24,24],"right_children":[2,4,6,-1,8,10,12,-1,14,-1,-1,16,18,-1,-1,20,22,24,-1,-1,-1,-1,-1,-1,26,-1,-1],"split_conditions":[6.699E1,3.9761272E1,2.2763094E1,-3.0045455E-2,4.9457382E1,5.35E0,3.9761272E1,1.3987005E-1,6.0623993E1,-1.3117331E-1,3.8656488E-2,3.15E0,3.25E0,-4.2609043E-2,7.247016E-2,7.239E1,3.4198204E1,4.2808353E1,-1.3475746E-1,-1.0725567E-1,8.4276825E-2,2.7235635E-2,1.8889168E-1,-1.3835874E-1,3.1E0,-5.7247076E-3,1.17029764E-1],"split_indices":[2,1,1,0,1,0,1,0,1,0,0,0,0,0,0,2,1,1,0,0,0,0,0,0,0,0,0],"split_type":[0,0,0,0,0,0,0,0,0,0,0,0,0,0,0,0,0,0,0,0,0,0,0,0,0,0,0],"sum_hessian":[3.0540525E1,5.067421E0,2.5473103E1,1.8235161E0,3.243905E0,2.8940887E0,2.2579014E1,1.0861117E0,2.1577935E0,1.8253781E0,1.0687106E0,6.0588427E0,1.6520172E1,1.0952401E0,1.0625534E0,3.4835536E0,2.575289E0,1.4515755E1,2.004418E0,1.4029853E0,2.0805683E0,1.4875073E0,1.0877815E0,1.1144035E0,1.3401351E1,1.1701851E1,1.6995004E0],"tree_param":{"num_deleted":"0","num_feature":"4","num_nodes":"27","size_leaf_vector":"1"}},{"base_weights":[7.271226E-4,-3.3261273E-2,1.3424651E-1,1.3877087E-2,-1.5278555E-1,2.9108092E-1,-2.9958181E-2,-3.326679E-2,1.2828566E-1,-1.00741364E-1,2.109852E-1,-1.0329669E-1,9.387504E-2,-1.8497075E-1,7.1431994E-2,6.208631E-2,-5.043217E-1,1.981849E-1,-6.530295E-2,6.803417E-2,-1.106334E-1,-3.6865048E-2,-2.049175E-1,5.6165196E-2,-4.4907812E-2],"categories":[],"categories_nodes":[],"categories_segments":[],"categories_sizes":[],"default_left":[0,0,0,0,0,0,0,0,0,0,0,0,0,0,0,0,0,0,0,0,0,0,0,0,0],"id":30,"left_children":[1,3,5,7,-1,9,11,13,-1,-1,-1,-1,-1,15,17,19,21,-1,23,-1,-1,-1,-1,-1,-1],"loss_changes":[1.460768E-1,5.83182E-1,1.7689347E-1,4.8888588E-1,0E0,1.123371E0,5.493339E-1,3.7492847E-1,0E0,0E0,0E0,0E0,0E0,7.869828E-1,1.1867679E0,5.300141E-1,2.0835829E-1,0E0,2.9294714E-1,0E0,0E0,0E0,0E0,0E0,0E0],"parents":[2147483647,0,0,1,1,2,2,3,3,5,5,6,6,7,7,13,13,14,14,15,15,16,16,18,18],"right_children":[2,4,6,8,-1,10,12,14,-1,-1,-1,-1,-1,16,18,20,22,-1,24,-1,-1,-1,-1,-1,-1],"split_conditions":[6.496551E1,6.3413456E1,2.15E0,6.0623993E1,-1.5278555E-1,7.769E1,2.7E0,2.1E0,1.2828566E-1,-1.00741364E-1,2.109852E-1,-1.0329669E-1,9.387504E-2,1.4E0,2.9E0,5.3287743E1,4.419718E1,1.981849E-1,6.699E1,6.803417E-2,-1.106334E-1,-3.6865048E-2,-2.049175E-1,5.6165196E-2,-4.4907812E-2],"split_indices":[1,1,0,1,0,2,0,0,0,0,0,0,0,0,0,1,1,0,2,0,0,0,0,0,0],"split_type":[0,0,0,0,0,0,0,0,0,0,0,0,0,0,0,0,0,0,0,0,0,0,0,0,0],"sum_hessian":[3.020497E1,2.4674717E1,5.5302525E0,2.3334827E1,1.3398883E0,2.433402E0,3.0968506E0,2.1773445E1,1.5613836E0,1.0388472E0,1.3945547E0,1.6133934E0,1.4834572E0,8.577838E0,1.3195606E1,5.290542E0,3.287296E0,1.7638589E0,1.1431747E1,4.170185E0,1.1203569E0,1.5873263E0,1.6999698E0,2.5582345E0,8.873513E0],"tree_param":{"num_deleted":"0","num_feature":"4","num_nodes":"25","size_leaf_vector":"1"}},{"base_weights":[1.4811631E-3,1.7930192E-1,-2.0671692E-2,1.0320201E-1,-8.5399365E-3,-2.6956037E-1,1.8983666E-2,-1.7413917E-1,1.4660372E-2,-2.4694478E-2,2.1483262E-1,4.3003727E-2,-1.717786E-1,-5.1860314E-2,1.4272302E-1,-7.3488615E-2,2.1595371E-1,-2.1040215E-1,4.510826E-2,7.629238E-3,-1.3834763E-1,1.392652E-1,7.7995574E-3,7.653674E-2,-4.638506E-2],"categories":[],"categories_nodes":[],"categories_segments":[],"categories_sizes":[],"default_left":[0,0,0,0,0,0,0,0,0,0,0,0,0,0,0,0,0,0,0,0,0,0,0,0,0],"id":31,"left_children":[1,3,5,-1,-1,7,9,-1,-1,11,13,15,17,-1,-1,19,21,-1,23,-1,-1,-1,-1,-1,-1],"loss_changes":[1.2490485E-1,1.2996465E-1,2.8399017E-1,0E0,0E0,4.193175E-1,2.2178316E-1,0E0,0E0,2.2235137E-1,5.594641E-1,3.29841E-1,8.3617365E-1,0E0,0E0,3.9742604E-1,2.9568607E-1,0E0,2.87303E-1,0E0,0E0,0E0,0E0,0E0,0E0],"parents":[2147483647,0,0,1,1,2,2,5,5,6,6,9,9,10,10,11,11,12,12,15,15,16,16,18,18],"right_children":[2,4,6,-1,-1,8,10,-1,-1,12,14,16,18,-1,-1,20,22,-1,24,-1,-1,-1,-1,-1,-1],"split_conditions":[6.619E1,3.475722E1,2.2763094E1,1.0320201E-1,-8.5399365E-3,7.283E1,3.7E0,-1.7413917E-1,1.4660372E-2,6.3413456E1,6.966E1,4.9457382E1,6.496551E1,-5.1860314E-2,1.4272302E-1,4.6098537E1,5.4623055E1,-2.1040215E-1,2.15E0,7.629238E-3,-1.3834763E-1,1.392652E-1,7.7995574E-3,7.653674E-2,-4.638506E-2],"split_indices":[2,1,1,0,0,2,0,0,0,1,2,1,1,0,0,1,1,0,0,0,0,0,0,0,0],"split_type":[0,0,0,0,0,0,0,0,0,0,0,0,0,0,0,0,0,0,0,0,0,0,0,0,0],"sum_hessian":[2.9766966E1,2.5117025E0,2.7255262E1,1.03528E0,1.4764225E0,2.9489856E0,2.4306276E1,1.0757518E0,1.8732339E0,2.0588541E1,3.7177362E0,1.4583732E1,6.004809E0,1.6312401E0,2.086496E0,9.057823E0,5.525908E0,1.0957358E0,4.9090734E0,7.960892E0,1.0969312E0,1.7694649E0,3.7564433E0,2.2576985E0,2.6513746E0],"tree_param":{"num_deleted":"0","num_feature":"4","num_nodes":"25","size_leaf_vector":"1"}},{"base_weights":[-3.7404238E-3,2.3827856E-2,-2.243413E-1,-1.9810136E-2,2.9308063E-1,-1.0307091E-1,9.045976E-3,1.04967535E-1,-8.9516826E-2,-9.880117E-3,1.405375E-1,-2.5306823E-2,2.9845777E-1,-3.6299112E-1,2.7991263E-2,1.02179535E-1,-8.179283E-2,1.3801405E-1,-6.0073454E-3,-2.084092E-1,-6.252353E-2,9.252591E-2,-9.41498E-2,-1.2674322E-2,1.0099902E-1,-1.1085448E-1,7.482407E-2,-1.7998269E-2,1.21036686E-1],"categories":[],"categories_nodes":[],"categories_segments":[],"categories_sizes":[],"default_left":[0,0,0,0,0,0,0,0,0,0,0,0,0,0,0,0,0,0,0,0,0,0,0,0,0,0,0,0,0],"id":32,"left_children":[1,3,5,7,9,-1,-1,11,13,-1,-1,15,17,19,21,23,-1,-1,-1,-1,25,27,-1,-1,-1,-1,-1,-1,-1],"loss_changes":[1.9074155E-1,3.3482358E-1,1.16028205E-1,2.2713466E-1,2.4234217E-1,0E0,0E0,2.4532327E-1,5.436359E-1,0E0,0E0,2.346801E-1,2.0856354E-1,4.6097004E-1,3.0566213E-1,1.8543506E-1,0E0,0E0,0E0,0E0,4.5169044E-1,5.6106925E-1,0E0,0E0,0E0,0E0,0E0,0E0,0E0],"parents":[2147483647,0,0,1,1,2,2,3,3,4,4,7,7,8,8,11,11,12,12,13,13,14,14,15,15,20,20,21,21],"right_children":[2,4,6,8,10,-1,-1,12,14,-1,-1,16,18,20,22,24,-1,-1,-1,-1,26,28,-1,-1,-1,-1,-1,-1,-1],"split_conditions":[5.45E0,3.7E0,2.1055E2,7.12E1,7.176E1,-1.0307091E-1,9.045976E-3,5.0819923E1,7.515E1,-9.880117E-3,1.405375E-1,4.451265E1,3.1E0,2.7E0,2.65E0,3.9761272E1,-8.179283E-2,1.3801405E-1,-6.0073454E-3,-2.084092E-1,7.239E1,6.496551E1,-9.41498E-2,-1.2674322E-2,1.0099902E-1,-1.1085448E-1,7.482407E-2,-1.7998269E-2,1.21036686E-1],"split_indices":[0,0,0,2,2,0,0,1,2,0,0,1,0,0,0,1,0,0,0,0,2,1,0,0,0,0,0,0,0],"split_type":[0,0,0,0,0,0,0,0,0,0,0,0,0,0,0,0,0,0,0,0,0,0,0,0,0,0,0,0,0],"sum_hessian":[2.9484802E1,2.7002333E1,2.482469E0,2.4033613E1,2.9687197E0,1.4521447E0,1.0303243E0,8.432775E0,1.5600839E1,1.3225003E0,1.6462194E0,5.55911E0,2.8736644E0,4.060903E0,1.1539936E1,4.0555863E0,1.5035238E0,1.6115245E0,1.26214E0,1.306508E0,2.7543952E0,1.0320747E1,1.2191883E0,3.017081E0,1.0385051E0,1.2951742E0,1.459221E0,7.4656677E0,2.8550797E0],"tree_param":{"num_deleted":"0","num_feature":"4","num_nodes":"29","size_leaf_vector":"1"}},{"base_weights":[-4.880611E-3,1.8065669E-2,-1.9066608E-1,8.780568E-2,-1.3237554E-2,-9.2925504E-2,1.1271519E-2,1.7732972E-2,-1.826628E-1,-5.318464E-2,1.4025442E-1,3.218228E-2,-1.1249272E-1,1.6253714E-2,-2.826988E-1,-7.9405926E-2,2.518956E-1,-2.5998218E-2,1.0053871E-1,2.731082E-3,-1.2489377E-1,2.7861621E-2,1.7251652E-1],"categories":[],"categories_nodes":[],"categories_segments":[],"categories_sizes":[],"default_left":[0,0,0,0,0,0,0,0,0,0,0,0,0,0,0,0,0,0,0,0,0,0,0],"id":33,"left_children":[1,3,5,-1,7,-1,-1,9,11,13,15,-1,-1,17,19,-1,21,-1,-1,-1,-1,-1,-1],"loss_changes":[1.3146539E-1,2.4150102E-1,1.0371817E-1,0E0,1.3846211E-1,0E0,0E0,2.04692E-1,2.6723236E-1,2.4528417E-1,4.5532006E-1,0E0,0E0,4.4057304E-1,1.4267784E-1,0E0,3.1923813E-1,0E0,0E0,0E0,0E0,0E0,0E0],"parents":[2147483647,0,0,1,1,2,2,4,4,7,7,8,8,9,9,10,10,13,13,14,14,16,16],"right_children":[2,4,6,-1,8,-1,-1,10,12,14,16,-1,-1,18,20,-1,22,-1,-1,-1,-1,-1,-1],"split_conditions":[5.45E0,2.0678743E1,3.475722E1,8.780568E-2,3.3E0,-9.2925504E-2,1.1271519E-2,2.75E0,3.556285E1,2.15E0,3.663518E1,3.218228E-2,-1.1249272E-1,6.3806004E1,6.8558304E1,-7.9405926E-2,7.194E1,-2.5998218E-2,1.0053871E-1,2.731082E-3,-1.2489377E-1,2.7861621E-2,1.7251652E-1],"split_indices":[0,1,1,0,0,0,0,0,1,0,1,0,0,1,1,0,2,0,0,0,0,0,0],"split_type":[0,0,0,0,0,0,0,0,0,0,0,0,0,0,0,0,0,0,0,0,0,0,0],"sum_hessian":[2.9030102E1,2.6642284E1,2.387816E0,1.8717347E0,2.477055E1,1.3344222E0,1.0533937E0,2.1699305E1,3.071246E0,1.4102462E1,7.5968423E0,1.4010967E0,1.6701491E0,1.1540212E1,2.5622504E0,1.3455275E0,6.251315E0,9.275007E0,2.265204E0,1.097424E0,1.4648263E0,5.052445E0,1.1988701E0],"tree_param":{"num_deleted":"0","num_feature":"4","num_nodes":"23","size_leaf_vector":"1"}},{"base_weights":[-3.314131E-3,-2.3015877E-2,1.6723567E-1,1.0515834E-2,-9.215504E-2,-1.8966928E-2,9.771577E-2,-2.9952876E-2,2.3862197E-1,3.233112E-2,-1.5855113E-1,-2.2716205E-4,1.0626853E-1,-4.3441825E-2,3.4478417E-1,1.5214081E-3,-1.4600001E-1,3.4089796E-2,-3.366354E-2,9.257548E-3,1.4497325E-1,9.312616E-2,-4.1818652E-2],"categories":[],"categories_nodes":[],"categories_segments":[],"categories_sizes":[],"default_left":[0,0,0,0,0,0,0,0,0,0,0,0,0,0,0,0,0,0,0,0,0,0,0],"id":34,"left_children":[1,3,5,7,-1,-1,-1,9,11,13,15,-1,-1,17,19,21,-1,-1,-1,-1,-1,-1,-1],"loss_changes":[1.0433851E-1,2.670631E-1,1.3812605E-1,2.446925E-1,0E0,0E0,0E0,1.8729681E-1,1.1065763E-1,3.974168E-1,3.9941826E-1,0E0,0E0,1.6277668E-1,1.2699041E-1,3.0873877E-1,0E0,0E0,0E0,0E0,0E0,0E0,0E0],"parents":[2147483647,0,0,1,1,2,2,3,3,7,7,8,8,9,9,10,10,13,13,14,14,15,15],"right_children":[2,4,6,8,-1,-1,-1,10,12,14,16,-1,-1,18,20,22,-1,-1,-1,-1,-1,-1,-1],"split_conditions":[8.286E1,5.45E0,1.35E0,3.7E0,-9.215504E-2,-1.8966928E-2,9.771577E-2,5.806957E1,7.176E1,5.2474354E1,3.1E0,-2.2716205E-4,1.0626853E-1,1.4E0,1.5E0,7.443E1,-1.4600001E-1,3.4089796E-2,-3.366354E-2,9.257548E-3,1.4497325E-1,9.312616E-2,-4.1818652E-2],"split_indices":[2,0,0,0,0,0,0,1,2,1,0,0,0,0,0,2,0,0,0,0,0,0,0],"split_type":[0,0,0,0,0,0,0,0,0,0,0,0,0,0,0,0,0,0,0,0,0,0,0],"sum_hessian":[2.8906422E1,2.6688448E1,2.2179747E0,2.4732958E1,1.9554896E0,1.1486871E0,1.0692875E0,2.1744003E1,2.9889534E0,1.5153363E1,6.5906405E0,1.2969302E0,1.692023E0,1.2888693E1,2.2646701E0,5.0986204E0,1.4920201E0,3.725982E0,9.162711E0,1.0674181E0,1.197252E0,1.2204505E0,3.87817E0],"tree_param":{"num_deleted":"0","num_feature":"4","num_nodes":"23","size_leaf_vector":"1"}},{"base_weights":[2.9202313E-3,-6.528078E-2,5.6751482E-2,-2.1586226E-1,1.4039477E-2,1.2782538E-1,3.9011988E-4,7.491716E-2,-1.8528794E-1,1.5477198E-1,-2.3784885E-1,-3.759817E-2,7.557872E-2,-2.9166628E-2,7.817884E-2,-9.359196E-2,2.9414862E-1,-1.2551488E-1,-3.4109799E-3,2.895261E-2,-8.9484826E-2,-5.2152267E-3,-3.8588036E-2,-2.0546757E-2,1.4091685E-1,9.8392956E-2,-6.960512E-2,-5.306959E-3,1.0871111E-1],"categories":[],"categories_nodes":[],"categories_segments":[],"categories_sizes":[],"default_left":[0,0,0,0,0,0,0,0,0,0,0,0,0,0,0,0,0,0,0,0,0,0,0,0,0,0,0,0,0],"id":35,"left_children":[1,3,5,7,9,-1,11,13,-1,15,17,19,-1,-1,-1,21,23,-1,-1,25,-1,-1,-1,-1,-1,27,-1,-1,-1],"loss_changes":[1.1325625E-1,1.658055E-1,3.581126E-1,6.027036E-1,3.8651618E-1,0E0,1.6172738E-1,1.4215778E-1,0E0,2.6758456E-1,1.5594006E-1,2.6389256E-1,0E0,0E0,0E0,6.444894E-3,3.3036104E-1,0E0,0E0,2.5175256E-1,0E0,0E0,0E0,0E0,0E0,3.33674E-1,0E0,0E0,0E0],"parents":[2147483647,0,0,1,1,2,2,3,3,4,4,6,6,7,7,9,9,10,10,11,11,15,15,16,16,19,19,25,25],"right_children":[2,4,6,8,10,-1,12,14,-1,16,18,20,-1,-1,-1,22,24,-1,-1,26,-1,-1,-1,-1,-1,28,-1,-1,-1],"split_conditions":[2.2E0,7.515E1,2.65E0,6.983E1,1.55E0,1.2782538E-1,7.259701E1,5.0819923E1,-1.8528794E-1,1.35E0,5.806957E1,5.806957E1,7.557872E-2,-2.9166628E-2,7.817884E-2,5.602518E1,4.419718E1,-1.2551488E-1,-3.4109799E-3,5.45E0,-8.9484826E-2,-5.2152267E-3,-3.8588036E-2,-2.0546757E-2,1.4091685E-1,7.239E1,-6.960512E-2,-5.306959E-3,1.0871111E-1],"split_indices":[0,2,0,2,0,0,1,1,0,0,1,1,0,0,0,1,1,0,0,0,0,0,0,0,0,2,0,0,0],"split_type":[0,0,0,0,0,0,0,0,0,0,0,0,0,0,0,0,0,0,0,0,0,0,0,0,0,0,0,0,0],"sum_hessian":[2.8839598E1,1.262799E1,1.6211609E1,3.7629702E0,8.865019E0,1.2778769E0,1.4933731E1,2.6549573E0,1.1080129E0,5.934762E0,2.9302573E0,1.3713238E1,1.2204937E0,1.6249217E0,1.0300356E0,2.2513812E0,3.6833808E0,1.1590233E0,1.771234E0,1.1632488E1,2.080749E0,1.1802632E0,1.071118E0,1.4005479E0,2.2828329E0,9.679802E0,1.9526869E0,7.371296E0,2.3085058E0],"tree_param":{"num_deleted":"0","num_feature":"4","num_nodes":"29","size_leaf_vector":"1"}},{"base_weights":[7.6174614E-4,8.852161E-2,-4.4411365E-2,-2.9794104E-2,2.3830736E-1,-2.2286347E-1,6.422783E-3,1.9817525E-1,-2.677068E-1,3.545219E-2,1.4203864E-1,-1.3808432E-1,3.2231443E-2,4.0397328E-1,-1.0378447E-1,-3.0935751E-2,1.539045E-1,-1.4722502E-1,1.2504018E-2,-4.6261027E-2,7.471937E-2,9.605704E-3,1.7433916E-1,-1.4745773E-1,-1.2929898E-2,9.0986386E-2,-9.0323165E-2,-8.920426E-2,1.54124545E-2],"categories":[],"categories_nodes":[],"categories_segments":[],"categories_sizes":[],"default_left":[0,0,0,0,0,0,0,0,0,0,0,0,0,0,0,0,0,0,0,0,0,0,0,0,0,0,0,0,0],"id":36,"left_children":[1,3,5,7,9,11,13,15,17,19,-1,-1,-1,21,23,-1,-1,-1,-1,-1,-1,-1,-1,-1,25,-1,27,-1,-1],"loss_changes":[1.20631136E-1,1.9029868E-1,1.8376498E-1,4.1450033E-1,2.0613256E-1,4.0110293E-1,7.6989836E-1,4.3023977E-1,2.7483943E-1,1.8383898E-1,0E0,0E0,0E0,2.3249859E-1,4.7995847E-1,0E0,0E0,0E0,0E0,0E0,0E0,0E0,0E0,0E0,3.262381E-1,0E0,3.2565877E-1,0E0,0E0],"parents":[2147483647,0,0,1,1,2,2,3,3,4,4,5,5,6,6,7,7,8,8,9,9,13,13,14,14,24,24,26,26],"right_children":[2,4,6,8,10,12,14,16,18,20,-1,-1,-1,22,24,-1,-1,-1,-1,-1,-1,-1,-1,-1,26,-1,28,-1,-1],"split_conditions":[6.983E1,4.7273476E1,2.7290201E1,3.7740482E1,3.2E0,4.1E0,3.9761272E1,3.475722E1,4.186238E1,6.0623993E1,1.4203864E-1,-1.3808432E-1,3.2231443E-2,7.543E1,4.451265E1,-3.0935751E-2,1.539045E-1,-1.4722502E-1,1.2504018E-2,-4.6261027E-2,7.471937E-2,9.605704E-3,1.7433916E-1,-1.4745773E-1,4.7273476E1,9.0986386E-2,1.45E0,-8.920426E-2,1.54124545E-2],"split_indices":[2,1,1,1,0,0,1,1,1,1,0,0,0,2,1,0,0,0,0,0,0,0,0,0,1,0,0,0,0],"split_type":[0,0,0,0,0,0,0,0,0,0,0,0,0,0,0,0,0,0,0,0,0,0,0,0,0,0,0,0,0],"sum_hessian":[2.8437038E1,9.337345E0,1.9099693E1,5.6642466E0,3.673098E0,3.4842355E0,1.56154585E1,2.9778647E0,2.686382E0,2.5897892E0,1.0833088E0,1.7981937E0,1.686042E0,2.8107316E0,1.2804727E1,1.865293E0,1.1125717E0,1.2203821E0,1.4659998E0,1.5191387E0,1.0706505E0,1.2877489E0,1.5229827E0,1.5936135E0,1.1211113E1,1.6304669E0,9.580646E0,3.4466069E0,6.134039E0],"tree_param":{"num_deleted":"0","num_feature":"4","num_nodes":"29","size_leaf_vector":"1"}},{"base_weights":[3.707318E-3,1.2973171E-1,-2.6675547E-2,-2.2697017E-2,2.3656689E-1,-2.0179139E-1,1.1583753E-2,1.2991256E-1,3.0868493E-2,-1.2428336E-1,2.509244E-2,2.2620359E-1,-6.460693E-2,-4.6500888E-2,6.178032E-2,1.9555528E-2,1.4581059E-1,-1.780865E-1,1.1355577E-1,-1.09692104E-1,1.0922312E-1,-3.1699628E-1,2.1437117E-1,1.414324E-1,-1.3368103E-1,1.6155334E-2,-1.5222833E-1,-2.6356865E-2,1.22949496E-1,5.8987785E-2,-9.636886E-2],"categories":[],"categories_nodes":[],"categories_segments":[],"categories_sizes":[],"default_left":[0,0,0,0,0,0,0,0,0,0,0,0,0,0,0,0,0,0,0,0,0,0,0,0,0,0,0,0,0,0,0],"id":37,"left_children":[1,3,5,-1,7,9,11,-1,13,-1,-1,15,17,-1,-1,19,-1,21,23,-1,-1,25,27,-1,29,-1,-1,-1,-1,-1,-1],"loss_changes":[1.1485651E-1,1.4564767E-1,1.649475E-1,0E0,1.5120697E-1,3.0188832E-1,3.557939E-1,0E0,1.3169172E-1,0E0,0E0,2.959364E-1,3.4726787E-1,0E0,0E0,6.918884E-1,0E0,6.279043E-1,6.7397946E-1,0E0,0E0,5.915574E-1,2.2986604E-1,0E0,3.6440477E-1,0E0,0E0,0E0,0E0,0E0,0E0],"parents":[2147483647,0,0,1,1,2,2,4,4,5,5,6,6,8,8,11,11,12,12,15,15,17,17,18,18,21,21,22,22,24,24],"right_children":[2,4,6,-1,8,10,12,-1,14,-1,-1,16,18,-1,-1,20,-1,22,24,-1,-1,26,28,-1,30,-1,-1,-1,-1,-1,-1],"split_conditions":[6.699E1,3.9761272E1,2.7290201E1,-2.2697017E-2,4.9457382E1,4.1E0,3.9761272E1,1.2991256E-1,6.0623993E1,-1.2428336E-1,2.509244E-2,7.543E1,8.025E1,-4.6500888E-2,6.178032E-2,3.663518E1,1.4581059E-1,6.1412384E1,6.2785698E1,-1.09692104E-1,1.0922312E-1,1.4E0,2.1E0,1.414324E-1,2.15E0,1.6155334E-2,-1.5222833E-1,-2.6356865E-2,1.22949496E-1,5.8987785E-2,-9.636886E-2],"split_indices":[2,1,1,0,1,0,1,0,1,0,0,2,2,0,0,1,0,1,1,0,0,0,0,0,0,0,0,0,0,0,0],"split_type":[0,0,0,0,0,0,0,0,0,0,0,0,0,0,0,0,0,0,0,0,0,0,0,0,0,0,0,0,0,0,0],"sum_hessian":[2.809281E1,4.821971E0,2.327084E1,1.7498182E0,3.0721526E0,3.4061792E0,1.986466E1,1.0060173E0,2.0661354E0,1.6938295E0,1.7123497E0,4.6885824E0,1.5176078E1,1.0577259E0,1.0084094E0,3.210492E0,1.4780906E0,9.271246E0,5.9048324E0,1.4868288E0,1.7236632E0,6.9895754E0,2.2816703E0,2.0420454E0,3.862787E0,2.6147707E0,4.374805E0,1.1123049E0,1.1693654E0,1.3814325E0,2.4813545E0],"tree_param":{"num_deleted":"0","num_feature":"4","num_nodes":"31","size_leaf_vector":"1"}},{"base_weights":[1.0566338E-2,-5.9667926E-2,6.535416E-2,5.537868E-2,-1.0755278E-1,1.2066719E-1,1.1604279E-2,-2.146457E-1,1.061894E-1,6.879112E-2,-2.229098E-1,-1.7302276E-1,-6.796837E-2,8.173486E-2,-6.998571E-2,1.0705066E-1,-4.4124997E-3,-2.0151474E-2,-7.916186E-2,1.9317251E-1,-2.7812928E-1,-8.691606E-2,9.166307E-2,-1.1173741E-2,1.0336397E-1,-1.5045005E-1,2.1128686E-2,4.5032063E-3,9.230723E-2],"categories":[],"categories_nodes":[],"categories_segments":[],"categories_sizes":[],"default_left":[0,0,0,0,0,0,0,0,0,0,0,0,0,0,0,0,0,0,0,0,0,0,0,0,0,0,0,0,0],"id":38,"left_children":[1,3,5,-1,7,-1,9,11,13,15,17,-1,19,-1,-1,-1,21,-1,-1,23,25,-1,27,-1,-1,-1,-1,-1,-1],"loss_changes":[1.13600425E-1,1.7209525E-1,2.9396132E-1,0E0,2.8636137E-1,0E0,2.19894E-1,3.8579464E-1,3.1824768E-1,2.7625787E-1,2.8563142E-3,0E0,4.2849243E-1,0E0,0E0,0E0,3.3835477E-1,0E0,0E0,1.3962351E-1,3.6181647E-1,0E0,1.4886802E-1,0E0,0E0,0E0,0E0,0E0,0E0],"parents":[2147483647,0,0,1,1,2,2,4,4,6,6,7,7,8,8,9,9,10,10,12,12,16,16,19,19,20,20,22,22],"right_children":[2,4,6,-1,8,-1,10,12,14,16,18,-1,20,-1,-1,-1,22,-1,-1,24,26,-1,28,-1,-1,-1,-1,-1,-1],"split_conditions":[2.2E0,1.25E0,2.65E0,5.537868E-2,6.0623993E1,1.2066719E-1,7.402E1,1.3E0,2.1E0,2.0678743E1,2.9239782E1,-1.7302276E-1,1.4E0,8.173486E-2,-6.998571E-2,1.0705066E-1,3.475722E1,-2.0151474E-2,-7.916186E-2,1.35E0,7.912E1,-8.691606E-2,6.2785698E1,-1.1173741E-2,1.0336397E-1,-1.5045005E-1,2.1128686E-2,4.5032063E-3,9.230723E-2],"split_indices":[0,0,0,0,1,0,2,0,0,1,1,0,0,0,0,0,1,0,0,0,2,0,1,0,0,0,0,0,0],"split_type":[0,0,0,0,0,0,0,0,0,0,0,0,0,0,0,0,0,0,0,0,0,0,0,0,0,0,0,0,0],"sum_hessian":[2.7508675E1,1.201596E1,1.5492715E1,1.5015376E0,1.0514422E1,1.2397164E0,1.4252999E1,7.001952E0,3.51247E0,1.2026879E1,2.226119E0,1.1733348E0,5.828617E0,2.4902787E0,1.0221913E0,1.6519932E0,1.03748865E1,1.0133297E0,1.2127893E0,2.6351182E0,3.193499E0,2.1058307E0,8.269056E0,1.3437061E0,1.291412E0,1.678842E0,1.5146571E0,6.892794E0,1.3762618E0],"tree_param":{"num_deleted":"0","num_feature":"4","num_nodes":"29","size_leaf_vector":"1"}},{"base_weights":[7.3187323E-3,1.8497853E-1,-1.6160762E-2,1.07200466E-1,-1.2625665E-2,-2.7184126E-1,2.4317596E-2,-1.1995699E-1,7.6960647E-3,-1.6727395E-2,2.1273392E-1,5.336091E-2,-1.6831164E-1,-3.2117188E-2,1.251748E-1,-6.3100874E-2,2.1675001E-1,-1.9874626E-1,5.0383244E-2,1.6238388E-2,-1.0422851E-1,1.4163028E-1,7.664755E-3,-4.85669E-2,4.1705854E-2],"categories":[],"categories_nodes":[],"categories_segments":[],"categories_sizes":[],"default_left":[0,0,0,0,0,0,0,0,0,0,0,0,0,0,0,0,0,0,0,0,0,0,0,0,0],"id":39,"left_children":[1,3,5,-1,-1,7,9,-1,-1,11,13,15,17,-1,-1,19,21,-1,23,-1,-1,-1,-1,-1,-1],"loss_changes":[1.2039393E-1,1.4676338E-1,2.7341658E-1,0E0,0E0,1.475732E-1,1.8277524E-1,0E0,0E0,2.2099726E-1,3.2054585E-1,2.877927E-1,7.4129707E-1,0E0,0E0,3.2495612E-1,2.9163915E-1,0E0,1.2542692E-1,0E0,0E0,0E0,0E0,0E0,0E0],"parents":[2147483647,0,0,1,1,2,2,5,5,6,6,9,9,10,10,11,11,12,12,15,15,16,16,18,18],"right_children":[2,4,6,-1,-1,8,10,-1,-1,12,14,16,18,-1,-1,20,22,-1,24,-1,-1,-1,-1,-1,-1],"split_conditions":[6.619E1,3.475722E1,2.2763094E1,1.07200466E-1,-1.2625665E-2,7.291E1,3.7E0,-1.1995699E-1,7.6960647E-3,6.3413456E1,6.966E1,4.9457382E1,6.496551E1,-3.2117188E-2,1.251748E-1,4.5260353E1,5.4623055E1,-1.9874626E-1,7.472E1,1.6238388E-2,-1.0422851E-1,1.4163028E-1,7.664755E-3,-4.85669E-2,4.1705854E-2],"split_indices":[2,1,1,0,0,2,0,0,0,1,2,1,1,0,0,1,1,0,2,0,0,0,0,0,0],"split_type":[0,0,0,0,0,0,0,0,0,0,0,0,0,0,0,0,0,0,0,0,0,0,0,0,0],"sum_hessian":[2.714537E1,2.365826E0,2.4779545E1,1.0187843E0,1.3470415E0,2.605603E0,2.2173943E1,1.5811409E0,1.0244621E0,1.8955795E1,3.2181473E0,1.3405463E1,5.5503316E0,1.4411774E0,1.7769699E0,8.185055E0,5.2204084E0,1.0801909E0,4.470141E0,6.368809E0,1.8162457E0,1.6061888E0,3.6142194E0,1.0732912E0,3.3968496E0],"tree_param":{"num_deleted":"0","num_feature":"4","num_nodes":"25","size_leaf_vector":"1"}},{"base_weights":[2.5589296E-3,2.5403742E-2,-1.9016454E-1,-5.494743E-2,9.5649585E-2,-7.608407E-2,-9.603531E-3,1.6264617E-2,-2.2178528E-1,1.03636004E-1,3.600348E-2,1.5874007E-1,-2.3876683E-1,-1.2204099E-1,-1.0057631E-4,1.0968814E-1,-2.8089443E-2,-7.565314E-2,2.7841604E-1,-1.4720105E-1,3.0549223E-2,4.8837636E-2,-9.496886E-2,2.0040527E-2,-5.4338723E-2,3.5326965E-2,1.2690122E-1,8.000773E-2,-3.592563E-2],"categories":[],"categories_nodes":[],"categories_segments":[],"categories_sizes":[],"default_left":[0,0,0,0,0,0,0,0,0,0,0,0,0,0,0,0,0,0,0,0,0,0,0,0,0,0,0,0,0],"id":40,"left_children":[1,3,5,7,9,-1,-1,11,13,-1,15,17,19,-1,-1,-1,21,23,25,-1,-1,27,-1,-1,-1,-1,-1,-1,-1],"loss_changes":[1.2728417E-1,1.5058437E-1,2.2640832E-2,1.5384233E-1,1.976883E-1,0E0,0E0,3.9377555E-1,1.576511E-1,0E0,2.7436608E-1,2.1417612E-1,3.8541234E-1,0E0,0E0,0E0,2.6831678E-1,5.887787E-2,6.1017603E-2,0E0,0E0,3.9414412E-1,0E0,0E0,0E0,0E0,0E0,0E0,0E0],"parents":[2147483647,0,0,1,1,2,2,3,3,4,4,7,7,8,8,10,10,11,11,12,12,16,16,17,17,18,18,21,21],"right_children":[2,4,6,8,10,-1,-1,12,14,-1,16,18,20,-1,-1,-1,22,24,26,-1,-1,28,-1,-1,-1,-1,-1,-1,-1],"split_conditions":[5.45E0,2.2E0,1.645E1,1.55E0,2.0678743E1,-7.608407E-2,-9.603531E-3,5.602518E1,5.806957E1,1.03636004E-1,2.65E0,4.2808353E1,6.3806004E1,-1.2204099E-1,-1.0057631E-4,1.0968814E-1,6.3806004E1,2.9239782E1,5.0819923E1,-1.4720105E-1,3.0549223E-2,6.865E1,-9.496886E-2,2.0040527E-2,-5.4338723E-2,3.5326965E-2,1.2690122E-1,8.000773E-2,-3.592563E-2],"split_indices":[0,0,0,0,1,0,0,1,1,0,0,1,1,0,0,0,1,1,1,0,0,2,0,0,0,0,0,0,0],"split_type":[0,0,0,0,0,0,0,0,0,0,0,0,0,0,0,0,0,0,0,0,0,0,0,0,0,0,0,0,0],"sum_hessian":[2.6813026E1,2.47477E1,2.0653265E0,1.1645128E1,1.3102572E1,1.0432057E0,1.0221207E0,8.7940445E0,2.8510838E0,1.601908E0,1.1500664E1,5.8842983E0,2.909746E0,1.0973047E0,1.7537789E0,1.1063213E0,1.0394342E1,2.1132364E0,3.7710621E0,1.4193732E0,1.4903729E0,8.861858E0,1.5324847E0,1.0550109E0,1.0582255E0,2.6457055E0,1.1253567E0,3.612202E0,5.249656E0],"tree_param":{"num_deleted":"0","num_feature":"4","num_nodes":"29","size_leaf_vector":"1"}},{"base_weights":[5.591825E-4,-6.674415E-2,1.9591385E-2,8.893483E-2,-3.2796985E-3,-2.7788684E-2,5.7110723E-2,1.1889582E-2,-2.8308907E-1,-2.5220612E-2,9.873868E-2,-1.1581084E-1,-9.431348E-3,2.535649E-2,-2.8515583E-2],"categories":[],"categories_nodes":[],"categories_segments":[],"categories_sizes":[],"default_left":[0,0,0,0,0,0,0,0,0,0,0,0,0,0,0],"id":41,"left_children":[1,-1,3,-1,5,7,-1,9,11,13,-1,-1,-1,-1,-1],"loss_changes":[1.2183937E-1,0E0,1.6825628E-1,0E0,1.2580302E-1,2.405242E-1,0E0,2.58147E-1,7.049292E-2,1.607554E-1,0E0,0E0,0E0,0E0,0E0],"parents":[2147483647,0,0,2,2,4,4,5,5,7,7,8,8,9,9],"right_children":[2,-1,4,-1,6,8,-1,10,12,14,-1,-1,-1,-1,-1],"split_conditions":[1.7518005E1,-6.674415E-2,2.0678743E1,8.893483E-2,8.286E1,4.15E0,5.7110723E-2,3.7E0,5.9E0,7.12E1,9.873868E-2,-1.1581084E-1,-9.431348E-3,2.535649E-2,-2.8515583E-2],"split_indices":[1,0,1,0,2,0,0,0,0,2,0,0,0,0,0],"split_type":[0,0,0,0,0,0,0,0,0,0,0,0,0,0,0],"sum_hessian":[2.6675482E1,1.2568371E0,2.5418644E1,1.0268393E0,2.4391806E1,2.2411777E1,1.9800273E0,2.0222298E1,2.1894794E0,1.8928562E1,1.2937359E0,1.1748514E0,1.0146279E0,7.2790017E0,1.1649561E1],"tree_param":{"num_deleted":"0","num_feature":"4","num_nodes":"15","size_leaf_vector":"1"}},{"base_weights":[1.9750502E-3,-5.7058927E-2,2.014219E-2,5.2351534E-2,-1.1482856E-1,9.6322276E-2,1.7969469E-2,-2.145126E-1,3.2996994E-2,-5.4402217E-2,1.457936E-1,-1.324284E-2,-1.037165E-1,-2.6830965E-1,4.126247E-2,1.3946E-2,1.2150084E-1,-3.4873562E-3,-1.2802412E-1,1.0558615E-1,-1.429676E-2,3.5515763E-2,-7.692865E-2],"categories":[],"categories_nodes":[],"categories_segments":[],"categories_sizes":[],"default_left":[0,0,0,0,0,0,0,0,0,0,0,0,0,0,0,0,0,0,0,0,0,0,0],"id":42,"left_children":[1,-1,3,5,7,-1,9,11,-1,13,15,-1,-1,17,19,21,-1,-1,-1,-1,-1,-1,-1],"loss_changes":[1.000317E-1,0E0,1.1938706E-1,1.9510785E-1,1.432159E-1,0E0,1.9604574E-1,7.4980944E-2,0E0,2.9166386E-1,2.548719E-1,0E0,0E0,1.7278448E-1,3.024646E-1,2.0228206E-1,0E0,0E0,0E0,0E0,0E0,0E0,0E0],"parents":[2147483647,0,0,2,2,3,3,4,4,6,6,7,7,9,9,10,10,13,13,14,14,15,15],"right_children":[2,-1,4,6,8,-1,10,12,-1,14,16,-1,-1,18,20,22,-1,-1,-1,-1,-1,-1,-1],"split_conditions":[1.9533045E1,-5.7058927E-2,3.3E0,2.2494211E1,5.95E0,9.6322276E-2,2.75E0,4.15E0,3.2996994E-2,7.515E1,7.239E1,-1.324284E-2,-1.037165E-1,1.3E0,7.761E1,7.12E1,1.2150084E-1,-3.4873562E-3,-1.2802412E-1,1.0558615E-1,-1.429676E-2,3.5515763E-2,-7.692865E-2],"split_indices":[1,0,0,1,0,0,0,0,0,2,2,0,0,0,2,2,0,0,0,0,0,0,0],"split_type":[0,0,0,0,0,0,0,0,0,0,0,0,0,0,0,0,0,0,0,0,0,0,0],"sum_hessian":[2.6555159E1,1.4757255E0,2.5079433E1,2.0741758E1,4.3376746E0,1.4069468E0,1.9334812E1,3.0369422E0,1.3007324E0,1.2711941E1,6.6228704E0,1.9027401E0,1.1342021E0,3.3705842E0,9.341357E0,5.0884275E0,1.534443E0,1.696098E0,1.6744864E0,1.4203421E0,7.921015E0,4.0760717E0,1.0123556E0],"tree_param":{"num_deleted":"0","num_feature":"4","num_nodes":"23","size_leaf_vector":"1"}},{"base_weights":[8.9024025E-4,-2.8428132E-2,1.1693265E-1,1.0079124E-2,-1.1293285E-1,2.9193917E-3,8.633617E-2,-3.0343752E-2,1.2300516E-1,5.8645878E-2,-5.8185745E-2,-7.140927E-2,2.1155477E-1,-6.254522E-3,-1.3829063E-1,-1.3535752E-4,9.8688096E-2,-1.7088681E-2,1.1406549E-1],"categories":[],"categories_nodes":[],"categories_segments":[],"categories_sizes":[],"default_left":[0,0,0,0,0,0,0,0,0,0,0,0,0,0,0,0,0,0,0],"id":43,"left_children":[1,3,5,7,-1,9,-1,11,-1,-1,-1,13,15,17,-1,-1,-1,-1,-1],"loss_changes":[9.615564E-2,3.0648398E-1,1.1017401E-1,3.5696316E-1,0E0,2.0579661E-1,0E0,2.1661708E-1,0E0,0E0,0E0,4.562508E-1,7.970713E-2,3.45227E-1,0E0,0E0,0E0,0E0,0E0],"parents":[2147483647,0,0,1,1,2,2,3,3,5,5,7,7,11,11,12,12,13,13],"right_children":[2,4,6,8,-1,10,-1,12,-1,-1,-1,14,16,18,-1,-1,-1,-1,-1],"split_conditions":[6.496551E1,6.3413456E1,2.7E0,6.1412384E1,-1.1293285E-1,2.15E0,8.633617E-2,8.266E1,1.2300516E-1,5.8645878E-2,-5.8185745E-2,5.5165337E1,1.95E0,5.2474354E1,-1.3829063E-1,-1.3535752E-4,9.8688096E-2,-1.7088681E-2,1.1406549E-1],"split_indices":[1,1,0,1,0,0,0,2,0,0,0,1,0,1,0,0,0,0,0],"split_type":[0,0,0,0,0,0,0,0,0,0,0,0,0,0,0,0,0,0,0],"sum_hessian":[2.6285917E1,2.1586946E1,4.6989703E0,2.0310646E1,1.2763015E0,3.4283078E0,1.2706628E0,1.9285532E1,1.0251145E0,1.7366608E0,1.6916468E0,1.7089207E1,2.1963253E0,1.5511008E1,1.5781975E0,1.1378325E0,1.0584928E0,1.4465633E1,1.0453752E0],"tree_param":{"num_deleted":"0","num_feature":"4","num_nodes":"19","size_leaf_vector":"1"}},{"base_weights":[6.5812874E-3,2.566792E-2,-4.8167545E-2,-7.1218796E-3,2.1896367E-1,3.395573E-2,-1.2256313E-1,1.6334405E-3,9.423791E-2,8.630122E-2,-1.9381998E-2,3.9697945E-2,-1.15651816E-1,-2.306203E-1,5.316517E-2,-2.3467024E-1,1.0890945E-1,-1.3101996E-1,1.3731818E-2,-1.7479576E-2,1.0743923E-1,-1.0564655E-1,-2.43897E-4],"categories":[],"categories_nodes":[],"categories_segments":[],"categories_sizes":[],"default_left":[0,0,0,0,0,0,0,0,0,0,0,0,0,0,0,0,0,0,0,0,0,0,0],"id":44,"left_children":[1,3,-1,5,7,9,11,-1,-1,-1,13,15,-1,17,19,21,-1,-1,-1,-1,-1,-1,-1],"loss_changes":[9.013815E-2,1.6040602E-1,0E0,1.1036347E-1,7.278569E-2,2.3970483E-1,2.753322E-1,0E0,0E0,0E0,2.4569757E-1,4.9996677E-1,0E0,2.5250232E-1,4.3379503E-1,8.589192E-2,0E0,0E0,0E0,0E0,0E0,0E0,0E0],"parents":[2147483647,0,0,1,1,3,3,4,4,5,5,6,6,10,10,11,11,13,13,14,14,15,15],"right_children":[2,4,-1,6,8,10,12,-1,-1,-1,14,16,-1,18,20,22,-1,-1,-1,-1,-1,-1,-1],"split_conditions":[5.45E0,3.7E0,-4.8167545E-2,3.1E0,7.176E1,6.66E1,5.806957E1,1.6334405E-3,9.423791E-2,8.630122E-2,7.239E1,4.3681435E1,-1.15651816E-1,4.186238E1,2.2E0,3.7740482E1,1.0890945E-1,-1.3101996E-1,1.3731818E-2,-1.7479576E-2,1.0743923E-1,-1.0564655E-1,-2.43897E-4],"split_indices":[0,0,0,0,2,2,1,0,0,0,2,1,0,1,0,1,0,0,0,0,0,0,0],"split_type":[0,0,0,0,0,0,0,0,0,0,0,0,0,0,0,0,0,0,0,0,0,0,0],"sum_hessian":[2.5963417E1,2.4062061E1,1.9013544E0,2.1395742E1,2.6663196E0,1.6301146E1,5.0945964E0,1.1479197E0,1.5184E0,2.0684822E0,1.4232663E1,3.6754901E0,1.4191065E0,3.0814345E0,1.1151229E1,2.1366384E0,1.5388515E0,1.4328256E0,1.6486089E0,8.759549E0,2.3916798E0,1.0854673E0,1.0511711E0],"tree_param":{"num_deleted":"0","num_feature":"4","num_nodes":"23","size_leaf_vector":"1"}},{"base_weights":[4.3201074E-3,-5.1515564E-2,2.0917721E-2,4.8305217E-2,-9.527626E-2,8.55371E-2,1.7421983E-2,-1.9112764E-1,3.363945E-2,-4.2290986E-2,1.23386316E-1,-3.4292354E-3,-9.073362E-2,-2.347161E-1,4.076664E-2,2.5772994E-2,9.729145E-2,-7.964788E-3,-1.0716296E-1,8.9983225E-2,-1.0081628E-2,4.7482334E-2,-4.2168908E-2],"categories":[],"categories_nodes":[],"categories_segments":[],"categories_sizes":[],"default_left":[0,0,0,0,0,0,0,0,0,0,0,0,0,0,0,0,0,0,0,0,0,0,0],"id":45,"left_children":[1,-1,3,5,7,-1,9,11,-1,13,15,-1,-1,17,19,21,-1,-1,-1,-1,-1,-1,-1],"loss_changes":[8.1683375E-2,0E0,8.516314E-2,1.4972004E-1,1.2411845E-1,0E0,1.3034588E-1,7.4604794E-2,0E0,2.2361642E-1,1.3643277E-1,0E0,0E0,9.725253E-2,2.0682289E-1,1.5569885E-1,0E0,0E0,0E0,0E0,0E0,0E0,0E0],"parents":[2147483647,0,0,2,2,3,3,4,4,6,6,7,7,9,9,10,10,13,13,14,14,15,15],"right_children":[2,-1,4,6,8,-1,10,12,-1,14,16,-1,-1,18,20,22,-1,-1,-1,-1,-1,-1,-1],"split_conditions":[1.9533045E1,-5.1515564E-2,3.3E0,2.2494211E1,5.95E0,8.55371E-2,2.75E0,3.556285E1,3.363945E-2,7.515E1,6.2785698E1,-3.4292354E-3,-9.073362E-2,1.3E0,7.761E1,4.5260353E1,9.729145E-2,-7.964788E-3,-1.0716296E-1,8.9983225E-2,-1.0081628E-2,4.7482334E-2,-4.2168908E-2],"split_indices":[1,0,0,1,0,0,0,1,0,2,1,0,0,0,2,1,0,0,0,0,0,0,0],"split_type":[0,0,0,0,0,0,0,0,0,0,0,0,0,0,0,0,0,0,0,0,0,0,0],"sum_hessian":[2.5726965E1,1.411392E0,2.4315573E1,2.0150314E1,4.165259E0,1.3749131E0,1.8775402E1,2.9024255E0,1.2628332E0,1.2392743E1,6.3826585E0,1.5320191E0,1.3704063E0,3.1858742E0,9.206869E0,5.055024E0,1.327634E0,1.6309557E0,1.5549184E0,1.376593E0,7.830276E0,2.8406553E0,2.214369E0],"tree_param":{"num_deleted":"0","num_feature":"4","num_nodes":"23","size_leaf_vector":"1"}},{"base_weights":[4.4659944E-3,-1.3617484E-1,2.5351781E-2,-8.814631E-2,1.5688345E-2,1.128653E-1,-2.221226E-2,-1.1871247E-2,2.5456163E-1,1.4276718E-1,-8.1838354E-2,-5.5580482E-2,1.2451183E-1,1.921592E-2,1.0903788E-1,-5.2234598E-2,2.930962E-1,-1.3582912E-1,4.9062124E-3,6.3552E-2,-4.827868E-3,1.3041681E-1,3.5821283E-3,-8.014384E-2,9.304448E-2,1.2305471E-1,-5.9637367E-3],"categories":[],"categories_nodes":[],"categories_segments":[],"categories_sizes":[],"default_left":[0,0,0,0,0,0,0,0,0,0,0,0,0,0,0,0,0,0,0,0,0,0,0,0,0,0,0],"id":46,"left_children":[1,3,5,-1,-1,7,9,11,13,15,17,-1,19,-1,-1,-1,21,-1,23,-1,-1,-1,-1,-1,25,-1,-1],"loss_changes":[8.137506E-2,1.2194227E-1,1.02160454E-1,0E0,0E0,1.5492845E-1,1.7248295E-1,1.5375565E-1,6.1120152E-2,2.7510583E-1,4.0900087E-1,0E0,4.8734304E-2,0E0,0E0,0E0,1.3668409E-1,0E0,2.9426423E-1,0E0,0E0,0E0,0E0,0E0,3.3862612E-1,0E0,0E0],"parents":[2147483647,0,0,1,1,2,2,5,5,6,6,7,7,8,8,9,9,10,10,12,12,16,16,18,18,24,24],"right_children":[2,4,6,-1,-1,8,10,12,14,16,18,-1,20,-1,-1,-1,22,-1,24,-1,-1,-1,-1,-1,26,-1,-1],"split_conditions":[2.1162346E1,7.283E1,6.983E1,-8.814631E-2,1.5688345E-2,6.835E1,3.9761272E1,4.6098537E1,4.186238E1,2.7290201E1,4.451265E1,-5.5580482E-2,3.1E0,1.921592E-2,1.0903788E-1,-5.2234598E-2,3.1E0,-1.3582912E-1,1.35E0,6.3552E-2,-4.827868E-3,1.3041681E-1,3.5821283E-3,-8.014384E-2,1.4E0,1.2305471E-1,-5.9637367E-3],"split_indices":[1,2,2,0,0,2,1,1,1,1,1,0,0,0,0,0,0,0,0,0,0,0,0,0,0,0,0],"split_type":[0,0,0,0,0,0,0,0,0,0,0,0,0,0,0,0,0,0,0,0,0,0,0,0,0,0,0],"sum_hessian":[2.5527859E1,2.5870683E0,2.2940792E1,1.1043462E0,1.482722E0,7.5945663E0,1.5346225E1,4.5262704E0,3.068296E0,3.7038019E0,1.1642424E1,1.8349192E0,2.691351E0,1.6936245E0,1.3746715E0,1.1408166E0,2.5629852E0,1.4069043E0,1.0235519E1,1.3476835E0,1.3436674E0,1.3411899E0,1.2217954E0,2.0076401E0,8.227879E0,1.4692388E0,6.75864E0],"tree_param":{"num_deleted":"0","num_feature":"4","num_nodes":"27","size_leaf_vector":"1"}},{"base_weights":[4.7986563E-3,-3.26896E-2,7.714958E-2,8.009098E-3,-9.724069E-2,2.636619E-1,-2.9179392E-2,1.4147808E-1,-6.2331375E-2,2.3352965E-3,1.2717438E-1,-1.04501426E-1,1.0402226E-1,-1.9532192E-2,2.516428E-1,4.5187455E-2,-1.12950206E-1,-2.8122362E-2,1.7460877E-1,1.0880002E-1,7.2818587E-4,-4.7681827E-2,8.422846E-2,8.640826E-2,-1.5044643E-2,9.682771E-3,-8.315711E-2],"categories":[],"categories_nodes":[],"categories_segments":[],"categories_sizes":[],"default_left":[0,0,0,0,0,0,0,0,0,0,0,0,0,0,0,0,0,0,0,0,0,0,0,0,0,0,0],"id":47,"left_children":[1,3,5,7,-1,9,11,13,15,-1,-1,-1,17,-1,19,21,-1,-1,23,-1,-1,25,-1,-1,-1,-1,-1],"loss_changes":[7.384852E-2,2.1639207E-1,1.9159113E-1,1.6646364E-1,0E0,1.3884786E-1,3.255892E-1,1.552359E-1,4.119105E-1,0E0,0E0,0E0,9.415273E-2,0E0,1.1490634E-1,2.2346999E-1,0E0,0E0,1.280307E-1,0E0,0E0,1.5102474E-1,0E0,0E0,0E0,0E0,0E0],"parents":[2147483647,0,0,1,1,2,2,3,3,5,5,6,6,7,7,8,8,12,12,14,14,15,15,18,18,21,21],"right_children":[2,4,6,8,-1,10,12,14,16,-1,-1,-1,18,-1,20,22,-1,-1,24,-1,-1,26,-1,-1,-1,-1,-1],"split_conditions":[5.6599957E1,5.4623055E1,6.3413456E1,1.5E0,-9.724069E-2,7.246E1,6.496551E1,4.2808353E1,7.296E1,2.3352965E-3,1.2717438E-1,-1.04501426E-1,1.4E0,-1.9532192E-2,4.7273476E1,7.24E1,-1.12950206E-1,-2.8122362E-2,7.496321E1,1.0880002E-1,7.2818587E-4,4.2E0,8.422846E-2,8.640826E-2,-1.5044643E-2,9.682771E-3,-8.315711E-2],"split_indices":[1,1,1,0,0,2,1,1,2,0,0,0,0,0,1,2,0,0,1,0,0,0,0,0,0,0,0],"split_type":[0,0,0,0,0,0,0,0,0,0,0,0,0,0,0,0,0,0,0,0,0,0,0,0,0,0,0],"sum_hessian":[2.529734E1,1.7024408E1,8.27293E0,1.579171E1,1.2326989E0,2.4665895E0,5.806341E0,5.1011314E0,1.0690578E1,1.3536977E0,1.1128917E0,1.2341441E0,4.572197E0,1.916407E0,3.1847243E0,8.602646E0,2.0879333E0,1.1163807E0,3.4558163E0,1.8882761E0,1.2964482E0,6.742266E0,1.8603793E0,2.109701E0,1.3461154E0,5.637578E0,1.1046879E0],"tree_param":{"num_deleted":"0","num_feature":"4","num_nodes":"27","size_leaf_vector":"1"}},{"base_weights":[1.7966866E-3,-1.7516833E-2,4.8409745E-2,6.525526E-2,-7.361735E-2,-4.6102744E-2,1.2870292E-1,-2.1301465E-1,-8.6650485E-3,-4.351724E-2,2.7783087E-1,1.554379E-2,-1.1590771E-1,1.379187E-1,-1.3098799E-1,-8.654212E-2,1.1415322E-1,3.4739667E-1,1.8608913E-2,-4.6105996E-2,3.179258E-1,2.1948272E-2,-1.2306893E-1,5.747601E-2,-4.056821E-3,1.2661328E-2,1.5145147E-1,1.9517964E-1,-1.4995045E-2,-4.2312272E-2,8.172642E-2],"categories":[],"categories_nodes":[],"categories_segments":[],"categories_sizes":[],"default_left":[0,0,0,0,0,0,0,0,0,0,0,0,0,0,0,0,0,0,0,0,0,0,0,0,0,0,0,0,0,0,0],"id":48,"left_children":[1,3,-1,5,7,-1,9,11,13,15,17,-1,-1,19,21,-1,23,25,-1,-1,27,29,-1,-1,-1,-1,-1,-1,-1,-1,-1],"loss_changes":[8.292446E-2,1.1664972E-1,0E0,1.6230018E-1,1.3239129E-1,0E0,2.3037125E-1,2.3440169E-1,2.1809831E-1,2.1865572E-1,4.8864245E-2,0E0,0E0,3.4080815E-1,2.9061335E-1,0E0,3.8598023E-2,1.3867968E-1,0E0,0E0,4.933126E-1,2.5111157E-1,0E0,0E0,0E0,0E0,0E0,0E0,0E0,0E0,0E0],"parents":[2147483647,0,0,1,1,3,3,4,4,6,6,7,7,8,8,9,9,10,10,13,13,14,14,16,16,17,17,20,20,21,21],"right_children":[2,4,-1,6,8,-1,10,12,14,16,18,-1,-1,20,22,-1,24,26,-1,-1,28,30,-1,-1,-1,-1,-1,-1,-1,-1,-1],"split_conditions":[8.286E1,7.12E1,4.8409745E-2,3.475722E1,1.45E0,-4.6102744E-2,6.764E1,4.7273476E1,2.65E0,4.6098537E1,4.3681435E1,1.554379E-2,-1.1590771E-1,5.2474354E1,7.541E1,-8.654212E-2,3.1E0,3.15E0,1.8608913E-2,-4.6105996E-2,2.15E0,4.1E0,-1.2306893E-1,5.747601E-2,-4.056821E-3,1.2661328E-2,1.5145147E-1,1.9517964E-1,-1.4995045E-2,-4.2312272E-2,8.172642E-2],"split_indices":[2,2,0,1,0,0,2,1,0,1,1,0,0,1,2,0,0,0,0,0,0,0,0,0,0,0,0,0,0,0,0],"split_type":[0,0,0,0,0,0,0,0,0,0,0,0,0,0,0,0,0,0,0,0,0,0,0,0,0,0,0,0,0,0,0],"sum_hessian":[2.499026E1,2.3086231E1,1.9040279E0,9.260247E0,1.3825984E1,1.7611557E0,7.4990916E0,3.6700196E0,1.0155964E1,3.8087509E0,3.6903408E0,1.7292513E0,1.9407684E0,4.561849E0,5.5941153E0,1.1666486E0,2.642102E0,2.3295772E0,1.3607637E0,1.7969961E0,2.7648528E0,4.209849E0,1.3842666E0,1.3330553E0,1.3090469E0,1.2243339E0,1.1052432E0,1.0484501E0,1.7164026E0,2.8149753E0,1.3948735E0],"tree_param":{"num_deleted":"0","num_feature":"4","num_nodes":"31","size_leaf_vector":"1"}},{"base_weights":[5.4082572E-3,-2.0242564E-2,1.0479882E-1,1.2702899E-2,-9.275633E-2,-5.6147613E-3,8.30936E-2,-4.094609E-2,2.8910747E-1,5.6400247E-2,-5.8185346E-2,-1.6317127E-3,-9.428907E-2,1.6564993E-2,1.1599081E-1,-9.5125124E-2,1.5062109E-1,2.7169453E-2,-7.94079E-2,1.1144244E-3,1.3077906E-1],"categories":[],"categories_nodes":[],"categories_segments":[],"categories_sizes":[],"default_left":[0,0,0,0,0,0,0,0,0,0,0,0,0,0,0,0,0,0,0,0,0],"id":49,"left_children":[1,3,5,7,-1,9,-1,11,13,-1,-1,15,-1,-1,-1,17,19,-1,-1,-1,-1],"loss_changes":[6.78788E-2,2.0707035E-1,1.0522179E-1,3.1013754E-1,0E0,1.9335486E-1,0E0,1.8994229E-1,5.6069046E-2,0E0,0E0,2.4918729E-1,0E0,0E0,0E0,3.651345E-1,2.7769947E-1,0E0,0E0,0E0,0E0],"parents":[2147483647,0,0,1,1,2,2,3,3,5,5,7,7,8,8,11,11,15,15,16,16],"right_children":[2,4,6,8,-1,10,-1,12,14,-1,-1,16,-1,-1,-1,18,20,-1,-1,-1,-1],"split_conditions":[6.496551E1,6.3413456E1,2.7E0,8.266E1,-9.275633E-2,2.15E0,8.30936E-2,5.45E0,4.6098537E1,5.6400247E-2,-5.8185346E-2,3.15E0,-9.428907E-2,1.6564993E-2,1.1599081E-1,4.3681435E1,4.7273476E1,2.7169453E-2,-7.94079E-2,1.1144244E-3,1.3077906E-1],"split_indices":[1,1,0,2,0,0,0,0,1,0,0,0,0,0,0,1,1,0,0,0,0],"split_type":[0,0,0,0,0,0,0,0,0,0,0,0,0,0,0,0,0,0,0,0,0],"sum_hessian":[2.479278E1,2.0339798E1,4.452983E0,1.9116209E1,1.2235887E0,3.30255E0,1.150433E0,1.6722334E1,2.3938744E0,1.6293304E0,1.6732197E0,1.5499155E1,1.2231793E0,1.1653402E0,1.2285342E0,9.835013E0,5.6641407E0,4.9167256E0,4.918288E0,4.4076505E0,1.2564902E0],"tree_param":{"num_deleted":"0","num_feature":"4","num_nodes":"21","size_leaf_vector":"1"}},{"base_weights":[8.203499E-3,-1.2644985E-1,2.8141892E-2,-7.3418096E-2,7.0125773E-3,6.6522025E-2,-5.3213667E-3,8.3913766E-2,-5.5880982E-2,-2.6717504E-2,2.479343E-1,-1.2364502E-1,4.657529E-3,7.510425E-2,-1.6970274E-1,1.2135327E-1,-9.827328E-3,-7.308493E-2,7.375386E-2,-1.2314324E-1,1.0987977E-2,4.0979695E-2,-8.041269E-2],"categories":[],"categories_nodes":[],"categories_segments":[],"categories_sizes":[],"default_left":[0,0,0,0,0,0,0,0,0,0,0,0,0,0,0,0,0,0,0,0,0,0,0],"id":50,"left_children":[1,3,5,-1,-1,-1,7,9,11,13,15,-1,17,-1,19,-1,-1,-1,21,-1,-1,-1,-1],"loss_changes":[7.2247095E-2,6.742093E-2,1.5084924E-1,0E0,0E0,0E0,9.796627E-2,1.4956038E-1,2.9950234E-1,2.6460794E-1,1.5697622E-1,0E0,2.3724505E-1,0E0,2.2836997E-1,0E0,0E0,0E0,2.6789135E-1,0E0,0E0,0E0,0E0],"parents":[2147483647,0,0,1,1,2,2,6,6,7,7,8,8,9,9,10,10,12,12,14,14,18,18],"right_children":[2,4,6,-1,-1,-1,8,10,12,14,16,-1,18,-1,20,-1,-1,-1,22,-1,-1,-1,-1],"split_conditions":[2.1162346E1,7.283E1,2.9239782E1,-7.3418096E-2,7.0125773E-3,6.6522025E-2,6.983E1,5.2474354E1,3.7740482E1,3.7740482E1,3.1E0,-1.2364502E-1,1.35E0,7.510425E-2,4.186238E1,1.2135327E-1,-9.827328E-3,-7.308493E-2,3.25E0,-1.2314324E-1,1.0987977E-2,4.0979695E-2,-8.041269E-2],"split_indices":[1,2,1,0,0,0,2,1,1,1,0,0,0,0,1,0,0,0,0,0,0,0,0],"split_type":[0,0,0,0,0,0,0,0,0,0,0,0,0,0,0,0,0,0,0,0,0,0,0],"sum_hessian":[2.458451E1,2.4817896E0,2.2102722E1,1.0329362E0,1.4488533E0,2.4282072E0,1.9674515E1,6.877095E0,1.279742E1,4.6068797E0,2.2702153E0,1.0151572E0,1.1782262E1,1.3125894E0,3.2942903E0,1.1741353E0,1.0960801E0,2.0152836E0,9.766979E0,1.0636463E0,2.2306442E0,8.757172E0,1.0098073E0],"tree_param":{"num_deleted":"0","num_feature":"4","num_nodes":"23","size_leaf_vector":"1"}},{"base_weights":[-8.145026E-4,6.332533E-2,-3.492219E-2,-1.4624743E-2,2.107633E-1,-1.8662688E-1,1.1235287E-2,1.1126728E-1,-7.1630895E-2,1.0393111E-1,-8.270613E-3,-1.4798024E-1,2.7085207E-2,-5.006377E-2,1.4988603E-1,-2.801756E-2,2.3209953E-1,3.368557E-2,-1.530439E-1,9.6253656E-2,-1.755376E-2,1.1130477E-1,5.587809E-3,-1.5793724E-1,2.875303E-1,-1.2527479E-1,2.4322957E-2,1.8535461E-2,-1.0268181E-1,1.15175635E-1,1.9145023E-2,5.5778142E-2,-5.5635143E-2],"categories":[],"categories_nodes":[],"categories_segments":[],"categories_sizes":[],"default_left":[0,0,0,0,0,0,0,0,0,0,0,0,0,0,0,0,0,0,0,0,0,0,0,0,0,0,0,0,0,0,0,0,0],"id":51,"left_children":[1,3,5,7,9,11,13,15,-1,-1,-1,-1,-1,17,19,-1,21,23,25,-1,-1,-1,-1,27,29,-1,31,-1,-1,-1,-1,-1,-1],"loss_changes":[5.770833E-2,1.0838254E-1,1.225775E-1,2.2207966E-1,1.141119E-1,3.90176E-1,1.2764184E-1,1.4826241E-1,0E0,0E0,0E0,0E0,0E0,9.6156195E-2,1.8208611E-1,0E0,9.704502E-2,3.6833134E-1,2.4066605E-1,0E0,0E0,0E0,0E0,2.0050938E-1,4.4722974E-2,0E0,1.6621333E-1,0E0,0E0,0E0,0E0,0E0,0E0],"parents":[2147483647,0,0,1,1,2,2,3,3,4,4,5,5,6,6,7,7,13,13,14,14,16,16,17,17,18,18,23,23,24,24,26,26],"right_children":[2,4,6,8,10,12,14,16,-1,-1,-1,-1,-1,18,20,-1,22,24,26,-1,-1,-1,-1,28,30,-1,32,-1,-1,-1,-1,-1,-1],"split_conditions":[6.983E1,5.2474354E1,7.24E1,4.451265E1,3.1E0,3.15E0,2.7E0,3.475722E1,-7.1630895E-2,1.0393111E-1,-8.270613E-3,-1.4798024E-1,2.7085207E-2,1.55E0,3.3E0,-2.801756E-2,3.7740482E1,7.769E1,5.2474354E1,9.6253656E-2,-1.755376E-2,1.1130477E-1,5.587809E-3,4.7273476E1,5.602518E1,-1.2527479E-1,6.960494E1,1.8535461E-2,-1.0268181E-1,1.15175635E-1,1.9145023E-2,5.5778142E-2,-5.5635143E-2],"split_indices":[2,1,2,1,0,0,0,1,0,0,0,0,0,0,0,0,1,2,1,0,0,0,0,1,1,0,1,0,0,0,0,0,0],"split_type":[0,0,0,0,0,0,0,0,0,0,0,0,0,0,0,0,0,0,0,0,0,0,0,0,0,0,0,0,0,0,0,0,0],"sum_hessian":[2.4368132E1,8.1622715E0,1.620586E1,5.9286284E0,2.2336428E0,3.0705829E0,1.3135277E1,4.1188498E0,1.8097789E0,1.1343238E0,1.0993191E0,1.0863159E0,1.984267E0,9.551412E0,3.5838652E0,1.6133461E0,2.5055037E0,5.6386395E0,3.9127724E0,1.6723658E0,1.9114994E0,1.0707355E0,