{"learner":{"attributes":{"scikit_learn":"{\"_estimator_type\": \"regressor\"}"},"feature_names":["author_avg_efficiency","author_reputation","author_avg_payout","vote_delay"],"feature_types":["float","float","float","float"],"gradient_booster":{"model":{"gbtree_model_param":{"num_parallel_tree":"1","num_trees":"200"},"iteration_indptr":[0,1,2,3,4,5,6,7,8,9,10,11,12,13,14,15,16,17,18,19,20,21,22,23,24,25,26,27,28,29,30,31,32,33,34,35,36,37,38,39,40,41,42,43,44,45,46,47,48,49,50,51,52,53,54,55,56,57,58,59,60,61,62,63,64,65,66,67,68,69,70,71,72,73,74,75,76,77,78,79,80,81,82,83,84,85,86,87,88,89,90,91,92,93,94,95,96,97,98,99,100,101,102,103,104,105,106,107,108,109,110,111,112,113,114,115,116,117,118,119,120,121,122,123,124,125,126,127,128,129,130,131,132,133,134,135,136,137,138,139,140,141,142,143,144,145,146,147,148,149,150,151,152,153,154,155,156,157,158,159,160,161,162,163,164,165,166,167,168,169,170,171,172,173,174,175,176,177,178,179,180,181,182,183,184,185,186,187,188,189,190,191,192,193,194,195,196,197,198,199,200],"tree_info":[0,0,0,0,0,0,0,0,0,0,0,0,0,0,0,0,0,0,0,0,0,0,0,0,0,0,0,0,0,0,0,0,0,0,0,0,0,0,0,0,0,0,0,0,0,0,0,0,0,0,0,0,0,0,0,0,0,0,0,0,0,0,0,0,0,0,0,0,0,0,0,0,0,0,0,0,0,0,0,0,0,0,0,0,0,0,0,0,0,0,0,0,0,0,0,0,0,0,0,0,0,0,0,0,0,0,0,0,0,0,0,0,0,0,0,0,0,0,0,0,0,0,0,0,0,0,0,0,0,0,0,0,0,0,0,0,0,0,0,0,0,0,0,0,0,0,0,0,0,0,0,0,0,0,0,0,0,0,0,0,0,0,0,0,0,0,0,0,0,0,0,0,0,0,0,0,0,0,0,0,0,0,0,0,0,0,0,0,0,0,0,0,0,0,0,0,0,0,0,0],"trees":[{"base_weights":[3.6065651E-7,-2.8809757E1,7.781742E1,-5.0015335E1,-1.0371865E0,6.1510544E1,1.4003033E2,-1.1778835E2,-4.652735E1,-1.1253712E1,1.115497E1,3.7381126E1,7.742435E1,3.3801956E1,5.5556152E1,-3.5747242E1,-8.016037E0,-5.9077526E1,-4.2087353E1,-1.7998127E1,-6.9344025E0,4.8554454E0,1.5871E1,9.720212E1,3.572356E1,6.919511E1,8.95383E1,-5.939393E1,2.718691E0,-4.393352E1,-2.9659151E1,3.0885282E0,-2.0185719E1,-6.1215963E0,-3.4740322E1,7.1759634E0,-3.2726727E0,1.6457758E1,-1.4958035E1,8.126113E0,4.047495E1,3.0713293E1,1.3837603E1,1.7943228E1,2.1809013E1,1.345998E0,9.0204124E1,-2.023416E1,-1.6626268E1,3.2202766E0,-1.3212275E1,3.155018E0,-9.1940565E0,4.9989653E0,-3.7707193E0,-1.0769251E1,-4.4152017E0,-1.903294E0,4.2545066E0,3.0504491E0,-1.3175929E1,2.5450273E0,-2.8368528E0,-1.7164038E1,5.659641E-1,4.2600985E0,6.247084E0,-1.4252168E1,9.485343E0,2.7294035E1,8.806621E0],"categories":[],"categories_nodes":[],"categories_segments":[],"categories_sizes":[],"default_left":[0,0,0,0,0,0,0,0,0,0,0,0,0,0,0,0,0,0,0,0,0,0,0,0,0,0,0,0,0,0,0,0,0,0,0,0,0,0,0,0,0,0,0,0,0,0,0,0,0,0,0,0,0,0,0,0,0,0,0,0,0,0,0,0,0,0,0,0,0,0,0],"id":0,"left_children":[1,3,5,7,9,11,13,15,17,19,21,23,25,-1,-1,-1,-1,27,29,31,33,35,37,39,41,43,45,47,-1,49,51,53,55,57,59,61,63,65,-1,-1,-1,67,-1,-1,-1,-1,69,-1,-1,-1,-1,-1,-1,-1,-1,-1,-1,-1,-1,-1,-1,-1,-1,-1,-1,-1,-1,-1,-1,-1,-1],"loss_changes":[5.385046E6,1.03234825E6,6.49796E5,2.294925E5,9.479225E4,1.9524512E5,1.4467275E5,2.800875E3,5.028325E4,1.193552E4,1.0231871E4,1.7053156E4,2.4707875E4,0E0,0E0,0E0,0E0,5.8203125E3,1.4827E4,7.4891094E3,5.5279375E3,2.8527014E3,8.457098E3,9.567242E3,9.162828E3,1.8625E3,6.504125E3,4.069E3,0E0,4.054E3,4.0523906E3,3.6101924E3,1.2015715E4,1.2113984E3,3.3322266E3,2.6244883E3,9.569875E3,1.6458516E3,0E0,0E0,0E0,1.14073125E4,0E0,0E0,0E0,0E0,3.0425625E3,0E0,0E0,0E0,0E0,0E0,0E0,0E0,0E0,0E0,0E0,0E0,0E0,0E0,0E0,0E0,0E0,0E0,0E0,0E0,0E0,0E0,0E0,0E0,0E0],"parents":[2147483647,0,0,1,1,2,2,3,3,4,4,5,5,6,6,7,7,8,8,9,9,10,10,11,11,12,12,17,17,18,18,19,19,20,20,21,21,22,22,23,23,24,24,25,25,26,26,27,27,29,29,30,30,31,31,32,32,33,33,34,34,35,35,36,36,37,37,41,41,46,46],"right_children":[2,4,6,8,10,12,14,16,18,20,22,24,26,-1,-1,-1,-1,28,30,32,34,36,38,40,42,44,46,48,-1,50,52,54,56,58,60,62,64,66,-1,-1,-1,68,-1,-1,-1,-1,70,-1,-1,-1,-1,-1,-1,-1,-1,-1,-1,-1,-1,-1,-1,-1,-1,-1,-1,-1,-1,-1,-1,-1,-1],"split_conditions":[6.1215107E1,9.815625E0,1.4210399E2,-7.0126465E1,3.8877262E1,9.476502E1,1.7566461E2,1.256E0,-1.4194879E1,2.8232582E1,5.24349E1,7.639E1,1.3044958E2,3.3801956E1,5.5556152E1,-3.5747242E1,-8.016037E0,9.434867E0,5.2072325E0,7.193E1,2.325575E1,8.132E1,8.429E1,6.779E1,7.722295E1,1.1403734E2,2.85E0,-2.9869684E1,2.718691E0,3E-2,6.582E1,2.1182333E1,7.769E1,2.1886734E1,4.45E0,4.85E0,8.189E1,8.224E1,-1.4958035E1,8.126113E0,4.047495E1,1.85E0,1.3837603E1,1.7943228E1,2.1809013E1,1.345998E0,6.663993E1,-2.023416E1,-1.6626268E1,3.2202766E0,-1.3212275E1,3.155018E0,-9.1940565E0,4.9989653E0,-3.7707193E0,-1.0769251E1,-4.4152017E0,-1.903294E0,4.2545066E0,3.0504491E0,-1.3175929E1,2.5450273E0,-2.8368528E0,-1.7164038E1,5.659641E-1,4.2600985E0,6.247084E0,-1.4252168E1,9.485343E0,2.7294035E1,8.806621E0],"split_indices":[0,0,0,0,0,0,0,2,0,0,0,1,0,0,0,0,0,2,0,1,2,1,1,1,0,0,3,0,0,2,1,0,1,2,3,3,1,1,0,0,0,3,0,0,0,0,2,0,0,0,0,0,0,0,0,0,0,0,0,0,0,0,0,0,0,0,0,0,0,0,0],"split_type":[0,0,0,0,0,0,0,0,0,0,0,0,0,0,0,0,0,0,0,0,0,0,0,0,0,0,0,0,0,0,0,0,0,0,0,0,0,0,0,0,0,0,0,0,0,0,0,0,0,0,0,0,0,0,0,0,0,0,0,0,0,0,0,0,0,0,0,0,0,0,0],"sum_hessian":[2.4E3,1.752E3,6.48E2,9.93E2,7.59E2,5.15E2,1.33E2,4.7E1,9.46E2,4.13E2,3.46E2,2.06E2,3.09E2,8.5E1,4.8E1,4.6E1,1E0,2.44E2,7.02E2,1.6E2,2.53E2,1.49E2,1.97E2,4E0,2.02E2,1.88E2,1.21E2,2.43E2,1E0,6.09E2,9.3E1,1.5E1,1.45E2,2.47E2,6E0,1.16E2,3.3E1,1.96E2,1E0,2E0,2E0,1.39E2,6.3E1,5.6E1,1.32E2,1E0,1.2E2,7.5E1,1.68E2,1E0,6.08E2,2E0,9.1E1,8E0,7E0,3.6E1,1.09E2,2.45E2,2E0,1E0,5E0,1.08E2,8E0,2E0,3.1E1,1.32E2,6.4E1,1E0,1.38E2,1.18E2,2E0],"tree_param":{"num_deleted":"0","num_feature":"4","num_nodes":"71","size_leaf_vector":"1"}},{"base_weights":[3.6327045E-2,-2.0032799E1,5.5406956E1,-3.5105236E1,-5.496334E-1,4.627579E1,1.12810715E2,-7.5831825E1,-3.2127018E1,-6.6506805E0,1.0031791E1,3.0462263E1,5.941382E1,2.8066643E1,4.4428547E1,-2.4966887E1,-4.7071163E1,-3.634266E1,-2.6545002E1,-1.2685372E1,-3.6773186E0,1.0369136E1,-1.2714331E1,2.334617E1,3.791195E1,5.2936607E1,2.0916481E1,-8.633909E0,-1.583074E1,-4.1224895E1,-3.3527897E1,-2.8272585E1,-1.9216476E1,-1.1718112E1,-1.7916506E1,-2.880546E0,-2.644942E1,7.588345E0,1.3450572E1,8.273192E1,2.1796144E1,3.3649475E1,4.2182323E1,5.3521877E1,1.2487264E1,-1.5660518E1,-1.1252506E1,-1.0167341E1,-4.278766E0,-8.535569E0,4.4467235E0,-4.1383986E0,-6.106917E0,-3.8264847E0,6.8302283E0,-1.26733E0,4.8776916E-1,-1.8688068E0,-1.11341505E1,2.6004016E0,-5.9304495E0,2.828936E0,4.510594E0,3.2605637E1,4.623728E0,6.9999366E0,-4.157066E0,1.032154E1,5.264837E0,1.1737059E1,1.8498451E1,1.7454435E1,1.459404E1,-6.2248454E0,9.144802E0],"categories":[],"categories_nodes":[],"categories_segments":[],"categories_sizes":[],"default_left":[0,0,0,0,0,0,0,0,0,0,0,0,0,0,0,0,0,0,0,0,0,0,0,0,0,0,0,0,0,0,0,0,0,0,0,0,0,0,0,0,0,0,0,0,0,0,0,0,0,0,0,0,0,0,0,0,0,0,0,0,0,0,0,0,0,0,0,0,0,0,0,0,0,0,0],"id":1,"left_children":[1,3,5,7,9,11,13,15,17,19,21,23,25,-1,-1,-1,27,29,31,33,35,37,-1,39,41,43,-1,-1,-1,45,47,49,51,53,-1,55,57,59,61,63,65,67,69,71,73,-1,-1,-1,-1,-1,-1,-1,-1,-1,-1,-1,-1,-1,-1,-1,-1,-1,-1,-1,-1,-1,-1,-1,-1,-1,-1,-1,-1,-1,-1],"loss_changes":[2.6691972E6,5.177012E5,3.2971975E5,1.18128625E5,4.97762E4,1.13080625E5,4.52535E4,1.0325094E4,2.087275E4,8.727637E3,5.4255625E3,1.2527109E4,1.640575E4,0E0,0E0,0E0,1.4891016E2,5.84625E3,4.5589375E3,6.625082E3,5.893248E3,2.3057734E3,0E0,1.0347297E4,8.012656E2,3.8060625E3,0E0,0E0,0E0,5.711625E3,1.8889062E3,2.9253906E3,2.1362305E2,5.975578E3,0E0,1.9387808E3,2.1407915E3,4.60171E3,6.993125E2,3.5664297E3,7.447047E3,1.9916406E2,9.838125E2,1.3948125E3,3.024935E3,0E0,0E0,0E0,0E0,0E0,0E0,0E0,0E0,0E0,0E0,0E0,0E0,0E0,0E0,0E0,0E0,0E0,0E0,0E0,0E0,0E0,0E0,0E0,0E0,0E0,0E0,0E0,0E0,0E0,0E0],"parents":[2147483647,0,0,1,1,2,2,3,3,4,4,5,5,6,6,7,7,8,8,9,9,10,10,11,11,12,12,16,16,17,17,18,18,19,19,20,20,21,21,23,23,24,24,25,25,29,29,30,30,31,31,32,32,33,33,35,35,36,36,37,37,38,38,39,39,40,40,41,41,42,42,43,43,44,44],"right_children":[2,4,6,8,10,12,14,16,18,20,22,24,26,-1,-1,-1,28,30,32,34,36,38,-1,40,42,44,-1,-1,-1,46,48,50,52,54,-1,56,58,60,62,64,66,68,70,72,74,-1,-1,-1,-1,-1,-1,-1,-1,-1,-1,-1,-1,-1,-1,-1,-1,-1,-1,-1,-1,-1,-1,-1,-1,-1,-1,-1,-1,-1,-1],"split_conditions":[6.171978E1,9.815625E0,1.5042772E2,-5.690986E1,4.5630623E1,1.1403734E2,9.533523E1,1.256E0,-5.7413216E0,2.8232582E1,8.429E1,7.722295E1,1.3579622E2,2.8066643E1,4.4428547E1,-2.4966887E1,6.08E1,-1.5717747E1,8.567E1,2.0777967E1,4.85E0,5.5365166E1,-1.2714331E1,7.639E1,9.476502E1,6.415721E1,2.0916481E1,-8.633909E0,-1.583074E1,6.636E1,8.524E1,1.6132376E1,1.1459387E1,1.88145E1,-1.7916506E1,3.8877262E1,1.6608126E1,2.8241545E1,2.316657E1,6.7824936E1,3.5195667E1,4.509375E1,4.95E0,4.2E0,1.3306496E2,-1.5660518E1,-1.1252506E1,-1.0167341E1,-4.278766E0,-8.535569E0,4.4467235E0,-4.1383986E0,-6.106917E0,-3.8264847E0,6.8302283E0,-1.26733E0,4.8776916E-1,-1.8688068E0,-1.11341505E1,2.6004016E0,-5.9304495E0,2.828936E0,4.510594E0,3.2605637E1,4.623728E0,6.9999366E0,-4.157066E0,1.032154E1,5.264837E0,1.1737059E1,1.8498451E1,1.7454435E1,1.459404E1,-6.2248454E0,9.144802E0],"split_indices":[0,0,0,0,0,0,2,2,0,0,1,0,0,0,0,0,1,0,1,2,3,0,0,1,0,2,0,0,0,1,1,2,2,2,0,0,2,2,2,0,2,2,3,3,0,0,0,0,0,0,0,0,0,0,0,0,0,0,0,0,0,0,0,0,0,0,0,0,0,0,0,0,0,0,0],"split_type":[0,0,0,0,0,0,0,0,0,0,0,0,0,0,0,0,0,0,0,0,0,0,0,0,0,0,0,0,0,0,0,0,0,0,0,0,0,0,0,0,0,0,0,0,0,0,0,0,0,0,0,0,0,0,0,0,0,0,0,0,0,0,0,0,0,0,0,0,0,0,0,0,0,0,0],"sum_hessian":[2.4E3,1.762E3,6.38E2,9.93E2,7.69E2,5.52E2,8.6E1,6.6E1,9.27E2,4.88E2,2.81E2,2.52E2,3E2,5.8E1,2.8E1,5.1E1,1.5E1,5.25E2,4.02E2,1.6E2,3.28E2,2.8E2,1E0,1.31E2,1.21E2,1.88E2,1.12E2,5E0,1E1,1.87E2,3.38E2,3.23E2,7.9E1,1.58E2,2E0,3.18E2,1E1,1.49E2,1.31E2,2E0,1.29E2,6.5E1,5.6E1,1.85E2,3E0,4.4E1,1.43E2,3.31E2,7E0,3.22E2,1E0,1.6E1,6.3E1,1.54E2,4E0,2.45E2,7.3E1,4E0,6E0,1.44E2,5E0,3.9E1,9.2E1,1E0,1E0,1.24E2,5E0,6.1E1,4E0,5.1E1,5E0,8.9E1,9.6E1,1E0,2E0],"tree_param":{"num_deleted":"0","num_feature":"4","num_nodes":"75","size_leaf_vector":"1"}},{"base_weights":[5.531198E-2,-1.3572199E1,4.080193E1,-2.4348406E1,6.149887E-1,3.540447E1,8.9876816E1,-5.382006E1,-2.225964E1,-4.004115E0,7.9482665E0,2.4035023E1,4.390903E1,7.632293E1,3.323054E1,-5.8736202E1,-3.447885E1,-2.483515E1,-1.7055157E1,-3.287122E0,-2.4501846E1,8.146757E0,-1.4484033E1,6.13646E1,2.2956707E1,3.7858643E1,1.5267726E1,7.758406E1,4.2599764E0,-1.7976273E1,-1.9412346E1,-3.7037525E1,-5.263036E0,-2.6331486E1,-1.8785378E1,-1.7392868E1,7.328185E0,-7.861243E0,-1.5348167E0,-9.43501E0,-3.838931E1,6.1127977E0,1.0153341E1,-1.080718E1,4.2893653E0,2.8087238E1,6.5486436E0,1.9240208E1,3.0380938E1,3.930439E1,2.2534866E1,9.779191E0,2.3753355E1,-3.2278433E-1,-8.412771E0,-7.60016E0,-1.3940846E1,-9.623754E0,-7.5261264E0,-1.2171762E1,-5.385375E0,1.3047749E0,-5.326225E0,-1.3293036E1,-1.9895967E0,-5.5825734E-1,6.1263814E0,-2.5350095E-3,-4.244065E0,-8.271084E0,-1.7118378E1,2.1470647E0,-6.0936193E0,3.4036398E0,-6.4575803E-1,4.6087055E0,6.7657175E0,8.576116E0,1.3873837E1,1.1117296E1,1.3272694E1,-3.3439367E0,8.330642E0],"categories":[],"categories_nodes":[],"categories_segments":[],"categories_sizes":[],"default_left":[0,0,0,0,0,0,0,0,0,0,0,0,0,0,0,0,0,0,0,0,0,0,0,0,0,0,0,0,0,0,0,0,0,0,0,0,0,0,0,0,0,0,0,0,0,0,0,0,0,0,0,0,0,0,0,0,0,0,0,0,0,0,0,0,0,0,0,0,0,0,0,0,0,0,0,0,0,0,0,0,0,0,0],"id":2,"left_children":[1,3,5,7,9,11,13,15,17,19,21,23,25,27,-1,29,31,33,35,37,39,41,43,45,47,49,-1,51,-1,-1,53,55,-1,57,59,61,-1,63,65,67,69,71,73,-1,-1,-1,-1,75,77,79,81,-1,-1,-1,-1,-1,-1,-1,-1,-1,-1,-1,-1,-1,-1,-1,-1,-1,-1,-1,-1,-1,-1,-1,-1,-1,-1,-1,-1,-1,-1,-1,-1],"loss_changes":[1.333769E6,2.752063E5,1.5627562E5,6.177725E4,2.6385154E4,5.154525E4,8.252469E3,4.345453E3,1.240425E4,6.9444976E3,1.4582285E3,8.0507344E3,1.11714375E4,1.9537812E3,0E0,1.2593438E3,4.354883E1,5.2808438E3,4.9077734E3,3.6989976E3,2.9856377E3,1.1582461E3,2.3749448E3,5.6087305E3,5.761672E3,2.8805312E3,0E0,1.4357812E2,0E0,0E0,4.4456934E2,2.5779883E2,0E0,2.8358125E3,1.6341953E3,2.5746406E3,0E0,5.4411675E3,2.4432854E3,3.9963104E2,4.2904297E1,4.3114297E3,2.2102695E3,0E0,0E0,0E0,0E0,1.6572344E3,8.1247656E2,6.9E1,3.3063848E3,0E0,0E0,0E0,0E0,0E0,0E0,0E0,0E0,0E0,0E0,0E0,0E0,0E0,0E0,0E0,0E0,0E0,0E0,0E0,0E0,0E0,0E0,0E0,0E0,0E0,0E0,0E0,0E0,0E0,0E0,0E0,0E0],"parents":[2147483647,0,0,1,1,2,2,3,3,4,4,5,5,6,6,7,7,8,8,9,9,10,10,11,11,12,12,13,13,15,15,16,16,17,17,18,18,19,19,20,20,21,21,22,22,23,23,24,24,25,25,27,27,30,30,31,31,33,33,34,34,35,35,37,37,38,38,39,39,40,40,41,41,42,42,47,47,48,48,49,49,50,50],"right_children":[2,4,6,8,10,12,14,16,18,20,22,24,26,28,-1,30,32,34,36,38,40,42,44,46,48,50,-1,52,-1,-1,54,56,-1,58,60,62,-1,64,66,68,70,72,74,-1,-1,-1,-1,76,78,80,82,-1,-1,-1,-1,-1,-1,-1,-1,-1,-1,-1,-1,-1,-1,-1,-1,-1,-1,-1,-1,-1,-1,-1,-1,-1,-1,-1,-1,-1,-1,-1,-1],"split_conditions":[6.65249E1,1.3084654E1,1.6377821E2,-5.690986E1,4.8355885E1,1.1546249E2,2.5383257E2,1.256E0,-3.4569116E0,4.85E0,8.429E1,7.639E1,1.3579622E2,4.35E0,3.323054E1,-6.349536E1,3.321889E0,8.522E1,1.63544E1,2.8232582E1,1.6608126E1,5.671195E1,6.0525326E1,2.2243063E1,9.476502E1,7.962E1,1.5267726E1,1.9E0,4.2599764E0,-1.7976273E1,7.34E1,7.659E1,-5.263036E0,6.4676666E0,-4.5508236E1,6.451E1,7.328185E0,3E-2,2.669123E1,7.843E1,4.5630623E1,2.7142467E1,4.65E0,-1.080718E1,4.2893653E0,2.8087238E1,6.5486436E0,7.290117E1,4.95E0,1.310693E2,8.57E1,9.779191E0,2.3753355E1,-3.2278433E-1,-8.412771E0,-7.60016E0,-1.3940846E1,-9.623754E0,-7.5261264E0,-1.2171762E1,-5.385375E0,1.3047749E0,-5.326225E0,-1.3293036E1,-1.9895967E0,-5.5825734E-1,6.1263814E0,-2.5350095E-3,-4.244065E0,-8.271084E0,-1.7118378E1,2.1470647E0,-6.0936193E0,3.4036398E0,-6.4575803E-1,4.6087055E0,6.7657175E0,8.576116E0,1.3873837E1,1.1117296E1,1.3272694E1,-3.3439367E0,8.330642E0],"split_indices":[0,0,0,0,0,0,0,2,0,3,1,1,0,3,0,0,2,1,2,0,2,0,0,2,0,1,0,3,0,0,1,1,0,2,0,1,0,2,2,1,0,2,3,0,0,0,0,0,3,0,1,0,0,0,0,0,0,0,0,0,0,0,0,0,0,0,0,0,0,0,0,0,0,0,0,0,0,0,0,0,0,0,0],"split_type":[0,0,0,0,0,0,0,0,0,0,0,0,0,0,0,0,0,0,0,0,0,0,0,0,0,0,0,0,0,0,0,0,0,0,0,0,0,0,0,0,0,0,0,0,0,0,0,0,0,0,0,0,0,0,0,0,0,0,0,0,0,0,0,0,0,0,0,0,0,0,0,0,0,0,0,0,0,0,0,0,0,0,0],"sum_hessian":[2.4E3,1.799E3,6.01E2,1.022E3,7.77E2,5.43E2,5.8E1,6.6E1,9.56E2,4.77E2,3E2,2.34E2,3.09E2,3.8E1,2E1,5.1E1,1.5E1,6.37E2,3.19E2,4.62E2,1.5E1,2.98E2,2E0,5E0,2.29E2,1.69E2,1.4E2,3.7E1,1E0,4.9E1,2E0,1.2E1,3E0,5.08E2,1.29E2,3.17E2,2E0,1.27E2,3.35E2,8E0,7E0,1.5E2,1.48E2,1E0,1E0,2E0,3E0,1.55E2,7.4E1,1.53E2,1.6E1,2E0,3.5E1,1E0,1E0,7E0,5E0,8.6E1,4.22E2,3E0,1.26E2,5E0,3.12E2,3E0,1.24E2,3.31E2,4E0,3E0,5E0,6E0,1E0,1.45E2,5E0,1.35E2,1.3E1,7.4E1,8.1E1,6.9E1,5E0,1.11E2,4.2E1,2E0,1.4E1],"tree_param":{"num_deleted":"0","num_feature":"4","num_nodes":"83","size_leaf_vector":"1"}},{"base_weights":[6.0440566E-2,-1.0280886E1,2.690445E1,-1.8000393E1,-1.3705829E0,2.1706577E1,5.4258205E1,-3.8472786E1,-1.6390137E1,-4.73164E0,3.5419686E0,1.3613167E1,2.7854473E1,1.3674028E1,7.5728355E1,-1.5219954E1,-3.2562775E1,-1.8078167E1,-1.2921357E1,-1.2875987E1,-4.060631E0,3.7400806E0,-9.186104E0,5.2332848E1,1.2753368E1,3.0941893E1,2.3361084E1,2.4097794E1,8.073518E0,-1.0057524E1,-1.3596174E1,-1.7802591E1,-1.3829591E1,-1.4436013E1,-8.3869915E0,1.002641E0,-2.2837038E1,9.9599916E-1,-4.733949E0,9.5475235E0,2.850747E0,3.696634E0,2.2469791E1,9.209462E0,1.5758857E1,2.7210995E1,3.3384476E1,2.389795E1,1.3249287E1,-4.8654766E0,-8.594904E-1,-6.3838563E0,-4.8402057E0,-2.4429798E0,-4.7666054E0,-1.6170806E0,-3.059529E0,6.2770295E0,-2.986318E0,-2.1312983E1,-4.207073E0,6.4685903E0,-1.2864674E0,-4.783836E0,-1.1382847E0,3.9420195E0,2.3705883E0,-2.115935E0,1.3631482E0,-2.2592169E-1,3.2226074E0,4.3011346E0,7.28468E0,8.28969E0,2.1981738E0,-2.723663E0,1.0159853E1,5.2266054E0,7.508164E0,-5.8543453E0,5.9352207E0],"categories":[],"categories_nodes":[],"categories_segments":[],"categories_sizes":[],"default_left":[0,0,0,0,0,0,0,0,0,0,0,0,0,0,0,0,0,0,0,0,0,0,0,0,0,0,0,0,0,0,0,0,0,0,0,0,0,0,0,0,0,0,0,0,0,0,0,0,0,0,0,0,0,0,0,0,0,0,0,0,0,0,0,0,0,0,0,0,0,0,0,0,0,0,0,0,0,0,0,0,0],"id":3,"left_children":[1,3,5,7,9,11,13,15,17,19,21,23,25,-1,27,-1,29,31,33,35,37,39,-1,41,43,45,47,-1,-1,-1,49,51,-1,53,55,57,59,61,63,65,67,-1,-1,69,71,73,75,77,79,-1,-1,-1,-1,-1,-1,-1,-1,-1,-1,-1,-1,-1,-1,-1,-1,-1,-1,-1,-1,-1,-1,-1,-1,-1,-1,-1,-1,-1,-1,-1,-1],"loss_changes":[6.668006E5,1.192453E5,9.3799375E4,2.9994625E4,1.332492E4,2.763425E4,1.629825E4,3.2027422E3,4.819625E3,2.565419E3,2.334416E3,7.48891E3,3.7026406E3,0E0,4.347078E3,0E0,4.2026172E2,3.6425156E3,1.8431758E3,4.999743E3,1.5164116E3,1.6616572E3,0E0,3.591582E3,2.4218008E3,7.8659375E2,4.108047E2,0E0,0E0,0E0,6.6087524E1,2.9867344E3,0E0,1.817707E3,3.4672803E2,3.7006443E3,7.9258584E3,5.852247E3,4.0694912E3,1.503728E2,4.8109375E3,0E0,0E0,1.7333965E3,1.2150938E3,4.593164E2,2.5165781E3,4.8542188E2,2.3130127E3,0E0,0E0,0E0,0E0,0E0,0E0,0E0,0E0,0E0,0E0,0E0,0E0,0E0,0E0,0E0,0E0,0E0,0E0,0E0,0E0,0E0,0E0,0E0,0E0,0E0,0E0,0E0,0E0,0E0,0E0,0E0,0E0],"parents":[2147483647,0,0,1,1,2,2,3,3,4,4,5,5,6,6,7,7,8,8,9,9,10,10,11,11,12,12,14,14,16,16,17,17,18,18,19,19,20,20,21,21,23,23,24,24,25,25,26,26,30,30,31,31,33,33,34,34,35,35,36,36,37,37,38,38,39,39,40,40,43,43,44,44,45,45,46,46,47,47,48,48],"right_children":[2,4,6,8,10,12,14,16,18,20,22,24,26,-1,28,-1,30,32,34,36,38,40,-1,42,44,46,48,-1,-1,-1,50,52,-1,54,56,58,60,62,64,66,68,-1,-1,70,72,74,76,78,80,-1,-1,-1,-1,-1,-1,-1,-1,-1,-1,-1,-1,-1,-1,-1,-1,-1,-1,-1,-1,-1,-1,-1,-1,-1,-1,-1,-1,-1,-1,-1,-1],"split_conditions":[6.0525326E1,6.77494E0,1.4810545E2,-5.690986E1,3.8877262E1,9.942868E1,9.533523E1,-8.281136E1,8.075E1,1.3149242E1,8.429E1,7.639E1,4.15E0,1.3674028E1,8.813E1,-1.5219954E1,3.321889E0,1.4525556E1,-3.671792E-1,4.25E0,7.193E1,3E-2,-9.186104E0,6.779E1,7.119522E1,1.310693E2,8.57E1,2.4097794E1,8.073518E0,-1.0057524E1,7.965E1,-1.4194879E1,-1.3829591E1,8.4491E0,1.1717167E1,3E-2,4.35E0,2.1182333E1,7.423E1,7.707E1,1.8931545E1,3.696634E0,2.2469791E1,1.4525556E1,4.95E0,6.21985E1,2.85E0,1.1484673E2,1.2148063E2,-4.8654766E0,-8.594904E-1,-6.3838563E0,-4.8402057E0,-2.4429798E0,-4.7666054E0,-1.6170806E0,-3.059529E0,6.2770295E0,-2.986318E0,-2.1312983E1,-4.207073E0,6.4685903E0,-1.2864674E0,-4.783836E0,-1.1382847E0,3.9420195E0,2.3705883E0,-2.115935E0,1.3631482E0,-2.2592169E-1,3.2226074E0,4.3011346E0,7.28468E0,8.28969E0,2.1981738E0,-2.723663E0,1.0159853E1,5.2266054E0,7.508164E0,-5.8543453E0,5.9352207E0],"split_indices":[0,0,0,0,0,0,2,0,1,2,1,1,3,0,1,0,2,2,0,3,1,2,0,1,0,0,1,0,0,0,1,0,0,2,2,2,3,0,1,1,2,0,0,2,3,2,3,0,0,0,0,0,0,0,0,0,0,0,0,0,0,0,0,0,0,0,0,0,0,0,0,0,0,0,0,0,0,0,0,0,0],"split_type":[0,0,0,0,0,0,0,0,0,0,0,0,0,0,0,0,0,0,0,0,0,0,0,0,0,0,0,0,0,0,0,0,0,0,0,0,0,0,0,0,0,0,0,0,0,0,0,0,0,0,0,0,0,0,0,0,0,0,0,0,0,0,0,0,0,0,0,0,0,0,0,0,0,0,0,0,0,0,0,0,0],"sum_hessian":[2.4E3,1.733E3,6.67E2,9.28E2,8.05E2,5.62E2,1.05E2,6.6E1,8.62E2,4.78E2,3.27E2,2.44E2,3.18E2,7.7E1,2.8E1,1.9E1,4.7E1,5.77E2,2.85E2,3.5E1,4.43E2,3.26E2,1E0,4E0,2.4E2,1.85E2,1.33E2,2.5E1,3E0,4.4E1,3E0,5.73E2,4E0,2.12E2,7.3E1,1.5E1,2E1,5.2E1,3.91E2,4.2E1,2.84E2,2E0,2E0,1.12E2,1.28E2,7.8E1,1.07E2,1.25E2,8E0,2E0,1E0,1.82E2,3.91E2,4.1E1,1.71E2,2.9E1,4.4E1,5E0,1E1,2E0,1.8E1,1E1,4.2E1,2.9E1,3.62E2,1.1E1,3.1E1,4.1E1,2.43E2,1.5E1,9.7E1,1.12E2,1.6E1,7.6E1,2E0,1E0,1.06E2,2.1E1,1.04E2,1E0,7E0],"tree_param":{"num_deleted":"0","num_feature":"4","num_nodes":"81","size_leaf_vector":"1"}},{"base_weights":[5.1803023E-2,-6.701121E0,2.0652119E1,-1.2493775E1,-6.319905E-2,1.7758238E1,4.6543205E1,-2.7393671E1,-1.1370679E1,-2.973074E0,3.1284335E0,1.2558618E1,2.1789412E1,3.967946E1,1.738306E1,-3.410363E1,-2.1375452E1,-1.2585068E1,-8.316594E0,-1.0150311E1,-2.3691642E0,7.2234745E0,2.5935166E0,3.862411E1,1.1827226E1,1.9812336E1,2.6557165E1,4.0907665E1,3.2687075E0,-8.252243E0,-1.1903181E1,-1.8713175E1,-9.147667E0,-1.2389402E1,-3.503496E1,-8.883444E0,-7.951375E0,9.0751797E-1,-1.892794E1,-2.13411E0,-1.5563112E1,1.0193687E1,1.6816361E0,-1.0727414E1,3.2480845E0,1.7975832E1,3.898977E0,1.677145E1,1.0333187E1,2.0914469E1,1.1665357E1,8.274622E0,1.7154882E1,5.0885468E0,1.2530049E1,-6.3165116E0,-2.2024553E0,-4.708626E0,-3.4076455E0,-1.1558572E1,-3.1590781E0,-4.2052305E-1,-2.780106E0,4.707772E0,-2.1718676E0,-1.7050386E1,-3.3375356E0,1.0572613E0,-8.565585E-1,3.0596902E0,-6.466986E0,1.3056842E0,3.5766523E0,-1.3043338E1,-1.81176E-1,-1.2433091E-2,1.1595045E0,1.905135E0,5.323485E0,3.498289E0,1.7078559E0,5.5771294E0,7.1545763E0,6.35903E-1,5.3151865E0,-6.405258E-2,7.1084156E0],"categories":[],"categories_nodes":[],"categories_segments":[],"categories_sizes":[],"default_left":[0,0,0,0,0,0,0,0,0,0,0,0,0,0,0,0,0,0,0,0,0,0,0,0,0,0,0,0,0,0,0,0,0,0,0,0,0,0,0,0,0,0,0,0,0,0,0,0,0,0,0,0,0,0,0,0,0,0,0,0,0,0,0,0,0,0,0,0,0,0,0,0,0,0,0,0,0,0,0,0,0,0,0,0,0,0,0],"id":4,"left_children":[1,3,5,7,9,11,13,15,17,19,21,23,25,27,-1,29,31,33,35,37,39,41,43,45,47,49,51,53,-1,-1,-1,55,-1,57,59,-1,61,63,65,67,69,71,-1,73,75,-1,-1,77,79,81,83,-1,85,-1,-1,-1,-1,-1,-1,-1,-1,-1,-1,-1,-1,-1,-1,-1,-1,-1,-1,-1,-1,-1,-1,-1,-1,-1,-1,-1,-1,-1,-1,-1,-1,-1,-1],"loss_changes":[3.341472E5,6.9557414E4,4.3604438E4,1.5853578E4,7.8477417E3,1.094025E4,2.3175234E3,1.9766133E3,3.2332969E3,1.891759E3,8.640403E2,4.0423125E3,2.3017188E3,9.683789E2,0E0,1.1515625E1,3.5170508E2,2.3860312E3,1.7788711E3,3.3172695E3,1.2352148E3,1.6392969E2,3.1564092E3,2.4957305E3,1.5330605E3,1.6955E3,3.459336E2,7.335156E1,0E0,0E0,0E0,6.976123E2,0E0,1.9954688E3,2.2333496E1,0E0,2.192961E3,2.0408868E3,4.9875107E3,1.6543525E3,1.3006918E3,9.956323E1,0E0,5.6100625E3,6.94218E2,0E0,0E0,4.1484473E2,1.0426543E3,8.454375E2,1.579999E3,0E0,1.254509E3,0E0,0E0,0E0,0E0,0E0,0E0,0E0,0E0,0E0,0E0,0E0,0E0,0E0,0E0,0E0,0E0,0E0,0E0,0E0,0E0,0E0,0E0,0E0,0E0,0E0,0E0,0E0,0E0,0E0,0E0,0E0,0E0,0E0,0E0],"parents":[2147483647,0,0,1,1,2,2,3,3,4,4,5,5,6,6,7,7,8,8,9,9,10,10,11,11,12,12,13,13,15,15,16,16,17,17,18,18,19,19,20,20,21,21,22,22,23,23,24,24,25,25,26,26,27,27,31,31,33,33,34,34,36,36,37,37,38,38,39,39,40,40,41,41,43,43,44,44,47,47,48,48,49,49,50,50,52,52],"right_children":[2,4,6,8,10,12,14,16,18,20,22,24,26,28,-1,30,32,34,36,38,40,42,44,46,48,50,52,54,-1,-1,-1,56,-1,58,60,-1,62,64,66,68,70,72,-1,74,76,-1,-1,78,80,82,84,-1,86,-1,-1,-1,-1,-1,-1,-1,-1,-1,-1,-1,-1,-1,-1,-1,-1,-1,-1,-1,-1,-1,-1,-1,-1,-1,-1,-1,-1,-1,-1,-1,-1,-1,-1],"split_conditions":[6.6921005E1,7.311412E0,1.6377821E2,-5.690986E1,3.8877262E1,1.1654028E2,1.3640967E2,-7.960099E1,8.522E1,1.3149242E1,3E-2,7.639E1,1.4148015E2,4E0,1.738306E1,7.659E1,8.098E1,1.4525556E1,-4.5508236E1,4.25E0,2.325575E1,7.707E1,1.7765E1,2.2243063E1,7.728E1,7.962E1,4.4E0,1.9E0,3.2687075E0,-8.252243E0,-1.1903181E1,2.1085E0,-9.147667E0,-1.6851389E1,4.05E0,-8.883444E0,9.658173E0,3E-2,4.35E0,7.193E1,4.45E0,7.346E1,1.6816361E0,7.639E1,1.9769423E1,1.7975832E1,3.898977E0,3.5195667E1,4E0,1.3219061E2,8.57E1,8.274622E0,4.45E0,5.0885468E0,1.2530049E1,-6.3165116E0,-2.2024553E0,-4.708626E0,-3.4076455E0,-1.1558572E1,-3.1590781E0,-4.2052305E-1,-2.780106E0,4.707772E0,-2.1718676E0,-1.7050386E1,-3.3375356E0,1.0572613E0,-8.565585E-1,3.0596902E0,-6.466986E0,1.3056842E0,3.5766523E0,-1.3043338E1,-1.81176E-1,-1.2433091E-2,1.1595045E0,1.905135E0,5.323485E0,3.498289E0,1.7078559E0,5.5771294E0,7.1545763E0,6.35903E-1,5.3151865E0,-6.405258E-2,7.1084156E0],"split_indices":[0,0,0,0,0,0,2,0,1,2,2,1,0,3,0,1,1,2,0,3,2,1,2,2,1,1,3,3,0,0,0,2,0,0,3,0,2,2,3,1,3,1,0,1,2,0,0,2,3,0,1,0,3,0,0,0,0,0,0,0,0,0,0,0,0,0,0,0,0,0,0,0,0,0,0,0,0,0,0,0,0,0,0,0,0,0,0],"split_type":[0,0,0,0,0,0,0,0,0,0,0,0,0,0,0,0,0,0,0,0,0,0,0,0,0,0,0,0,0,0,0,0,0,0,0,0,0,0,0,0,0,0,0,0,0,0,0,0,0,0,0,0,0,0,0,0,0,0,0,0,0,0,0,0,0,0,0,0,0,0,0,0,0,0,0,0,0,0,0,0,0,0,0,0,0,0,0],"sum_hessian":[2.4E3,1.808E3,5.92E2,9.65E2,8.43E2,5.34E2,5.8E1,6.6E1,8.99E2,4.41E2,4.02E2,2.35E2,2.99E2,3.9E1,1.9E1,2.9E1,3.7E1,6.41E2,2.58E2,3.3E1,4.08E2,4.5E1,3.57E2,5E0,2.3E2,2.15E2,8.4E1,3.7E1,2E0,1.6E1,1.3E1,3.1E1,6E0,6.37E2,4E0,3E0,2.55E2,1.5E1,1.8E1,4.02E2,6E0,1.4E1,3.1E1,1.6E1,3.41E2,2E0,3E0,5.1E1,1.79E2,1.88E2,2.7E1,7.4E1,1E1,2E0,3.5E1,2.5E1,6E0,1.48E2,4.89E2,3E0,1E0,4.3E1,2.12E2,5E0,1E1,2E0,1.6E1,4.5E1,3.57E2,1E0,5E0,4E0,1E1,3E0,1.3E1,5.4E1,2.87E2,5E0,4.6E1,1.38E2,4.1E1,1.09E2,7.9E1,1.1E1,1.6E1,3E0,7E0],"tree_param":{"num_deleted":"0","num_feature":"4","num_nodes":"87","size_leaf_vector":"1"}},{"base_weights":[3.928969E-2,-5.156791E0,1.3527261E1,-8.607467E0,-1.9162513E-1,1.1628602E1,3.4069233E1,-1.9740078E1,-7.8190737E0,-3.4387162E0,1.14617E0,6.8426456E0,1.47747555E1,4.1370285E1,2.8863918E1,-1.5803719E1,-2.6134233E1,-7.9010143E0,6.261517E0,-8.993604E0,-1.3830794E0,3.805816E1,7.7549917E-1,3.3116356E1,6.2691555E0,1.2457843E1,1.7356E1,1.2729266E1,3.023742E0,5.908709E0,9.233998E0,-1.785617E1,-5.8379397E0,-8.544089E0,-1.4349324E1,-9.222167E0,-6.266532E0,-1.905117E0,-3.229359E1,-2.5524306E0,6.088672E0,2.4445206E1,-1.8053747E1,1.0181756E0,-1.2603943E1,1.7434864E1,3.7012014E0,6.5945663E0,-5.5509567E0,1.27245035E1,-6.0111375E0,1.6359438E1,6.0423384E0,-5.634575E0,2.1817386E0,-6.3882446E0,-3.732436E-1,-4.001985E-1,-5.005677E0,-4.157286E0,-2.515251E0,6.0536823E0,-1.9125642E0,-1.6472006E0,1.0596919E1,-1.2792587E1,4.9244833E0,-3.800921E-1,-4.016495E0,5.311186E0,7.868897E-2,1.5658094E0,-9.689996E0,-1.4535538E0,4.8972082E-1,-4.2759064E-1,-1.5304961E1,1.7858509E0,4.889861E0,6.8448395E-1,-5.0264764E0,4.878484E0,3.4711049E0,-3.1123915E0,4.9928136E0],"categories":[],"categories_nodes":[],"categories_segments":[],"categories_sizes":[],"default_left":[0,0,0,0,0,0,0,0,0,0,0,0,0,0,0,0,0,0,0,0,0,0,0,0,0,0,0,0,0,0,0,0,0,0,0,0,0,0,0,0,0,0,0,0,0,0,0,0,0,0,0,0,0,0,0,0,0,0,0,0,0,0,0,0,0,0,0,0,0,0,0,0,0,0,0,0,0,0,0,0,0,0,0,0,0],"id":5,"left_children":[1,3,5,7,9,11,13,15,17,19,21,23,25,27,29,31,33,35,-1,37,39,41,43,45,47,49,51,-1,-1,-1,-1,53,55,-1,57,59,61,63,65,67,69,-1,71,73,75,-1,-1,77,79,81,-1,83,-1,-1,-1,-1,-1,-1,-1,-1,-1,-1,-1,-1,-1,-1,-1,-1,-1,-1,-1,-1,-1,-1,-1,-1,-1,-1,-1,-1,-1,-1,-1,-1,-1],"loss_changes":[1.6834286E5,2.9707281E4,2.5657281E4,8.824398E3,3.0968286E3,9.1290625E3,9.341289E2,1.2733496E3,2.4147656E3,2.362678E3,6.8799976E3,3.4839795E3,1.9905938E3,2.6927344E2,2.6175781E1,7.957451E2,2.5488281E2,2.0044336E3,0E0,9.187529E3,1.3523174E3,1.3654628E4,1.6395176E3,1.8803628E3,9.635879E2,1.9706562E3,1.4789844E2,0E0,0E0,0E0,0E0,9.740488E2,6.1253076E2,0E0,1.6018518E2,1.9270625E3,1.3645234E3,6.0672236E3,7.252664E3,1.835603E3,1.416531E3,0E0,1.1632483E3,1.783415E3,3.7918916E3,0E0,0E0,1.3665459E3,6.525191E2,6.160742E2,0E0,1.1723047E3,0E0,0E0,0E0,0E0,0E0,0E0,0E0,0E0,0E0,0E0,0E0,0E0,0E0,0E0,0E0,0E0,0E0,0E0,0E0,0E0,0E0,0E0,0E0,0E0,0E0,0E0,0E0,0E0,0E0,0E0,0E0,0E0,0E0],"parents":[2147483647,0,0,1,1,2,2,3,3,4,4,5,5,6,6,7,7,8,8,9,9,10,10,11,11,12,12,13,13,14,14,15,15,16,16,17,17,19,19,20,20,21,21,22,22,23,23,24,24,25,25,26,26,31,31,32,32,34,34,35,35,36,36,37,37,38,38,39,39,40,40,42,42,43,43,44,44,47,47,48,48,49,49,51,51],"right_children":[2,4,6,8,10,12,14,16,18,20,22,24,26,28,30,32,34,36,-1,38,40,42,44,46,48,50,52,-1,-1,-1,-1,54,56,-1,58,60,62,64,66,68,70,-1,72,74,76,-1,-1,78,80,82,-1,84,-1,-1,-1,-1,-1,-1,-1,-1,-1,-1,-1,-1,-1,-1,-1,-1,-1,-1,-1,-1,-1,-1,-1,-1,-1,-1,-1,-1,-1,-1,-1,-1,-1],"split_conditions":[6.0525326E1,1.3084654E1,7.756886E1,-5.690986E1,7.815E1,9.942868E1,2.8E0,7.659E1,1.63544E1,2.8232582E1,7.818E1,7.639E1,1.3306496E2,8.813E1,1.6377821E2,1.256E0,2.1085E0,-5.7413216E0,6.261517E0,4.5E0,2.669123E1,1.6453312E1,6.020252E1,6.7824936E1,4.61255E1,6.415721E1,1.4884886E2,1.2729266E1,3.023742E0,5.908709E0,9.233998E0,-6.349536E1,3.8E0,-8.544089E0,3.8E0,6.669E1,3E-2,4.45E0,2.7321772E1,2.350655E1,5.1564297E1,2.4445206E1,1.4407442E1,2.2856876E1,4E0,1.7434864E1,3.7012014E0,9.476502E1,7.666E1,3.7E0,-6.0111375E0,2.85E0,6.0423384E0,-5.634575E0,2.1817386E0,-6.3882446E0,-3.732436E-1,-4.001985E-1,-5.005677E0,-4.157286E0,-2.515251E0,6.0536823E0,-1.9125642E0,-1.6472006E0,1.0596919E1,-1.2792587E1,4.9244833E0,-3.800921E-1,-4.016495E0,5.311186E0,7.868897E-2,1.5658094E0,-9.689996E0,-1.4535538E0,4.8972082E-1,-4.2759064E-1,-1.5304961E1,1.7858509E0,4.889861E0,6.8448395E-1,-5.0264764E0,4.878484E0,3.4711049E0,-3.1123915E0,4.9928136E0],"split_indices":[0,0,2,0,1,0,3,1,2,0,1,1,0,1,0,2,2,0,0,3,2,2,0,0,2,2,0,0,0,0,0,0,3,0,3,1,2,3,0,2,0,0,0,0,3,0,0,0,1,3,0,3,0,0,0,0,0,0,0,0,0,0,0,0,0,0,0,0,0,0,0,0,0,0,0,0,0,0,0,0,0,0,0,0,0],"split_type":[0,0,0,0,0,0,0,0,0,0,0,0,0,0,0,0,0,0,0,0,0,0,0,0,0,0,0,0,0,0,0,0,0,0,0,0,0,0,0,0,0,0,0,0,0,0,0,0,0,0,0,0,0,0,0,0,0,0,0,0,0,0,0,0,0,0,0,0,0,0,0,0,0,0,0,0,0,0,0,0,0,0,0,0,0],"sum_hessian":[2.4E3,1.733E3,6.67E2,1.022E3,7.11E2,6.12E2,5.5E1,6.6E1,9.56E2,2.07E2,5.04E2,2.44E2,3.68E2,2E1,3.5E1,4.3E1,2.3E1,9.54E2,2E0,5.5E1,1.52E2,4E0,5E2,4E0,2.4E2,1.97E2,1.71E2,1.9E1,1E0,8E0,2.7E1,3.5E1,8E0,1.8E1,5E0,5.25E2,4.29E2,4.3E1,1.2E1,1.32E2,2E1,2E0,2E0,4.92E2,8E0,1E0,3E0,2.34E2,6E0,1.96E2,1E0,1.31E2,4E1,3.4E1,1E0,1E0,7E0,1E0,4E0,7.8E1,4.47E2,1E0,4.28E2,4E1,3E0,1E1,2E0,1.19E2,1.3E1,6E0,1.4E1,1E0,1E0,4.6E1,4.46E2,7E0,1E0,2.21E2,1.3E1,4E0,2E0,4.5E1,1.51E2,1E0,1.3E2],"tree_param":{"num_deleted":"0","num_feature":"4","num_nodes":"85","size_leaf_vector":"1"}},{"base_weights":[4.661662E-2,-3.3821814E0,1.02987585E1,-6.0452013E0,1.23797596E-1,8.867457E0,2.4957573E1,-1.2045425E1,-5.2193713E0,-8.5750663E-1,2.262135E0,6.9518623E0,1.1865597E1,9.078548E0,1.9140852E1,-1.2952744E1,4.8405275E0,-5.2867026E0,5.0092134E0,-2.5371048E-1,-4.9915547E0,2.423338E0,-1.1549352E1,9.842305E0,4.807551E0,1.09498825E1,1.387206E1,2.0463974E1,6.0861206E0,-7.890001E0,-1.4685941E1,1.8581618E0,-4.9193147E-1,-5.8986244E0,-2.721388E0,-1.1560174E0,6.005565E0,-3.5989985E0,-1.4743925E1,-6.803761E-1,3.190818E0,-7.917975E0,2.7207665E0,1.4819634E1,9.215859E0,4.3338423E0,1.6978552E1,1.1902993E1,5.4103837E0,4.468342E0,3.216134E0,2.1268524E1,1.7321777E-1,2.2850587E0,2.2408448E-1,-3.3383634E0,2.3986328E0,-7.489077E0,-3.5940425E0,-2.3312235E0,-1.5600045E0,7.4801433E-1,-1.212867E0,-2.7611274E-1,-9.821823E0,1.2397721E1,1.2123744E0,-1.8982209E0,5.194172E0,1.2316592E0,-6.7221723E0,2.3287153E0,6.3207805E-1,2.9442954E0,-1.1183624E0,1.7440262E0,-1.6886203E-1,1.2085507E0,9.870737E0,-1.08039096E-1,3.6904447E0,1.0311439E0,4.325186E0,7.158028E-1,6.5957294E0],"categories":[],"categories_nodes":[],"categories_segments":[],"categories_sizes":[],"default_left":[0,0,0,0,0,0,0,0,0,0,0,0,0,0,0,0,0,0,0,0,0,0,0,0,0,0,0,0,0,0,0,0,0,0,0,0,0,0,0,0,0,0,0,0,0,0,0,0,0,0,0,0,0,0,0,0,0,0,0,0,0,0,0,0,0,0,0,0,0,0,0,0,0,0,0,0,0,0,0,0,0,0,0,0,0],"id":6,"left_children":[1,3,5,7,9,11,13,15,17,19,21,23,25,-1,27,29,31,33,-1,35,37,39,41,43,45,47,49,51,53,55,57,-1,-1,59,61,63,65,67,-1,69,71,-1,-1,-1,73,75,77,79,81,-1,-1,83,-1,-1,-1,-1,-1,-1,-1,-1,-1,-1,-1,-1,-1,-1,-1,-1,-1,-1,-1,-1,-1,-1,-1,-1,-1,-1,-1,-1,-1,-1,-1,-1,-1],"loss_changes":[8.443604E4,1.6806432E4,1.2409367E4,5.0062617E3,1.6344634E3,3.0762812E3,1.0559883E3,1.9471738E3,1.4178652E3,1.331663E3,5.73469E2,2.0476084E3,2.3945703E2,0E0,3.5909766E2,9.1077344E2,7.154709E1,1.3951719E3,0E0,2.6444595E3,4.004315E3,5.810065E2,1.1575463E3,3.0882842E3,1.056456E3,7.328418E2,4.332617E1,3.8771387E2,2.7002167E1,1.7348953E3,2.0925273E3,0E0,0E0,9.078086E2,1.216063E3,3.0137947E3,3.9264146E3,3.9324946E3,0E0,5.1871475E3,9.4988635E2,0E0,0E0,0E0,1.1365596E3,1.3798364E3,1.3109595E3,6.299297E2,3.7699188E2,0E0,0E0,2.7258008E2,0E0,0E0,0E0,0E0,0E0,0E0,0E0,0E0,0E0,0E0,0E0,0E0,0E0,0E0,0E0,0E0,0E0,0E0,0E0,0E0,0E0,0E0,0E0,0E0,0E0,0E0,0E0,0E0,0E0,0E0,0E0,0E0,0E0],"parents":[2147483647,0,0,1,1,2,2,3,3,4,4,5,5,6,6,7,7,8,8,9,9,10,10,11,11,12,12,14,14,15,15,16,16,17,17,19,19,20,20,21,21,22,22,23,23,24,24,25,25,26,26,27,27,28,28,29,29,30,30,33,33,34,34,35,35,36,36,37,37,39,39,40,40,44,44,45,45,46,46,47,47,48,48,51,51],"right_children":[2,4,6,8,10,12,14,16,18,20,22,24,26,-1,28,30,32,34,-1,36,38,40,42,44,46,48,50,52,54,56,58,-1,-1,60,62,64,66,68,-1,70,72,-1,-1,-1,74,76,78,80,82,-1,-1,84,-1,-1,-1,-1,-1,-1,-1,-1,-1,-1,-1,-1,-1,-1,-1,-1,-1,-1,-1,-1,-1,-1,-1,-1,-1,-1,-1,-1,-1,-1,-1,-1,-1],"split_conditions":[6.65249E1,1.3084654E1,8.756E1,-2.9869684E1,5.24349E1,1.2901598E2,8.813E1,6.0165453E0,1.63544E1,4.6E0,8.429E1,7.752E1,1.4654121E2,9.078548E0,9.533523E1,6.08E1,-3.287227E1,8.524E1,5.0092134E0,4.45E0,5.1564297E1,1.9769423E1,6.0525326E1,6.7824936E1,6.1393E1,6.543723E1,8.606E1,4E0,3.05E0,-5.690986E1,7.08E1,1.8581618E0,-4.9193147E-1,4.05E0,1.0590606E1,2.8241545E1,1.4407442E1,4.8355885E1,-1.4743925E1,3E-2,2.301825E1,-7.917975E0,2.7207665E0,1.4819634E1,5.7282455E1,4.05E0,7.768E1,2.85E0,6.90095E1,4.468342E0,3.216134E0,1.6377821E2,1.7321777E-1,2.2850587E0,2.2408448E-1,-3.3383634E0,2.3986328E0,-7.489077E0,-3.5940425E0,-2.3312235E0,-1.5600045E0,7.4801433E-1,-1.212867E0,-2.7611274E-1,-9.821823E0,1.2397721E1,1.2123744E0,-1.8982209E0,5.194172E0,1.2316592E0,-6.7221723E0,2.3287153E0,6.3207805E-1,2.9442954E0,-1.1183624E0,1.7440262E0,-1.6886203E-1,1.2085507E0,9.870737E0,-1.08039096E-1,3.6904447E0,1.0311439E0,4.325186E0,7.158028E-1,6.5957294E0],"split_indices":[0,0,1,0,0,0,1,2,2,3,1,1,0,0,2,1,0,1,0,3,0,2,0,0,2,2,1,3,3,0,1,0,0,3,2,2,0,0,0,2,2,0,0,0,2,3,1,3,2,0,0,0,0,0,0,0,0,0,0,0,0,0,0,0,0,0,0,0,0,0,0,0,0,0,0,0,0,0,0,0,0,0,0,0,0],"split_type":[0,0,0,0,0,0,0,0,0,0,0,0,0,0,0,0,0,0,0,0,0,0,0,0,0,0,0,0,0,0,0,0,0,0,0,0,0,0,0,0,0,0,0,0,0,0,0,0,0,0,0,0,0,0,0,0,0,0,0,0,0,0,0,0,0,0,0,0,0,0,0,0,0,0,0,0,0,0,0,0,0,0,0,0,0],"sum_hessian":[2.4E3,1.799E3,6.01E2,1.022E3,7.77E2,5.49E2,5.2E1,1.22E2,9E2,5.33E2,2.44E2,3.37E2,2.12E2,2.5E1,2.7E1,1.16E2,6E0,8.98E2,2E0,4.66E2,6.7E1,2.42E2,2E0,1.42E2,1.95E2,1.5E2,6.2E1,2.4E1,3E0,3.1E1,8.5E1,5E0,1E0,7.24E2,1.74E2,4.08E2,5.8E1,6.6E1,1E0,4.8E1,1.94E2,1E0,1E0,1E0,1.41E2,1.89E2,6E0,1.27E2,2.3E1,4.4E1,1.8E1,2.3E1,1E0,2E0,1E0,2.6E1,5E0,1.6E1,6.9E1,1.94E2,5.3E2,3.5E1,1.39E2,4.06E2,2E0,2E0,5.6E1,5.9E1,7E0,4E1,8E0,3.6E1,1.58E2,1.35E2,6E0,1.45E2,4.4E1,4E0,2E0,4E0,1.23E2,2E1,3E0,1E0,2.2E1],"tree_param":{"num_deleted":"0","num_feature":"4","num_nodes":"85","size_leaf_vector":"1"}},{"base_weights":[4.9011804E-2,-2.3593824E0,7.3959527E0,-4.041321E0,6.029901E-1,6.3265877E0,1.7537424E1,-3.9443195E0,-1.1982819E1,-1.957828E0,9.620583E-1,4.4174314E0,7.7927074E0,4.4058228E0,6.580665E0,-8.137619E0,-3.2449813E0,-1.0577865E1,2.3094234E0,1.1384157E1,6.821766E-1,2.0914946E1,3.9698017E0,8.964549E0,5.593876E0,-7.4605355E0,-1.2596272E1,-3.334608E0,1.5060499E1,1.3076582E0,-3.896944E1,-2.4255693E0,6.6382294E0,2.3321663E1,-1.0409047E1,-8.525879E0,8.305346E-1,1.2596688E1,8.302351E0,1.2789609E1,3.5960433E0,8.353682E0,1.1946471E1,8.920413E0,4.075855E0,-2.680985E0,5.5460143E-1,2.4467702E0,-1.0346767E0,6.283767E0,1.2464824E0,3.3059242E0,-5.4272944E-1,-1.4125506E1,2.6759427E0,-1.1965725E-1,-8.268012E0,3.4755225E0,1.3612918E0,3.1317751E0,8.205413E0,-1.4043204E1,1.8700249E0,-1.3509068E1,2.5010474E0,7.339443E0,2.2306684E-1,8.4841156E-1,3.3027642E0,2.0326653E0,4.400214E0,-9.452961E-1,1.1882966E0,2.5777879E0,-3.1765872E-1,6.8637687E-1,4.4004655E0,1.4946551E0,3.1989195E0,-3.92305E0,1.5631216E0],"categories":[],"categories_nodes":[],"categories_segments":[],"categories_sizes":[],"default_left":[0,0,0,0,0,0,0,0,0,0,0,0,0,0,0,0,0,0,0,0,0,0,0,0,0,0,0,0,0,0,0,0,0,0,0,0,0,0,0,0,0,0,0,0,0,0,0,0,0,0,0,0,0,0,0,0,0,0,0,0,0,0,0,0,0,0,0,0,0,0,0,0,0,0,0,0,0,0,0,0,0],"id":7,"left_children":[1,3,5,7,9,11,13,15,-1,17,19,21,23,-1,-1,25,27,29,31,33,35,37,39,41,43,45,-1,47,49,51,53,55,57,59,61,63,65,-1,67,69,71,73,75,77,79,-1,-1,-1,-1,-1,-1,-1,-1,-1,-1,-1,-1,-1,-1,-1,-1,-1,-1,-1,-1,-1,-1,-1,-1,-1,-1,-1,-1,-1,-1,-1,-1,-1,-1,-1,-1],"loss_changes":[4.2501527E4,9.01583E3,6.3200957E3,3.8612383E3,6.05081E2,1.4714648E3,3.8012695E2,3.351875E3,0E0,3.0039214E3,1.6724001E3,1.6597803E3,7.3058984E2,0E0,0E0,3.4455059E3,1.672835E3,9.162074E3,1.1434291E3,4.145104E3,7.7482275E2,1.2461809E3,7.154939E2,2.5722852E2,5.090149E2,2.242585E3,0E0,1.3219521E3,2.3388855E2,6.2534E2,3.5291816E3,1.3643961E3,2.4877869E2,2.3359619E2,3.9266672E3,5.915467E3,1.1206517E3,0E0,4.2956573E1,2.2575684E0,5.615725E2,3.8244434E2,7.813721E2,1.733523E2,1.5471394E3,0E0,0E0,0E0,0E0,0E0,0E0,0E0,0E0,0E0,0E0,0E0,0E0,0E0,0E0,0E0,0E0,0E0,0E0,0E0,0E0,0E0,0E0,0E0,0E0,0E0,0E0,0E0,0E0,0E0,0E0,0E0,0E0,0E0,0E0,0E0,0E0],"parents":[2147483647,0,0,1,1,2,2,3,3,4,4,5,5,6,6,7,7,9,9,10,10,11,11,12,12,15,15,16,16,17,17,18,18,19,19,20,20,21,21,22,22,23,23,24,24,25,25,27,27,28,28,29,29,30,30,31,31,32,32,33,33,34,34,35,35,36,36,38,38,39,39,40,40,41,41,42,42,43,43,44,44],"right_children":[2,4,6,8,10,12,14,16,-1,18,20,22,24,-1,-1,26,28,30,32,34,36,38,40,42,44,46,-1,48,50,52,54,56,58,60,62,64,66,-1,68,70,72,74,76,78,80,-1,-1,-1,-1,-1,-1,-1,-1,-1,-1,-1,-1,-1,-1,-1,-1,-1,-1,-1,-1,-1,-1,-1,-1,-1,-1,-1,-1,-1,-1,-1,-1,-1,-1,-1,-1],"split_conditions":[6.6921005E1,2.8232582E1,7.756886E1,2.0777967E1,7.639E1,1.1654028E2,1.3640967E2,6.4676666E0,-1.1982819E1,1.9769423E1,7.697E1,7.639E1,4.15E0,4.4058228E0,6.580665E0,1.8985264E1,1.88145E1,7.346E1,4.383988E1,4.65E0,7.707E1,6.7824936E1,1.1384815E1,8.606E1,5.7282455E1,-2.0031506E1,-1.2596272E1,-2.4875744E1,6.842E1,4.05E0,4.5E0,4.206099E1,2.350655E1,3.4E0,3.6210697E1,3.744989E1,7.722E1,1.2596688E1,6.779E1,7.872E1,1.85E0,1.6377821E2,6.2622646E1,1.1806206E2,1.2148063E2,-2.680985E0,5.5460143E-1,2.4467702E0,-1.0346767E0,6.283767E0,1.2464824E0,3.3059242E0,-5.4272944E-1,-1.4125506E1,2.6759427E0,-1.1965725E-1,-8.268012E0,3.4755225E0,1.3612918E0,3.1317751E0,8.205413E0,-1.4043204E1,1.8700249E0,-1.3509068E1,2.5010474E0,7.339443E0,2.2306684E-1,8.4841156E-1,3.3027642E0,2.0326653E0,4.400214E0,-9.452961E-1,1.1882966E0,2.5777879E0,-3.1765872E-1,6.8637687E-1,4.4004655E0,1.4946551E0,3.1989195E0,-3.92305E0,1.5631216E0],"split_indices":[0,0,2,2,1,0,2,2,0,2,1,1,3,0,0,0,2,1,0,3,1,0,2,1,2,0,0,0,1,3,3,0,2,3,0,0,1,0,1,1,3,0,2,0,0,0,0,0,0,0,0,0,0,0,0,0,0,0,0,0,0,0,0,0,0,0,0,0,0,0,0,0,0,0,0,0,0,0,0,0,0],"split_type":[0,0,0,0,0,0,0,0,0,0,0,0,0,0,0,0,0,0,0,0,0,0,0,0,0,0,0,0,0,0,0,0,0,0,0,0,0,0,0,0,0,0,0,0,0,0,0,0,0,0,0,0,0,0,0,0,0,0,0,0,0,0,0,0,0,0,0,0,0,0,0,0,0,0,0,0,0,0,0,0,0],"sum_hessian":[2.4E3,1.808E3,5.92E2,1.153E3,6.55E2,5.37E2,5.5E1,1.151E3,2E0,8E1,5.75E2,2.35E2,3.02E2,3.6E1,1.9E1,1.63E2,9.88E2,2.6E1,5.4E1,1.4E1,5.61E2,5E0,2.3E2,1.95E2,1.07E2,1.61E2,2E0,9.84E2,4E0,1.9E1,7E0,2.6E1,2.8E1,9E0,5E0,8E0,5.53E2,1E0,4E0,8E0,2.22E2,1.65E2,3E1,3.2E1,7.5E1,1.39E2,2.2E1,9E0,9.75E2,2E0,2E0,4E0,1.5E1,6E0,1E0,2.5E1,1E0,7E0,2.1E1,3E0,6E0,1E0,4E0,2E0,6E0,1E0,5.52E2,2E0,2E0,3E0,5E0,1.1E1,2.11E2,1.61E2,4E0,7E0,2.3E1,1.1E1,2.1E1,4E0,7.1E1],"tree_param":{"num_deleted":"0","num_feature":"4","num_nodes":"81","size_leaf_vector":"1"}},{"base_weights":[3.8393665E-2,-1.8207144E0,4.8642244E0,-3.763295E0,-4.9249193E-1,3.9470146E0,1.0944131E1,-3.6430402E0,-3.064846E1,1.0132994E1,-5.959776E-1,1.7431772E1,3.7999513E0,9.5364685E0,1.8947317E1,-3.773589E0,1.31807575E1,-2.6420326E0,-1.11497755E1,1.19136915E1,-2.2258718E0,-8.098693E-1,4.67531E0,1.0707184E1,6.641881E0,2.039231E0,4.9695673E0,9.969851E0,3.8402884E0,2.7236813E1,3.9473524E0,-1.1441137E1,-3.4256723E0,-3.6833103E0,4.292887E-1,-6.867717E-1,-1.7875082E1,5.1341963E0,3.2042289E0,6.787293E-1,2.6422112E0,1.4042139E0,6.615635E0,6.0330176E0,4.115136E0,8.663407E-2,1.0105971E1,1.5971521E0,8.76058E-2,2.0099602E0,9.554752E0,-2.3848631E0,-4.459112E0,6.282729E-1,-1.1033651E0,-2.2679211E-1,-1.2352749E0,2.8632498E-1,-3.7211365E-1,-1.6541466E1,-7.4245703E-1,-1.2142106E-1,1.0266058E0,1.3397493E0,-3.4375284E-2,-1.3439232E0,3.6321352E0,1.3033278E0,2.0757408E0,-3.2445392E-1,1.4657134E0,6.6312873E-1,3.0926003E0,1.2665635E-1,-8.723374E-2],"categories":[],"categories_nodes":[],"categories_segments":[],"categories_sizes":[],"default_left":[0,0,0,0,0,0,0,0,0,0,0,0,0,0,0,0,0,0,0,0,0,0,0,0,0,0,0,0,0,0,0,0,0,0,0,0,0,0,0,0,0,0,0,0,0,0,0,0,0,0,0,0,0,0,0,0,0,0,0,0,0,0,0,0,0,0,0,0,0,0,0,0,0,0,0],"id":8,"left_children":[1,3,5,7,9,11,13,15,17,19,21,23,25,27,29,31,-1,-1,-1,-1,33,35,37,-1,39,41,43,45,47,49,-1,51,53,55,-1,57,59,-1,61,-1,-1,63,65,67,69,-1,71,-1,73,-1,-1,-1,-1,-1,-1,-1,-1,-1,-1,-1,-1,-1,-1,-1,-1,-1,-1,-1,-1,-1,-1,-1,-1,-1,-1],"loss_changes":[2.1550006E4,4.4721772E3,3.6819375E3,2.1644258E3,1.1397118E3,1.0879326E3,7.994336E2,4.5261777E3,9.974487E1,3.7440618E3,1.1560757E3,9.450126E2,1.1781211E3,1.493291E2,2.1752441E2,1.8308428E3,0E0,0E0,0E0,0E0,4.790756E1,2.0526987E3,6.7709515E2,0E0,2.7492203E1,6.6492426E2,2.8956445E2,8.932715E1,3.8504707E1,1.6551001E2,0E0,2.4034692E2,9.4325E2,4.5147934E0,0E0,8.8886E2,3.8805652E3,0E0,3.046695E1,0E0,0E0,9.537572E2,1.7602789E3,1.9737646E2,7.861433E2,0E0,8.7640625E1,0E0,5.0256574E-1,0E0,0E0,0E0,0E0,0E0,0E0,0E0,0E0,0E0,0E0,0E0,0E0,0E0,0E0,0E0,0E0,0E0,0E0,0E0,0E0,0E0,0E0,0E0,0E0,0E0,0E0],"parents":[2147483647,0,0,1,1,2,2,3,3,4,4,5,5,6,6,7,7,8,8,9,9,10,10,11,11,12,12,13,13,14,14,15,15,20,20,21,21,22,22,24,24,25,25,26,26,27,27,28,28,29,29,31,31,32,32,33,33,35,35,36,36,38,38,41,41,42,42,43,43,44,44,46,46,48,48],"right_children":[2,4,6,8,10,12,14,16,18,20,22,24,26,28,30,32,-1,-1,-1,-1,34,36,38,-1,40,42,44,46,48,50,-1,52,54,56,-1,58,60,-1,62,-1,-1,64,66,68,70,-1,72,-1,74,-1,-1,-1,-1,-1,-1,-1,-1,-1,-1,-1,-1,-1,-1,-1,-1,-1,-1,-1,-1,-1,-1,-1,-1,-1,-1],"split_conditions":[6.0525326E1,-3.4569116E0,1.5042772E2,1.1826583E1,-3.170935E0,7.639E1,2.5771497E2,1.1717167E1,-6.846925E0,6.992E1,2.890687E1,6.7824936E1,9.701454E1,4E0,2.65E0,-7.960099E1,1.31807575E1,-2.6420326E0,-1.11497755E1,1.19136915E1,7.958E1,2.8241545E1,5.671195E1,1.0707184E1,6.779E1,8.688E1,5.4877823E1,5.856331E1,1.6274324E2,2.6E0,3.9473524E0,7.659E1,3E-2,8.854E0,4.292887E-1,3.45E0,2.5E0,5.1341963E0,1.9E0,6.787293E-1,2.6422112E0,2.3672667E1,1.85E0,1.1484673E2,1.2327876E2,8.663407E-2,1.9E0,1.5971521E0,1.7566461E2,2.0099602E0,9.554752E0,-2.3848631E0,-4.459112E0,6.282729E-1,-1.1033651E0,-2.2679211E-1,-1.2352749E0,2.8632498E-1,-3.7211365E-1,-1.6541466E1,-7.4245703E-1,-1.2142106E-1,1.0266058E0,1.3397493E0,-3.4375284E-2,-1.3439232E0,3.6321352E0,1.3033278E0,2.0757408E0,-3.2445392E-1,1.4657134E0,6.6312873E-1,3.0926003E0,1.2665635E-1,-8.723374E-2],"split_indices":[0,0,0,2,0,1,0,2,0,1,2,0,0,3,3,0,0,0,0,0,1,2,0,0,1,1,2,2,0,3,0,1,2,2,0,3,3,0,3,0,0,2,3,0,0,0,3,0,0,0,0,0,0,0,0,0,0,0,0,0,0,0,0,0,0,0,0,0,0,0,0,0,0,0,0],"split_type":[0,0,0,0,0,0,0,0,0,0,0,0,0,0,0,0,0,0,0,0,0,0,0,0,0,0,0,0,0,0,0,0,0,0,0,0,0,0,0,0,0,0,0,0,0,0,0,0,0,0,0,0,0,0,0,0,0,0,0,0,0,0,0,0,0,0,0,0,0,0,0,0,0,0,0],"sum_hessian":[2.4E3,1.733E3,6.67E2,7.03E2,1.03E3,5.81E2,8.6E1,7.01E2,2E0,9E0,1.021E3,5E0,5.76E2,7.5E1,1.1E1,7E2,1E0,1E0,1E0,2E0,7E0,9.82E2,3.9E1,1E0,4E0,2.31E2,3.45E2,6.9E1,6E0,3E0,8E0,2.9E1,6.71E2,5E0,2E0,9.76E2,6E0,3E0,3.6E1,2E0,2E0,2.04E2,2.7E1,1.51E2,1.94E2,1E0,6.8E1,4E0,2E0,1E0,2E0,1.6E1,1.3E1,2.9E1,6.42E2,1E0,4E0,2.46E2,7.3E2,1E0,5E0,2E0,3.4E1,6.7E1,1.37E2,9E0,1.8E1,5.4E1,9.7E1,2.5E1,1.69E2,2E0,6.6E1,1E0,1E0],"tree_param":{"num_deleted":"0","num_feature":"4","num_nodes":"75","size_leaf_vector":"1"}},{"base_weights":[4.1349888E-2,-1.0775928E0,4.2130747E0,-9.9702924E-1,-2.2652788E1,7.9605784E0,3.2403498E0,-2.4318008E0,3.124103E-1,-1.4360435E1,8.225735E0,5.8931103E0,1.11212E1,2.7271411E0,5.140345E0,-2.3138726E0,-2.3101782E1,1.3992764E-1,3.6906846E0,5.8263475E-1,2.9018707E0,6.6024866E0,-9.277954E-1,4.059594E0,1.2247966E1,3.496577E0,-4.331093E0,5.689084E0,1.3280926E0,-8.236927E0,-2.106493E0,-7.6865125E0,-1.9533129E0,-9.91914E-1,9.458711E-1,5.381322E0,1.0509583E1,4.5639268E-1,-9.434853E-1,5.316845E-1,1.5996026E0,1.8672342E1,1.07689705E1,3.6727626E0,-3.1730604E0,-1.175334E1,2.9093218E0,4.0588875E0,7.2971005E0,-3.519866E0,2.6457624E0,-3.4145443E0,-1.828618E0,-6.727959E-1,1.3343629E0,-8.9004755E-2,-1.2477746E0,6.6348505E0,2.2715497E-1,1.9901105E0,-7.834218E0,6.4344387E0,1.9712783E0,8.300881E-1,6.5870843E0,5.8623185E0,2.8333495E0,1.0267689E0,2.2158976E0,-6.366911E-1,-1.5792538E0,6.486681E-1,-4.971615E0,-5.3178614E-1,7.604778E0,1.7265354E0,9.5609146E-1,4.91794E0,1.8839667E0,-4.8918133E0,1.03796E0],"categories":[],"categories_nodes":[],"categories_segments":[],"categories_sizes":[],"default_left":[0,0,0,0,0,0,0,0,0,0,0,0,0,0,0,0,0,0,0,0,0,0,0,0,0,0,0,0,0,0,0,0,0,0,0,0,0,0,0,0,0,0,0,0,0,0,0,0,0,0,0,0,0,0,0,0,0,0,0,0,0,0,0,0,0,0,0,0,0,0,0,0,0,0,0,0,0,0,0,0,0],"id":9,"left_children":[1,3,5,7,9,11,13,15,17,-1,19,21,23,25,27,29,31,33,-1,-1,-1,35,37,39,41,43,45,47,49,51,53,-1,-1,55,57,59,61,-1,-1,-1,-1,63,65,67,69,71,73,75,77,79,-1,-1,-1,-1,-1,-1,-1,-1,-1,-1,-1,-1,-1,-1,-1,-1,-1,-1,-1,-1,-1,-1,-1,-1,-1,-1,-1,-1,-1,-1,-1],"loss_changes":[1.1212217E4,3.2695164E3,1.8260117E3,3.5478337E3,5.844034E3,6.1404785E2,3.8089453E2,2.1428013E3,2.0415073E3,0E0,1.7587921E1,3.2063452E2,2.685498E2,1.7584492E3,1.7025854E2,1.0844526E3,4.2213135E1,8.9033356E2,0E0,0E0,0E0,2.2494556E2,4.2794754E1,1.0923042E1,1.21973145E2,3.524309E2,1.753879E3,1.6436426E2,4.6684186E2,1.3266968E2,7.846155E2,0E0,0E0,8.927903E2,2.2601638E3,2.0271084E3,4.191471E2,0E0,0E0,0E0,0E0,2.0046045E2,1.6399634E2,2.3766455E2,6.4058685E0,1.1087131E3,1.8309968E3,3.93385E1,2.3014624E2,7.7036957E2,0E0,0E0,0E0,0E0,0E0,0E0,0E0,0E0,0E0,0E0,0E0,0E0,0E0,0E0,0E0,0E0,0E0,0E0,0E0,0E0,0E0,0E0,0E0,0E0,0E0,0E0,0E0,0E0,0E0,0E0,0E0],"parents":[2147483647,0,0,1,1,2,2,3,3,4,4,5,5,6,6,7,7,8,8,10,10,11,11,12,12,13,13,14,14,15,15,16,16,17,17,21,21,22,22,23,23,24,24,25,25,26,26,27,27,28,28,29,29,30,30,33,33,34,34,35,35,36,36,41,41,42,42,43,43,44,44,45,45,46,46,47,47,48,48,49,49],"right_children":[2,4,6,8,10,12,14,16,18,-1,20,22,24,26,28,30,32,34,-1,-1,-1,36,38,40,42,44,46,48,50,52,54,-1,-1,56,58,60,62,-1,-1,-1,-1,64,66,68,70,72,74,76,78,80,-1,-1,-1,-1,-1,-1,-1,-1,-1,-1,-1,-1,-1,-1,-1,-1,-1,-1,-1,-1,-1,-1,-1,-1,-1,-1,-1,-1,-1,-1,-1],"split_conditions":[7.722295E1,3.5195667E1,2.95E0,5.2072325E0,3.817267E1,8.756E1,1.4148015E2,1.4525556E1,7.290117E1,-1.4360435E1,6.779E1,1.6274324E2,2.5E0,8.373E1,4.4E0,-7.960099E1,4.05E0,1.7765E1,3.6906846E0,5.8263475E-1,2.9018707E0,6.2622646E1,1.6377821E2,7.756886E1,2.65E0,6.543723E1,8.674E1,3.65E0,6.90095E1,-9.977007E1,5E0,-7.6865125E0,-1.9533129E0,1.6453312E1,1.8985264E1,6.21985E1,1.3219061E2,4.5639268E-1,-9.434853E-1,5.316845E-1,1.5996026E0,2.5771497E2,1.7566461E2,4.95E0,1.3961435E2,3.15E0,6.1095856E1,3.2E0,1.4210399E2,1.4654121E2,2.6457624E0,-3.4145443E0,-1.828618E0,-6.727959E-1,1.3343629E0,-8.9004755E-2,-1.2477746E0,6.6348505E0,2.2715497E-1,1.9901105E0,-7.834218E0,6.4344387E0,1.9712783E0,8.300881E-1,6.5870843E0,5.8623185E0,2.8333495E0,1.0267689E0,2.2158976E0,-6.366911E-1,-1.5792538E0,6.486681E-1,-4.971615E0,-5.3178614E-1,7.604778E0,1.7265354E0,9.5609146E-1,4.91794E0,1.8839667E0,-4.8918133E0,1.03796E0],"split_indices":[0,2,3,0,2,1,0,2,0,0,1,0,3,1,3,0,3,2,0,0,0,2,0,2,3,2,1,3,2,0,3,0,0,2,0,2,0,0,0,0,0,0,0,3,0,3,2,3,0,0,0,0,0,0,0,0,0,0,0,0,0,0,0,0,0,0,0,0,0,0,0,0,0,0,0,0,0,0,0,0,0],"split_type":[0,0,0,0,0,0,0,0,0,0,0,0,0,0,0,0,0,0,0,0,0,0,0,0,0,0,0,0,0,0,0,0,0,0,0,0,0,0,0,0,0,0,0,0,0,0,0,0,0,0,0,0,0,0,0,0,0,0,0,0,0,0,0,0,0,0,0,0,0,0,0,0,0,0,0,0,0,0,0,0,0],"sum_hessian":[2.4E3,1.893E3,5.07E2,1.887E3,6E0,1.03E2,4.04E2,9E2,9.87E2,3E0,3E0,6.4E1,3.9E1,3.2E2,8.4E1,8.96E2,4E0,9.74E2,1.3E1,1E0,2E0,5.8E1,6E0,6E0,3.3E1,2.89E2,3.1E1,7.3E1,1.1E1,2.9E1,8.67E2,3E0,1E0,4.05E2,5.69E2,4.6E1,1.2E1,3E0,3E0,3E0,3E0,4E0,2.9E1,2.82E2,7E0,1.5E1,1.6E1,3.8E1,3.5E1,7E0,4E0,1E1,1.9E1,8.5E2,1.7E1,3.33E2,7.2E1,4E0,5.65E2,4.5E1,1E0,2E0,1E1,1E0,3E0,2E0,2.7E1,2.66E2,1.6E1,6E0,1E0,4E0,1.1E1,1.4E1,2E0,1.1E1,2.7E1,2E0,3.3E1,2E0,5E0],"tree_param":{"num_deleted":"0","num_feature":"4","num_nodes":"81","size_leaf_vector":"1"}},{"base_weights":[3.5813093E-2,-1.1084594E0,2.1403663E0,-3.0792584E0,-7.234314E-1,1.4341687E0,4.5710583E0,-3.283847E0,7.3022513E0,-7.6034254E-1,4.657456E0,-5.213063E-1,1.7738159E0,4.106999E0,1.1112357E1,-4.5730324E0,-1.5663328E0,-7.0306826E-1,-2.530667E1,4.2904127E-1,-3.075866E1,1.9896202E1,1.6076545E0,5.7428656E0,3.3155243E0,1.7016628E1,2.176059E0,-2.9505692E0,-1.1189289E1,4.300061E-1,-8.032581E0,3.7208574E0,-8.285099E-1,2.7063172E0,-1.4094318E1,-1.1257046E0,8.899716E0,-5.2863695E-2,-1.3788533E1,2.9275596E0,9.067033E0,-8.660577E0,1.7145821E0,3.4990268E0,6.609021E0,3.4775882E0,-1.2978684E0,7.204033E-1,6.326383E0,-1.5726224E0,9.900169E-1,-4.0012374E0,-1.2455055E0,-1.7775753E0,1.9459845E0,-6.798159E0,3.1337956E-1,5.651919E0,-8.4560955E-1,-5.3259104E-1,-7.338711E-2,6.986974E-1,-1.341403E0,1.3806134E0,3.0132415E0,2.204543E0,4.101766E-1,1.192283E0,-6.059418E-2,9.4486684E-1,2.2535353E0,1.2936318E0,6.742862E-1],"categories":[],"categories_nodes":[],"categories_segments":[],"categories_sizes":[],"default_left":[0,0,0,0,0,0,0,0,0,0,0,0,0,0,0,0,0,0,0,0,0,0,0,0,0,0,0,0,0,0,0,0,0,0,0,0,0,0,0,0,0,0,0,0,0,0,0,0,0,0,0,0,0,0,0,0,0,0,0,0,0,0,0,0,0,0,0,0,0,0,0,0,0],"id":10,"left_children":[1,3,5,7,9,11,13,15,-1,17,-1,19,21,23,25,27,29,31,33,35,37,39,41,43,45,47,-1,49,51,53,55,57,59,-1,-1,61,63,-1,-1,-1,-1,-1,65,67,69,71,-1,-1,-1,-1,-1,-1,-1,-1,-1,-1,-1,-1,-1,-1,-1,-1,-1,-1,-1,-1,-1,-1,-1,-1,-1,-1,-1],"loss_changes":[5.7844185E3,1.1784849E3,1.445645E3,1.5048315E3,7.932693E2,4.3728528E2,5.3111597E2,5.530281E2,0E0,1.8112493E3,0E0,2.8293242E3,1.654309E3,2.1271924E2,1.4997229E2,1.5127722E3,1.4234246E3,7.239557E2,2.6559165E3,1.2743141E3,1.3867463E3,2.285343E2,1.8613636E3,8.765527E1,1.6737451E2,1.8737427E2,0E0,1.6931301E3,3.6793018E2,3.3101956E3,3.4759648E3,3.6124487E3,6.9832983E2,0E0,0E0,9.5818317E2,2.7551636E1,0E0,0E0,0E0,0E0,0E0,1.0759781E3,3.2462982E1,1.0126416E2,1.1450598E2,0E0,0E0,0E0,0E0,0E0,0E0,0E0,0E0,0E0,0E0,0E0,0E0,0E0,0E0,0E0,0E0,0E0,0E0,0E0,0E0,0E0,0E0,0E0,0E0,0E0,0E0,0E0],"parents":[2147483647,0,0,1,1,2,2,3,3,4,4,5,5,6,6,7,7,9,9,11,11,12,12,13,13,14,14,15,15,16,16,17,17,18,18,19,19,20,20,21,21,22,22,23,23,24,24,25,25,27,27,28,28,29,29,30,30,31,31,32,32,35,35,36,36,42,42,43,43,44,44,45,45],"right_children":[2,4,6,8,10,12,14,16,-1,18,-1,20,22,24,26,28,30,32,34,36,38,40,42,44,46,48,-1,50,52,54,56,58,60,-1,-1,62,64,-1,-1,-1,-1,-1,66,68,70,72,-1,-1,-1,-1,-1,-1,-1,-1,-1,-1,-1,-1,-1,-1,-1,-1,-1,-1,-1,-1,-1,-1,-1,-1,-1,-1,-1],"split_conditions":[5.24349E1,-1.5717747E1,1.3652713E2,9.364111E0,2.890687E1,1.8931545E1,2.5771497E2,7.632E1,7.3022513E0,2.8241545E1,4.657456E0,1.8299E1,1.9608608E1,3E0,2.65E0,7.504E1,8.4491E0,7.36425E0,4.9025208E1,7.290117E1,5.3189632E1,5.4957245E1,1.9769423E1,2.75E0,9.533523E1,2.6E0,2.176059E0,7.08E1,7.583E1,4.2945E0,3.85E0,7.583E1,7.818E1,2.7063172E0,-1.4094318E1,3E-2,7.872E1,-5.2863695E-2,-1.3788533E1,2.9275596E0,9.067033E0,-8.660577E0,2.2243063E1,2.65E0,8.606E1,6.543723E1,-1.2978684E0,7.204033E-1,6.326383E0,-1.5726224E0,9.900169E-1,-4.0012374E0,-1.2455055E0,-1.7775753E0,1.9459845E0,-6.798159E0,3.1337956E-1,5.651919E0,-8.4560955E-1,-5.3259104E-1,-7.338711E-2,6.986974E-1,-1.341403E0,1.3806134E0,3.0132415E0,2.204543E0,4.101766E-1,1.192283E0,-6.059418E-2,9.4486684E-1,2.2535353E0,1.2936318E0,6.742862E-1],"split_indices":[0,0,0,2,2,2,0,1,0,2,0,2,2,3,3,1,2,2,0,0,0,0,2,3,2,3,0,1,1,2,3,1,1,0,0,2,1,0,0,0,0,0,2,3,1,2,0,0,0,0,0,0,0,0,0,0,0,0,0,0,0,0,0,0,0,0,0,0,0,0,0,0,0],"split_type":[0,0,0,0,0,0,0,0,0,0,0,0,0,0,0,0,0,0,0,0,0,0,0,0,0,0,0,0,0,0,0,0,0,0,0,0,0,0,0,0,0,0,0,0,0,0,0,0,0,0,0,0,0,0,0,0,0,0,0,0,0,0,0,0,0,0,0,0,0,0,0,0,0],"sum_hessian":[2.4E3,1.555E3,8.45E2,2.53E2,1.302E3,6.56E2,1.89E2,2.52E2,1E0,1.3E3,2E0,9.7E1,5.59E2,1.78E2,1.1E1,1.43E2,1.09E2,1.298E3,2E0,9.5E1,2E0,4E0,5.55E2,5.6E1,1.22E2,3E0,8E0,1.16E2,2.7E1,8.4E1,2.5E1,3.5E1,1.263E3,1E0,1E0,8.1E1,1.4E1,1E0,1E0,3E0,1E0,1E0,5.54E2,1.7E1,3.9E1,1.2E2,2E0,1E0,2E0,8.5E1,3.1E1,2E1,7E0,4.1E1,4.3E1,9E0,1.6E1,1E1,2.5E1,4.81E2,7.82E2,4E1,4.1E1,4E0,1E1,3.1E1,5.23E2,1.5E1,2E0,9E0,3E1,7E1,5E1],"tree_param":{"num_deleted":"0","num_feature":"4","num_nodes":"73","size_leaf_vector":"1"}},{"base_weights":[2.6196793E-2,-5.6927234E-1,2.2462604E0,-5.052257E-1,-1.7762236E1,4.528602E0,1.6546313E0,-1.1450673E0,5.0005656E-1,-3.740542E1,6.3215065E0,3.947154E0,9.08565E0,1.944658E0,-1.8758318E-1,-1.0650176E0,-9.450745E0,3.73193E-1,2.1020622E0,-1.5361309E1,-1.5737652E1,4.3371278E-1,2.2394607E0,3.347073E0,5.1157575E0,1.3673336E1,1.6968304E0,3.0626917E0,1.4194648E0,-5.043371E0,3.1027317E0,-1.1235648E0,1.259044E1,5.8060974E-1,-2.7601793E0,-1.1769114E1,4.68717E0,4.0336256E0,-3.8996747E-1,2.3344474E0,6.840273E0,6.123436E-1,5.0611057E0,-1.3320214E0,3.816875E0,8.2747906E-1,3.2628083E0,6.452548E-1,-1.0311716E1,1.2958554E1,1.7309245E0,-3.2247803E-1,-4.4296007E0,5.162524E0,1.1326958E0,1.0600114E-1,1.9508512E0,-3.8804607E0,1.5493284E-1,-3.5313034E-1,1.2757399E0,3.1541507E0,-1.1943716E0,9.6479034E-1,-1.3588944E-1,3.5914576E0,9.831059E-1,3.0768165E-1,-2.1586342E0,9.4671124E-1,2.4380999E0,3.5411614E-1,-4.578076E0,1.1475585E0,-4.143105E-1,-6.839539E-1,7.1783584E-1,-1.9938409E0,-7.5949645E0,2.686245E-1,7.372196E0,-1.8566476E0,1.0475956E0],"categories":[],"categories_nodes":[],"categories_segments":[],"categories_sizes":[],"default_left":[0,0,0,0,0,0,0,0,0,0,0,0,0,0,0,0,0,0,0,0,0,0,0,0,0,0,0,0,0,0,0,0,0,0,0,0,0,0,0,0,0,0,0,0,0,0,0,0,0,0,0,0,0,0,0,0,0,0,0,0,0,0,0,0,0,0,0,0,0,0,0,0,0,0,0,0,0,0,0,0,0,0,0],"id":11,"left_children":[1,3,5,7,9,11,13,15,17,19,21,23,25,27,29,31,-1,33,-1,-1,35,-1,-1,37,39,41,-1,43,45,47,49,51,53,55,57,-1,-1,59,61,63,65,-1,-1,67,69,71,73,75,77,79,81,-1,-1,-1,-1,-1,-1,-1,-1,-1,-1,-1,-1,-1,-1,-1,-1,-1,-1,-1,-1,-1,-1,-1,-1,-1,-1,-1,-1,-1,-1,-1,-1],"loss_changes":[3.1753513E3,2.0766064E3,6.784595E2,1.2149747E3,3.548028E3,2.3970483E2,2.167528E2,2.7707883E3,6.041114E2,3.9013232E2,1.1507172E1,4.879541E1,9.573285E1,2.0116699E2,9.103642E2,9.351582E2,0E0,4.708404E2,0E0,0E0,2.8232363E3,0E0,0E0,1.6834174E2,1.2792413E2,1.143183E2,0E0,3.7298462E2,2.5919604E2,6.959555E2,4.3725952E2,7.458379E2,1.3855933E2,9.102634E2,1.5069176E3,0E0,0E0,6.772308E1,4.7260168E2,3.3399803E1,2.898802E2,0E0,0E0,2.4238373E2,2.4507776E2,1.0569937E3,1.5675757E2,6.679564E1,4.9175952E2,5.3847034E2,4.539732E2,0E0,0E0,0E0,0E0,0E0,0E0,0E0,0E0,0E0,0E0,0E0,0E0,0E0,0E0,0E0,0E0,0E0,0E0,0E0,0E0,0E0,0E0,0E0,0E0,0E0,0E0,0E0,0E0,0E0,0E0,0E0,0E0],"parents":[2147483647,0,0,1,1,2,2,3,3,4,4,5,5,6,6,7,7,8,8,9,9,10,10,11,11,12,12,13,13,14,14,15,15,17,17,20,20,23,23,24,24,25,25,27,27,28,28,29,29,30,30,31,31,32,32,33,33,34,34,37,37,38,38,39,39,40,40,43,43,44,44,45,45,46,46,47,47,48,48,49,49,50,50],"right_children":[2,4,6,8,10,12,14,16,18,20,22,24,26,28,30,32,-1,34,-1,-1,36,-1,-1,38,40,42,-1,44,46,48,50,52,54,56,58,-1,-1,60,62,64,66,-1,-1,68,70,72,74,76,78,80,82,-1,-1,-1,-1,-1,-1,-1,-1,-1,-1,-1,-1,-1,-1,-1,-1,-1,-1,-1,-1,-1,-1,-1,-1,-1,-1,-1,-1,-1,-1,-1,-1],"split_conditions":[7.722295E1,3.5195667E1,2.95E0,2.8232582E1,3.817267E1,2.5771497E2,8.606E1,2.0777967E1,7.290117E1,8.373E1,6.779E1,2.85E0,2.65E0,5.2806E1,1.2327876E2,1.88145E1,-9.450745E0,8.429E1,2.1020622E0,-1.5361309E1,1.85E0,4.3371278E-1,2.2394607E0,2.8E0,8.674E1,2.6E0,1.6968304E0,3.5195667E1,1.4148015E2,4.509375E1,1.25053894E2,1.866289E1,6.842E1,6.6921005E1,1.3001613E1,-1.1769114E1,4.68717E0,3.3467335E1,1.2901598E2,1.6142241E2,1.7566461E2,6.123436E-1,5.0611057E0,7.872E1,4.95E0,7.967E1,4.4E0,8.674E1,4.25E0,6.0734554E1,6.1095856E1,-3.2247803E-1,-4.4296007E0,5.162524E0,1.1326958E0,1.0600114E-1,1.9508512E0,-3.8804607E0,1.5493284E-1,-3.5313034E-1,1.2757399E0,3.1541507E0,-1.1943716E0,9.6479034E-1,-1.3588944E-1,3.5914576E0,9.831059E-1,3.0768165E-1,-2.1586342E0,9.4671124E-1,2.4380999E0,3.5411614E-1,-4.578076E0,1.1475585E0,-4.143105E-1,-6.839539E-1,7.1783584E-1,-1.9938409E0,-7.5949645E0,2.686245E-1,7.372196E0,-1.8566476E0,1.0475956E0],"split_indices":[0,2,3,0,2,0,1,2,0,1,1,3,3,2,0,2,0,1,0,0,3,0,0,3,1,3,0,2,0,2,0,2,1,0,2,0,0,2,0,0,0,0,0,1,3,1,3,1,3,2,2,0,0,0,0,0,0,0,0,0,0,0,0,0,0,0,0,0,0,0,0,0,0,0,0,0,0,0,0,0,0,0,0],"split_type":[0,0,0,0,0,0,0,0,0,0,0,0,0,0,0,0,0,0,0,0,0,0,0,0,0,0,0,0,0,0,0,0,0,0,0,0,0,0,0,0,0,0,0,0,0,0,0,0,0,0,0,0,0,0,0,0,0,0,0,0,0,0,0,0,0,0,0,0,0,0,0,0,0,0,0,0,0,0,0,0,0,0,0],"sum_hessian":[2.4E3,1.893E3,5.07E2,1.887E3,6E0,1.03E2,4.04E2,1.153E3,7.34E2,3E0,3E0,9.3E1,1E1,3.49E2,5.5E1,1.151E3,2E0,7.21E2,1.3E1,1E0,2E0,1E0,2E0,6.4E1,2.9E1,3E0,7E0,1.1E2,2.39E2,2.2E1,3.3E1,1.147E3,4E0,6.77E2,4.4E1,1E0,1E0,5.4E1,1E1,1.2E1,1.7E1,1E0,2E0,1.6E1,9.4E1,1.82E2,5.7E1,1.1E1,1.1E1,3E0,3E1,1.144E3,3E0,2E0,2E0,6.53E2,2.4E1,1E1,3.4E1,2E0,5.2E1,2E0,8E0,9E0,3E0,6E0,1.1E1,1.2E1,4E0,8.3E1,1.1E1,1.79E2,3E0,5.1E1,6E0,4E0,7E0,1E1,1E0,2E0,1E0,5E0,2.5E1],"tree_param":{"num_deleted":"0","num_feature":"4","num_nodes":"83","size_leaf_vector":"1"}},{"base_weights":[1.15619805E-2,-4.1287556E-1,1.5939894E0,-3.576172E-1,-1.5257864E1,1.2772673E0,4.1275806E0,-1.3880922E0,3.0949244E-2,-3.1794607E1,5.0933456E0,2.6102836E0,1.0101078E0,3.383061E0,6.575564E0,-2.1309786E0,2.741205E-3,4.032556E-1,-9.8589545E-1,-1.3057113E1,-1.3377004E1,3.686554E-1,1.791568E0,1.4107372E0,6.619869E0,-5.4335165E0,1.3277186E0,1.3737991E0,3.8472154E0,4.629167E0,4.19789E0,-2.2698553E0,1.4087236E1,-2.8254116E0,2.373791E0,1.052555E1,2.2885495E-1,-5.7029004E0,-2.9432675E-1,-1.0003747E1,3.9840949E0,-1.8493115E0,3.005493E0,3.835949E0,7.67439E0,3.82397E-2,-4.915021E0,2.5528054E0,1.0094343E0,2.554013E0,1.61321E-1,9.972615E0,3.1935856E0,1.4803176E0,2.3653795E-1,-4.985051E-1,-1.4607708E0,6.2552853E0,8.3971314E-2,-6.4802474E-1,-8.607359E0,1.6275858E0,-8.658463E-1,7.1639794E-1,5.2480803E0,-1.0713915E-1,3.7211436E-1,-2.1076505E0,3.0814316E0,2.4963846E0,-4.0210217E-1,4.008611E-3,-3.7226748E0,1.2072194E0,6.9067794E-1,-2.3442765E-1,1.3654171E0,-1.1732401E0,1.5891758E0,6.1117375E-1,1.8149797E0,-1.1836401E0,3.49362E-1,1.3467407E-1,8.904179E-1,-9.150391E-2,1.4122239E-1,4.935892E0,-4.4821474E-1,1.0821699E0,4.9312848E-1],"categories":[],"categories_nodes":[],"categories_segments":[],"categories_sizes":[],"default_left":[0,0,0,0,0,0,0,0,0,0,0,0,0,0,0,0,0,0,0,0,0,0,0,0,0,0,0,0,0,0,0,0,0,0,0,0,0,0,0,0,0,0,0,0,0,0,0,0,0,0,0,0,0,0,0,0,0,0,0,0,0,0,0,0,0,0,0,0,0,0,0,0,0,0,0,0,0,0,0,0,0,0,0,0,0,0,0,0,0,0,0],"id":12,"left_children":[1,3,5,7,9,11,13,15,17,19,21,23,25,27,29,31,33,35,37,-1,39,-1,-1,41,43,45,47,49,51,53,-1,55,57,59,61,63,65,67,69,-1,-1,71,73,75,-1,77,-1,79,81,83,85,87,89,-1,-1,-1,-1,-1,-1,-1,-1,-1,-1,-1,-1,-1,-1,-1,-1,-1,-1,-1,-1,-1,-1,-1,-1,-1,-1,-1,-1,-1,-1,-1,-1,-1,-1,-1,-1,-1,-1],"loss_changes":[1.6132698E3,1.5482102E3,4.0236963E2,7.560132E2,2.5177402E3,1.5868939E2,7.981842E1,5.3418634E2,5.1980634E2,2.8187085E2,6.2420044E0,3.5138745E2,7.828623E2,3.6682007E1,1.084707E2,7.910116E2,1.220437E3,1.7717527E3,1.1987865E3,0E0,2.0397886E3,0E0,0E0,3.1229797E2,7.992524E2,1.0790984E3,1.3857623E2,1.38978195E1,1.1228644E2,9.004501E0,0E0,5.215001E2,2.743302E2,1.3663928E3,1.604677E3,9.221749E2,5.866625E2,1.0651628E3,2.9130315E3,0E0,0E0,3.9354767E2,1.9387299E1,5.6411926E1,0E0,2.9070114E2,0E0,1.2109512E2,2.2670062E2,3.0256424E0,1.0093415E0,2.4750574E2,1.586731E1,0E0,0E0,0E0,0E0,0E0,0E0,0E0,0E0,0E0,0E0,0E0,0E0,0E0,0E0,0E0,0E0,0E0,0E0,0E0,0E0,0E0,0E0,0E0,0E0,0E0,0E0,0E0,0E0,0E0,0E0,0E0,0E0,0E0,0E0,0E0,0E0,0E0,0E0],"parents":[2147483647,0,0,1,1,2,2,3,3,4,4,5,5,6,6,7,7,8,8,9,9,10,10,11,11,12,12,13,13,14,14,15,15,16,16,17,17,18,18,20,20,23,23,24,24,25,25,26,26,27,27,28,28,29,29,31,31,32,32,33,33,34,34,35,35,36,36,37,37,38,38,41,41,42,42,43,43,45,45,47,47,48,48,49,49,50,50,51,51,52,52],"right_children":[2,4,6,8,10,12,14,16,18,20,22,24,26,28,30,32,34,36,38,-1,40,-1,-1,42,44,46,48,50,52,54,-1,56,58,60,62,64,66,68,70,-1,-1,72,74,76,-1,78,-1,80,82,84,86,88,90,-1,-1,-1,-1,-1,-1,-1,-1,-1,-1,-1,-1,-1,-1,-1,-1,-1,-1,-1,-1,-1,-1,-1,-1,-1,-1,-1,-1,-1,-1,-1,-1,-1,-1,-1,-1,-1,-1],"split_conditions":[7.722295E1,3.5195667E1,7.756886E1,-7.1537848E0,3.817267E1,4.3621918E1,2.5771497E2,4.7E0,4.6E0,8.373E1,6.779E1,9.476502E1,9.942868E1,1.6377821E2,1.4611075E2,1.0590606E1,7.023E1,6.582E1,6.779E1,-1.3057113E1,1.85E0,3.686554E-1,1.791568E0,8.189E1,4E0,7.666E1,5.2806E1,1.6274324E2,1.7566461E2,2.7E0,4.19789E0,8.029E1,-2.4875744E1,9.127143E0,8.854E0,1.1060815E1,8.154E1,5.391841E1,7.356E1,-1.0003747E1,3.9840949E0,7.872E1,8.061513E1,9.701454E1,7.67439E0,4.95E0,-4.915021E0,4.35E0,1.1218852E2,3.35E0,7.9782265E1,3.85E0,3E0,1.4803176E0,2.3653795E-1,-4.985051E-1,-1.4607708E0,6.2552853E0,8.3971314E-2,-6.4802474E-1,-8.607359E0,1.6275858E0,-8.658463E-1,7.1639794E-1,5.2480803E0,-1.0713915E-1,3.7211436E-1,-2.1076505E0,3.0814316E0,2.4963846E0,-4.0210217E-1,4.008611E-3,-3.7226748E0,1.2072194E0,6.9067794E-1,-2.3442765E-1,1.3654171E0,-1.1732401E0,1.5891758E0,6.1117375E-1,1.8149797E0,-1.1836401E0,3.49362E-1,1.3467407E-1,8.904179E-1,-9.150391E-2,1.4122239E-1,4.935892E0,-4.4821474E-1,1.0821699E0,4.9312848E-1],"split_indices":[0,2,2,0,2,2,0,3,3,1,1,0,0,0,2,2,1,1,1,0,3,0,0,1,3,1,2,0,0,3,0,1,0,2,2,2,1,0,1,0,0,1,0,0,0,3,0,3,0,3,2,3,3,0,0,0,0,0,0,0,0,0,0,0,0,0,0,0,0,0,0,0,0,0,0,0,0,0,0,0,0,0,0,0,0,0,0,0,0,0,0],"split_type":[0,0,0,0,0,0,0,0,0,0,0,0,0,0,0,0,0,0,0,0,0,0,0,0,0,0,0,0,0,0,0,0,0,0,0,0,0,0,0,0,0,0,0,0,0,0,0,0,0,0,0,0,0,0,0,0,0,0,0,0,0,0,0,0,0,0,0,0,0,0,0,0,0,0,0,0,0,0,0,0,0,0,0,0,0,0,0,0,0,0,0],"sum_hessian":[2.4E3,1.893E3,5.07E2,1.887E3,6E0,4.52E2,5.5E1,5.16E2,1.371E3,3E0,3E0,7.4E1,3.78E2,4.4E1,1.1E1,3.36E2,1.8E2,1.004E3,3.67E2,1E0,2E0,1E0,2E0,5.8E1,1.6E1,1.7E1,3.61E2,9E0,3.5E1,1E1,1E0,3.34E2,2E0,8.2E1,9.8E1,1.6E1,9.88E2,4.6E1,3.21E2,1E0,1E0,1.9E1,3.9E1,1.5E1,1E0,1.2E1,5E0,7.3E1,2.88E2,4E0,5E0,2E0,3.3E1,9E0,1E0,2.72E2,6.2E1,1E0,1E0,8.1E1,1E0,6.2E1,3.6E1,8E0,8E0,6.26E2,3.62E2,4.3E1,3E0,3.4E1,2.87E2,1.7E1,2E0,1.4E1,2.5E1,2E0,1.3E1,7E0,5E0,6.5E1,8E0,8E0,2.8E2,1E0,3E0,2E0,3E0,1E0,1E0,2.5E1,8E0],"tree_param":{"num_deleted":"0","num_feature":"4","num_nodes":"91","size_leaf_vector":"1"}},{"base_weights":[1.0340801E-2,-5.027401E-1,7.3586285E-1,-4.3087876E-1,-9.583426E0,3.78711E0,5.498597E-1,-1.8434899E0,-1.905516E-1,1.5245322E0,-1.5718098E1,6.768876E0,-2.841392E-2,-1.00858555E1,6.63631E-1,1.9431549E0,-3.5223205E0,1.5117554E1,-3.1946433E-1,-2.1392183E1,2.6083148E-1,7.3534775E-1,9.8942795E0,-3.155606E0,8.6642253E-1,-7.6969547E0,-2.986126E0,3.748938E-1,2.0301452E0,-1.1242542E0,5.35478E0,-2.679461E0,-2.2040083E1,3.3916584E1,-3.0678961E0,-4.6527097E-1,2.8691897E0,-9.70547E0,3.5105452E-1,-8.840446E0,6.6283007E0,3.2446816E0,7.611211E-1,-1.0271178E0,-2.7225095E-1,1.8855672E0,-8.315861E-1,3.63029E0,-7.6820335E0,1.3006029E0,-3.2426827E-2,1.7818E0,5.277263E0,-2.367343E0,6.072241E-1,2.2399437E0,4.6950784E-1,-1.0536009E0,5.9506598E0,-2.008777E0,-1.0545682E1,7.638996E-1,2.3909637E1,-1.4275689E0,6.268769E-2,-1.11612275E-1,-1.8690139E0,2.5072536E-1,3.3978171E0,-3.163252E0,3.3212266E0,-7.154648E0,2.621564E-1,4.6619897E0,-5.4800725E-1,-1.4958098E0,1.8383143E0,-1.2303691E-1,9.5251375E-1,2.493269E0,-2.1006317E-1,1.2229553E0,-5.0639725E0,-5.5048597E-1,4.8024517E-1,3.4122895E-2,-1.773137E0,4.6591914E-1,1.573081E0,1.0278553E0,3.5682085E0],"categories":[],"categories_nodes":[],"categories_segments":[],"categories_sizes":[],"default_left":[0,0,0,0,0,0,0,0,0,0,0,0,0,0,0,0,0,0,0,0,0,0,0,0,0,0,0,0,0,0,0,0,0,0,0,0,0,0,0,0,0,0,0,0,0,0,0,0,0,0,0,0,0,0,0,0,0,0,0,0,0,0,0,0,0,0,0,0,0,0,0,0,0,0,0,0,0,0,0,0,0,0,0,0,0,0,0,0,0,0,0],"id":13,"left_children":[1,3,5,7,9,11,13,15,17,-1,19,21,23,25,27,29,31,33,35,37,-1,39,41,43,45,-1,47,49,51,53,55,57,59,61,63,65,67,-1,69,71,73,-1,75,-1,-1,77,-1,79,81,83,85,87,89,-1,-1,-1,-1,-1,-1,-1,-1,-1,-1,-1,-1,-1,-1,-1,-1,-1,-1,-1,-1,-1,-1,-1,-1,-1,-1,-1,-1,-1,-1,-1,-1,-1,-1,-1,-1,-1,-1],"loss_changes":[8.941458E2,9.140089E2,5.626215E2,4.739146E2,1.0695037E3,6.4868134E2,1.1429199E3,1.297343E3,2.363054E3,0E0,7.71552E2,5.961549E2,7.5490555E1,1.0288611E3,3.6618292E2,6.653058E2,2.1416548E3,3.5227402E3,5.527383E2,1.4411118E3,0E0,7.357536E2,1.684751E2,5.095253E-1,8.309536E1,0E0,2.764486E2,2.9000168E2,1.2123474E2,7.403228E2,2.2839935E2,2.6189375E3,9.717959E2,6.9780576E3,3.4234768E1,6.076885E2,8.8475323E2,0E0,4.671127E2,7.4981995E2,6.3117114E2,0E0,1.2308089E2,0E0,0E0,5.1626297E1,0E0,8.689685E1,6.095796E2,2.2415204E2,4.6033914E2,1.12216E2,9.397858E1,0E0,0E0,0E0,0E0,0E0,0E0,0E0,0E0,0E0,0E0,0E0,0E0,0E0,0E0,0E0,0E0,0E0,0E0,0E0,0E0,0E0,0E0,0E0,0E0,0E0,0E0,0E0,0E0,0E0,0E0,0E0,0E0,0E0,0E0,0E0,0E0,0E0,0E0],"parents":[2147483647,0,0,1,1,2,2,3,3,4,4,5,5,6,6,7,7,8,8,10,10,11,11,12,12,13,13,14,14,15,15,16,16,17,17,18,18,19,19,21,21,22,22,23,23,24,24,26,26,27,27,28,28,29,29,30,30,31,31,32,32,33,33,34,34,35,35,36,36,38,38,39,39,40,40,42,42,45,45,47,47,48,48,49,49,50,50,51,51,52,52],"right_children":[2,4,6,8,10,12,14,16,18,-1,20,22,24,26,28,30,32,34,36,38,-1,40,42,44,46,-1,48,50,52,54,56,58,60,62,64,66,68,-1,70,72,74,-1,76,-1,-1,78,-1,80,82,84,86,88,90,-1,-1,-1,-1,-1,-1,-1,-1,-1,-1,-1,-1,-1,-1,-1,-1,-1,-1,-1,-1,-1,-1,-1,-1,-1,-1,-1,-1,-1,-1,-1,-1,-1,-1,-1,-1,-1,-1],"split_conditions":[3.8877262E1,3.8470566E1,4.206099E1,7.2085E0,1.9063723E1,8.132E1,4.383988E1,4.25E0,7.36425E0,1.5245322E0,8.132E1,8.113E1,8.224E1,7.423E1,1.3832071E2,3.9E0,3.215138E1,-1.38546095E1,3.555557E1,2.0036533E1,2.6083148E-1,3.9458843E1,2.0635464E1,3.999277E1,1.9769423E1,-7.6969547E0,3.85E0,7.768E1,1.4611075E2,7.583E1,7.659E1,2.7321772E1,7.697E1,-1.8268974E1,7.734E1,3.4000267E1,4.5E0,-9.70547E0,6.575E1,6.913E1,7.707E1,3.2446816E0,3.999277E1,-1.0271178E0,-2.7225095E-1,3.9458843E1,-8.315861E-1,8.132E1,1.7054111E1,5.5365166E1,4.85E0,4.45E0,2.5771497E2,-2.367343E0,6.072241E-1,2.2399437E0,4.6950784E-1,-1.0536009E0,5.9506598E0,-2.008777E0,-1.0545682E1,7.638996E-1,2.3909637E1,-1.4275689E0,6.268769E-2,-1.11612275E-1,-1.8690139E0,2.5072536E-1,3.3978171E0,-3.163252E0,3.3212266E0,-7.154648E0,2.621564E-1,4.6619897E0,-5.4800725E-1,-1.4958098E0,1.8383143E0,-1.2303691E-1,9.5251375E-1,2.493269E0,-2.1006317E-1,1.2229553E0,-5.0639725E0,-5.5048597E-1,4.8024517E-1,3.4122895E-2,-1.773137E0,4.6591914E-1,1.573081E0,1.0278553E0,3.5682085E0],"split_indices":[0,0,0,2,2,1,0,3,2,0,1,1,1,1,0,3,0,0,0,2,0,0,2,0,2,0,3,1,2,1,1,0,1,0,1,0,3,0,1,1,1,0,0,0,0,0,0,1,2,0,3,3,0,0,0,0,0,0,0,0,0,0,0,0,0,0,0,0,0,0,0,0,0,0,0,0,0,0,0,0,0,0,0,0,0,0,0,0,0,0,0],"split_type":[0,0,0,0,0,0,0,0,0,0,0,0,0,0,0,0,0,0,0,0,0,0,0,0,0,0,0,0,0,0,0,0,0,0,0,0,0,0,0,0,0,0,0,0,0,0,0,0,0,0,0,0,0,0,0,0,0,0,0,0,0,0,0,0,0,0,0,0,0,0,0,0,0,0,0,0,0,0,0,0,0,0,0,0,0,0,0,0,0,0,0],"sum_hessian":[2.4E3,1.406E3,9.94E2,1.396E3,1E1,5.6E1,9.38E2,2.02E2,1.194E3,3E0,7E0,3.1E1,2.5E1,9E0,9.29E2,6.2E1,1.4E2,9E0,1.185E3,5E0,2E0,1.1E1,2E1,5E0,2E1,2E0,7E0,7.68E2,1.61E2,3.3E1,2.9E1,1.35E2,5E0,4E0,5E0,1.134E3,5.1E1,3E0,2E0,4E0,7E0,1.8E1,2E0,4E0,1E0,1.6E1,4E0,3E0,4E0,2.34E2,5.34E2,1.51E2,1E1,1E1,2.3E1,1.8E1,1.1E1,1.31E2,4E0,3E0,2E0,3E0,1E0,3E0,2E0,1.117E3,1.7E1,4.2E1,9E0,1E0,1E0,1E0,3E0,3E0,4E0,1E0,1E0,6E0,1E1,1E0,2E0,2E0,2E0,2E1,2.14E2,5.22E2,1.2E1,1.43E2,8E0,9E0,1E0],"tree_param":{"num_deleted":"0","num_feature":"4","num_nodes":"91","size_leaf_vector":"1"}},{"base_weights":[9.56457E-3,-2.5510275E-1,6.9657594E-1,-1.9611874E-1,-1.0404337E1,1.0477757E1,6.070078E-1,2.7643008E0,-2.519259E-1,-1.8285413E0,-1.3137975E1,7.358384E0,2.7621307E0,2.575584E0,3.702862E-1,-9.647127E-1,9.971027E0,-2.8552628E0,-1.0235701E-1,3.9892392E0,-7.255618E0,1.6440789E0,7.1253204E-1,1.3735234E1,-1.1919955E0,-9.572376E0,5.226173E-1,-2.0797317E0,2.3552933E0,5.572076E0,3.8124425E0,-1.0041855E1,-1.2101662E0,-1.7227612E-1,2.5004053E0,1.3567433E0,3.8485337E-2,-1.02491E-1,3.5334018E-1,1.356179E0,2.5963602E1,-9.791128E0,2.366418E0,-2.6806703E0,-9.705904E0,1.0627221E0,-3.3385956E-1,-6.7981863E-1,-2.7229273E-1,2.6081944E-1,1.0654167E0,1.8677253E0,3.4555566E-1,2.1688133E-1,-4.022913E0,1.5381933E0,-8.171724E-1,1.9927852E-1,-1.15995534E-1,8.807517E-1,-1.2416527E0,7.408675E-1,-6.1946756E-1,9.688375E0,7.610348E-1,-7.2335505E-1,-3.392615E0,-3.5975036E-1,3.465441E0,2.9091054E-1,-1.0022043E0,1.7513448E-1,7.162583E-1,-1.0629894E0,6.910206E-2],"categories":[],"categories_nodes":[],"categories_segments":[],"categories_sizes":[],"default_left":[0,0,0,0,0,0,0,0,0,0,0,0,0,0,0,0,0,0,0,0,0,0,0,0,0,0,0,0,0,0,0,0,0,0,0,0,0,0,0,0,0,0,0,0,0,0,0,0,0,0,0,0,0,0,0,0,0,0,0,0,0,0,0,0,0,0,0,0,0,0,0,0,0,0,0],"id":14,"left_children":[1,3,5,7,9,11,13,15,17,19,-1,-1,21,23,25,27,29,31,33,35,-1,-1,37,39,41,43,45,47,49,51,-1,53,55,57,59,-1,-1,-1,-1,61,63,65,67,69,-1,71,73,-1,-1,-1,-1,-1,-1,-1,-1,-1,-1,-1,-1,-1,-1,-1,-1,-1,-1,-1,-1,-1,-1,-1,-1,-1,-1,-1,-1],"loss_changes":[4.3675024E2,1.0360059E3,5.788628E2,2.8568805E2,2.7832869E3,5.8268677E2,3.0800726E2,8.695865E2,6.5931433E2,1.2670867E3,0E0,0E0,2.3950535E1,3.0015579E3,9.031465E2,8.633951E1,6.1634033E1,1.0755303E3,2.921493E2,1.5890327E1,0E0,0E0,2.3642657E0,2.6895505E3,1.6755305E3,1.3262493E3,2.7096832E2,1.6559525E0,7.576065E0,1.0165176E1,0E0,6.260167E2,7.4305743E2,2.8037552E2,1.3357089E2,0E0,0E0,0E0,0E0,4.318886E1,1.2529082E3,1.519281E2,1.2911056E3,2.251374E1,0E0,2.2639276E2,4.118596E2,0E0,0E0,0E0,0E0,0E0,0E0,0E0,0E0,0E0,0E0,0E0,0E0,0E0,0E0,0E0,0E0,0E0,0E0,0E0,0E0,0E0,0E0,0E0,0E0,0E0,0E0,0E0,0E0],"parents":[2147483647,0,0,1,1,2,2,3,3,4,4,5,5,6,6,7,7,8,8,9,9,12,12,13,13,14,14,15,15,16,16,17,17,18,18,19,19,22,22,23,23,24,24,25,25,26,26,27,27,28,28,29,29,31,31,32,32,33,33,34,34,39,39,40,40,41,41,42,42,43,43,45,45,46,46],"right_children":[2,4,6,8,10,12,14,16,18,20,-1,-1,22,24,26,28,30,32,34,36,-1,-1,38,40,42,44,46,48,50,52,-1,54,56,58,60,-1,-1,-1,-1,62,64,66,68,70,-1,72,74,-1,-1,-1,-1,-1,-1,-1,-1,-1,-1,-1,-1,-1,-1,-1,-1,-1,-1,-1,-1,-1,-1,-1,-1,-1,-1,-1,-1],"split_conditions":[6.0525326E1,6.020252E1,7.639E1,6.08E1,4.35E0,6.7824936E1,2.3672667E1,-7.0126465E1,-2.9869684E1,8.429E1,-1.3137975E1,7.358384E0,2.2243063E1,8.189E1,2.41905E1,5.1575E-1,-5.690986E1,7.08E1,5E0,8.274E1,-7.255618E0,1.6440789E0,6.579E1,7.872E1,7.119522E1,6.426502E1,4E0,4.9E0,5.728E1,3.321889E0,3.8124425E0,-6.349536E1,7.34E1,3.45E0,2.6155E2,1.3567433E0,3.8485337E-2,-1.02491E-1,3.5334018E-1,1.1915702E1,4.45E0,6.426502E1,1.3633132E1,6.1076168E1,-9.705904E0,8.674E1,7.722295E1,-6.7981863E-1,-2.7229273E-1,2.6081944E-1,1.0654167E0,1.8677253E0,3.4555566E-1,2.1688133E-1,-4.022913E0,1.5381933E0,-8.171724E-1,1.9927852E-1,-1.15995534E-1,8.807517E-1,-1.2416527E0,7.408675E-1,-6.1946756E-1,9.688375E0,7.610348E-1,-7.2335505E-1,-3.392615E0,-3.5975036E-1,3.465441E0,2.9091054E-1,-1.0022043E0,1.7513448E-1,7.162583E-1,-1.0629894E0,6.910206E-2],"split_indices":[0,0,1,1,3,0,2,0,0,1,0,0,2,1,2,2,0,1,3,1,0,0,1,1,0,0,3,3,1,2,0,0,1,3,3,0,0,0,0,2,3,0,2,0,0,1,0,0,0,0,0,0,0,0,0,0,0,0,0,0,0,0,0,0,0,0,0,0,0,0,0,0,0,0,0],"split_type":[0,0,0,0,0,0,0,0,0,0,0,0,0,0,0,0,0,0,0,0,0,0,0,0,0,0,0,0,0,0,0,0,0,0,0,0,0,0,0,0,0,0,0,0,0,0,0,0,0,0,0,0,0,0,0,0,0,0,0,0,0,0,0,0,0,0,0,0,0,0,0,0,0,0,0],"sum_hessian":[2.4E3,1.733E3,6.67E2,1.724E3,9E0,5E0,6.62E2,3.1E1,1.693E3,8E0,1E0,1E0,4E0,7E1,5.92E2,2.1E1,1E1,9.1E1,1.602E3,7E0,1E0,1E0,3E0,1.7E1,5.3E1,8E0,5.84E2,1.6E1,5E0,5E0,5E0,1.6E1,7.5E1,1.561E3,4.1E1,6E0,1E0,1E0,2E0,9E0,8E0,1.5E1,3.8E1,7E0,1E0,3.58E2,2.26E2,1.3E1,3E0,3E0,2E0,4E0,1E0,4E0,1.2E1,1.4E1,6.1E1,3.18E2,1.243E3,3.9E1,2E0,7E0,2E0,6E0,2E0,3E0,1.2E1,2.8E1,1E1,1E0,6E0,2.64E2,9.4E1,3.3E1,1.93E2],"tree_param":{"num_deleted":"0","num_feature":"4","num_nodes":"75","size_leaf_vector":"1"}},{"base_weights":[3.5018835E-3,-3.5948646E0,3.37134E-2,1.2177563E0,-1.354735E0,-7.633975E-2,8.806783E-1,-3.120083E-1,6.9510806E-1,-9.229821E-2,5.034613E0,7.462454E-1,3.75361E0,-4.8850086E-2,-9.202829E0,1.8475465E0,3.5272735E-1,7.537876E0,1.6546462E0,-6.856983E-2,6.1984773E0,-4.9302487E0,-7.1484094E0,4.3657568E-1,3.0560462E0,-1.6674649E0,7.5955933E-1,1.21117406E-1,2.9344058E0,6.343434E-1,3.0156454E-2,-1.163364E-2,-1.2608899E0,-2.5256076E0,-1.3672669E-1,-7.2302747E-1,4.8134893E-1,1.6162201E0,5.587489E-1,6.344431E-1,-1.0964191E0,1.3799576E-1,1.3472581E0,-1.0160065E-2,2.373047E-2],"categories":[],"categories_nodes":[],"categories_segments":[],"categories_sizes":[],"default_left":[0,0,0,0,0,0,0,0,0,0,0,0,0,0,0,0,0,0,0,0,0,0,0,0,0,0,0,0,0,0,0,0,0,0,0,0,0,0,0,0,0,0,0,0,0],"id":15,"left_children":[1,3,5,7,-1,9,11,-1,-1,13,-1,15,17,19,21,23,25,27,29,31,-1,33,-1,35,37,39,41,-1,-1,-1,43,-1,-1,-1,-1,-1,-1,-1,-1,-1,-1,-1,-1,-1,-1],"loss_changes":[2.6113895E2,9.41398E1,2.220962E2,1.2337433E1,0E0,5.6894116E2,1.0302226E2,0E0,0E0,8.3397174E2,0E0,1.1332773E2,8.284393E1,8.586582E2,5.073954E2,1.16321686E2,1.6153293E2,6.007219E1,6.6591625E0,2.5824335E2,0E0,1.3664429E2,0E0,1.1358147E2,9.292169E1,2.5576974E2,1.8013545E2,0E0,0E0,0E0,1.2079811E-2,0E0,0E0,0E0,0E0,0E0,0E0,0E0,0E0,0E0,0E0,0E0,0E0,0E0,0E0],"parents":[2147483647,0,0,1,1,2,2,3,3,5,5,6,6,9,9,11,11,12,12,13,13,14,14,15,15,16,16,17,17,18,18,19,19,21,21,23,23,24,24,25,25,26,26,30,30],"right_children":[2,4,6,8,-1,10,12,-1,-1,14,-1,16,18,20,22,24,26,28,30,32,-1,34,-1,36,38,40,42,-1,-1,-1,44,-1,-1,-1,-1,-1,-1,-1,-1,-1,-1,-1,-1,-1,-1],"split_conditions":[-8.281136E1,6.554E1,1.2682921E2,5.801E1,-1.354735E0,6.1393E1,2.5771497E2,-3.120083E-1,6.9510806E-1,1.25053894E2,5.034613E0,7.931E1,2.65E0,6.0905212E1,7.938E1,7.762E1,1.3652713E2,2.6E0,1.3640967E2,5.7282455E1,6.1984773E0,7.762E1,-7.1484094E0,1.3219061E2,1.310693E2,3.75E0,4.45E0,1.21117406E-1,2.9344058E0,6.343434E-1,2.7E0,-1.163364E-2,-1.2608899E0,-2.5256076E0,-1.3672669E-1,-7.2302747E-1,4.8134893E-1,1.6162201E0,5.587489E-1,6.344431E-1,-1.0964191E0,1.3799576E-1,1.3472581E0,-1.0160065E-2,2.373047E-2],"split_indices":[0,1,0,1,0,2,0,0,0,0,0,1,3,2,1,1,0,3,2,2,0,1,0,0,0,3,3,0,0,0,3,0,0,0,0,0,0,0,0,0,0,0,0,0,0],"split_type":[0,0,0,0,0,0,0,0,0,0,0,0,0,0,0,0,0,0,0,0,0,0,0,0,0,0,0,0,0,0,0,0,0,0,0,0,0,0,0,0,0,0,0,0,0],"sum_hessian":[2.4E3,1.9E1,2.381E3,3E0,1.6E1,2.108E3,2.73E2,1E0,2E0,2.107E3,1E0,2.62E2,1.1E1,2.098E3,9E0,6.8E1,1.94E2,3E0,8E0,2.097E3,1E0,8E0,1E0,3.2E1,3.6E1,3.2E1,1.62E2,1E0,2E0,6E0,2E0,2.083E3,1.4E1,4E0,4E0,9E0,2.3E1,1.1E1,2.5E1,1.1E1,2.1E1,1.51E2,1.1E1,1E0,1E0],"tree_param":{"num_deleted":"0","num_feature":"4","num_nodes":"45","size_leaf_vector":"1"}},{"base_weights":[4.8830044E-3,-2.7547956E-1,3.17325E-1,5.3334224E-1,-7.160501E-1,-2.458574E0,4.367286E-1,1.8092796E-1,7.0221562E0,-6.4143586E0,-5.139458E-1,-1.3180551E1,7.954884E-1,1.4492387E0,2.3352338E-1,7.5494903E-1,-1.5559311E1,2.0880724E1,-1.7611283E0,-9.202493E0,5.3425508E0,-1.7193736E0,3.760828E-1,-1.1250954E0,-1.0198897E1,-5.7676826E0,3.7940485E0,7.7181727E-1,4.4845104E0,-3.7305489E0,3.5447064E-1,5.3967193E-2,8.7827425E0,-2.2501892E1,-1.395126E0,3.280706E1,4.7782426E0,1.165707E0,-6.410524E0,-4.3153596E0,-2.5933102E1,4.553133E0,-6.574536E0,-9.882842E-1,-6.695001E0,7.174404E0,3.218568E-2,1.3007562E0,-2.7159085E0,1.009323E0,-5.8722076E0,1.0590197E1,7.3282605E-1,1.6873851E0,-2.284688E0,1.9631933E0,1.0989889E1,-1.8456422E-1,-1.4388923E1,1.1886225E0,5.1881794E-2,1.646933E-1,-1.2120721E0,4.9145384E0,1.2715769E0,-8.93563E0,-2.778379E0,-6.1530674E-1,2.8265333E-1,1.1020162E1,2.564972E0,-1.7378495E0,4.126971E0,1.6853615E0,-5.795776E-1,-7.670233E-1,-2.6184402E0,-3.502545E0,-9.464006E0,-4.9186575E-1,9.259174E-1,-6.385722E0,-1.7522398E0,4.3760683E-2,2.769912E0,-3.6166587E0,9.4558485E-2,-2.6629746E-1,9.491945E-1,-4.9583235E-1,3.3459156E0,7.329758E-1,3.8695905E0,4.4199E0,-2.5903842E-1,4.3858447E0,3.2849807E-1,-1.6907792E-1,-9.120288E0,7.406369E-1,-7.702326E-1,-1.2522932E0,4.0221615E0,-3.9418437E0,2.5776348E-1,3.0691543E0,1.443939E-1,-1.0940619E0,9.414505E-2],"categories":[],"categories_nodes":[],"categories_segments":[],"categories_sizes":[],"default_left":[0,0,0,0,0,0,0,0,0,0,0,0,0,0,0,0,0,0,0,0,0,0,0,0,0,0,0,0,0,0,0,0,0,0,0,0,0,0,0,0,0,0,0,0,0,0,0,0,0,0,0,0,0,0,0,0,0,0,0,0,0,0,0,0,0,0,0,0,0,0,0,0,0,0,0,0,0,0,0,0,0,0,0,0,0,0,0,0,0,0,0,0,0,0,0,0,0,0,0,0,0,0,0,0,0,0,0,0,0],"id":16,"left_children":[1,3,5,7,9,11,13,15,17,19,21,23,25,27,29,31,33,35,37,39,41,43,45,47,-1,49,51,53,55,57,59,61,63,65,67,69,71,73,-1,75,77,-1,-1,79,81,83,85,87,-1,89,-1,91,93,95,97,99,101,103,-1,105,107,-1,-1,-1,-1,-1,-1,-1,-1,-1,-1,-1,-1,-1,-1,-1,-1,-1,-1,-1,-1,-1,-1,-1,-1,-1,-1,-1,-1,-1,-1,-1,-1,-1,-1,-1,-1,-1,-1,-1,-1,-1,-1,-1,-1,-1,-1,-1,-1],"loss_changes":[2.104079E2,4.515122E2,3.7760364E2,1.020907E3,9.4105835E2,1.6503142E3,2.2392616E2,3.851719E3,2.83642E3,9.670006E2,8.514287E2,2.7221309E3,7.5004517E2,3.7075943E2,4.3713666E2,2.3123613E3,1.4436467E3,1.571633E3,8.857187E2,1.7686779E3,1.941011E3,1.2192644E3,1.0682E3,1.6563168E2,0E0,1.1425444E3,5.3315674E2,4.2362085E2,5.1969476E2,4.22604E3,2.2281195E2,7.70328E2,1.0700957E3,6.8853564E2,1.1130601E1,1.6219482E2,5.5424225E2,2.0392967E2,0E0,1.2513144E2,3.1878906E1,0E0,0E0,7.879038E2,4.1160217E2,3.1697546E2,1.4953275E3,3.1351097E1,0E0,2.6146582E2,0E0,1.1893921E2,4.3733908E2,8.726522E2,1.6765433E3,6.360527E1,3.858755E2,3.6286227E2,0E0,1.4979985E3,6.299173E2,0E0,0E0,0E0,0E0,0E0,0E0,0E0,0E0,0E0,0E0,0E0,0E0,0E0,0E0,0E0,0E0,0E0,0E0,0E0,0E0,0E0,0E0,0E0,0E0,0E0,0E0,0E0,0E0,0E0,0E0,0E0,0E0,0E0,0E0,0E0,0E0,0E0,0E0,0E0,0E0,0E0,0E0,0E0,0E0,0E0,0E0,0E0,0E0],"parents":[2147483647,0,0,1,1,2,2,3,3,4,4,5,5,6,6,7,7,8,8,9,9,10,10,11,11,12,12,13,13,14,14,15,15,16,16,17,17,18,18,19,19,20,20,21,21,22,22,23,23,25,25,26,26,27,27,28,28,29,29,30,30,31,31,32,32,33,33,34,34,35,35,36,36,37,37,39,39,40,40,43,43,44,44,45,45,46,46,47,47,49,49,51,51,52,52,53,53,54,54,55,55,56,56,57,57,59,59,60,60],"right_children":[2,4,6,8,10,12,14,16,18,20,22,24,26,28,30,32,34,36,38,40,42,44,46,48,-1,50,52,54,56,58,60,62,64,66,68,70,72,74,-1,76,78,-1,-1,80,82,84,86,88,-1,90,-1,92,94,96,98,100,102,104,-1,106,108,-1,-1,-1,-1,-1,-1,-1,-1,-1,-1,-1,-1,-1,-1,-1,-1,-1,-1,-1,-1,-1,-1,-1,-1,-1,-1,-1,-1,-1,-1,-1,-1,-1,-1,-1,-1,-1,-1,-1,-1,-1,-1,-1,-1,-1,-1,-1,-1],"split_conditions":[3.2663513E1,7.659E1,7.423E1,1.7595833E1,2.1085E0,1.9769423E1,4.206099E1,1.5842714E1,1.9254261E1,2.7321772E1,8.092E1,7.346E1,3.9458843E1,2.0260714E1,4.8355885E1,1.3407292E1,2.9740004E1,4.5E0,6.94E1,-5.690986E1,3.215138E1,8.038E1,7.549286E0,1.7901667E1,-1.0198897E1,3.6210697E1,2.57298E1,4.05E0,3.7915115E1,2.5006813E1,7.827E1,-3.671792E-1,6.94E1,1.7054111E1,3.047131E1,1.8171E1,2.4400785E1,6.913E1,-6.410524E0,-7.7258224E1,-5.234594E1,4.553133E0,-6.574536E0,1.5578667E1,-4.5508236E1,3.321889E0,-1.6851389E1,3.95E0,-2.7159085E0,3.4792034E1,-5.8722076E0,4E0,4.206099E1,7.722E1,2.0158E1,4.45E0,4E0,7.639E1,-1.4388923E1,5.42059E1,5.24349E1,1.646933E-1,-1.2120721E0,4.9145384E0,1.2715769E0,-8.93563E0,-2.778379E0,-6.1530674E-1,2.8265333E-1,1.1020162E1,2.564972E0,-1.7378495E0,4.126971E0,1.6853615E0,-5.795776E-1,-7.670233E-1,-2.6184402E0,-3.502545E0,-9.464006E0,-4.9186575E-1,9.259174E-1,-6.385722E0,-1.7522398E0,4.3760683E-2,2.769912E0,-3.6166587E0,9.4558485E-2,-2.6629746E-1,9.491945E-1,-4.9583235E-1,3.3459156E0,7.329758E-1,3.8695905E0,4.4199E0,-2.5903842E-1,4.3858447E0,3.2849807E-1,-1.6907792E-1,-9.120288E0,7.406369E-1,-7.702326E-1,-1.2522932E0,4.0221615E0,-3.9418437E0,2.5776348E-1,3.0691543E0,1.443939E-1,-1.0940619E0,9.414505E-2],"split_indices":[0,1,1,2,2,2,0,2,2,0,1,1,0,2,0,2,0,3,1,0,0,1,2,2,0,0,2,3,0,2,1,0,1,2,0,2,0,1,0,0,0,0,0,2,0,2,0,3,0,0,0,3,0,1,2,3,3,1,0,0,0,0,0,0,0,0,0,0,0,0,0,0,0,0,0,0,0,0,0,0,0,0,0,0,0,0,0,0,0,0,0,0,0,0,0,0,0,0,0,0,0,0,0,0,0,0,0,0,0],"split_type":[0,0,0,0,0,0,0,0,0,0,0,0,0,0,0,0,0,0,0,0,0,0,0,0,0,0,0,0,0,0,0,0,0,0,0,0,0,0,0,0,0,0,0,0,0,0,0,0,0,0,0,0,0,0,0,0,0,0,0,0,0,0,0,0,0,0,0,0,0,0,0,0,0,0,0,0,0,0,0,0,0,0,0,0,0,0,0,0,0,0,0,0,0,0,0,0,0,0,0,0,0,0,0,0,0,0,0,0,0],"sum_hessian":[2.4E3,1.265E3,1.135E3,4.46E2,8.19E2,4.6E1,1.089E3,4.24E2,2.2E1,2.7E1,7.92E2,1E1,3.6E1,1.81E2,9.08E2,4.1E2,1.4E1,8E0,1.4E1,2.2E1,5E0,3.36E2,4.56E2,7E0,3E0,1.1E1,2.5E1,1.49E2,3.2E1,2.6E1,8.82E2,3.78E2,3.2E1,9E0,5E0,4E0,4E0,1.3E1,1E0,1.8E1,4E0,4E0,1E0,2.94E2,4.2E1,2.1E1,4.35E2,6E0,1E0,8E0,3E0,7E0,1.8E1,1.15E2,3.4E1,2.4E1,8E0,2.5E1,1E0,2.34E2,6.48E2,3.38E2,4E1,1.1E1,2.1E1,5E0,4E0,4E0,1E0,3E0,1E0,2E0,2E0,5E0,8E0,1.4E1,4E0,2E0,2E0,2.54E2,4E1,1E0,4.1E1,5E0,1.6E1,9E0,4.26E2,3E0,3E0,7E0,1E0,2E0,5E0,1E0,1.7E1,4E0,1.11E2,3.3E1,1E0,2.2E1,2E0,1E0,7E0,1E0,2.4E1,1.6E1,2.18E2,4.2E1,6.06E2],"tree_param":{"num_deleted":"0","num_feature":"4","num_nodes":"109","size_leaf_vector":"1"}},{"base_weights":[-1.6244562E-2,-1.1233705E0,6.4892575E-2,2.7229276E0,-2.5127404E0,2.1269555E0,-4.883328E-2,-3.3475935E-1,1.893281E1,1.4791219E0,-5.3447437E0,-1.5559446E0,5.3084245E0,5.8802E-1,-1.8234506E-1,-8.719624E0,1.8398752E0,1.0656794E1,1.0247397E1,-1.265742E-1,6.7081823E0,-2.5892645E1,-2.6927445E0,1.7449329E0,-2.3282492E0,4.090665E1,1.5343249E0,-8.500208E-1,1.3864731E0,5.3281746E0,-2.0270054E-1,-2.8590367E0,-7.4615602E0,2.4106903E0,-1.6105015E0,-4.2830167E0,5.575008E0,9.861979E-1,-6.528703E0,3.4270015E0,2.2263393E0,-3.1572723E1,2.0801842E0,-1.33383465E1,2.8237674E-1,6.1477995E-1,-1.9476028E-1,-1.8039743E0,-1.7172931E0,1.3534617E1,2.9794414E0,-1.0997797E1,2.9241061E0,-2.543663E0,2.2670696E0,3.9291725E-1,3.6579146E0,-1.3490213E0,6.1915323E-2,-2.6044674E0,4.8114133E0,8.369653E-1,1.8555921E-1,-6.489426E-1,9.000907E-2,-1.9042846E0,-2.3073006E-2,7.7225465E-1,-1.3779309E0,1.4359916E0,-9.778662E-2,-1.1134449E1,-3.5434902E0,-7.8633833E0,-2.2334113E0,1.3851234E0,-1.2189556E0,-1.3926278E-1,-1.285243E0,-7.007852E0,3.0688035E-1,5.218556E0,1.0314878E-1,-5.0079906E-1,-4.912197E0,2.2901301E0,3.8865295E-1,2.9595249E0,1.1243043E-2,7.0175176E0,5.5083364E-1,-2.5013995E-1,-7.479029E0,3.3623865E0,6.8041096E-3],"categories":[],"categories_nodes":[],"categories_segments":[],"categories_sizes":[],"default_left":[0,0,0,0,0,0,0,0,0,0,0,0,0,0,0,0,0,0,0,0,0,0,0,0,0,0,0,0,0,0,0,0,0,0,0,0,0,0,0,0,0,0,0,0,0,0,0,0,0,0,0,0,0,0,0,0,0,0,0,0,0,0,0,0,0,0,0,0,0,0,0,0,0,0,0,0,0,0,0,0,0,0,0,0,0,0,0,0,0,0,0,0,0,0,0],"id":17,"left_children":[1,3,5,7,9,11,13,15,17,19,21,23,25,27,29,31,33,-1,35,37,39,41,43,45,47,49,51,53,55,-1,57,59,-1,61,63,65,-1,67,-1,69,-1,71,-1,73,75,-1,-1,-1,77,-1,-1,79,81,83,85,87,89,91,93,-1,-1,-1,-1,-1,-1,-1,-1,-1,-1,-1,-1,-1,-1,-1,-1,-1,-1,-1,-1,-1,-1,-1,-1,-1,-1,-1,-1,-1,-1,-1,-1,-1,-1,-1,-1],"loss_changes":[2.157524E2,8.832467E2,5.2493695E2,2.1871873E3,1.3758066E3,1.3791523E3,1.805354E2,7.0893567E2,6.4461206E2,4.290595E2,3.7992822E3,1.442732E2,8.401365E3,4.237191E2,6.4459076E2,6.861834E2,6.493777E1,0E0,8.0634265E2,9.844891E2,2.6395264E0,1.7105845E3,2.0307717E3,9.34515E0,9.0985245E1,3.341377E2,1.0423394E3,7.0262573E2,5.334253E2,0E0,5.3213245E2,9.0943567E2,0E0,1.6622925E1,5.928194E0,2.5563576E1,0E0,3.573573E2,0E0,2.1970879E1,0E0,3.2823975E2,0E0,8.670232E2,9.7943243E2,0E0,0E0,0E0,1.266704E2,0E0,0E0,9.154758E2,1.9730065E3,1.01260504E3,2.3517151E2,5.585175E2,2.5455295E3,3.976391E3,6.233561E2,0E0,0E0,0E0,0E0,0E0,0E0,0E0,0E0,0E0,0E0,0E0,0E0,0E0,0E0,0E0,0E0,0E0,0E0,0E0,0E0,0E0,0E0,0E0,0E0,0E0,0E0,0E0,0E0,0E0,0E0,0E0,0E0,0E0,0E0,0E0,0E0],"parents":[2147483647,0,0,1,1,2,2,3,3,4,4,5,5,6,6,7,7,8,8,9,9,10,10,11,11,12,12,13,13,14,14,15,15,16,16,18,18,19,19,20,20,21,21,22,22,23,23,24,24,25,25,26,26,27,27,28,28,30,30,31,31,33,33,34,34,35,35,37,37,39,39,41,41,43,43,44,44,48,48,51,51,52,52,53,53,54,54,55,55,56,56,57,57,58,58],"right_children":[2,4,6,8,10,12,14,16,18,20,22,24,26,28,30,32,34,-1,36,38,40,42,44,46,48,50,52,54,56,-1,58,60,-1,62,64,66,-1,68,-1,70,-1,72,-1,74,76,-1,-1,-1,78,-1,-1,80,82,84,86,88,90,92,94,-1,-1,-1,-1,-1,-1,-1,-1,-1,-1,-1,-1,-1,-1,-1,-1,-1,-1,-1,-1,-1,-1,-1,-1,-1,-1,-1,-1,-1,-1,-1,-1,-1,-1,-1,-1],"split_conditions":[6.669E1,4.5E0,6.992E1,1.1060815E1,-2.0704863E1,-3.6637256E0,9.298667E0,-2.614515E1,-4.5438843E0,-2.9869684E1,8.000334E0,6.724E1,-3.671792E-1,5.07E0,-2.4875744E1,-3.287227E1,9.127143E0,1.0656794E1,4.4E0,5.558E0,4.85E0,5E0,4.85E0,8.127556E0,7.36425E0,6.936E1,4E0,3.744989E1,4.7E0,5.3281746E0,4.7147068E-1,-4.5508236E1,-7.4615602E0,4.45E0,1.0969714E1,2.2954633E0,5.575008E0,-4.025755E1,-6.528703E0,-2.614515E1,2.2263393E0,4.95E0,2.0801842E0,-3.4569116E0,6.579E1,6.1477995E-1,-1.9476028E-1,-1.8039743E0,9.683093E0,1.3534617E1,2.9794414E0,1.4407442E1,4.05E0,3.555557E1,4.7051254E1,5.558E0,4.75E0,1.1826583E1,1.016727E1,-2.6044674E0,4.8114133E0,8.369653E-1,1.8555921E-1,-6.489426E-1,9.000907E-2,-1.9042846E0,-2.3073006E-2,7.7225465E-1,-1.3779309E0,1.4359916E0,-9.778662E-2,-1.1134449E1,-3.5434902E0,-7.8633833E0,-2.2334113E0,1.3851234E0,-1.2189556E0,-1.3926278E-1,-1.285243E0,-7.007852E0,3.0688035E-1,5.218556E0,1.0314878E-1,-5.0079906E-1,-4.912197E0,2.2901301E0,3.8865295E-1,2.9595249E0,1.1243043E-2,7.0175176E0,5.5083364E-1,-2.5013995E-1,-7.479029E0,3.3623865E0,6.8041096E-3],"split_indices":[1,3,1,2,0,0,2,0,0,0,2,1,0,2,0,0,2,0,3,2,3,3,3,2,2,1,3,0,3,0,0,0,0,3,2,0,0,0,0,0,0,3,0,0,1,0,0,0,2,0,0,0,3,0,0,2,3,2,2,0,0,0,0,0,0,0,0,0,0,0,0,0,0,0,0,0,0,0,0,0,0,0,0,0,0,0,0,0,0,0,0,0,0,0,0],"split_type":[0,0,0,0,0,0,0,0,0,0,0,0,0,0,0,0,0,0,0,0,0,0,0,0,0,0,0,0,0,0,0,0,0,0,0,0,0,0,0,0,0,0,0,0,0,0,0,0,0,0,0,0,0,0,0,0,0,0,0,0,0,0,0,0,0,0,0,0,0,0,0,0,0,0,0,0,0,0,0,0,0,0,0,0,0,0,0,0,0,0,0,0,0,0,0],"sum_hessian":[2.4E3,1.63E2,2.237E3,4.3E1,1.2E2,1.16E2,2.121E3,3.7E1,6E0,5E1,7E1,5.4E1,6.2E1,3.67E2,1.754E3,7E0,3E1,1E0,5E0,3.9E1,1.1E1,7E0,6.3E1,1E1,4.4E1,5E0,5.7E1,1.31E2,2.36E2,1E0,1.753E3,6E0,1E0,2.6E1,4E0,2E0,3E0,3.8E1,1E0,3E0,8E0,6E0,1E0,1.3E1,5E1,9E0,1E0,5E0,3.9E1,4E0,1E0,5E0,5.2E1,8.5E1,4.6E1,1.65E2,7.1E1,3.28E2,1.425E3,5E0,1E0,2.1E1,5E0,3E0,1E0,1E0,1E0,3E1,8E0,2E0,1E0,4E0,2E0,3E0,1E1,2.5E1,2.5E1,2.7E1,1.2E1,2E0,3E0,7E0,4.5E1,8.1E1,4E0,6E0,4E1,5E0,1.6E2,5E0,6.6E1,3.22E2,6E0,4E0,1.421E3],"tree_param":{"num_deleted":"0","num_feature":"4","num_nodes":"95","size_leaf_vector":"1"}},{"base_weights":[-9.4914E-3,-8.8748634E-1,5.4852057E-2,2.1222634E0,-1.9746062E0,1.5942218E0,-3.0049507E-2,-3.6041108E-1,1.5296459E1,9.653882E-1,-4.058622E0,-1.1402241E0,3.9561315E0,-7.179222E-2,1.5112406E0,-6.7605624E0,1.302867E0,9.058275E0,7.78112E0,-2.6696193E-1,1.497832E0,-8.61056E0,-2.5493336E0,1.2596362E0,-1.7015183E0,3.1386997E1,1.0502466E0,3.3126062E-1,-2.5691262E-1,2.1093862E0,2.3541018E-1,-1.6860466E0,-6.342326E0,1.7253543E0,-1.2391376E0,-3.640565E0,1.4402103E1,6.7480785E-1,-5.5493975E0,-1.0058043E1,-5.916742E-1,1.4959639E0,-1.6554624E-1,-1.3529809E0,-1.2377176E0,1.44037075E1,1.3070716E1,-8.815287E0,2.1472833E0,1.915419E-1,4.1378613E0,-1.3375631E1,-1.8229796E-1,5.6100465E-2,2.7446783E0,1.249958E0,-3.8816338E0,-1.9533502E0,4.0897017E0,5.9728885E-1,1.391694E-1,-5.029305E-1,7.650776E-2,-1.618642E0,-1.9612312E-2,1.3379731E0,4.8688593E0,5.496379E-3,3.8431947E0,-1.1821118E-2,-4.2184677E0,-5.0543064E-1,4.1299424E0,5.133373E-1,2.236327E-1,-9.897598E-2,-9.293297E-1,7.665678E0,-2.8562918E0,-6.8997617E0,-4.1359854E-1,3.8486845E0,7.287673E-2,1.03979565E-1,-1.0705472E0,1.4915661E0,5.857732E-1,-5.398836E0,9.7167164E-2,-7.777429E-1,-2.1417333E-2,2.5402498E-1,-1.8363725E-1,2.3776186E0,6.202166E-1,1.0002938E-1,9.5988923E-1,1.1701813E-1,-1.6306657E0],"categories":[],"categories_nodes":[],"categories_segments":[],"categories_sizes":[],"default_left":[0,0,0,0,0,0,0,0,0,0,0,0,0,0,0,0,0,0,0,0,0,0,0,0,0,0,0,0,0,0,0,0,0,0,0,0,0,0,0,0,0,0,0,0,0,0,0,0,0,0,0,0,0,0,0,0,0,0,0,0,0,0,0,0,0,0,0,0,0,0,0,0,0,0,0,0,0,0,0,0,0,0,0,0,0,0,0,0,0,0,0,0,0,0,0,0,0,0,0],"id":18,"left_children":[1,3,5,7,9,11,13,15,17,19,21,23,25,27,29,31,33,-1,35,37,-1,-1,39,41,43,45,47,49,51,53,55,57,-1,59,61,63,65,67,-1,69,71,73,-1,-1,75,77,-1,79,81,83,85,87,89,91,93,95,97,-1,-1,-1,-1,-1,-1,-1,-1,-1,-1,-1,-1,-1,-1,-1,-1,-1,-1,-1,-1,-1,-1,-1,-1,-1,-1,-1,-1,-1,-1,-1,-1,-1,-1,-1,-1,-1,-1,-1,-1,-1,-1],"loss_changes":[1.3568893E2,5.407919E2,2.925431E2,1.4446316E3,7.4528436E2,7.60157E2,1.3663297E2,4.133269E2,5.4878845E2,2.5445341E2,2.567587E3,7.622981E1,4.988825E3,1.5431079E2,4.2238846E1,5.481488E2,3.5430862E1,0E0,5.0616855E2,6.992599E2,0E0,0E0,9.936145E2,5.5345783E0,5.3032547E1,6.13792E2,6.4665436E2,3.4544397E2,1.3845903E3,4.941461E1,8.421371E1,6.061537E2,0E0,8.122833E0,3.6945028E0,1.846967E1,2.923584E-1,3.1047897E2,0E0,5.609828E2,8.8640814E2,3.3927917E-1,0E0,0E0,6.6519875E1,1.3101843E3,0E0,6.011748E2,1.074996E3,3.6795523E2,3.2211395E1,5.122167E2,3.7671542E2,5.8016295E0,8.537169E1,2.752398E1,2.8671642E1,0E0,0E0,0E0,0E0,0E0,0E0,0E0,0E0,0E0,0E0,0E0,0E0,0E0,0E0,0E0,0E0,0E0,0E0,0E0,0E0,0E0,0E0,0E0,0E0,0E0,0E0,0E0,0E0,0E0,0E0,0E0,0E0,0E0,0E0,0E0,0E0,0E0,0E0,0E0,0E0,0E0,0E0],"parents":[2147483647,0,0,1,1,2,2,3,3,4,4,5,5,6,6,7,7,8,8,9,9,10,10,11,11,12,12,13,13,14,14,15,15,16,16,18,18,19,19,22,22,23,23,24,24,25,25,26,26,27,27,28,28,29,29,30,30,31,31,33,33,34,34,35,35,36,36,37,37,39,39,40,40,41,41,44,44,45,45,47,47,48,48,49,49,50,50,51,51,52,52,53,53,54,54,55,55,56,56],"right_children":[2,4,6,8,10,12,14,16,18,20,22,24,26,28,30,32,34,-1,36,38,-1,-1,40,42,44,46,48,50,52,54,56,58,-1,60,62,64,66,68,-1,70,72,74,-1,-1,76,78,-1,80,82,84,86,88,90,92,94,96,98,-1,-1,-1,-1,-1,-1,-1,-1,-1,-1,-1,-1,-1,-1,-1,-1,-1,-1,-1,-1,-1,-1,-1,-1,-1,-1,-1,-1,-1,-1,-1,-1,-1,-1,-1,-1,-1,-1,-1,-1,-1,-1],"split_conditions":[6.669E1,4.5E0,6.992E1,1.1060815E1,-2.0704863E1,-3.6637256E0,7.756886E1,-2.614515E1,-4.5438843E0,-2.9869684E1,7.698E0,6.724E1,-3.671792E-1,1.1060815E1,8.813E1,-3.287227E1,9.127143E0,9.058275E0,4.4E0,5.558E0,1.497832E0,-8.61056E0,4.85E0,8.127556E0,7.36425E0,-2.7743113E0,4E0,1.0903436E1,-5.7413216E0,1.6377821E2,1.9278358E2,-4.5508236E1,-6.342326E0,4.45E0,1.0969714E1,2.2954633E0,9.859593E-1,-3.287227E1,-5.5493975E0,1.2028262E1,4.5630623E1,4.8E0,-1.6554624E-1,-1.3529809E0,9.683093E0,-3.170935E0,1.3070716E1,1.3570895E1,4.05E0,1.0740784E1,1.1024764E1,1.1104894E1,4.7147068E-1,1.6274324E2,1.7566461E2,3.1E0,2.5E0,-1.9533502E0,4.0897017E0,5.9728885E-1,1.391694E-1,-5.029305E-1,7.650776E-2,-1.618642E0,-1.9612312E-2,1.3379731E0,4.8688593E0,5.496379E-3,3.8431947E0,-1.1821118E-2,-4.2184677E0,-5.0543064E-1,4.1299424E0,5.133373E-1,2.236327E-1,-9.897598E-2,-9.293297E-1,7.665678E0,-2.8562918E0,-6.8997617E0,-4.1359854E-1,3.8486845E0,7.287673E-2,1.03979565E-1,-1.0705472E0,1.4915661E0,5.857732E-1,-5.398836E0,9.7167164E-2,-7.777429E-1,-2.1417333E-2,2.5402498E-1,-1.8363725E-1,2.3776186E0,6.202166E-1,1.0002938E-1,9.5988923E-1,1.1701813E-1,-1.6306657E0],"split_indices":[1,3,1,2,0,0,2,0,0,0,2,1,0,2,1,0,2,0,3,2,0,0,3,2,2,0,3,2,0,0,0,0,0,3,2,0,0,0,0,2,0,3,0,0,2,0,0,2,3,2,2,2,0,0,0,3,3,0,0,0,0,0,0,0,0,0,0,0,0,0,0,0,0,0,0,0,0,0,0,0,0,0,0,0,0,0,0,0,0,0,0,0,0,0,0,0,0,0,0],"split_type":[0,0,0,0,0,0,0,0,0,0,0,0,0,0,0,0,0,0,0,0,0,0,0,0,0,0,0,0,0,0,0,0,0,0,0,0,0,0,0,0,0,0,0,0,0,0,0,0,0,0,0,0,0,0,0,0,0,0,0,0,0,0,0,0,0,0,0,0,0,0,0,0,0,0,0,0,0,0,0,0,0,0,0,0,0,0,0,0,0,0,0,0,0,0,0,0,0,0,0],"sum_hessian":[2.4E3,1.63E2,2.237E3,4.3E1,1.2E2,1.16E2,2.121E3,3.7E1,6E0,5E1,7E1,5.4E1,6.2E1,2.066E3,5.5E1,7E0,3E1,1E0,5E0,3.9E1,1.1E1,3E0,6.7E1,1E1,4.4E1,5E0,5.7E1,6.5E2,1.416E3,3.7E1,1.8E1,6E0,1E0,2.6E1,4E0,2E0,3E0,3.8E1,1E0,1.3E1,5.4E1,9E0,1E0,5E0,3.9E1,3E0,2E0,5E0,5.2E1,6.28E2,2.2E1,7E0,1.409E3,9E0,2.8E1,1.5E1,3E0,5E0,1E0,2.1E1,5E0,3E0,1E0,1E0,1E0,1E0,2E0,3.7E1,1E0,4E0,9E0,5.1E1,3E0,6E0,3E0,2.7E1,1.2E1,2E0,1E0,1E0,4E0,7E0,4.5E1,6.04E2,2.4E1,1.5E1,7E0,5E0,2E0,6.1E1,1.348E3,4E0,5E0,2E0,2.6E1,1.1E1,4E0,1E0,2E0],"tree_param":{"num_deleted":"0","num_feature":"4","num_nodes":"99","size_leaf_vector":"1"}},{"base_weights":[-2.2233129E-3,1.6312962E0,-3.5531174E-2,-1.1147776E0,3.0391698E0,-1.5373836E0,4.2999774E-2,1.6626618E0,-2.0972712E0,5.0036836E0,1.0114409E0,1.6664013E0,-2.8698545E0,-1.734579E-1,4.6334332E-1,6.509108E-1,-5.4825213E-2,-8.3990735E-1,-2.7781353E0,2.502397E0,2.6266286E0,-4.2616205E0,2.850331E0,-1.0432916E0,1.2654214E1,-3.4341388E0,2.739988E0,-5.592755E-1,3.9047104E-1,1.9129725E0,1.3058417E-1,-8.248879E-1,9.196167E-2,-1.0151606E0,-1.3264351E0,1.0940717E0,3.4936564E0,1.8853961E-1,9.36855E-1,-5.6420317E0,2.627889E-1,7.699533E0,6.2082133E0,-2.708404E0,-1.6545998E1,-4.9564964E-1,-1.89516E1,1.5727892E0,3.4676883E-2,-2.6880493E0,2.8248343E0,-4.130978E0,2.7218258E-1,-2.5839996E-1,3.043808E-1,-5.084023E-1,-3.325768E-2,-7.296753E-3,6.66172E-1,1.3818444E0,2.537347E-1,3.476246E0,-1.7574315E-1,-9.283442E-1,3.4899542E0,-9.1753733E-1,3.5843492E0,-6.277507E0,-5.1133806E-1,-1.23101495E-1,-3.3083465E0,-1.1846964E1,3.3187444E0,2.0102103E-1,4.881317E0,-1.3173784E0,6.396733E-2,1.6064606E0,-2.1132565E0,5.28371E-1,1.9249407E1,-6.542829E-2,-3.409982E0,2.0059268E-1,-3.0421203E-1],"categories":[],"categories_nodes":[],"categories_segments":[],"categories_sizes":[],"default_left":[0,0,0,0,0,0,0,0,0,0,0,0,0,0,0,0,0,0,0,0,0,0,0,0,0,0,0,0,0,0,0,0,0,0,0,0,0,0,0,0,0,0,0,0,0,0,0,0,0,0,0,0,0,0,0,0,0,0,0,0,0,0,0,0,0,0,0,0,0,0,0,0,0,0,0,0,0,0,0,0,0,0,0,0,0],"id":19,"left_children":[1,3,5,7,9,11,13,15,17,19,21,23,25,27,29,-1,-1,31,33,35,-1,-1,37,39,41,43,-1,45,47,49,51,-1,53,-1,55,57,59,-1,-1,-1,61,-1,63,65,67,69,71,73,75,77,79,81,83,-1,-1,-1,-1,-1,-1,-1,-1,-1,-1,-1,-1,-1,-1,-1,-1,-1,-1,-1,-1,-1,-1,-1,-1,-1,-1,-1,-1,-1,-1,-1,-1],"loss_changes":[1.3069408E2,1.88962E2,2.7770135E2,4.9876938E1,1.224111E2,5.042495E2,2.0370837E2,5.075012E0,8.795845E0,1.2823749E2,5.161857E2,1.055278E3,5.9353955E2,3.2179233E2,3.6683942E2,0E0,0E0,1.0930507E1,2.5462646E0,1.1533852E1,0E0,0E0,7.725403E0,6.777577E2,4.277433E2,7.164452E2,0E0,1.0180663E3,2.5276328E2,6.033537E2,3.7525128E2,0E0,5.271655E0,0E0,1.6026206E0,7.613248E0,1.37786255E1,0E0,0E0,0E0,2.7587173E2,0E0,3.387995E2,4.3158777E2,2.2430005E2,7.8257275E2,2.286169E3,1.8334058E3,3.6681757E2,8.785861E2,7.650662E3,5.6376434E2,3.071492E2,0E0,0E0,0E0,0E0,0E0,0E0,0E0,0E0,0E0,0E0,0E0,0E0,0E0,0E0,0E0,0E0,0E0,0E0,0E0,0E0,0E0,0E0,0E0,0E0,0E0,0E0,0E0,0E0,0E0,0E0,0E0,0E0],"parents":[2147483647,0,0,1,1,2,2,3,3,4,4,5,5,6,6,7,7,8,8,9,9,10,10,11,11,12,12,13,13,14,14,17,17,18,18,19,19,22,22,23,23,24,24,25,25,27,27,28,28,29,29,30,30,32,32,34,34,35,35,36,36,40,40,42,42,43,43,44,44,45,45,46,46,47,47,48,48,49,49,50,50,51,51,52,52],"right_children":[2,4,6,8,10,12,14,16,18,20,22,24,26,28,30,-1,-1,32,34,36,-1,-1,38,40,42,44,-1,46,48,50,52,-1,54,-1,56,58,60,-1,-1,-1,62,-1,64,66,68,70,72,74,76,78,80,82,84,-1,-1,-1,-1,-1,-1,-1,-1,-1,-1,-1,-1,-1,-1,-1,-1,-1,-1,-1,-1,-1,-1,-1,-1,-1,-1,-1,-1,-1,-1,-1,-1],"split_conditions":[6.256E1,5.1575E-1,6.669E1,4.4E0,-4.025755E1,4.5E0,4.45E0,-7.960099E1,4.85E0,-5.690986E1,-1.880186E1,1.1060815E1,5.671195E1,5.671195E1,7.583E1,6.509108E-1,-5.4825213E-2,5.864E1,4.9E0,-7.0126465E1,2.6266286E0,-4.2616205E0,4.35E0,-4.5508236E1,-4.5438843E0,2.47635E1,2.739988E0,2.8241545E1,6.7824936E1,7.2085E0,-4.5508236E1,-8.248879E-1,-7.960099E1,-1.0151606E0,-7.960099E1,5.728E1,-6.349536E1,1.8853961E-1,9.36855E-1,-5.6420317E0,-3.287227E1,7.699533E0,4.4E0,3.8877262E1,5.391841E1,5.6170856E1,2.890687E1,6.6921005E1,7.119522E1,-2.9869684E1,7.531E1,-7.0126465E1,5.777989E1,-2.5839996E-1,3.043808E-1,-5.084023E-1,-3.325768E-2,-7.296753E-3,6.66172E-1,1.3818444E0,2.537347E-1,3.476246E0,-1.7574315E-1,-9.283442E-1,3.4899542E0,-9.1753733E-1,3.5843492E0,-6.277507E0,-5.1133806E-1,-1.23101495E-1,-3.3083465E0,-1.1846964E1,3.3187444E0,2.0102103E-1,4.881317E0,-1.3173784E0,6.396733E-2,1.6064606E0,-2.1132565E0,5.28371E-1,1.9249407E1,-6.542829E-2,-3.409982E0,2.0059268E-1,-3.0421203E-1],"split_indices":[1,2,1,3,0,3,3,0,3,0,0,2,0,0,1,0,0,1,3,0,0,0,3,0,0,2,0,2,0,2,0,0,0,0,0,1,0,0,0,0,0,0,3,0,0,0,2,0,0,0,1,0,0,0,0,0,0,0,0,0,0,0,0,0,0,0,0,0,0,0,0,0,0,0,0,0,0,0,0,0,0,0,0,0,0],"split_type":[0,0,0,0,0,0,0,0,0,0,0,0,0,0,0,0,0,0,0,0,0,0,0,0,0,0,0,0,0,0,0,0,0,0,0,0,0,0,0,0,0,0,0,0,0,0,0,0,0,0,0,0,0,0,0,0,0,0,0,0,0,0,0,0,0,0,0,0,0,0,0,0,0,0,0,0,0,0,0,0,0,0,0,0,0],"sum_hessian":[2.4E3,4.7E1,2.353E3,1.6E1,3.1E1,1.16E2,2.237E3,4E0,1.2E1,1.5E1,1.6E1,3.4E1,8.2E1,1.477E3,7.6E2,3E0,1E0,5E0,7E0,1E1,5E0,1E0,1.5E1,2.8E1,6E0,7.9E1,3E0,8.77E2,6E2,1.41E2,6.19E2,1E0,4E0,4E0,3E0,5E0,5E0,2E0,1.3E1,1E0,2.7E1,1E0,5E0,7.6E1,3E0,8.75E2,2E0,1.38E2,4.62E2,2.3E1,1.18E2,1.9E1,6E2,2E0,2E0,2E0,1E0,3E0,2E0,3E0,2E0,1E0,2.6E1,2E0,3E0,7.5E1,1E0,2E0,1E0,8.69E2,6E0,1E0,1E0,1.31E2,7E0,1.7E1,4.45E2,8E0,1.5E1,1.17E2,1E0,1.3E1,6E0,4.59E2,1.41E2],"tree_param":{"num_deleted":"0","num_feature":"4","num_nodes":"85","size_leaf_vector":"1"}},{"base_weights":[4.3351636E-3,-2.685161E0,2.0100914E-2,-1.8739595E1,1.5522112E0,6.4876527E-1,-5.305681E-2,2.0270291E-1,-8.635522E0,9.2101824E-1,-4.7731528E-1,2.8793683E-2,2.4404206E0,-9.0087664E-1,7.6495456E-3,1.2958679E-1,-5.2677387E-1,-2.0823941E0,6.5901786E-1,-2.857995E-1,3.4325812E0,-5.541661E-1,-4.055984E0,1.0517137E0,-4.965405E-2,-3.671917E-1,7.7396965E-1,-3.2887864E0,2.227579E0,1.9991695E1,-3.614216E-2,-2.568009E0,3.4184295E-1,7.995025E0,1.8164172E0,-1.6794566E0,1.0108566E0,-5.464692E0,-1.7807133E-1,2.4404163E0,-2.80478E0,-1.0897888E0,3.779561E-2,2.6461565E-1,6.745835E-2,-1.4279197E0,-2.5423634E-1,-1.7435074E-2,8.418804E-1,1.8732148E-1,9.808527E0,-7.242128E-1,1.902966E-1,1.6090272E-1,-1.134472E0,2.2237304E-1,-7.8746456E-1,1.212907E0,7.7200575E0,7.9962283E-1,-3.1105425E-2,-3.3690523E-2,-1.2646369E0,4.112679E0,8.19075E-2,-4.0585735E-1,7.5291485E-1,2.0629196E0,4.2957416E-1,4.3322757E-2,-2.4383287E0,-7.118491E-1,3.2985958E-1,4.5364866E-1,-1.690076E-2],"categories":[],"categories_nodes":[],"categories_segments":[],"categories_sizes":[],"default_left":[0,0,0,0,0,0,0,0,0,0,0,0,0,0,0,0,0,0,0,0,0,0,0,0,0,0,0,0,0,0,0,0,0,0,0,0,0,0,0,0,0,0,0,0,0,0,0,0,0,0,0,0,0,0,0,0,0,0,0,0,0,0,0,0,0,0,0,0,0,0,0,0,0,0,0],"id":20,"left_children":[1,3,5,7,9,11,13,-1,-1,-1,15,17,19,21,23,25,-1,27,29,31,33,35,37,39,41,-1,43,45,47,49,51,53,55,57,59,61,63,-1,65,67,69,71,73,-1,-1,-1,-1,-1,-1,-1,-1,-1,-1,-1,-1,-1,-1,-1,-1,-1,-1,-1,-1,-1,-1,-1,-1,-1,-1,-1,-1,-1,-1,-1,-1],"loss_changes":[1.0186101E2,9.814885E2,1.0986249E2,6.0455615E2,3.843158E1,2.7651282E2,1.1014852E2,0E0,0E0,0E0,4.8834443E0,2.4884935E2,1.7409137E2,1.5418134E2,1.1958982E2,5.3083687E0,0E0,2.3090532E2,1.9359822E3,2.666126E1,3.320396E2,2.3064136E2,7.6549506E2,5.638192E2,1.7240932E2,0E0,3.9056778E-2,1.1806262E2,1.3390156E1,1.2097365E3,2.2473288E2,1.709754E1,1.9719343E1,7.371899E2,5.8961807E1,3.0157367E2,5.115543E2,0E0,4.1286205E1,3.3462845E2,4.407312E2,4.155304E2,2.428189E2,0E0,0E0,0E0,0E0,0E0,0E0,0E0,0E0,0E0,0E0,0E0,0E0,0E0,0E0,0E0,0E0,0E0,0E0,0E0,0E0,0E0,0E0,0E0,0E0,0E0,0E0,0E0,0E0,0E0,0E0,0E0,0E0],"parents":[2147483647,0,0,1,1,2,2,3,3,4,4,5,5,6,6,10,10,11,11,12,12,13,13,14,14,15,15,17,17,18,18,19,19,20,20,21,21,22,22,23,23,24,24,26,26,27,27,28,28,29,29,30,30,31,31,32,32,33,33,34,34,35,35,36,36,38,38,39,39,40,40,41,41,42,42],"right_children":[2,4,6,8,10,12,14,-1,-1,-1,16,18,20,22,24,26,-1,28,30,32,34,36,38,40,42,-1,44,46,48,50,52,54,56,58,60,62,64,-1,66,68,70,72,74,-1,-1,-1,-1,-1,-1,-1,-1,-1,-1,-1,-1,-1,-1,-1,-1,-1,-1,-1,-1,-1,-1,-1,-1,-1,-1,-1,-1,-1,-1,-1,-1],"split_conditions":[1.85E0,7.722295E1,2.95E0,5.735308E1,3.8713856E1,2.85E0,3.3E0,2.0270291E-1,-8.635522E0,9.2101824E-1,8.838494E1,1.7825546E1,7.931E1,8.674E1,3.45E0,7.913518E1,-5.2677387E-1,3.3529274E1,3.1443472E1,7.745E1,1.7054111E1,3.312812E1,7.290117E1,7.097411E1,3.65E0,-3.671917E-1,8.268356E1,8.143E1,2E0,2.8232582E1,5.1564297E1,-4.192956E0,1.3374792E2,1.1230557E1,1.7566461E2,-2.0877886E0,7.722E1,-5.464692E0,3.1E0,7.697E1,7.967E1,2.41905E1,3.75E0,2.6461565E-1,6.745835E-2,-1.4279197E0,-2.5423634E-1,-1.7435074E-2,8.418804E-1,1.8732148E-1,9.808527E0,-7.242128E-1,1.902966E-1,1.6090272E-1,-1.134472E0,2.2237304E-1,-7.8746456E-1,1.212907E0,7.7200575E0,7.9962283E-1,-3.1105425E-2,-3.3690523E-2,-1.2646369E0,4.112679E0,8.19075E-2,-4.0585735E-1,7.5291485E-1,2.0629196E0,4.2957416E-1,4.3322757E-2,-2.4383287E0,-7.118491E-1,3.2985958E-1,4.5364866E-1,-1.690076E-2],"split_indices":[3,0,3,0,2,3,3,0,0,0,0,2,1,1,3,0,0,0,0,1,2,0,0,0,3,0,0,1,3,0,0,0,0,0,0,0,1,0,3,1,1,2,3,0,0,0,0,0,0,0,0,0,0,0,0,0,0,0,0,0,0,0,0,0,0,0,0,0,0,0,0,0,0,0,0],"split_type":[0,0,0,0,0,0,0,0,0,0,0,0,0,0,0,0,0,0,0,0,0,0,0,0,0,0,0,0,0,0,0,0,0,0,0,0,0,0,0,0,0,0,0,0,0,0,0,0,0,0,0,0,0,0,0,0,0,0,0,0,0,0,0,0,0,0,0,0,0,0,0,0,0,0,0],"sum_hessian":[2.4E3,1.3E1,2.387E3,2E0,1.1E1,2.48E2,2.139E3,1E0,1E0,6E0,5E0,1.85E2,6.3E1,1.42E2,1.997E3,4E0,1E0,4.2E1,1.43E2,1.7E1,4.6E1,1.29E2,1.3E1,1.03E2,1.894E3,1E0,3E0,3.3E1,9E0,4E0,1.39E2,3E0,1.4E1,1.1E1,3.5E1,7.5E1,5.4E1,2E0,1.1E1,7.6E1,2.7E1,1.46E2,1.748E3,2E0,1E0,2E1,1.3E1,2E0,7E0,2E0,2E0,3E1,1.09E2,1E0,2E0,1.3E1,1E0,1E1,1E0,2.4E1,1.1E1,4.7E1,2.8E1,2E0,5.2E1,8E0,3E0,1.3E1,6.3E1,1.8E1,9E0,9.2E1,5.4E1,1.04E2,1.644E3],"tree_param":{"num_deleted":"0","num_feature":"4","num_nodes":"75","size_leaf_vector":"1"}},{"base_weights":[5.793409E-3,-3.6357546E-1,1.0709734E-1,4.7857262E-2,-1.6818873E0,1.1601493E0,-7.1961805E-2,-5.254062E-1,9.2949426E-1,-1.069721E0,-1.1673539E1,4.8052147E-1,4.6080217E0,-6.9771852E0,-2.8840037E-2,-1.7541364E-1,-6.1627564E0,1.2096382E1,3.2369158E-1,-1.6993906E0,9.067859E0,1.3393444E0,-1.714656E1,-4.173213E-1,1.4637802E0,2.1685753E0,3.191362E0,2.2610228E0,-1.6667597E1,2.0390308E0,-7.495007E-2,-5.4088414E-1,3.4354343E0,-1.5975209E1,-6.402542E-1,-1.6972882E0,3.5651596E1,-6.400311E-1,2.7941287E0,-5.983626E0,-1.3521957E0,4.61281E0,5.4538245E0,-3.6336094E-1,9.6606594E-1,-6.73342E0,6.06919E-1,2.2569315E0,-1.9747766E0,1.2201066E0,2.92443E0,3.3778992E0,-3.607132E-1,-7.6253104E-1,1.1189806E0,8.271523E-1,-6.663925E0,8.152496E-1,6.547138E0,-3.7461216E0,1.6159248E-2,9.854267E-2,-1.4467653E0,4.854288E-1,3.2263796E0,-1.0418129E0,-6.945792E0,-4.1570443E-1,2.472921E-1,1.9705878E0,-1.3992589E0,1.636453E1,-3.213125E-1,-5.096557E-1,5.1432854E-1,1.8382003E0,6.205172E-1,-5.0604784E-1,9.37558E-1,3.515911E-1,1.8227404E0,7.5251675E0,3.504146E-1,-1.0410707E0,8.318858E-1,4.4203022E-1,-9.996088E-1,1.0815747E0,3.900013E-2,1.0710686E0,-8.7372184E-1,-9.4051035E-3,-2.8320043E0,5.119379E0,-5.1838867E-3],"categories":[],"categories_nodes":[],"categories_segments":[],"categories_sizes":[],"default_left":[0,0,0,0,0,0,0,0,0,0,0,0,0,0,0,0,0,0,0,0,0,0,0,0,0,0,0,0,0,0,0,0,0,0,0,0,0,0,0,0,0,0,0,0,0,0,0,0,0,0,0,0,0,0,0,0,0,0,0,0,0,0,0,0,0,0,0,0,0,0,0,0,0,0,0,0,0,0,0,0,0,0,0,0,0,0,0,0,0,0,0,0,0,0,0],"id":21,"left_children":[1,3,5,7,9,11,13,15,17,19,21,23,25,27,29,31,33,35,37,39,41,43,45,47,49,-1,51,53,55,57,59,61,63,65,67,69,71,73,75,-1,77,-1,79,-1,-1,-1,-1,81,83,85,-1,87,-1,-1,-1,-1,-1,89,-1,91,93,-1,-1,-1,-1,-1,-1,-1,-1,-1,-1,-1,-1,-1,-1,-1,-1,-1,-1,-1,-1,-1,-1,-1,-1,-1,-1,-1,-1,-1,-1,-1,-1,-1,-1],"loss_changes":[8.988079E1,2.8049954E2,3.5551642E2,2.0012541E2,7.3984845E2,6.3984174E2,4.7979663E2,4.7244635E2,1.0514137E3,7.6225916E2,5.215037E2,2.0365756E2,1.4399103E2,9.329063E2,1.529982E2,3.0142062E2,7.484218E2,2.6598135E3,3.5652994E2,6.762071E2,7.572748E1,1.8292126E1,5.532269E2,5.0842548E2,2.1015987E2,0E0,2.9468994E1,5.1809937E1,5.9984424E2,8.2963574E2,5.248564E2,7.721019E2,2.6192737E2,3.6827673E2,1.20594635E1,1.777826E2,2.1402493E3,