{"learner":{"attributes":{"scikit_learn":"{\"_estimator_type\": \"regressor\"}"},"feature_names":["author_avg_efficiency","author_reputation","author_avg_payout","vote_delay"],"feature_types":["float","float","float","float"],"gradient_booster":{"model":{"gbtree_model_param":{"num_parallel_tree":"1","num_trees":"200"},"iteration_indptr":[0,1,2,3,4,5,6,7,8,9,10,11,12,13,14,15,16,17,18,19,20,21,22,23,24,25,26,27,28,29,30,31,32,33,34,35,36,37,38,39,40,41,42,43,44,45,46,47,48,49,50,51,52,53,54,55,56,57,58,59,60,61,62,63,64,65,66,67,68,69,70,71,72,73,74,75,76,77,78,79,80,81,82,83,84,85,86,87,88,89,90,91,92,93,94,95,96,97,98,99,100,101,102,103,104,105,106,107,108,109,110,111,112,113,114,115,116,117,118,119,120,121,122,123,124,125,126,127,128,129,130,131,132,133,134,135,136,137,138,139,140,141,142,143,144,145,146,147,148,149,150,151,152,153,154,155,156,157,158,159,160,161,162,163,164,165,166,167,168,169,170,171,172,173,174,175,176,177,178,179,180,181,182,183,184,185,186,187,188,189,190,191,192,193,194,195,196,197,198,199,200],"tree_info":[0,0,0,0,0,0,0,0,0,0,0,0,0,0,0,0,0,0,0,0,0,0,0,0,0,0,0,0,0,0,0,0,0,0,0,0,0,0,0,0,0,0,0,0,0,0,0,0,0,0,0,0,0,0,0,0,0,0,0,0,0,0,0,0,0,0,0,0,0,0,0,0,0,0,0,0,0,0,0,0,0,0,0,0,0,0,0,0,0,0,0,0,0,0,0,0,0,0,0,0,0,0,0,0,0,0,0,0,0,0,0,0,0,0,0,0,0,0,0,0,0,0,0,0,0,0,0,0,0,0,0,0,0,0,0,0,0,0,0,0,0,0,0,0,0,0,0,0,0,0,0,0,0,0,0,0,0,0,0,0,0,0,0,0,0,0,0,0,0,0,0,0,0,0,0,0,0,0,0,0,0,0,0,0,0,0,0,0,0,0,0,0,0,0,0,0,0,0,0,0],"trees":[{"base_weights":[1.7572075E-6,-2.0269854E1,1.1923786E2,-6.1498154E1,4.935726E0,9.3973564E1,2.5257843E2,-1.024855E2,-5.2279186E1,-1.053563E1,2.6986261E1,8.473749E1,4.4277706E1,6.1454258E1,8.414506E1,-1.0642155E2,-1.8619663E1,-6.5556366E1,-4.389038E1,-1.6124926E1,-3.2953622E0,1.9556385E1,3.9195568E1,7.774473E1,2.9317835E1,-3.386388E1,-2.7458126E1,-6.599989E1,-2.2333889E1,-4.4710026E1,-3.8599675E0,-1.995717E1,-1.2696125E1,-2.1012063E0,-4.1059402E1,1.569578E1,2.3536053E1,4.220086E1,2.4977934E1,2.3976572E1,1.5538262E1,-1.2107123E1,-2.0079372E1,3.2600443E0,-1.1106918E1,-1.4809257E1,-1.2558195E1,8.921999E0,-7.684984E0,-7.738996E0,-5.5767746E0,-3.5231678E0,-1.0305189E1,-8.785968E0,-3.923207E-1,-1.7896288E1,-3.1600947E0,4.853023E0,-4.9410276E0,3.085036E0,7.1171365E0,1.0861748E1,1.4986703E1,3.3582013E0,1.2710916E1],"categories":[],"categories_nodes":[],"categories_segments":[],"categories_sizes":[],"default_left":[0,0,0,0,0,0,0,0,0,0,0,0,0,0,0,0,0,0,0,0,0,0,0,0,0,0,0,0,0,0,0,0,0,0,0,0,0,0,0,0,0,0,0,0,0,0,0,0,0,0,0,0,0,0,0,0,0,0,0,0,0,0,0,0,0],"id":0,"left_children":[1,3,5,7,9,11,13,15,17,19,21,23,-1,-1,-1,25,-1,27,29,31,33,35,37,39,-1,-1,-1,41,43,45,47,49,51,53,55,57,59,61,63,-1,-1,-1,-1,-1,-1,-1,-1,-1,-1,-1,-1,-1,-1,-1,-1,-1,-1,-1,-1,-1,-1,-1,-1,-1,-1],"loss_changes":[5.805476E6,2.1337465E6,1.15196E6,2.88996E5,4.3525272E5,1.335855E5,1.58E4,1.5986375E4,6.8183125E4,3.0297875E4,4.6948844E4,1.5472125E4,0E0,0E0,0E0,1.98075E3,0E0,3.22275E3,1.2754875E4,5.304836E3,1.4705264E4,4.6853125E3,7.4060625E3,5.4654375E3,0E0,0E0,0E0,3.07825E3,2.353086E3,3.0525625E3,7.3410405E3,1.1020703E3,4.256742E3,6.8427803E3,5.0478535E3,2.8964336E3,1.5410938E2,5.72275E3,8.395617E3,0E0,0E0,0E0,0E0,0E0,0E0,0E0,0E0,0E0,0E0,0E0,0E0,0E0,0E0,0E0,0E0,0E0,0E0,0E0,0E0,0E0,0E0,0E0,0E0,0E0,0E0],"parents":[2147483647,0,0,1,1,2,2,3,3,4,4,5,5,6,6,7,7,8,8,9,9,10,10,11,11,15,15,17,17,18,18,19,19,20,20,21,21,22,22,23,23,27,27,28,28,29,29,30,30,31,31,32,32,33,33,34,34,35,35,36,36,37,37,38,38],"right_children":[2,4,6,8,10,12,14,16,18,20,22,24,-1,-1,-1,26,-1,28,30,32,34,36,38,40,-1,-1,-1,42,44,46,48,50,52,54,56,58,60,62,64,-1,-1,-1,-1,-1,-1,-1,-1,-1,-1,-1,-1,-1,-1,-1,-1,-1,-1,-1,-1,-1,-1,-1,-1,-1,-1],"split_conditions":[9.5461266E1,6.1801767E0,1.191158E2,-5.1632904E1,4.9930874E1,1.4990106E2,8.813E1,2.883E0,-1.3754526E1,3.0449297E1,6.513947E1,1.3420528E2,4.4277706E1,6.1454258E1,8.414506E1,1.126E0,-1.8619663E1,1.0743091E1,1.4523769E1,1.89274E1,2.50285E1,5.4859043E1,8.694E1,4.85E0,2.9317835E1,-3.386388E1,-2.7458126E1,1.81E-1,-2.320058E1,-9.142308E0,4.818374E0,1.2475333E1,4.55E0,7.703E1,2.6493856E1,4.95E0,7.551E1,8.262004E1,4.6937943E1,2.3976572E1,1.5538262E1,-1.2107123E1,-2.0079372E1,3.2600443E0,-1.1106918E1,-1.4809257E1,-1.2558195E1,8.921999E0,-7.684984E0,-7.738996E0,-5.5767746E0,-3.5231678E0,-1.0305189E1,-8.785968E0,-3.923207E-1,-1.7896288E1,-3.1600947E0,4.853023E0,-4.9410276E0,3.085036E0,7.1171365E0,1.0861748E1,1.4986703E1,3.3582013E0,1.2710916E1],"split_indices":[0,0,2,0,0,0,1,2,0,0,0,0,0,0,0,2,0,2,2,0,2,0,1,3,0,0,0,2,0,0,0,2,3,1,2,3,1,0,2,0,0,0,0,0,0,0,0,0,0,0,0,0,0,0,0,0,0,0,0,0,0,0,0,0,0],"split_type":[0,0,0,0,0,0,0,0,0,0,0,0,0,0,0,0,0,0,0,0,0,0,0,0,0,0,0,0,0,0,0,0,0,0,0,0,0,0,0,0,0,0,0,0,0,0,0,0,0,0,0,0,0,0,0,0,0,0,0,0,0,0,0,0,0],"sum_hessian":[2.4E3,2.052E3,3.48E2,7.78E2,1.274E3,2.94E2,5.4E1,1.41E2,6.37E2,7.49E2,5.25E2,2.53E2,4.1E1,2.3E1,3.1E1,1.27E2,1.4E1,2.44E2,3.93E2,4.22E2,3.27E2,3.28E2,1.97E2,1.69E2,8.4E1,8.4E1,4.3E1,2.41E2,3E0,3.85E2,8E0,1.97E2,2.25E2,3.18E2,9E0,1.69E2,1.59E2,1.61E2,3.6E1,1.54E2,1.5E1,1E1,2.31E2,1E0,2E0,1.4E2,2.45E2,3E0,5E0,3.4E1,1.63E2,2.17E2,8E0,8E0,3.1E2,5E0,4E0,1.67E2,2E0,3E0,1.56E2,9.4E1,6.7E1,2.1E1,1.5E1],"tree_param":{"num_deleted":"0","num_feature":"4","num_nodes":"65","size_leaf_vector":"1"}},{"base_weights":[4.4673413E-2,-1.7734818E1,6.784893E1,-4.323626E1,-6.071967E-2,5.042943E1,1.6266194E2,-6.881306E1,-3.5546608E1,-8.63733E0,1.27758045E1,3.0404366E1,6.237481E1,4.016083E1,5.9690403E1,-2.3023449E1,-5.4737E1,-4.4386604E1,-3.0789585E1,-1.2707602E1,-4.9761147E0,7.4268074E0,1.6895197E1,3.30418E1,2.2929987E1,5.80044E1,8.083324E1,-1.6851345E1,-9.166683E0,-4.550145E1,-1.4680432E1,-3.1825743E1,-1.0869934E1,-1.7005028E1,-1.1099138E1,-4.381446E0,-5.636025E1,-1.4754938E1,7.963828E0,1.7166807E1,-7.7732897E0,3.3328735E1,3.3373368E0,2.5638242E0,3.3027607E1,5.9500458E1,1.1447713E1,2.4639809E1,1.0189146E1,-1.3742085E1,-3.0513716E0,-7.0542707E0,8.398499E0,-9.7552E0,-6.5199485E0,4.561486E0,-6.694066E0,-1.122007E0,-5.558002E0,-1.6383606E0,-3.7438722E0,-8.284863E0,-1.1293232E0,-4.870778E0,-1.9296917E1,2.7279594E0,-7.4572754E-1,5.0144215E0,9.897366E0,8.916816E0,1.085595E1,1.8356282E0,-2.8892024E0,7.0014453E0,2.0368727E1,1.7159477E1,2.2419151E1],"categories":[],"categories_nodes":[],"categories_segments":[],"categories_sizes":[],"default_left":[0,0,0,0,0,0,0,0,0,0,0,0,0,0,0,0,0,0,0,0,0,0,0,0,0,0,0,0,0,0,0,0,0,0,0,0,0,0,0,0,0,0,0,0,0,0,0,0,0,0,0,0,0,0,0,0,0,0,0,0,0,0,0,0,0,0,0,0,0,0,0,0,0,0,0,0,0],"id":1,"left_children":[1,3,5,7,9,11,13,15,17,19,21,23,25,-1,-1,-1,27,29,31,33,35,37,39,41,43,45,47,-1,-1,49,51,53,55,57,59,61,63,-1,65,67,-1,69,-1,71,73,75,-1,-1,-1,-1,-1,-1,-1,-1,-1,-1,-1,-1,-1,-1,-1,-1,-1,-1,-1,-1,-1,-1,-1,-1,-1,-1,-1,-1,-1,-1,-1],"loss_changes":[2.8956695E6,8.5770794E5,8.15943E5,1.5076512E5,1.23965945E5,9.9288125E4,5.3855875E4,1.57841875E4,2.3906625E4,9.995711E3,9.812141E3,2.3964688E3,1.6608562E4,0E0,0E0,0E0,6.41875E2,6.2205312E3,7.7861562E3,2.0162656E3,1.0661741E4,6.4110234E3,3.3979453E3,3.5872656E2,9.169561E3,4.172125E3,1.33875E2,0E0,0E0,1.69275E3,4.0511577E3,1.9037812E3,6.6054883E3,1.6464023E3,1.7608047E3,4.9712256E3,2.3366309E2,0E0,2.3474893E3,1.2584609E3,0E0,9.922656E1,0E0,7.525383E2,8.551041E3,2.7380625E3,0E0,0E0,0E0,0E0,0E0,0E0,0E0,0E0,0E0,0E0,0E0,0E0,0E0,0E0,0E0,0E0,0E0,0E0,0E0,0E0,0E0,0E0,0E0,0E0,0E0,0E0,0E0,0E0,0E0,0E0,0E0],"parents":[2147483647,0,0,1,1,2,2,3,3,4,4,5,5,6,6,7,7,8,8,9,9,10,10,11,11,12,12,16,16,17,17,18,18,19,19,20,20,21,21,22,22,23,23,24,24,25,25,26,26,29,29,30,30,31,31,32,32,33,33,34,34,35,35,36,36,38,38,39,39,41,41,43,43,44,44,45,45],"right_children":[2,4,6,8,10,12,14,16,18,20,22,24,26,-1,-1,-1,28,30,32,34,36,38,40,42,44,46,48,-1,-1,50,52,54,56,58,60,62,64,-1,66,68,-1,70,-1,72,74,76,-1,-1,-1,-1,-1,-1,-1,-1,-1,-1,-1,-1,-1,-1,-1,-1,-1,-1,-1,-1,-1,-1,-1,-1,-1,-1,-1,-1,-1,-1,-1],"split_conditions":[7.102973E1,6.1801767E0,1.7824333E2,-4.4586933E1,4.0656487E1,9.590095E1,9.074E1,2.19325E0,-1.3754526E1,2.3288416E1,5.3628433E1,8.694E1,1.4106352E2,4.016083E1,5.9690403E1,-2.3023449E1,4.6946E0,8.143E1,1.3499333E1,1.4868383E1,2.4353333E1,1.55E0,4.95E0,4.4791515E1,4.5676228E1,4.55E0,4.25E0,-1.6851345E1,-9.166683E0,5.5E0,9.020461E0,8.364E1,7.887E1,7.664E1,8.027E1,7.703E1,3.440131E1,-1.4754938E1,2.5917072E1,8.687E1,-7.7732897E0,8.5760826E1,3.3373368E0,9.5461266E1,9.5461266E1,8.673E1,1.1447713E1,2.4639809E1,1.0189146E1,-1.3742085E1,-3.0513716E0,-7.0542707E0,8.398499E0,-9.7552E0,-6.5199485E0,4.561486E0,-6.694066E0,-1.122007E0,-5.558002E0,-1.6383606E0,-3.7438722E0,-8.284863E0,-1.1293232E0,-4.870778E0,-1.9296917E1,2.7279594E0,-7.4572754E-1,5.0144215E0,9.897366E0,8.916816E0,1.085595E1,1.8356282E0,-2.8892024E0,7.0014453E0,2.0368727E1,1.7159477E1,2.2419151E1],"split_indices":[0,0,0,0,0,0,1,2,0,0,0,1,0,0,0,0,2,1,2,0,2,3,3,2,2,3,3,0,0,3,2,1,1,1,1,1,0,0,2,1,0,0,0,0,0,1,0,0,0,0,0,0,0,0,0,0,0,0,0,0,0,0,0,0,0,0,0,0,0,0,0,0,0,0,0,0,0],"split_type":[0,0,0,0,0,0,0,0,0,0,0,0,0,0,0,0,0,0,0,0,0,0,0,0,0,0,0,0,0,0,0,0,0,0,0,0,0,0,0,0,0,0,0,0,0,0,0,0,0,0,0,0,0,0,0,0,0,0,0,0,0,0,0,0,0,0,0,0,0,0,0,0,0,0,0,0,0],"sum_hessian":[2.4E3,1.902E3,4.98E2,7.78E2,1.124E3,4.22E2,7.6E1,1.78E2,6E2,6.74E2,4.5E2,1.59E2,2.63E2,4.5E1,3.1E1,1.11E2,6.7E1,2.07E2,3.93E2,3.18E2,3.56E2,1.97E2,2.53E2,1.15E2,4.4E1,2.16E2,4.7E1,6.2E1,5E0,1.99E2,8E0,3.73E2,2E1,8.4E1,2.34E2,3.53E2,3E0,1E0,1.96E2,2.52E2,1E0,1.13E2,2E0,1.5E1,2.9E1,1.99E2,1.7E1,4.5E1,2E0,1.97E2,2E0,7E0,1E0,3.47E2,2.6E1,6E0,1.4E1,9E0,7.5E1,4.7E1,1.87E2,8E0,3.45E2,1E0,2E0,1.77E2,1.9E1,2.47E2,5E0,5.5E1,5.8E1,1.2E1,3E0,2.4E1,5E0,1.77E2,2.2E1],"tree_param":{"num_deleted":"0","num_feature":"4","num_nodes":"77","size_leaf_vector":"1"}},{"base_weights":[7.3318854E-2,-1.248488E1,4.796546E1,-3.03718E1,-8.8084996E-2,3.4649265E1,1.1062781E2,-4.73176E1,-2.4554546E1,-5.39729E0,1.0502319E1,2.0941372E1,4.238783E1,2.2989565E1,3.8704185E1,-1.7089731E1,-3.9556007E1,-2.9467733E1,-2.0686754E1,-8.092592E0,-1.118128E0,8.546153E0,1.4053519E1,2.338445E1,1.2782038E1,3.5926365E1,1.4835077E1,-1.658925E1,-1.1349005E1,-1.3792731E1,-3.039381E1,-2.0957167E1,1.568383E1,-1.5115961E1,-7.3692646E0,1.8632698E-1,-2.2153833E1,8.758396E0,-1.1494296E1,5.3289604E-1,1.4363821E1,2.369767E1,3.5262253E0,4.12297E0,2.3889378E1,3.2111362E1,4.8427612E1,-5.304662E0,6.6824093E0,-9.320921E0,-2.0978134E0,-1.1969124E1,-6.16175E0,1.2028874E0,5.8548365E0,-2.0641997E0,-1.0539245E1,-2.5406363E0,2.7437586E-1,-1.25416975E1,1.4764734E-1,-1.271149E1,-1.1292636E0,2.3423662E0,3.405061E0,1.4348631E0,-6.6072965E0,2.3953006E0,-1.3837086E0,3.6375487E0,4.7441964E0,6.867661E0,1.0193396E1,1.8886527E0,8.0682546E-1,5.2623854E0,1.3665206E1,1.0897348E1,7.461108E0,1.0734922E1,1.836773E1],"categories":[],"categories_nodes":[],"categories_segments":[],"categories_sizes":[],"default_left":[0,0,0,0,0,0,0,0,0,0,0,0,0,0,0,0,0,0,0,0,0,0,0,0,0,0,0,0,0,0,0,0,0,0,0,0,0,0,0,0,0,0,0,0,0,0,0,0,0,0,0,0,0,0,0,0,0,0,0,0,0,0,0,0,0,0,0,0,0,0,0,0,0,0,0,0,0,0,0,0,0],"id":2,"left_children":[1,3,5,7,9,11,13,15,17,19,21,23,25,-1,-1,-1,27,29,31,33,35,37,39,41,43,45,-1,-1,-1,47,49,51,53,55,57,59,61,63,65,67,69,71,-1,73,75,77,79,-1,-1,-1,-1,-1,-1,-1,-1,-1,-1,-1,-1,-1,-1,-1,-1,-1,-1,-1,-1,-1,-1,-1,-1,-1,-1,-1,-1,-1,-1,-1,-1,-1,-1],"loss_changes":[1.4446541E6,4.2196944E5,4.1254462E5,7.5630375E4,6.3311637E4,4.2923125E4,4.4493E4,1.2573969E4,1.0450281E4,8.641176E3,2.491871E3,2.7111172E3,1.0225094E4,0E0,0E0,0E0,9.782656E2,3.2679062E3,3.5644375E3,2.2254941E3,7.9892065E3,1.1427695E3,5.4614844E2,1.4038672E2,3.4601353E3,5.1695312E3,0E0,0E0,0E0,2.6383994E3,3.5631094E3,1.769375E3,5.596454E1,6.6810615E3,3.8241172E3,3.5522466E3,6.1610645E3,5.1001758E2,6.1953674E2,1.9018494E2,2.2704297E2,1.4129688E2,0E0,5.158658E1,1.4011113E3,2.482914E3,2.8257812E3,0E0,0E0,0E0,0E0,0E0,0E0,0E0,0E0,0E0,0E0,0E0,0E0,0E0,0E0,0E0,0E0,0E0,0E0,0E0,0E0,0E0,0E0,0E0,0E0,0E0,0E0,0E0,0E0,0E0,0E0,0E0,0E0,0E0,0E0],"parents":[2147483647,0,0,1,1,2,2,3,3,4,4,5,5,6,6,7,7,8,8,9,9,10,10,11,11,12,12,16,16,17,17,18,18,19,19,20,20,21,21,22,22,23,23,24,24,25,25,29,29,30,30,31,31,32,32,33,33,34,34,35,35,36,36,37,37,38,38,39,39,40,40,41,41,43,43,44,44,45,45,46,46],"right_children":[2,4,6,8,10,12,14,16,18,20,22,24,26,-1,-1,-1,28,30,32,34,36,38,40,42,44,46,-1,-1,-1,48,50,52,54,56,58,60,62,64,66,68,70,72,-1,74,76,78,80,-1,-1,-1,-1,-1,-1,-1,-1,-1,-1,-1,-1,-1,-1,-1,-1,-1,-1,-1,-1,-1,-1,-1,-1,-1,-1,-1,-1,-1,-1,-1,-1,-1,-1],"split_conditions":[7.102973E1,6.1801767E0,1.6260733E2,-3.965284E1,4.9930874E1,9.5461266E1,1.191158E2,-7.160449E1,-1.1466407E1,3.1467865E1,6.0506798E1,8.694E1,1.31194E2,2.2989565E1,3.8704185E1,-1.7089731E1,5.955E1,3.9226E0,1.5641263E1,1.2475333E1,2.3841333E1,4.95E0,7.551E1,5.35E0,4.6937943E1,8.673E1,1.4835077E1,-1.658925E1,-1.1349005E1,-1.2559362E1,8.143E1,1.81E-1,-3.4185376E0,3.6E0,4.05E0,1.55E0,4.4966675E1,8.406E1,5.251305E1,6.094701E1,6.414991E1,4.05E0,3.5262253E0,9.394188E1,4.724206E1,7.929E1,9.687031E1,-5.304662E0,6.6824093E0,-9.320921E0,-2.0978134E0,-1.1969124E1,-6.16175E0,1.2028874E0,5.8548365E0,-2.0641997E0,-1.0539245E1,-2.5406363E0,2.7437586E-1,-1.25416975E1,1.4764734E-1,-1.271149E1,-1.1292636E0,2.3423662E0,3.405061E0,1.4348631E0,-6.6072965E0,2.3953006E0,-1.3837086E0,3.6375487E0,4.7441964E0,6.867661E0,1.0193396E1,1.8886527E0,8.0682546E-1,5.2623854E0,1.3665206E1,1.0897348E1,7.461108E0,1.0734922E1,1.836773E1],"split_indices":[0,0,0,0,0,0,2,0,0,0,0,1,0,0,0,0,1,2,2,2,2,3,1,3,2,1,0,0,0,0,1,2,0,3,3,3,0,1,0,0,0,3,0,0,2,1,0,0,0,0,0,0,0,0,0,0,0,0,0,0,0,0,0,0,0,0,0,0,0,0,0,0,0,0,0,0,0,0,0,0,0],"split_type":[0,0,0,0,0,0,0,0,0,0,0,0,0,0,0,0,0,0,0,0,0,0,0,0,0,0,0,0,0,0,0,0,0,0,0,0,0,0,0,0,0,0,0,0,0,0,0,0,0,0,0,0,0,0,0,0,0,0,0,0,0,0,0,0,0,0,0,0,0,0,0,0,0,0,0,0,0,0,0,0,0],"sum_hessian":[2.4E3,1.902E3,4.98E2,7.78E2,1.124E3,4.12E2,8.6E1,1.97E2,5.81E2,7.49E2,3.75E2,1.5E2,2.62E2,3.2E1,5.4E1,8.5E1,1.12E2,2.53E2,3.28E2,4.59E2,2.9E2,2.44E2,1.31E2,1.14E2,3.6E1,1.4E2,1.22E2,8E0,1.04E2,1.5E1,2.38E2,3.26E2,2E0,4.1E1,4.18E2,2.74E2,1.6E1,2.42E2,2E0,3E0,1.28E2,1.1E2,4E0,2.1E1,1.5E1,1.1E2,3E1,1.4E1,1E0,2.31E2,7E0,5E0,3.21E2,1E0,1E0,3E1,1.1E1,3.69E2,4.9E1,1E0,2.73E2,7E0,9E0,1.8E2,6.2E1,1E0,1E0,1E0,2E0,5.4E1,7.4E1,1.05E2,5E0,7E0,1.4E1,1.3E1,2E0,6.7E1,4.3E1,1.7E1,1.3E1],"tree_param":{"num_deleted":"0","num_feature":"4","num_nodes":"81","size_leaf_vector":"1"}},{"base_weights":[8.002887E-2,-8.891525E0,3.3528934E1,-2.1770964E1,-4.2880687E-1,2.43081E1,7.913017E1,-3.4226543E1,-1.784196E1,-4.9520087E0,6.068193E0,1.5169628E1,3.0245964E1,6.3135567E1,3.1094475E1,-1.32289715E1,-3.0378149E1,-2.2370356E1,-1.5409875E1,-1.4448816E1,-4.169146E0,2.970193E0,7.9465284E0,1.4546879E1,1.1166393E1,2.5739407E1,3.476292E1,9.184224E0,1.9537502E1,-3.4466286E1,-2.3634201E1,-2.2766539E1,-2.5243707E0,-1.5599216E1,1.3331256E1,-3.8726392E0,-4.8498672E1,-6.2715917E0,-2.3997436E0,-1.0660442E1,3.3861468E0,8.1025E0,-5.616202E0,1.606028E1,8.42357E0,2.2794693E1,3.8703712E1,1.1450552E1,3.1635174E1,-1.1098106E1,-8.338273E0,-2.1032019E0,-7.803439E0,-7.1019325E0,-3.580505E0,6.230489E0,-4.0618834E0,-4.7325993E0,3.4316301E0,1.0224541E0,4.976611E0,-1.7903485E0,4.942806E0,4.402685E-2,-1.5880298E1,5.2261243E0,-1.9756228E0,-6.449997E-1,-8.946293E0,1.1846638E0,-2.7196565E0,2.1591582E0,3.1706593E0,4.221957E0,5.528392E0,6.449429E-1,3.9064202E0,7.8497586E0,5.3685446E0,8.154158E0,1.3251004E1,1.05106735E1,7.1931043E0],"categories":[],"categories_nodes":[],"categories_segments":[],"categories_sizes":[],"default_left":[0,0,0,0,0,0,0,0,0,0,0,0,0,0,0,0,0,0,0,0,0,0,0,0,0,0,0,0,0,0,0,0,0,0,0,0,0,0,0,0,0,0,0,0,0,0,0,0,0,0,0,0,0,0,0,0,0,0,0,0,0,0,0,0,0,0,0,0,0,0,0,0,0,0,0,0,0,0,0,0,0,0,0],"id":3,"left_children":[1,3,5,7,9,11,13,15,17,19,21,23,25,27,-1,-1,29,31,33,35,37,39,41,43,-1,45,47,-1,-1,49,51,53,55,57,59,61,63,65,67,-1,69,71,-1,73,75,77,79,-1,81,-1,-1,-1,-1,-1,-1,-1,-1,-1,-1,-1,-1,-1,-1,-1,-1,-1,-1,-1,-1,-1,-1,-1,-1,-1,-1,-1,-1,-1,-1,-1,-1,-1,-1],"loss_changes":[7.2081106E5,2.064273E5,2.1168106E5,3.6141812E4,3.3649055E4,2.2548703E4,2.6789438E4,5.4595156E3,5.9659844E3,4.9581797E3,2.7113672E3,1.7793672E3,4.3163438E3,1.5000312E3,0E0,0E0,2.8246797E3,1.4993359E3,2.2541016E3,1.8178164E4,2.309995E3,2.987245E3,1.3662109E3,1.403043E3,0E0,4.1570156E3,1.24E2,0E0,0E0,3.208125E2,1.9121191E3,1.6224453E3,1.5640663E3,1.9613516E3,4.0434387E1,1.8036975E3,2.5970586E3,2.2336846E3,2.2711572E3,0E0,1.2830366E3,5.7368164E2,0E0,3.616953E2,9.816052E2,1.3486484E3,2.481875E2,0E0,1.00885156E3,0E0,0E0,0E0,0E0,0E0,0E0,0E0,0E0,0E0,0E0,0E0,0E0,0E0,0E0,0E0,0E0,0E0,0E0,0E0,0E0,0E0,0E0,0E0,0E0,0E0,0E0,0E0,0E0,0E0,0E0,0E0,0E0,0E0,0E0],"parents":[2147483647,0,0,1,1,2,2,3,3,4,4,5,5,6,6,7,7,8,8,9,9,10,10,11,11,12,12,13,13,16,16,17,17,18,18,19,19,20,20,21,21,22,22,23,23,25,25,26,26,29,29,30,30,31,31,32,32,33,33,34,34,35,35,36,36,37,37,38,38,40,40,41,41,43,43,44,44,45,45,46,46,48,48],"right_children":[2,4,6,8,10,12,14,16,18,20,22,24,26,28,-1,-1,30,32,34,36,38,40,42,44,-1,46,48,-1,-1,50,52,54,56,58,60,62,64,66,68,-1,70,72,-1,74,76,78,80,-1,82,-1,-1,-1,-1,-1,-1,-1,-1,-1,-1,-1,-1,-1,-1,-1,-1,-1,-1,-1,-1,-1,-1,-1,-1,-1,-1,-1,-1,-1,-1,-1,-1,-1,-1],"split_conditions":[6.898577E1,3.59901E0,8.755E1,-4.4586933E1,3.92668E1,9.590095E1,9.074E1,-7.431122E1,-1.4947071E1,1.2016167E1,5.280684E1,4.724206E1,1.31194E2,5.898309E1,3.1094475E1,-1.32289715E1,7.705E1,1.0189E1,1.4523769E1,3.6E0,2.2778728E1,1.55E0,4.95E0,9.394188E1,1.1166393E1,8.673E1,3.9E0,9.184224E0,1.9537502E1,2.19325E0,-6.6519196E1,7.964E1,-2.320058E1,6.75E0,-3.4185376E0,3.15E0,7.363E1,1.2101444E1,2.4353333E1,-1.0660442E1,2.681225E1,6.3562237E1,-5.616202E0,8.651533E1,4.5676228E1,7.763E1,9.687031E1,1.1450552E1,7.962E1,-1.1098106E1,-8.338273E0,-2.1032019E0,-7.803439E0,-7.1019325E0,-3.580505E0,6.230489E0,-4.0618834E0,-4.7325993E0,3.4316301E0,1.0224541E0,4.976611E0,-1.7903485E0,4.942806E0,4.402685E-2,-1.5880298E1,5.2261243E0,-1.9756228E0,-6.449997E-1,-8.946293E0,1.1846638E0,-2.7196565E0,2.1591582E0,3.1706593E0,4.221957E0,5.528392E0,6.449429E-1,3.9064202E0,7.8497586E0,5.3685446E0,8.154158E0,1.3251004E1,1.05106735E1,7.1931043E0],"split_indices":[0,0,1,0,0,0,1,0,0,2,0,2,0,2,0,0,1,2,2,3,0,3,3,0,0,1,3,0,0,2,0,1,0,3,0,3,1,2,2,0,2,0,0,0,2,1,0,0,1,0,0,0,0,0,0,0,0,0,0,0,0,0,0,0,0,0,0,0,0,0,0,0,0,0,0,0,0,0,0,0,0,0,0],"split_type":[0,0,0,0,0,0,0,0,0,0,0,0,0,0,0,0,0,0,0,0,0,0,0,0,0,0,0,0,0,0,0,0,0,0,0,0,0,0,0,0,0,0,0,0,0,0,0,0,0,0,0,0,0,0,0,0,0,0,0,0,0,0,0,0,0,0,0,0,0,0,0,0,0,0,0,0,0,0,0,0,0,0,0],"sum_hessian":[2.4E3,1.893E3,5.07E2,7.5E2,1.143E3,4.23E2,8.4E1,1.78E2,5.72E2,6.74E2,4.69E2,1.68E2,2.55E2,5.3E1,3.1E1,4.7E1,1.31E2,1.97E2,3.75E2,5E1,6.24E2,1.78E2,2.91E2,1.65E2,3E0,1.31E2,1.24E2,4E0,4.9E1,7.9E1,5.2E1,1.93E2,4E0,3.73E2,2E0,3.9E1,1.1E1,2.84E2,3.4E2,1E0,1.77E2,2.9E2,1E0,1.31E2,3.4E1,1.09E2,2.2E1,5.4E1,7E1,5.4E1,2.5E1,7E0,4.5E1,1.77E2,1.6E1,1E0,3E0,3.71E2,2E0,1E0,1E0,3.6E1,3E0,1E0,1E1,3E0,2.81E2,3.38E2,2E0,1.7E2,7E0,2.15E2,7.5E1,7.5E1,5.6E1,1.5E1,1.9E1,6.2E1,4.7E1,9E0,1.3E1,4.6E1,2.4E1],"tree_param":{"num_deleted":"0","num_feature":"4","num_nodes":"83","size_leaf_vector":"1"}},{"base_weights":[8.566127E-2,-4.9745064E0,2.9851961E1,-1.4265032E1,1.7615956E0,2.3138594E1,6.531727E1,-2.2130424E1,-1.0780483E1,-2.1858053E0,6.7562866E0,2.0065884E1,3.2728504E1,1.5615846E1,2.2172218E1,-2.649192E1,-1.7701422E1,-1.3294242E1,-8.386018E0,-2.0307345E0,-1.5796178E1,4.7408333E0,9.839324E0,2.078948E1,7.6236053E0,1.1380706E1,8.203562E0,-9.342959E0,-2.351867E1,-9.700838E0,-1.9019938E1,-1.3706596E1,9.258191E0,-8.624713E0,5.6745925E0,-2.9766796E0,1.537821E0,4.8488855E0,-8.292972E0,9.510982E0,8.698886E0,1.9795383E1,2.5987238E1,2.8169413E0,3.6083548E0,-7.8500123E0,-4.607379E0,-1.12365484E-1,-3.561968E0,-5.220316E0,-7.4005575E0,-4.1784086E0,7.509843E0,-2.4190946E0,-5.164832E0,-7.1054006E-1,-2.176162E0,7.552892E-1,-4.483122E0,1.0988127E0,1.761904E0,1.0419343E0,-4.773772E0,3.1038654E0,7.770596E-2,4.88163E0,6.9310503E0,4.764727E0,1.2198899E1,9.2710716E-1,1.3545457E-1],"categories":[],"categories_nodes":[],"categories_segments":[],"categories_sizes":[],"default_left":[0,0,0,0,0,0,0,0,0,0,0,0,0,0,0,0,0,0,0,0,0,0,0,0,0,0,0,0,0,0,0,0,0,0,0,0,0,0,0,0,0,0,0,0,0,0,0,0,0,0,0,0,0,0,0,0,0,0,0,0,0,0,0,0,0,0,0,0,0,0,0],"id":4,"left_children":[1,3,5,7,9,11,13,15,17,19,21,23,25,-1,-1,27,29,31,33,35,-1,37,39,41,43,-1,-1,-1,45,47,49,51,-1,53,-1,55,57,59,61,63,-1,65,67,69,-1,-1,-1,-1,-1,-1,-1,-1,-1,-1,-1,-1,-1,-1,-1,-1,-1,-1,-1,-1,-1,-1,-1,-1,-1,-1,-1],"loss_changes":[3.6179306E5,1.2850583E5,8.158266E4,2.3413969E4,2.349658E4,8.0360312E3,2.4197969E3,4.6307656E3,3.4999766E3,5.1052744E3,3.2217695E3,1.8762266E3,9.248672E2,0E0,0E0,1.0792031E3,1.229043E3,5.7213633E3,2.1833105E3,2.24939E3,0E0,4.9087793E2,1.0262559E3,5.8616406E2,2.624944E2,0E0,0E0,0E0,1.4133711E3,4.210193E2,6.1320703E2,2.8277344E3,0E0,1.3458359E3,0E0,1.3511792E3,2.2984534E3,3.6479395E2,3.242248E2,1.5814707E3,0E0,1.757E3,3.9513418E3,3.778614E0,0E0,0E0,0E0,0E0,0E0,0E0,0E0,0E0,0E0,0E0,0E0,0E0,0E0,0E0,0E0,0E0,0E0,0E0,0E0,0E0,0E0,0E0,0E0,0E0,0E0,0E0,0E0],"parents":[2147483647,0,0,1,1,2,2,3,3,4,4,5,5,6,6,7,7,8,8,9,9,10,10,11,11,12,12,15,15,16,16,17,17,18,18,19,19,21,21,22,22,23,23,24,24,28,28,29,29,30,30,31,31,33,33,35,35,36,36,37,37,38,38,39,39,41,41,42,42,43,43],"right_children":[2,4,6,8,10,12,14,16,18,20,22,24,26,-1,-1,28,30,32,34,36,-1,38,40,42,44,-1,-1,-1,46,48,50,52,-1,54,-1,56,58,60,62,64,-1,66,68,70,-1,-1,-1,-1,-1,-1,-1,-1,-1,-1,-1,-1,-1,-1,-1,-1,-1,-1,-1,-1,-1,-1,-1,-1,-1,-1,-1],"split_conditions":[9.5461266E1,1.4868383E1,1.191158E2,-2.9608147E1,4.9930874E1,1.4106352E2,3.2805786E2,2.883E0,-7.990575E0,2.681225E1,6.49045E1,4.95E0,3.5E0,1.5615846E1,2.2172218E1,-7.431122E1,3.15E0,1.2101444E1,1.74376E1,3.713342E1,-1.5796178E1,4.95E0,4.724206E1,8.673E1,7.75E1,1.1380706E1,8.203562E0,-9.342959E0,7.696E1,7.726E1,5.05E0,6.75E0,9.258191E0,1.5997E1,5.6745925E0,8.288E1,2.50285E1,5.4170948E1,5.251305E1,9.444353E1,8.698886E0,1.2946136E2,4.5676228E1,5.2E0,3.6083548E0,-7.8500123E0,-4.607379E0,-1.12365484E-1,-3.561968E0,-5.220316E0,-7.4005575E0,-4.1784086E0,7.509843E0,-2.4190946E0,-5.164832E0,-7.1054006E-1,-2.176162E0,7.552892E-1,-4.483122E0,1.0988127E0,1.761904E0,1.0419343E0,-4.773772E0,3.1038654E0,7.770596E-2,4.88163E0,6.9310503E0,4.764727E0,1.2198899E1,9.2710716E-1,1.3545457E-1],"split_indices":[0,0,2,0,0,0,0,2,0,2,0,3,3,0,0,0,3,2,2,0,0,3,2,1,1,0,0,0,1,1,3,3,0,2,0,1,2,0,0,0,0,0,2,3,0,0,0,0,0,0,0,0,0,0,0,0,0,0,0,0,0,0,0,0,0,0,0,0,0,0,0],"split_type":[0,0,0,0,0,0,0,0,0,0,0,0,0,0,0,0,0,0,0,0,0,0,0,0,0,0,0,0,0,0,0,0,0,0,0,0,0,0,0,0,0,0,0,0,0,0,0,0,0,0,0,0,0,0,0,0,0,0,0,0,0,0,0,0,0,0,0,0,0,0,0],"sum_hessian":[2.4E3,2.052E3,3.48E2,8.62E2,1.19E3,2.94E2,5.4E1,2.63E2,5.99E2,6.65E2,5.25E2,2.25E2,6.9E1,2.4E1,3E1,1.3E2,1.33E2,2.9E2,3.09E2,6.64E2,1E0,3.19E2,2.06E2,2.12E2,1.3E1,3.2E1,3.7E1,4.7E1,8.3E1,2E1,1.13E2,2.88E2,2E0,3.07E2,2E0,5.25E2,1.39E2,3.17E2,2E0,2.04E2,2E0,1.82E2,3E1,7E0,6E0,6.1E1,2.2E1,4E0,1.6E1,9.1E1,2.2E1,2.87E2,1E0,2.9E2,1.7E1,4.61E2,6.4E1,1.32E2,7E0,1.49E2,1.68E2,1E0,1E0,1.87E2,1.7E1,9.1E1,9.1E1,1.9E1,1.1E1,6E0,1E0],"tree_param":{"num_deleted":"0","num_feature":"4","num_nodes":"71","size_leaf_vector":"1"}},{"base_weights":[8.1621595E-2,-4.383503E0,1.710978E1,-1.1741137E1,-6.7216504E-1,1.345006E1,4.6409145E1,-1.686249E1,-9.41513E0,-2.8414772E0,3.0203364E0,1.0761412E1,2.0895489E1,1.1005879E1,1.5675307E1,-2.1994883E1,-1.5119329E1,-9.533245E0,6.3833666E0,-6.104661E0,-1.476779E0,1.0662309E0,3.9268847E0,7.752346E0,1.3530171E1,1.786993E1,2.5686684E1,-2.0664555E1,-1.0518493E1,-1.3940622E1,-2.305418E1,-9.82543E0,8.1969464E-1,-5.534695E0,-3.7636528E1,-2.297349E0,2.2181742E0,-6.348105E0,2.1253684E0,3.4957752E0,1.0572578E1,1.8580809E1,7.209803E0,1.2196103E1,2.1526344E1,1.9587051E1,1.2168497E1,9.4865675E0,2.6245552E1,-7.2922683E0,-5.3072424E0,-4.320541E0,2.514517E-1,-7.4518557E0,-3.1786883E0,-3.1796927E0,-1.8821872E0,-1.4547532E0,2.4724724E0,-2.2008257E0,-1.0938968E-1,-1.5386088E1,4.9721375E-1,3.4070128E-1,-1.0354759E0,2.1548624E0,-2.7582678E-1,-5.183721E-1,-1.342675E1,1.3679034E0,2.0401575E-1,2.8320456E0,9.5221025E-1,1.8305649E0,5.2094793E0,1.2402221E1,2.3692102E0,2.035471E0,6.4342046E0,9.158624E0,3.4424574E0,3.3279068E0,8.232336E0,5.9918876E0,1.8335084E0,1.5112618E0,4.9508023E0,7.651749E-2,4.192438E0,7.980908E0,1.7919937E0],"categories":[],"categories_nodes":[],"categories_segments":[],"categories_sizes":[],"default_left":[0,0,0,0,0,0,0,0,0,0,0,0,0,0,0,0,0,0,0,0,0,0,0,0,0,0,0,0,0,0,0,0,0,0,0,0,0,0,0,0,0,0,0,0,0,0,0,0,0,0,0,0,0,0,0,0,0,0,0,0,0,0,0,0,0,0,0,0,0,0,0,0,0,0,0,0,0,0,0,0,0,0,0,0,0,0,0,0,0,0,0],"id":5,"left_children":[1,3,5,7,9,11,13,15,17,19,21,23,25,-1,-1,27,29,31,-1,33,35,37,39,41,43,45,47,49,-1,51,53,55,57,59,61,63,65,67,69,71,73,75,77,79,81,83,85,87,89,-1,-1,-1,-1,-1,-1,-1,-1,-1,-1,-1,-1,-1,-1,-1,-1,-1,-1,-1,-1,-1,-1,-1,-1,-1,-1,-1,-1,-1,-1,-1,-1,-1,-1,-1,-1,-1,-1,-1,-1,-1,-1],"loss_changes":[1.8262984E5,5.195669E4,5.2882297E4,7.441289E3,1.014948E4,8.683211E3,1.2070938E3,1.438875E3,1.8016133E3,3.5446865E3,8.266426E2,2.6361328E3,1.2370156E3,0E0,0E0,1.0985547E2,1.0908906E3,1.3390391E3,0E0,4.0151367E3,1.7151261E3,1.1914121E3,8.7984717E2,8.060205E2,1.5509277E3,4.9591016E2,1.4033008E2,6.831445E1,0E0,9.2537305E2,1.3717871E2,1.1093164E3,5.869227E2,2.1580107E3,2.2305166E3,1.834603E3,1.6110586E3,3.294241E3,4.6132086E2,5.476267E2,4.7100537E2,1.3755974E3,7.8611084E2,1.6065918E3,1.1149424E3,1.6914453E2,5.3500366E2,1.2073489E2,1.3821094E2,0E0,0E0,0E0,0E0,0E0,0E0,0E0,0E0,0E0,0E0,0E0,0E0,0E0,0E0,0E0,0E0,0E0,0E0,0E0,0E0,0E0,0E0,0E0,0E0,0E0,0E0,0E0,0E0,0E0,0E0,0E0,0E0,0E0,0E0,0E0,0E0,0E0,0E0,0E0,0E0,0E0,0E0],"parents":[2147483647,0,0,1,1,2,2,3,3,4,4,5,5,6,6,7,7,8,8,9,9,10,10,11,11,12,12,15,15,16,16,17,17,19,19,20,20,21,21,22,22,23,23,24,24,25,25,26,26,27,27,29,29,30,30,31,31,32,32,33,33,34,34,35,35,36,36,37,37,38,38,39,39,40,40,41,41,42,42,43,43,44,44,45,45,46,46,47,47,48,48],"right_children":[2,4,6,8,10,12,14,16,18,20,22,24,26,-1,-1,28,30,32,-1,34,36,38,40,42,44,46,48,50,-1,52,54,56,58,60,62,64,66,68,70,72,74,76,78,80,82,84,86,88,90,-1,-1,-1,-1,-1,-1,-1,-1,-1,-1,-1,-1,-1,-1,-1,-1,-1,-1,-1,-1,-1,-1,-1,-1,-1,-1,-1,-1,-1,-1,-1,-1,-1,-1,-1,-1,-1,-1,-1,-1,-1,-1],"split_conditions":[7.102973E1,-4.881276E0,1.191158E2,-3.965284E1,3.9603165E1,1.3541022E2,8.813E1,-7.431122E1,6.75E0,1.429E1,8.008E1,9.590095E1,8.569E1,1.1005879E1,1.5675307E1,2.19325E0,4.6E0,8.364E1,6.3833666E0,3.3903927E1,4.05E0,4.9930874E1,4.2E0,2.4797153E1,8.673E1,6.6415E1,2.95E0,2.825E-1,-1.0518493E1,5.314647E0,7.726E1,1.0627167E1,9.020461E0,8.126E1,7.703E1,1.625025E1,4.2E0,4.927482E1,7.843E1,2.85E0,5.2200382E1,7.396945E1,4.724206E1,7.661E1,9.687031E1,1.4990106E2,1.4106352E2,1.7824333E2,3.6E0,-7.2922683E0,-5.3072424E0,-4.320541E0,2.514517E-1,-7.4518557E0,-3.1786883E0,-3.1796927E0,-1.8821872E0,-1.4547532E0,2.4724724E0,-2.2008257E0,-1.0938968E-1,-1.5386088E1,4.9721375E-1,3.4070128E-1,-1.0354759E0,2.1548624E0,-2.7582678E-1,-5.183721E-1,-1.342675E1,1.3679034E0,2.0401575E-1,2.8320456E0,9.5221025E-1,1.8305649E0,5.2094793E0,1.2402221E1,2.3692102E0,2.035471E0,6.4342046E0,9.158624E0,3.4424574E0,3.3279068E0,8.232336E0,5.9918876E0,1.8335084E0,1.5112618E0,4.9508023E0,7.651749E-2,4.192438E0,7.980908E0,1.7919937E0],"split_indices":[0,0,2,0,0,0,1,0,3,2,1,0,1,0,0,2,3,1,0,0,3,0,3,2,1,2,3,2,0,2,1,2,2,1,1,2,3,0,1,3,0,0,2,1,0,0,0,0,3,0,0,0,0,0,0,0,0,0,0,0,0,0,0,0,0,0,0,0,0,0,0,0,0,0,0,0,0,0,0,0,0,0,0,0,0,0,0,0,0,0,0],"split_type":[0,0,0,0,0,0,0,0,0,0,0,0,0,0,0,0,0,0,0,0,0,0,0,0,0,0,0,0,0,0,0,0,0,0,0,0,0,0,0,0,0,0,0,0,0,0,0,0,0,0,0,0,0,0,0,0,0,0,0,0,0,0,0,0,0,0,0,0,0,0,0,0,0,0,0,0,0,0,0,0,0,0,0,0,0,0,0,0,0,0,0],"sum_hessian":[2.4E3,1.902E3,4.98E2,6.37E2,1.265E3,4.44E2,5.4E1,1.97E2,4.4E2,7.97E2,4.68E2,3.28E2,1.16E2,2.3E1,3.1E1,4.7E1,1.5E2,4.39E2,1E0,2.34E2,5.63E2,1.49E2,3.19E2,1.59E2,1.69E2,7.4E1,4.2E1,4.5E1,2E0,1.33E2,1.7E1,4.27E2,1.2E1,2.31E2,3E0,4.61E2,1.02E2,1.8E1,1.31E2,3.01E2,1.8E1,6E0,1.53E2,1.47E2,2.2E1,5.5E1,1.9E1,2E0,4E1,1.7E1,2.8E1,1.29E2,4E0,1.4E1,3E0,3.49E2,7.8E1,7E0,5E0,1.71E2,6E1,2E0,1E0,1.16E2,3.45E2,3.9E1,6.3E1,1.7E1,1E0,4.8E1,8.3E1,1.4E1,2.87E2,1.2E1,6E0,1E0,5E0,1.5E2,3E0,4E0,1.43E2,9E0,1.3E1,5.3E1,2E0,8E0,1.1E1,1E0,1E0,3.9E1,1E0],"tree_param":{"num_deleted":"0","num_feature":"4","num_nodes":"91","size_leaf_vector":"1"}},{"base_weights":[7.769796E-2,-2.9105613E0,1.2969352E1,-7.600638E0,8.4710546E-2,9.305098E0,2.823542E1,-1.1196397E1,-5.6753235E0,-1.4417913E0,2.8596401E0,7.5322294E0,1.2390845E1,2.122766E1,1.0781654E1,-1.3558224E1,-8.803892E0,-5.8577805E0,1.8276945E1,-1.3445997E0,-1.1412738E1,2.6145506E0,1.2720381E1,8.111789E0,1.5523216E0,1.3676214E1,9.690456E0,1.1419076E0,2.151734E1,-1.693538E1,-1.2432019E1,-7.71746E0,-1.3232038E1,-5.478295E0,-1.5588713E1,1.1808449E0,6.5235486E0,-1.4635329E0,6.521257E0,2.8151324E0,-5.7704673E0,4.4027157E0,-7.3164827E-1,1.20828495E1,6.4125223E0,-2.6570587E0,3.036083E0,4.157616E0,1.9273665E0,5.714004E0,1.4574144E1,6.529307E0,1.5231949E0,-6.3105235E0,-4.0364285E0,-4.1675305E0,-2.847643E0,-6.863293E-1,-2.6477978E0,4.2062953E-2,-4.3202815E0,-2.7750368E0,-1.4708937E0,-8.625522E0,2.3068471E-1,-3.7259835E-1,-8.784341E0,7.3457694E-1,1.9860153E0,2.3820775E0,-1.937505E1,1.2516717E0,3.8527045E0,7.5373805E-1,2.0953221E0,1.369156E0,-1.3595517E-1,2.6542208E0,1.0967348E0,4.963382E0,2.1656907E0],"categories":[],"categories_nodes":[],"categories_segments":[],"categories_sizes":[],"default_left":[0,0,0,0,0,0,0,0,0,0,0,0,0,0,0,0,0,0,0,0,0,0,0,0,0,0,0,0,0,0,0,0,0,0,0,0,0,0,0,0,0,0,0,0,0,0,0,0,0,0,0,0,0,0,0,0,0,0,0,0,0,0,0,0,0,0,0,0,0,0,0,0,0,0,0,0,0,0,0,0,0],"id":6,"left_children":[1,3,5,7,9,11,13,15,17,19,21,23,25,27,-1,29,31,33,35,37,-1,39,41,43,45,47,49,-1,51,53,55,57,59,61,63,-1,-1,65,-1,67,69,-1,-1,71,73,-1,75,-1,-1,77,79,-1,-1,-1,-1,-1,-1,-1,-1,-1,-1,-1,-1,-1,-1,-1,-1,-1,-1,-1,-1,-1,-1,-1,-1,-1,-1,-1,-1,-1,-1],"loss_changes":[9.253292E4,2.7394346E4,2.5021594E4,5.197914E3,5.0491216E3,1.9089199E3,3.9336875E3,1.3724141E3,2.279081E3,2.6843938E3,9.8903345E2,8.018506E2,3.2564258E2,1.6033203E2,0E0,2.8770117E2,5.42541E2,1.7388184E3,1.1335571E2,2.1401504E3,0E0,7.125437E2,3.322052E2,1.3665674E3,3.6667462E2,2.6106445E1,8.1003174E2,0E0,8.036133E1,1.4506152E2,3.0586914E2,6.4189795E2,3.9278955E2,9.897334E2,3.8978022E3,0E0,0E0,4.6780728E3,0E0,5.4862915E2,8.576501E3,0E0,0E0,3.249297E2,3.214707E2,0E0,1.0868422E2,0E0,0E0,1.4178497E2,1.7042676E2,0E0,0E0,0E0,0E0,0E0,0E0,0E0,0E0,0E0,0E0,0E0,0E0,0E0,0E0,0E0,0E0,0E0,0E0,0E0,0E0,0E0,0E0,0E0,0E0,0E0,0E0,0E0,0E0,0E0,0E0],"parents":[2147483647,0,0,1,1,2,2,3,3,4,4,5,5,6,6,7,7,8,8,9,9,10,10,11,11,12,12,13,13,15,15,16,16,17,17,18,18,19,19,21,21,22,22,23,23,24,24,25,25,26,26,28,28,29,29,30,30,31,31,32,32,33,33,34,34,37,37,39,39,40,40,43,43,44,44,46,46,49,49,50,50],"right_children":[2,4,6,8,10,12,14,16,18,20,22,24,26,28,-1,30,32,34,36,38,-1,40,42,44,46,48,50,-1,52,54,56,58,60,62,64,-1,-1,66,-1,68,70,-1,-1,72,74,-1,76,-1,-1,78,80,-1,-1,-1,-1,-1,-1,-1,-1,-1,-1,-1,-1,-1,-1,-1,-1,-1,-1,-1,-1,-1,-1,-1,-1,-1,-1,-1,-1,-1,-1],"split_conditions":[8.262004E1,4.818374E0,1.6260733E2,-2.9608147E1,4.9930874E1,1.2946136E2,2.5207631E2,2.883E0,1.4523769E1,2.681225E1,8.687E1,4.3E0,6.3717E1,6.3717E1,1.0781654E1,-7.7955734E1,4.85E0,1.0689902E0,-3.4185376E0,2.6493856E1,-1.1412738E1,8.199398E1,3.6389572E1,7.75E1,4.4E0,4.55E0,1.4106352E2,1.1419076E0,4.2E0,7.769E1,7.696E1,-4.9153736E1,3.685875E0,7.512E1,7.989E1,1.1808449E0,6.5235486E0,2.50285E1,6.521257E0,7.102973E1,3.05E0,4.4027157E0,-7.3164827E-1,3.5145E1,7.938E1,-2.6570587E0,5.05E0,4.157616E0,1.9273665E0,7.962E1,4.05E0,6.529307E0,1.5231949E0,-6.3105235E0,-4.0364285E0,-4.1675305E0,-2.847643E0,-6.863293E-1,-2.6477978E0,4.2062953E-2,-4.3202815E0,-2.7750368E0,-1.4708937E0,-8.625522E0,2.3068471E-1,-3.7259835E-1,-8.784341E0,7.3457694E-1,1.9860153E0,2.3820775E0,-1.937505E1,1.2516717E0,3.8527045E0,7.5373805E-1,2.0953221E0,1.369156E0,-1.3595517E-1,2.6542208E0,1.0967348E0,4.963382E0,2.1656907E0],"split_indices":[0,0,0,0,0,0,0,2,2,2,1,3,2,2,0,0,3,0,0,2,0,0,2,1,3,3,0,0,3,1,1,0,2,1,1,0,0,2,0,0,3,0,0,2,1,0,3,0,0,1,3,0,0,0,0,0,0,0,0,0,0,0,0,0,0,0,0,0,0,0,0,0,0,0,0,0,0,0,0,0,0],"split_type":[0,0,0,0,0,0,0,0,0,0,0,0,0,0,0,0,0,0,0,0,0,0,0,0,0,0,0,0,0,0,0,0,0,0,0,0,0,0,0,0,0,0,0,0,0,0,0,0,0,0,0,0,0,0,0,0,0,0,0,0,0,0,0,0,0,0,0,0,0,0,0,0,0,0,0,0,0,0,0,0,0],"sum_hessian":[2.4E3,1.949E3,4.51E2,7.59E2,1.19E3,3.65E2,8.6E1,2.63E2,4.96E2,7.68E2,4.22E2,2.34E2,1.31E2,4.7E1,3.9E1,1.3E2,1.33E2,4.93E2,3E0,7.67E2,1E0,4.13E2,9E0,2.13E2,2.1E1,8.6E1,4.5E1,1E0,4.6E1,2.9E1,1.01E2,1.09E2,2.4E1,4.76E2,1.7E1,1E0,2E0,7.64E2,3E0,4.04E2,9E0,8E0,1E0,6.2E1,1.51E2,2E0,1.9E1,8.3E1,3E0,2.6E1,1.9E1,4.5E1,1E0,1.1E1,1.8E1,6.5E1,3.6E1,1.9E1,9E1,2E0,2.2E1,6.1E1,4.15E2,9E0,8E0,7.59E2,5E0,3.7E2,3.4E1,8E0,1E0,6E0,5.6E1,2E1,1.31E2,1.3E1,6E0,9E0,1.7E1,1.4E1,5E0],"tree_param":{"num_deleted":"0","num_feature":"4","num_nodes":"81","size_leaf_vector":"1"}},{"base_weights":[4.9769625E-2,-1.7711924E0,1.0761476E1,-5.092551E0,6.3695526E-1,8.341509E0,2.3545633E1,-8.773457E0,-4.054353E0,-1.2999544E0,1.8532689E0,7.1737947E0,1.2703333E1,5.8917E0,8.680642E0,-1.1740364E1,-7.708773E0,-4.176203E0,1.02279E1,-1.1198034E0,-2.8369682E1,1.0020695E0,3.208012E0,3.8009694E0,8.413911E0,3.209853E0,1.6921577E1,-1.0620603E1,-7.498977E0,-5.565023E0,-9.834273E0,-3.9218206E0,-1.5022766E1,7.1735306E0,-1.1426558E1,-4.110046E0,-3.773256E-1,-1.3454417E1,6.8805975E-1,-1.6407806E1,1.116162E0,3.8070767E0,-8.616601E-1,1.5863132E1,2.5314035E0,1.0690526E1,7.3848095E0,-2.6531292E1,5.3553452E0,6.6082654E0,3.5237641E0,-3.7413552E0,-2.7317214E0,5.2772183E0,-1.839284E0,-2.5817175E0,-4.129572E0,-1.5106182E0,-6.244263E-1,-8.292591E0,-1.7846903E0,-4.8390393E0,-3.0291167E-1,-8.6983335E-1,-1.7166644E0,-8.287464E-3,-2.7653356E0,-9.543587E0,2.1600735E0,2.4451976E0,2.7130312E-1,9.3961954E-1,2.4670024E0,-1.6877372E0,1.722862E0,-8.1294024E-1,6.035904E0,1.7643201E-1,1.336529E0,-9.143578E-1,3.3078754E0,3.0735018E0,1.8447821E0,-9.393372E0,-2.9162865E0],"categories":[],"categories_nodes":[],"categories_segments":[],"categories_sizes":[],"default_left":[0,0,0,0,0,0,0,0,0,0,0,0,0,0,0,0,0,0,0,0,0,0,0,0,0,0,0,0,0,0,0,0,0,0,0,0,0,0,0,0,0,0,0,0,0,0,0,0,0,0,0,0,0,0,0,0,0,0,0,0,0,0,0,0,0,0,0,0,0,0,0,0,0,0,0,0,0,0,0,0,0,0,0,0,0],"id":7,"left_children":[1,3,5,7,9,11,13,15,17,19,21,23,25,-1,-1,27,29,31,33,35,37,39,41,43,45,47,49,51,-1,53,55,57,59,-1,61,63,65,-1,-1,67,69,71,73,75,77,79,81,83,-1,-1,-1,-1,-1,-1,-1,-1,-1,-1,-1,-1,-1,-1,-1,-1,-1,-1,-1,-1,-1,-1,-1,-1,-1,-1,-1,-1,-1,-1,-1,-1,-1,-1,-1,-1,-1],"loss_changes":[4.6852027E4,1.64238E4,1.0600691E4,3.2623926E3,2.8082732E3,1.4114121E3,5.898203E2,5.0651172E2,1.2174053E3,2.211485E3,8.4089624E2,9.509531E2,2.3884795E3,0E0,0E0,4.470244E2,5.923008E2,1.7897285E3,2.0511296E3,1.01529553E3,1.6187E3,9.14152E2,6.907954E2,9.552351E2,3.2168262E2,9.182593E3,8.511992E2,1.5395996E1,0E0,1.0644675E3,2.1959668E2,1.3339395E3,1.5531206E3,0E0,1.307026E2,1.6101294E2,1.137423E3,0E0,0E0,1.3200396E3,6.6165497E2,7.0757764E2,1.196508E3,5.288596E2,2.2167831E2,2.6883496E2,3.645996E2,2.580918E2,0E0,0E0,0E0,0E0,0E0,0E0,0E0,0E0,0E0,0E0,0E0,0E0,0E0,0E0,0E0,0E0,0E0,0E0,0E0,0E0,0E0,0E0,0E0,0E0,0E0,0E0,0E0,0E0,0E0,0E0,0E0,0E0,0E0,0E0,0E0,0E0,0E0],"parents":[2147483647,0,0,1,1,2,2,3,3,4,4,5,5,6,6,7,7,8,8,9,9,10,10,11,11,12,12,15,15,16,16,17,17,18,18,19,19,20,20,21,21,22,22,23,23,24,24,25,25,26,26,27,27,29,29,30,30,31,31,32,32,34,34,35,35,36,36,39,39,40,40,41,41,42,42,43,43,44,44,45,45,46,46,47,47],"right_children":[2,4,6,8,10,12,14,16,18,20,22,24,26,-1,-1,28,30,32,34,36,38,40,42,44,46,48,50,52,-1,54,56,58,60,-1,62,64,66,-1,-1,68,70,72,74,76,78,80,82,84,-1,-1,-1,-1,-1,-1,-1,-1,-1,-1,-1,-1,-1,-1,-1,-1,-1,-1,-1,-1,-1,-1,-1,-1,-1,-1,-1,-1,-1,-1,-1,-1,-1,-1,-1,-1,-1],"split_conditions":[9.5461266E1,1.4868383E1,1.191158E2,-4.237608E1,3.440131E1,8.673E1,3.302807E2,-7.431122E1,1.6774E1,2.2924334E1,6.0506798E1,1.19122444E2,4.5676228E1,5.8917E0,8.680642E0,2.19325E0,4.1E0,1.5997E1,7.887E1,2.95E0,7.827E1,1.55E0,8.694E1,7.661E1,3.75E0,9.687031E1,1.7824333E2,2.825E-1,-7.498977E0,-7.365126E1,4.95E0,7.964E1,1.6493475E1,7.1735306E0,9.372581E0,1.6469E1,4.55E0,-1.3454417E1,6.8805975E-1,4.927482E1,2.8E0,8.737257E1,4.6937943E1,9.590095E1,1.1527657E2,2.95E0,5.83458E1,4.4791515E1,5.3553452E0,6.6082654E0,3.5237641E0,-3.7413552E0,-2.7317214E0,5.2772183E0,-1.839284E0,-2.5817175E0,-4.129572E0,-1.5106182E0,-6.244263E-1,-8.292591E0,-1.7846903E0,-4.8390393E0,-3.0291167E-1,-8.6983335E-1,-1.7166644E0,-8.287464E-3,-2.7653356E0,-9.543587E0,2.1600735E0,2.4451976E0,2.7130312E-1,9.3961954E-1,2.4670024E0,-1.6877372E0,1.722862E0,-8.1294024E-1,6.035904E0,1.7643201E-1,1.336529E0,-9.143578E-1,3.3078754E0,3.0735018E0,1.8447821E0,-9.393372E0,-2.9162865E0],"split_indices":[0,0,2,0,0,1,0,0,2,2,0,0,2,0,0,2,3,2,1,3,1,3,1,1,3,0,0,2,0,0,3,1,2,0,0,2,3,0,0,0,3,0,2,0,0,3,2,2,0,0,0,0,0,0,0,0,0,0,0,0,0,0,0,0,0,0,0,0,0,0,0,0,0,0,0,0,0,0,0,0,0,0,0,0,0],"split_type":[0,0,0,0,0,0,0,0,0,0,0,0,0,0,0,0,0,0,0,0,0,0,0,0,0,0,0,0,0,0,0,0,0,0,0,0,0,0,0,0,0,0,0,0,0,0,0,0,0,0,0,0,0,0,0,0,0,0,0,0,0,0,0,0,0,0,0,0,0,0,0,0,0,0,0,0,0,0,0,0,0,0,0,0,0],"sum_hessian":[2.4E3,2.052E3,3.48E2,8.62E2,1.19E3,2.94E2,5.4E1,1.88E2,6.74E2,4.59E2,7.31E2,2.34E2,6E1,3.4E1,2E1,4.7E1,1.41E2,6.69E2,5E0,4.57E2,2E0,4.5E2,2.81E2,6.4E1,1.7E2,1.9E1,4.1E1,4.5E1,2E0,7.2E1,6.9E1,6.55E2,1.4E1,3E0,2E0,9E1,3.67E2,1E0,1E0,2E0,4.48E2,2.45E2,3.6E1,5E0,5.9E1,5E1,1.2E2,6E0,1.3E1,1.9E1,2.2E1,1.7E1,2.8E1,1E0,7.1E1,5.5E1,1.4E1,4.07E2,2.48E2,5E0,9E0,1E0,1E0,5.3E1,3.7E1,3.54E2,1.3E1,1E0,1E0,1.2E1,4.36E2,2.14E2,3.1E1,2.1E1,1.5E1,1E0,4E0,3E1,2.9E1,1E0,4.9E1,3.4E1,8.6E1,4E0,2E0],"tree_param":{"num_deleted":"0","num_feature":"4","num_nodes":"85","size_leaf_vector":"1"}},{"base_weights":[2.8600032E-2,-1.2626196E0,7.624145E0,-4.258115E0,8.793726E-2,5.8974476E0,1.6746902E1,-7.394587E0,-3.6334186E0,-1.2027313E0,1.2956148E0,5.081434E0,8.944428E0,4.334237E0,7.134788E0,-8.355181E0,-5.539273E-1,-3.1329174E0,-6.3938394E0,-1.0082438E0,-1.4229811E1,1.231923E0,4.9086313E0,3.2849112E0,6.411015E0,1.8991804E0,1.2086346E1,-7.785805E0,-1.3360401E1,-1.7516088E0,6.2309375E0,-2.9251513E0,-1.598239E1,-7.4637475E0,-5.6109304E0,-1.2190007E0,5.9655323E0,-1.3254757E1,-1.2188182E0,7.9099236E0,1.128187E0,5.1422973E0,5.090672E-1,-7.7720493E-1,6.4981756E0,-2.0330427E1,3.8634987E0,5.5871267E0,9.1658535E0,-1.2889591E0,-2.3850536E0,-4.6543307E0,2.576746E-1,-1.0670338E0,1.7057995E0,-9.443313E0,-1.0466167E0,-7.3391128E0,-1.4410613E0,5.5379146E-1,-4.5903906E-1,4.9039736E-1,6.86411E0,-6.8104345E-1,3.8703233E-1,-1.2023736E-2,6.5497346E0,7.872044E-2,5.785358E-1,2.0429568E0,-2.8270602E-1,-2.0932707E-1,1.3322041E0,1.996827E0,3.37305E-1,-7.402864E0,-1.8931928E0,-2.5059083E-1,3.2035334E0],"categories":[],"categories_nodes":[],"categories_segments":[],"categories_sizes":[],"default_left":[0,0,0,0,0,0,0,0,0,0,0,0,0,0,0,0,0,0,0,0,0,0,0,0,0,0,0,0,0,0,0,0,0,0,0,0,0,0,0,0,0,0,0,0,0,0,0,0,0,0,0,0,0,0,0,0,0,0,0,0,0,0,0,0,0,0,0,0,0,0,0,0,0,0,0,0,0,0,0],"id":8,"left_children":[1,3,5,7,9,11,13,15,17,19,21,23,25,-1,-1,27,29,31,33,35,37,39,-1,41,43,45,47,49,51,-1,-1,53,55,-1,57,59,61,-1,63,65,67,69,71,-1,73,75,-1,-1,77,-1,-1,-1,-1,-1,-1,-1,-1,-1,-1,-1,-1,-1,-1,-1,-1,-1,-1,-1,-1,-1,-1,-1,-1,-1,-1,-1,-1,-1,-1],"loss_changes":[2.3557475E4,8.305964E3,5.3987676E3,1.2231924E3,2.2086936E3,6.880303E2,5.4620605E2,6.853374E2,7.1774023E2,1.7211716E3,6.8228015E2,5.402666E2,1.3273164E3,0E0,0E0,1.5816455E2,1.6989414E3,1.1652861E3,1.0326624E3,1.0008374E3,3.8432947E3,4.9678308E2,0E0,5.2327515E2,1.21970215E2,5.143065E3,6.311802E2,1.4593262E1,2.583567E2,0E0,0E0,2.456915E3,1.2453365E3,0E0,1.0849944E3,6.2934186E2,1.4277188E3,0E0,2.4030336E1,1.2184001E3,4.9835205E2,6.2535425E2,2.0237863E2,0E0,1.0538135E2,2.7076636E2,0E0,0E0,4.7787695E2,0E0,0E0,0E0,0E0,0E0,0E0,0E0,0E0,0E0,0E0,0E0,0E0,0E0,0E0,0E0,0E0,0E0,0E0,0E0,0E0,0E0,0E0,0E0,0E0,0E0,0E0,0E0,0E0,0E0,0E0],"parents":[2147483647,0,0,1,1,2,2,3,3,4,4,5,5,6,6,7,7,8,8,9,9,10,10,11,11,12,12,15,15,16,16,17,17,18,18,19,19,20,20,21,21,23,23,24,24,25,25,26,26,27,27,28,28,31,31,32,32,34,34,35,35,36,36,38,38,39,39,40,40,41,41,42,42,44,44,45,45,48,48],"right_children":[2,4,6,8,10,12,14,16,18,20,22,24,26,-1,-1,28,30,32,34,36,38,40,-1,42,44,46,48,50,52,-1,-1,54,56,-1,58,60,62,-1,64,66,68,70,72,-1,74,76,-1,-1,78,-1,-1,-1,-1,-1,-1,-1,-1,-1,-1,-1,-1,-1,-1,-1,-1,-1,-1,-1,-1,-1,-1,-1,-1,-1,-1,-1,-1,-1,-1],"split_conditions":[9.5461266E1,-4.881276E0,1.191158E2,-6.280068E1,3.440131E1,8.673E1,3.3233353E2,8.063E1,8.024E1,3.3903927E1,4.724206E1,1.2946136E2,4.5676228E1,4.334237E0,7.134788E0,1.930125E0,-7.708871E1,-5.889353E0,-5.9606735E1,3.347915E1,7.827E1,3.4925262E1,4.9086313E0,7.75E1,2.95E0,9.687031E1,9.687031E1,5.757E1,3.9226E0,-1.7516088E0,6.2309375E0,1.0743091E1,7.697E1,-7.4637475E0,8.027E1,1.0556063E1,8.097E1,-1.3254757E1,2.0022E1,2.0022E1,5.4170948E1,4.3E0,6.0873222E1,-7.7720493E-1,4.95E0,2.85E0,3.8634987E0,5.5871267E0,5.898309E1,-1.2889591E0,-2.3850536E0,-4.6543307E0,2.576746E-1,-1.0670338E0,1.7057995E0,-9.443313E0,-1.0466167E0,-7.3391128E0,-1.4410613E0,5.5379146E-1,-4.5903906E-1,4.9039736E-1,6.86411E0,-6.8104345E-1,3.8703233E-1,-1.2023736E-2,6.5497346E0,7.872044E-2,5.785358E-1,2.0429568E0,-2.8270602E-1,-2.0932707E-1,1.3322041E0,1.996827E0,3.37305E-1,-7.402864E0,-1.8931928E0,-2.5059083E-1,3.2035334E0],"split_indices":[0,0,2,0,0,1,0,1,1,0,2,0,2,0,0,2,0,0,0,0,1,0,0,1,3,0,0,1,2,0,0,2,1,0,1,2,1,0,2,2,0,3,2,0,3,3,0,0,2,0,0,0,0,0,0,0,0,0,0,0,0,0,0,0,0,0,0,0,0,0,0,0,0,0,0,0,0,0,0],"split_type":[0,0,0,0,0,0,0,0,0,0,0,0,0,0,0,0,0,0,0,0,0,0,0,0,0,0,0,0,0,0,0,0,0,0,0,0,0,0,0,0,0,0,0,0,0,0,0,0,0,0,0,0,0,0,0,0,0,0,0,0,0,0,0,0,0,0,0,0,0,0,0,0,0,0,0,0,0,0,0],"sum_hessian":[2.4E3,2.052E3,3.48E2,6.37E2,1.415E3,2.94E2,5.4E1,1.04E2,5.33E2,6.84E2,7.31E2,2.34E2,6E1,4.3E1,1.1E1,9.1E1,1.3E1,4.53E2,8E1,6.75E2,9E0,7.29E2,2E0,1.01E2,1.33E2,1.9E1,4.1E1,8.4E1,7E0,1.1E1,2E0,4.47E2,6E0,2E0,7.8E1,6.56E2,1.9E1,2E0,7E0,1E1,7.19E2,6E1,4.1E1,1E0,1.32E2,6E0,1.3E1,1.1E1,3E1,5E0,7.9E1,6E0,1E0,4.17E2,3E1,2E0,4E0,2E0,7.6E1,6E1,5.96E2,1.6E1,3E0,5E0,2E0,7E0,3E0,3.46E2,3.73E2,4.7E1,1.3E1,3.2E1,9E0,1.28E2,4E0,4E0,2E0,4E0,2.6E1],"tree_param":{"num_deleted":"0","num_feature":"4","num_nodes":"79","size_leaf_vector":"1"}},{"base_weights":[1.8076815E-2,-1.0566452E0,4.6545587E0,-2.3987753E0,3.8206607E-1,3.3039398E0,1.0282971E1,-2.2723362E0,-1.6195074E1,1.5063911E1,2.242949E-1,-8.846309E-2,3.585229E0,7.9952025E0,1.41578045E1,-3.9937255E0,-1.5122536E0,-3.1824165E1,2.6730335E0,2.2139317E1,-1.0840259E0,-3.496737E-1,3.1526947E0,-5.221552E0,8.785824E0,3.8440206E0,1.1582676E0,1.2003505E1,7.3789525E0,3.479748E0,5.172719E0,-4.851549E0,1.3657881E0,-3.5590036E0,-7.4224436E-1,-1.3210461E1,-9.005409E0,1.4545093E0,-9.0424323E-1,9.367327E0,8.812943E0,4.7785494E-1,-7.5218034E-1,-2.0050282E0,2.586727E-1,8.365424E0,9.717268E-1,-2.5406888E0,-8.021564E0,2.7850893E0,5.711632E-1,4.921893E0,3.3329742E0,2.6639729E0,-1.1830237E0,1.7491609E-1,4.2512956E0,7.703824E0,1.5545349E0,-1.1333691E0,-4.781191E0,5.6404276E0,-1.3462434E0,-1.2511325E0,2.0309677E0,1.6030625E-1,-6.7732716E-1,-4.4913426E-1,-3.6033E0,5.567987E0,3.4939576E-2,-2.271057E0,-1.7060323E-1,3.044756E0,-2.2994648E-3,6.4322E-1,9.903788E0,-4.85758E0,4.331608E-1,-1.2052463E0,3.3847334E0,5.252186E-1,1.5454919E0,8.570853E-1,1.5044717E0,3.0750996E-1,2.311072E0,-1.6074666E0,3.0686325E-1,2.1519222E0,4.9769764E0,-1.3581024E0,1.5272157E0],"categories":[],"categories_nodes":[],"categories_segments":[],"categories_sizes":[],"default_left":[0,0,0,0,0,0,0,0,0,0,0,0,0,0,0,0,0,0,0,0,0,0,0,0,0,0,0,0,0,0,0,0,0,0,0,0,0,0,0,0,0,0,0,0,0,0,0,0,0,0,0,0,0,0,0,0,0,0,0,0,0,0,0,0,0,0,0,0,0,0,0,0,0,0,0,0,0,0,0,0,0,0,0,0,0,0,0,0,0,0,0,0,0],"id":9,"left_children":[1,3,5,7,9,11,13,15,17,19,21,23,25,27,29,31,33,35,37,39,41,43,45,47,49,51,53,55,57,-1,-1,59,61,63,65,-1,67,-1,-1,69,-1,-1,-1,71,73,75,77,79,-1,-1,-1,81,83,85,87,-1,-1,89,91,-1,-1,-1,-1,-1,-1,-1,-1,-1,-1,-1,-1,-1,-1,-1,-1,-1,-1,-1,-1,-1,-1,-1,-1,-1,-1,-1,-1,-1,-1,-1,-1,-1,-1],"loss_changes":[1.1968931E4,3.7662444E3,3.4020566E3,1.7232896E3,2.1786438E3,3.495713E2,6.5803613E2,1.303667E3,2.7390896E3,1.1665315E3,1.5692976E3,1.3668983E3,2.078374E2,5.222339E1,4.4666504E1,1.4134663E3,1.0942659E3,9.966128E2,7.6471115E1,3.7185156E2,1.9233067E1,7.870083E2,1.7312969E3,1.0280637E3,2.0009766E1,1.5160303E2,1.2301156E2,1.402591E2,8.6417725E1,0E0,0E0,3.0819834E3,4.4727534E3,1.2281746E3,9.821E2,0E0,4.9718735E1,0E0,0E0,3.3799738E2,0E0,0E0,0E0,1.674335E3,1.5068491E3,6.8294746E3,9.066817E2,4.1277878E2,0E0,0E0,0E0,6.0923096E1,1.5380664E2,1.6555522E2,1.3442184E2,0E0,0E0,1.12098145E2,1.09067535E2,0E0,0E0,0E0,0E0,0E0,0E0,0E0,0E0,0E0,0E0,0E0,0E0,0E0,0E0,0E0,0E0,0E0,0E0,0E0,0E0,0E0,0E0,0E0,0E0,0E0,0E0,0E0,0E0,0E0,0E0,0E0,0E0,0E0,0E0],"parents":[2147483647,0,0,1,1,2,2,3,3,4,4,5,5,6,6,7,7,8,8,9,9,10,10,11,11,12,12,13,13,14,14,15,15,16,16,17,17,18,18,19,19,20,20,21,21,22,22,23,23,24,24,25,25,26,26,27,27,28,28,31,31,32,32,33,33,34,34,36,36,39,39,43,43,44,44,45,45,46,46,47,47,51,51,52,52,53,53,54,54,57,57,58,58],"right_children":[2,4,6,8,10,12,14,16,18,20,22,24,26,28,30,32,34,36,38,40,42,44,46,48,50,52,54,56,58,-1,-1,60,62,64,66,-1,68,-1,-1,70,-1,-1,-1,72,74,76,78,80,-1,-1,-1,82,84,86,88,-1,-1,90,92,-1,-1,-1,-1,-1,-1,-1,-1,-1,-1,-1,-1,-1,-1,-1,-1,-1,-1,-1,-1,-1,-1,-1,-1,-1,-1,-1,-1,-1,-1,-1,-1,-1,-1],"split_conditions":[8.262004E1,1.5115875E1,1.6260733E2,1.4954667E1,1.5238545E1,2.85E0,3.2805786E2,7.733E1,3.05E0,8.143E1,4.05E0,9.687031E1,4.35E0,7.771754E1,3.3233353E2,1.0743091E1,-1.6025282E1,1.5338269E1,1.7599558E1,1.6584576E1,1.2655587E1,7.916E1,7.887E1,9.590095E1,4.4791515E1,7.929E1,5.4607918E1,6.3717E1,3.5E0,3.479748E0,5.172719E0,9.7926E0,-5.889353E0,9.020461E0,1.0556063E1,-1.3210461E1,2.2574492E1,1.4545093E0,-9.0424323E-1,4.818374E0,8.812943E0,4.7785494E-1,-7.5218034E-1,2.5830082E1,8.027E1,7.843E1,7.916E1,4.4791515E1,-8.021564E0,2.7850893E0,5.711632E-1,3.5145E1,1.3939116E2,1.2661761E2,4.5E0,1.7491609E-1,4.2512956E0,3.15E0,3.55E0,-1.1333691E0,-4.781191E0,5.6404276E0,-1.3462434E0,-1.2511325E0,2.0309677E0,1.6030625E-1,-6.7732716E-1,-4.4913426E-1,-3.6033E0,5.567987E0,3.4939576E-2,-2.271057E0,-1.7060323E-1,3.044756E0,-2.2994648E-3,6.4322E-1,9.903788E0,-4.85758E0,4.331608E-1,-1.2052463E0,3.3847334E0,5.252186E-1,1.5454919E0,8.570853E-1,1.5044717E0,3.0750996E-1,2.311072E0,-1.6074666E0,3.0686325E-1,2.1519222E0,4.9769764E0,-1.3581024E0,1.5272157E0],"split_indices":[0,2,0,2,2,3,0,1,3,1,3,0,3,2,0,2,0,0,0,0,0,1,1,0,2,1,2,2,3,0,0,2,0,2,2,0,0,0,0,0,0,0,0,0,1,1,1,2,0,0,0,2,0,0,3,0,0,3,3,0,0,0,0,0,0,0,0,0,0,0,0,0,0,0,0,0,0,0,0,0,0,0,0,0,0,0,0,0,0,0,0,0,0],"split_type":[0,0,0,0,0,0,0,0,0,0,0,0,0,0,0,0,0,0,0,0,0,0,0,0,0,0,0,0,0,0,0,0,0,0,0,0,0,0,0,0,0,0,0,0,0,0,0,0,0,0,0,0,0,0,0,0,0,0,0,0,0,0,0,0,0,0,0,0,0,0,0,0,0,0,0,0,0,0,0,0,0,0,0,0,0,0,0,0,0,0,0,0,0],"sum_hessian":[2.4E3,1.949E3,4.51E2,1.008E3,9.41E2,3.65E2,8.6E1,1E3,8E0,9E0,9.32E2,2.8E1,3.37E2,5.6E1,3E1,3.05E2,6.95E2,4E0,4E0,6E0,3E0,7.8E2,1.52E2,1.8E1,1E1,3.04E2,3.3E1,5E0,5.1E1,1.9E1,1.1E1,2.63E2,4.2E1,1.89E2,5.06E2,2E0,2E0,3E0,1E0,3E0,3E0,1E0,2E0,2.09E2,5.71E2,4.4E1,1.08E2,1.7E1,1E0,9E0,1E0,9.5E1,2.09E2,2E1,1.3E1,1E0,4E0,4.8E1,3E0,2.41E2,2.2E1,1E1,3.2E1,1.79E2,1E1,2.75E2,2.31E2,1E0,1E0,1E0,2E0,4.2E1,1.67E2,1.4E1,5.57E2,3.6E1,8E0,2E0,1.06E2,1.6E1,1E0,7E0,8.8E1,1.65E2,4.4E1,1.6E1,4E0,4E0,9E0,4.7E1,1E0,1E0,2E0],"tree_param":{"num_deleted":"0","num_feature":"4","num_nodes":"93","size_leaf_vector":"1"}},{"base_weights":[2.366431E-2,-1.0446402E0,2.4996192E0,-2.5491364E0,-2.8471544E-1,1.8230631E0,7.4322987E0,-2.2852476E0,-1.6913671E1,-8.123511E0,-2.3639974E-1,1.2551926E0,2.627992E0,5.360808E0,9.73228E0,-2.6423829E0,1.8130692E0,-9.468099E0,-6.1279135E0,4.3784575E0,-4.6626902E-1,4.4694877E0,9.3291503E-1,8.984314E0,2.4699843E0,8.146277E0,4.413414E0,8.25112E0,3.7502184E0,-2.186486E0,-4.536699E0,1.1025198E0,4.9615874E0,-4.604525E-1,-6.019902E0,5.469128E0,-7.8504615E0,-2.7195451E0,3.6721617E-2,2.4512126E0,7.965391E0,8.2825506E-1,3.755488E0,6.256396E0,2.4393158E0,-1.5080406E-1,2.7896926E0,-9.8341143E-1,9.616513E0,5.963504E0,3.2607155E0,2.515465E0,6.7586064E-1,-8.278297E-1,1.1670557E0,-2.4481897E0,-3.521927E-1,6.478281E-1,-1.4377437E0,-2.02576E-1,9.203273E-2,7.327489E-1,8.479866E0,-4.816814E0,-5.722423E-1,7.040461E0,-1.3291523E-2,9.66835E-4,9.393093E-1,2.7335606E0,1.0183411E0,3.449393E-1,-1.5016576E0,-1.229266E0,1.5293765E0,-4.2425156E0,1.2341571E0,3.7517762E0,6.7336744E-1,4.6046495E0,9.710488E-1,1.2490488E0,2.2277613E0,7.5082475E-1,1.5352472E0],"categories":[],"categories_nodes":[],"categories_segments":[],"categories_sizes":[],"default_left":[0,0,0,0,0,0,0,0,0,0,0,0,0,0,0,0,0,0,0,0,0,0,0,0,0,0,0,0,0,0,0,0,0,0,0,0,0,0,0,0,0,0,0,0,0,0,0,0,0,0,0,0,0,0,0,0,0,0,0,0,0,0,0,0,0,0,0,0,0,0,0,0,0,0,0,0,0,0,0,0,0,0,0,0,0],"id":10,"left_children":[1,3,5,7,9,11,13,15,17,-1,19,21,23,25,27,29,31,-1,33,35,37,39,41,43,45,47,49,51,-1,53,55,57,-1,59,-1,61,-1,63,65,67,69,71,-1,-1,73,75,77,-1,79,81,83,-1,-1,-1,-1,-1,-1,-1,-1,-1,-1,-1,-1,-1,-1,-1,-1,-1,-1,-1,-1,-1,-1,-1,-1,-1,-1,-1,-1,-1,-1,-1,-1,-1,-1],"loss_changes":[6.3534336E3,1.917738E3,2.402608E3,2.0954795E3,1.4383218E3,2.8832812E2,3.623291E2,8.156548E2,1.3863542E3,0E0,1.184849E3,3.8532697E2,2.4195178E2,9.0716064E1,6.0875732E1,4.305227E2,4.5261145E2,0E0,5.437288E2,1.9088833E3,1.2048794E3,2.2036877E2,4.0552783E2,4.1527698E2,2.1659583E2,2.1628412E2,4.8452637E1,4.3779297E0,0E0,1.4486382E3,1.1846757E3,2.844895E2,0E0,1.1959589E0,0E0,3.518877E3,0E0,2.0704292E3,1.6528003E3,3.8266235E1,3.1955505E1,6.45406E2,0E0,0E0,1.0778378E2,1.7885055E3,1.1901589E3,0E0,3.1602228E2,8.566467E0,2.0969147E1,0E0,0E0,0E0,0E0,0E0,0E0,0E0,0E0,0E0,0E0,0E0,0E0,0E0,0E0,0E0,0E0,0E0,0E0,0E0,0E0,0E0,0E0,0E0,0E0,0E0,0E0,0E0,0E0,0E0,0E0,0E0,0E0,0E0,0E0],"parents":[2147483647,0,0,1,1,2,2,3,3,4,4,5,5,6,6,7,7,8,8,10,10,11,11,12,12,13,13,14,14,15,15,16,16,18,18,19,19,20,20,21,21,22,22,23,23,24,24,25,25,26,26,27,27,29,29,30,30,31,31,33,33,35,35,37,37,38,38,39,39,40,40,41,41,44,44,45,45,46,46,48,48,49,49,50,50],"right_children":[2,4,6,8,10,12,14,16,18,-1,20,22,24,26,28,30,32,-1,34,36,38,40,42,44,46,48,50,52,-1,54,56,58,-1,60,-1,62,-1,64,66,68,70,72,-1,-1,74,76,78,-1,80,82,84,-1,-1,-1,-1,-1,-1,-1,-1,-1,-1,-1,-1,-1,-1,-1,-1,-1,-1,-1,-1,-1,-1,-1,-1,-1,-1,-1,-1,-1,-1,-1,-1,-1,-1],"split_conditions":[5.4170948E1,9.804E0,1.6260733E2,9.7926E0,1.55E0,9.5461266E1,2.5207631E2,9.41324E0,7.733E1,-8.123511E0,1.01373E1,1.95E0,7.661E1,1.7824333E2,3.3233353E2,8.098166E0,-6.2870893E0,-9.468099E0,-2.559002E0,1.628333E-1,1.2475333E1,8.566E1,4.724206E1,4.187467E1,4.5676228E1,2.95E0,2.85E0,2.85E0,3.7502184E0,7.101E0,7.856E1,-8.558377E0,4.9615874E0,-1.0154557E1,-6.019902E0,-3.191702E0,-7.8504615E0,7.512E1,-8.983069E0,6.305722E1,8.1415085E1,9.444353E1,3.755488E0,6.256396E0,9.590095E1,9.687031E1,9.687031E1,-9.8341143E-1,3.5E0,1.05E0,3.05E0,2.515465E0,6.7586064E-1,-8.278297E-1,1.1670557E0,-2.4481897E0,-3.521927E-1,6.478281E-1,-1.4377437E0,-2.02576E-1,9.203273E-2,7.327489E-1,8.479866E0,-4.816814E0,-5.722423E-1,7.040461E0,-1.3291523E-2,9.66835E-4,9.393093E-1,2.7335606E0,1.0183411E0,3.449393E-1,-1.5016576E0,-1.229266E0,1.5293765E0,-4.2425156E0,1.2341571E0,3.7517762E0,6.7336744E-1,4.6046495E0,9.710488E-1,1.2490488E0,2.2277613E0,7.5082475E-1,1.5352472E0],"split_indices":[0,2,0,2,3,0,0,2,1,0,2,3,1,0,0,2,0,0,0,0,2,1,2,2,2,3,3,3,0,2,1,0,0,0,0,0,0,1,0,0,0,0,0,0,0,0,0,0,3,3,3,0,0,0,0,0,0,0,0,0,0,0,0,0,0,0,0,0,0,0,0,0,0,0,0,0,0,0,0,0,0,0,0,0,0],"split_type":[0,0,0,0,0,0,0,0,0,0,0,0,0,0,0,0,0,0,0,0,0,0,0,0,0,0,0,0,0,0,0,0,0,0,0,0,0,0,0,0,0,0,0,0,0,0,0,0,0,0,0,0,0,0,0,0,0,0,0,0,0,0,0,0,0,0,0,0,0,0,0,0,0,0,0,0,0,0,0,0,0,0,0,0,0],"sum_hessian":[2.4E3,1.677E3,7.23E2,5.62E2,1.115E3,6.37E2,8.6E1,5.53E2,9E0,1E0,1.114E3,3.75E2,2.62E2,4.7E1,3.9E1,5.09E2,4.4E1,3E0,6E0,5.2E1,1.062E3,3.3E1,3.42E2,5E0,2.57E2,1E1,3.7E1,2.8E1,1.1E1,4.12E2,9.7E1,4.3E1,1E0,5E0,1E0,5.1E1,1E0,1.93E2,8.69E2,2.2E1,1.1E1,3.4E2,2E0,1E0,4E0,2.8E1,2.29E2,1E0,9E0,1.4E1,2.3E1,2.7E1,1E0,3.77E2,3.5E1,4.6E1,5.1E1,3.7E1,6E0,4E0,1E0,4.6E1,5E0,1E1,1.83E2,2E0,8.67E2,5E0,1.7E1,8E0,3E0,3.23E2,1.7E1,1E0,3E0,6E0,2.2E1,1.1E1,2.18E2,4E0,5E0,8E0,6E0,1.8E1,5E0],"tree_param":{"num_deleted":"0","num_feature":"4","num_nodes":"85","size_leaf_vector":"1"}},{"base_weights":[2.2207815E-2,-1.1376678E0,1.3147962E0,-1.0697925E0,-7.1312423E0,9.7493804E-1,5.401419E0,-1.1072356E0,1.4900525E1,-2.9707768E0,-9.112526E0,4.185325E0,7.692404E-1,3.9682968E0,6.9861307E0,-1.0681293E0,-7.498494E0,3.7791368E-1,6.327323E0,-9.7466403E-1,-2.370392E-1,-5.4297643E0,-3.7075608E0,1.4992805E0,2.0135006E1,-8.182882E-1,1.3492484E0,5.7600293E0,3.061112E0,1.765747E0,2.7189095E0,-1.1152973E0,8.676702E0,-3.955868E-1,-5.9882684E0,-4.0419893E0,2.026056E0,3.8033044E0,5.1530643E1,-4.379978E-1,-2.5522738E1,5.0120974E0,1.2165049E0,-8.358994E-1,6.569507E0,4.3424873E0,1.8209478E0,-2.6425484E-1,-8.481441E-1,-1.986869E0,-5.174635E-1,2.925547E-1,1.8136091E0,3.46081E0,-6.38896E0,2.1665314E1,1.5234759E0,-2.0194377E-1,6.026252E0,5.2913505E-1,-1.0561852E1,2.4363325E0,-1.2427983E0,2.6743668E-1,6.9239247E-1,2.5802464E0,7.282852E-1,9.159678E-1,1.5750287E0,8.413231E-1,3.8081884E-1],"categories":[],"categories_nodes":[],"categories_segments":[],"categories_sizes":[],"default_left":[0,0,0,0,0,0,0,0,0,0,0,0,0,0,0,0,0,0,0,0,0,0,0,0,0,0,0,0,0,0,0,0,0,0,0,0,0,0,0,0,0,0,0,0,0,0,0,0,0,0,0,0,0,0,0,0,0,0,0,0,0,0,0,0,0,0,0,0,0,0,0],"id":11,"left_children":[1,3,5,7,9,11,13,15,17,19,21,23,25,27,29,31,-1,-1,-1,-1,-1,33,-1,35,37,39,41,43,45,-1,-1,47,-1,-1,49,-1,51,53,55,57,59,61,63,-1,65,67,69,-1,-1,-1,-1,-1,-1,-1,-1,-1,-1,-1,-1,-1,-1,-1,-1,-1,-1,-1,-1,-1,-1,-1,-1],"loss_changes":[3.6011753E3,5.0739954E2,1.5724924E3,7.657626E2,8.833148E1,6.9016833E2,1.6986157E2,1.1419343E3,2.267638E2,1.0716248E0,4.048462E1,2.66883E3,9.1083405E2,6.038861E1,3.8065918E1,1.8004943E3,0E0,0E0,0E0,0E0,0E0,5.8802643E0,0E0,4.6109296E2,4.4187104E3,2.4784602E3,3.4592566E2,1.2207614E2,4.6122498E1,0E0,0E0,4.9878284E2,0E0,0E0,2.1046448E0,0E0,2.2218901E2,1.6043088E3,2.5161519E3,1.2780736E3,1.1190051E3,7.451991E2,2.4628967E2,0E0,9.69093E1,2.692566E0,6.746273E0,0E0,0E0,0E0,0E0,0E0,0E0,0E0,0E0,0E0,0E0,0E0,0E0,0E0,0E0,0E0,0E0,0E0,0E0,0E0,0E0,0E0,0E0,0E0,0E0],"parents":[2147483647,0,0,1,1,2,2,3,3,4,4,5,5,6,6,7,7,8,8,9,9,10,10,11,11,12,12,13,13,14,14,15,15,21,21,23,23,24,24,25,25,26,26,27,27,28,28,31,31,34,34,36,36,37,37,38,38,39,39,40,40,41,41,42,42,44,44,45,45,46,46],"right_children":[2,4,6,8,10,12,14,16,18,20,22,24,26,28,30,32,-1,-1,-1,-1,-1,34,-1,36,38,40,42,44,46,-1,-1,48,-1,-1,50,-1,52,54,56,58,60,62,64,-1,66,68,70,-1,-1,-1,-1,-1,-1,-1,-1,-1,-1,-1,-1,-1,-1,-1,-1,-1,-1,-1,-1,-1,-1,-1,-1],"split_conditions":[1.7198545E1,8E0,1.6260733E2,6.75E0,-7.431122E1,1.7821817E1,2.5207631E2,6.35E0,-7.160449E1,-8.2988174E1,5.94E1,4.05E0,4.3277958E1,8.978319E1,3.3233353E2,6.15E0,-7.498494E0,3.7791368E-1,6.327323E0,-9.7466403E-1,-2.370392E-1,1.930125E0,-3.7075608E0,9.372581E0,2.2206867E1,2.4353333E1,4.927482E1,2.95E0,8.813E1,1.765747E0,2.7189095E0,1.633145E1,8.676702E0,-3.955868E-1,5.589E1,-4.0419893E0,3.1467865E1,2.108118E1,2.4428099E1,2.4026875E1,3.440131E1,2.50285E1,1.20450905E2,-8.358994E-1,3.5E0,1.05E0,1.8981381E2,-2.6425484E-1,-8.481441E-1,-1.986869E0,-5.174635E-1,2.925547E-1,1.8136091E0,3.46081E0,-6.38896E0,2.1665314E1,1.5234759E0,-2.0194377E-1,6.026252E0,5.2913505E-1,-1.0561852E1,2.4363325E0,-1.2427983E0,2.6743668E-1,6.9239247E-1,2.5802464E0,7.282852E-1,9.159678E-1,1.5750287E0,8.413231E-1,3.8081884E-1],"split_indices":[2,3,0,3,0,2,0,3,0,0,1,3,0,2,0,3,0,0,0,0,0,2,0,0,0,2,0,3,1,0,0,2,0,0,1,0,0,0,0,2,0,2,0,0,3,3,0,0,0,0,0,0,0,0,0,0,0,0,0,0,0,0,0,0,0,0,0,0,0,0,0],"split_type":[0,0,0,0,0,0,0,0,0,0,0,0,0,0,0,0,0,0,0,0,0,0,0,0,0,0,0,0,0,0,0,0,0,0,0,0,0,0,0,0,0,0,0,0,0,0,0,0,0,0,0,0,0,0,0,0,0,0,0,0,0,0,0,0,0,0,0,0,0,0,0],"sum_hessian":[2.4E3,1.265E3,1.135E3,1.252E3,1.3E1,1.049E3,8.6E1,1.25E3,2E0,5E0,8E0,6.2E1,9.87E2,4.7E1,3.9E1,1.249E3,1E0,1E0,1E0,4E0,1E0,5E0,3E0,5.4E1,8E0,2.64E2,7.23E2,1.4E1,3.3E1,2.8E1,1.1E1,1.248E3,1E0,1E0,4E0,1E0,5.3E1,6E0,2E0,2.61E2,3E0,2.4E1,6.99E2,1E0,1.3E1,1.5E1,1.8E1,1.099E3,1.49E2,3E0,1E0,4.3E1,1E1,5E0,1E0,1E0,1E0,2.59E2,2E0,1E0,2E0,1.8E1,6E0,5.4E2,1.59E2,8E0,5E0,8E0,7E0,5E0,1.3E1],"tree_param":{"num_deleted":"0","num_feature":"4","num_nodes":"71","size_leaf_vector":"1"}},{"base_weights":[2.6329588E-2,-7.4124676E-1,1.07699E0,-7.061589E-1,-1.670476E1,8.1083065E-1,3.9036436E0,-7.4201316E-1,4.821001E0,4.4976485E-1,-7.9669065E0,6.270005E0,7.5054497E-1,3.431165E0,6.570704E0,-6.97285E-1,-9.390165E0,9.7816925E0,2.2985985E0,8.5810155E-1,-1.6344633E0,5.8955207E0,3.1745834E0,2.8266747E0,4.5732727E0,-1.5924337E0,-1.4262894E-1,1.3844074E1,7.3762405E-1,3.5891047E0,-5.64827E-2,3.6910303E0,7.537734E-1,-2.1186607E1,-4.786085E-2,-1.0622177E-1,2.1648762E0,4.040324E0,1.8567265E0,1.5752426E0,-1.270523E-1,-4.2710653E-1,-9.211362E0,5.6757717E0,-5.6130994E-2,6.092392E0,1.3744183E-1,1.5770851E0,3.842518E-1,-9.616485E-1,1.8687574E0,1.7907988E-1,6.5878177E-1,8.9114E-2,-9.623088E0,-6.7101943E-1,1.3000685E0,1.5910162E0,1.0761454E0,3.4425452E-1,1.0152156E0],"categories":[],"categories_nodes":[],"categories_segments":[],"categories_sizes":[],"default_left":[0,0,0,0,0,0,0,0,0,0,0,0,0,0,0,0,0,0,0,0,0,0,0,0,0,0,0,0,0,0,0,0,0,0,0,0,0,0,0,0,0,0,0,0,0,0,0,0,0,0,0,0,0,0,0,0,0,0,0,0,0],"id":12,"left_children":[1,3,5,7,9,11,13,15,-1,-1,-1,17,19,21,23,25,-1,27,29,31,33,35,37,-1,39,41,43,45,-1,47,-1,49,51,53,55,-1,-1,57,59,-1,-1,-1,-1,-1,-1,-1,-1,-1,-1,-1,-1,-1,-1,-1,-1,-1,-1,-1,-1,-1,-1],"loss_changes":[1.9371139E3,7.6565814E2,7.597079E2,8.4559937E2,5.778283E2,3.0070844E2,8.708606E1,1.8698644E3,0E0,0E0,0E0,1.1697916E2,2.3714746E2,2.93396E1,2.5258667E1,6.864318E2,0E0,1.1470392E2,1.9931698E1,2.5730548E2,1.2398453E3,5.2079346E1,7.350372E1,0E0,3.2693237E1,2.5550142E3,7.283785E2,2.502721E2,0E0,8.666012E0,0E0,5.626068E2,1.9095059E2,7.11422E2,3.741269E2,0E0,0E0,5.0161743E0,2.8612656E1,0E0,0E0,0E0,0E0,0E0,0E0,0E0,0E0,0E0,0E0,0E0,0E0,0E0,0E0,0E0,0E0,0E0,0E0,0E0,0E0,0E0,0E0],"parents":[2147483647,0,0,1,1,2,2,3,3,4,4,5,5,6,6,7,7,11,11,12,12,13,13,14,14,15,15,17,17,18,18,19,19,20,20,21,21,22,22,24,24,25,25,26,26,27,27,29,29,31,31,32,32,33,33,34,34,37,37,38,38],"right_children":[2,4,6,8,10,12,14,16,-1,-1,-1,18,20,22,24,26,-1,28,30,32,34,36,38,-1,40,42,44,46,-1,48,-1,50,52,54,56,-1,-1,58,60,-1,-1,-1,-1,-1,-1,-1,-1,-1,-1,-1,-1,-1,-1,-1,-1,-1,-1,-1,-1,-1,-1],"split_conditions":[3.713342E1,2.4353333E1,1.6260733E2,2.4026875E1,3.440131E1,3.77729E1,3.3233353E2,2.2924334E1,4.821001E0,4.4976485E-1,-7.9669065E0,2.1161478E1,4.55E0,7.771754E1,1.8449776E2,9.804E0,-9.390165E0,7.996E1,2.13465E1,7.697E1,3.865285E1,6.3717E1,2.85E0,2.8266747E0,8.5E-1,2.6615494E1,-2.320058E1,4.55E0,7.3762405E-1,4.55E0,-5.64827E-2,7.102973E1,4.1E0,3.8322723E1,8.008E1,-1.0622177E-1,2.1648762E0,1.4060643E2,3.05E0,1.5752426E0,-1.270523E-1,-4.2710653E-1,-9.211362E0,5.6757717E0,-5.6130994E-2,6.092392E0,1.3744183E-1,1.5770851E0,3.842518E-1,-9.616485E-1,1.8687574E0,1.7907988E-1,6.5878177E-1,8.9114E-2,-9.623088E0,-6.7101943E-1,1.3000685E0,1.5910162E0,1.0761454E0,3.4425452E-1,1.0152156E0],"split_indices":[0,2,0,2,0,0,0,2,0,0,0,2,3,2,2,2,0,1,2,1,0,2,3,0,3,0,0,3,0,3,0,0,3,0,1,0,0,2,3,0,0,0,0,0,0,0,0,0,0,0,0,0,0,0,0,0,0,0,0,0,0],"split_type":[0,0,0,0,0,0,0,0,0,0,0,0,0,0,0,0,0,0,0,0,0,0,0,0,0,0,0,0,0,0,0,0,0,0,0,0,0,0,0,0,0,0,0,0,0,0,0,0,0,0,0,0,0,0,0,0,0,0,0,0,0],"sum_hessian":[2.4E3,1.387E3,1.013E3,1.385E3,2E0,9.27E2,8.6E1,1.383E3,2E0,1E0,1E0,9E0,9.18E2,7.5E1,1.1E1,1.382E3,1E0,4E0,5E0,8.79E2,3.9E1,5E0,7E1,3E0,8E0,5.28E2,8.54E2,2E0,2E0,3E0,2E0,3E1,8.49E2,2E0,3.7E1,1E0,4E0,4.1E1,2.9E1,7E0,1E0,5.26E2,2E0,1E0,8.53E2,1E0,1E0,1E0,2E0,8E0,2.2E1,7.67E2,8.2E1,1E0,1E0,2.5E1,1.2E1,8E0,3.3E1,2.1E1,8E0],"tree_param":{"num_deleted":"0","num_feature":"4","num_nodes":"61","size_leaf_vector":"1"}},{"base_weights":[1.6751371E-2,-3.6657062E-1,1.1160747E0,-2.4847746E0,-2.3372747E-1,6.750408E-1,2.3615036E0,-3.217025E0,2.504642E0,-1.0540234E1,-2.089606E-1,7.9735285E-1,-3.9577217E0,4.3885124E-1,2.7258427E0,-2.8953621E0,-1.1794575E1,-1.6935965E0,5.5388145E0,-1.688168E1,1.2726163E0,-1.4666304E-1,-3.0394258E0,5.999432E-1,2.5137904E0,-4.3424144E0,4.108429E-2,3.1091373E0,-2.2627814E0,3.0037777E0,2.8358105E-1,-3.2365472E0,2.4233563E0,-5.942131E0,6.34572E-1,-7.389847E-1,-2.3757707E-1,-7.921312E-1,-6.804625E0,-1.9336744E-1,9.399366E0,-9.792724E0,-1.2609859E0,8.561349E-1,-2.5102384E0,3.006915E0,-2.0441628E-1,-4.756236E0,-3.0628968E-2,1.0955702E0,1.34471E0,-7.8630203E-1,-1.7272214E0,4.418657E0,2.6304357E0,1.9073595E0,-1.0108668E0,-8.3566E-1,-4.5260286E0,-1.8566436E-1,7.563539E-2,4.822316E0,-3.8827458E-1,2.5315604E0,-9.4765717E-1,7.316327E-1,1.8636075E-1,-1.3684435E0,2.0424676E-1,1.9591882E0,7.252848E-1,-1.7332588E0,7.8486294E-1,-4.019318E-1,-1.6328642E0,9.384041E-2,4.8133394E-1,-3.6416277E-1,-9.131471E-3,9.515645E-1,2.9578686E0,-7.5967145E-1,8.7959546E-1,2.6080933E-1,1.2202996E0,-6.2037736E-1,5.3776705E-1],"categories":[],"categories_nodes":[],"categories_segments":[],"categories_sizes":[],"default_left":[0,0,0,0,0,0,0,0,0,0,0,0,0,0,0,0,0,0,0,0,0,0,0,0,0,0,0,0,0,0,0,0,0,0,0,0,0,0,0,0,0,0,0,0,0,0,0,0,0,0,0,0,0,0,0,0,0,0,0,0,0,0,0,0,0,0,0,0,0,0,0,0,0,0,0,0,0,0,0,0,0,0,0,0,0,0,0],"id":13,"left_children":[1,3,5,7,9,11,13,15,17,19,21,23,25,27,29,31,33,35,-1,37,-1,39,41,43,45,47,-1,49,51,53,55,57,-1,-1,-1,-1,-1,-1,-1,59,61,-1,63,65,67,69,71,73,-1,75,-1,77,-1,79,81,83,85,-1,-1,-1,-1,-1,-1,-1,-1,-1,-1,-1,-1,-1,-1,-1,-1,-1,-1,-1,-1,-1,-1,-1,-1,-1,-1,-1,-1,-1,-1],"loss_changes":[1.012178E3,5.0057288E2,3.3950647E2,3.9167535E2,4.258684E2,2.638113E2,1.1228436E2,2.1968585E2,9.6920953E2,4.465774E2,2.9473245E2,1.5063162E2,1.9496948E1,2.0181688E2,9.1463745E1,3.6309515E2,3.762551E2,6.377327E0,0E0,1.879242E2,0E0,7.325519E2,1.8541351E3,3.2405737E2,6.2273743E1,1.8816498E1,0E0,3.380049E1,6.770928E1,5.2821533E1,3.3456535E1,4.283011E2,0E0,0E0,0E0,0E0,0E0,0E0,0E0,3.095182E2,5.91845E2,0E0,6.709516E2,1.3754327E2,2.0602011E2,6.519577E1,1.4087256E2,1.6166763E1,0E0,2.2864542E0,0E0,3.5181146E0,0E0,1.3153271E2,1.615476E2,1.2160421E1,3.0377296E1,0E0,0E0,0E0,0E0,0E0,0E0,0E0,0E0,0E0,0E0,0E0,0E0,0E0,0E0,0E0,0E0,0E0,0E0,0E0,0E0,0E0,0E0,0E0,0E0,0E0,0E0,0E0,0E0,0E0,0E0],"parents":[2147483647,0,0,1,1,2,2,3,3,4,4,5,5,6,6,7,7,8,8,9,9,10,10,11,11,12,12,13,13,14,14,15,15,16,16,17,17,19,19,21,21,22,22,23,23,24,24,25,25,27,27,28,28,29,29,30,30,31,31,39,39,40,40,42,42,43,43,44,44,45,45,46,46,47,47,49,49,51,51,53,53,54,54,55,55,56,56],"right_children":[2,4,6,8,10,12,14,16,18,20,22,24,26,28,30,32,34,36,-1,38,-1,40,42,44,46,48,-1,50,52,54,56,58,-1,-1,-1,-1,-1,-1,-1,60,62,-1,64,66,68,70,72,74,-1,76,-1,78,-1,80,82,84,86,-1,-1,-1,-1,-1,-1,-1,-1,-1,-1,-1,-1,-1,-1,-1,-1,-1,-1,-1,-1,-1,-1,-1,-1,-1,-1,-1,-1,-1,-1],"split_conditions":[6.094701E1,-6.280068E1,1.3594632E2,8.063E1,1.55E0,6.457638E1,5.898309E1,3.44175E0,-7.708871E1,4.927482E1,2.681225E1,1.2946136E2,4.1E0,1.4106352E2,4.05E0,2.883E0,7.726E1,2.825E-1,5.5388145E0,-3.3461742E1,1.2726163E0,2.6493856E1,4.9930874E1,5.4607918E1,4.2E0,6.6415E1,4.108429E-2,1.3782277E2,1.4990106E2,6.6415E1,6.6415E1,2.19325E0,2.4233563E0,-5.942131E0,6.34572E-1,-7.389847E-1,-2.3757707E-1,-7.921312E-1,-6.804625E0,1.429E1,5.2200382E1,-9.792724E0,5.251305E1,2.4797153E1,6.028607E1,1.31194E2,6.1366573E1,1.31194E2,-3.0628968E-2,1.3663101E2,1.34471E0,1.478141E2,-1.7272214E0,6.532636E1,1.4106352E2,1.3939116E2,1.478141E2,-8.3566E-1,-4.5260286E0,-1.8566436E-1,7.563539E-2,4.822316E0,-3.8827458E-1,2.5315604E0,-9.4765717E-1,7.316327E-1,1.8636075E-1,-1.3684435E0,2.0424676E-1,1.9591882E0,7.252848E-1,-1.7332588E0,7.8486294E-1,-4.019318E-1,-1.6328642E0,9.384041E-2,4.8133394E-1,-3.6416277E-1,-9.131471E-3,9.515645E-1,2.9578686E0,-7.5967145E-1,8.7959546E-1,2.6080933E-1,1.2202996E0,-6.2037736E-1,5.3776705E-1],"split_indices":[0,0,0,1,3,2,2,2,0,0,2,0,3,0,3,2,1,2,0,0,0,2,0,2,3,2,0,0,0,2,2,2,0,0,0,0,0,0,0,2,0,0,0,2,2,0,2,0,0,0,0,0,0,2,0,0,0,0,0,0,0,0,0,0,0,0,0,0,0,0,0,0,0,0,0,0,0,0,0,0,0,0,0,0,0,0,0],"split_type":[0,0,0,0,0,0,0,0,0,0,0,0,0,0,0,0,0,0,0,0,0,0,0,0,0,0,0,0,0,0,0,0,0,0,0,0,0,0,0,0,0,0,0,0,0,0,0,0,0,0,0,0,0,0,0,0,0,0,0,0,0,0,0,0,0,0,0,0,0,0,0,0,0,0,0,0,0,0,0,0,0,0,0,0,0,0,0],"sum_hessian":[2.4E3,1.78E3,6.2E2,1.04E2,1.676E3,4.59E2,1.61E2,9.1E1,1.3E1,3E0,1.673E3,4.48E2,1.1E1,2.6E1,1.35E2,8.9E1,2E0,1.1E1,2E0,2E0,1E0,1.638E3,3.5E1,4.03E2,4.5E1,1E1,1E0,1.3E1,1.3E1,1.21E2,1.4E1,8.7E1,2E0,1E0,1E0,5E0,6E0,1E0,1E0,1.631E3,7E0,1E0,3.4E1,3.73E2,3E1,3.8E1,7E0,9E0,1E0,6E0,7E0,1E1,3E0,2.3E1,9.8E1,6E0,8E0,8.5E1,2E0,8.34E2,7.97E2,4E0,3E0,5E0,2.9E1,4.7E1,3.26E2,1.8E1,1.2E1,4E0,3.4E1,2E0,5E0,2E0,7E0,3E0,3E0,6E0,4E0,2E1,3E0,5E0,9.3E1,5E0,1E0,6E0,2E0],"tree_param":{"num_deleted":"0","num_feature":"4","num_nodes":"87","size_leaf_vector":"1"}},{"base_weights":[7.90268E-3,-2.2624093E-1,1.018018E0,-1.8524337E-1,-8.161244E0,8.370619E-1,2.8609402E0,-4.6295705E0,-1.4356814E-1,3.4081302E0,-1.6842842E1,1.8531424E0,6.3141954E-1,2.2291234E0,4.1494193E0,-2.1993582E-1,-6.8160596E0,-3.439968E0,-9.8360166E-2,1.1419344E0,3.323822E-2,-1.9367003E-1,3.528007E0,-8.662703E-2,1.1105357E0,2.2787247E0,1.2604295E-1,1.9927644E0,2.5803156E0,-8.2397205E-1,5.106423E-1,-8.86915E0,-2.1679025E0,-8.350675E0,-1.5492226E0,-1.3393499E-1,3.2505918E0,9.824483E-1,-4.5344424E0,1.9789659E0,6.354704E0,1.8771113E0,-5.767881E-1,3.9417732E0,9.4680905E-1,9.5106506E-1,1.9470865E0,9.3084073E-1,-2.3993684E-1,-3.349268E-1,-4.7814183E-2,-1.1736331E0,-3.3182862E0,-8.692083E-1,1.1248971E-1,-5.229973E-1,-3.1934848E0,-6.107851E-1,-2.897713E-1,-9.179049E-3,-3.6668545E-1,1.094186E0,-6.393204E-2,4.6987712E-1,-7.8601915E-1,-1.6643803E0,2.3197633E-1,8.876495E-1,-1.9558842E0,4.9695535E0,1.23702E0,-8.1565924E-2,2.9406252E0,-1.7650235E0,-6.627282E-2,3.1058007E-1,1.4706914E0,-3.0778897E-1,3.4527603E-1,-3.5809633E-1,6.909136E-1],"categories":[],"categories_nodes":[],"categories_segments":[],"categories_sizes":[],"default_left":[0,0,0,0,0,0,0,0,0,0,0,0,0,0,0,0,0,0,0,0,0,0,0,0,0,0,0,0,0,0,0,0,0,0,0,0,0,0,0,0,0,0,0,0,0,0,0,0,0,0,0,0,0,0,0,0,0,0,0,0,0,0,0,0,0,0,0,0,0,0,0,0,0,0,0,0,0,0,0,0,0],"id":14,"left_children":[1,3,5,7,9,11,13,15,17,19,-1,21,23,25,27,29,31,33,35,-1,-1,37,39,41,43,45,-1,-1,47,49,-1,51,53,55,57,59,61,63,65,67,69,71,73,75,77,-1,79,-1,-1,-1,-1,-1,-1,-1,-1,-1,-1,-1,-1,-1,-1,-1,-1,-1,-1,-1,-1,-1,-1,-1,-1,-1,-1,-1,-1,-1,-1,-1,-1,-1,-1],"loss_changes":[5.680958E2,6.32854E2,1.4834183E2,3.5884412E2,5.742509E3,8.5125916E1,2.3313751E1,1.7205005E2,2.8638306E2,1.139875E1,0E0,2.3722447E2,1.1878575E2,1.6447144E0,2.9803879E1,9.529545E0,9.528967E1,2.2847021E2,2.2667917E2,0E0,0E0,1.6782324E2,1.5381375E2,1.3487689E2,9.2222534E1,2.1055908E0,0E0,0E0,1.837613E1,9.88225E-1,0E0,4.3647156E1,1.0360996E1,8.7556E1,3.7118149E0,2.1140259E2,2.8257858E1,5.8786316E1,4.1945114E1,2.3580455E2,2.2786993E2,4.79526E2,2.1021393E2,2.5634506E1,8.050571E1,0E0,2.8462463E1,0E0,0E0,0E0,0E0,0E0,0E0,0E0,0E0,0E0,0E0,0E0,0E0,0E0,0E0,0E0,0E0,0E0,0E0,0E0,0E0,0E0,0E0,0E0,0E0,0E0,0E0,0E0,0E0,0E0,0E0,0E0,0E0,0E0,0E0],"parents":[2147483647,0,0,1,1,2,2,3,3,4,4,5,5,6,6,7,7,8,8,9,9,11,11,12,12,13,13,14,14,15,15,16,16,17,17,18,18,21,21,22,22,23,23,24,24,25,25,28,28,29,29,31,31,32,32,33,33,34,34,35,35,36,36,37,37,38,38,39,39,40,40,41,41,42,42,43,43,44,44,46,46],"right_children":[2,4,6,8,10,12,14,16,18,20,-1,22,24,26,28,30,32,34,36,-1,-1,38,40,42,44,46,-1,-1,48,50,-1,52,54,56,58,60,62,64,66,68,70,72,74,76,78,-1,80,-1,-1,-1,-1,-1,-1,-1,-1,-1,-1,-1,-1,-1,-1,-1,-1,-1,-1,-1,-1,-1,-1,-1,-1,-1,-1,-1,-1,-1,-1,-1,-1,-1,-1],"split_conditions":[8.262004E1,8.199398E1,2.5207631E2,6.426E1,3.05E0,4.2698868E1,3.3233353E2,6.8E-1,-7.7955734E1,4.2698868E1,-1.6842842E1,3.804E1,1.20450905E2,2.85E0,1.8449776E2,-7.431122E1,-5.1632904E1,7.726E1,7.6117004E1,1.1419344E0,3.323822E-2,8.694E1,9.590095E1,9.394188E1,5.1946E1,1.4060643E2,1.2604295E-1,1.9927644E0,8.5E-1,5.746E1,5.106423E-1,5.589E1,-3.2254528E1,7.395E1,2.825E-1,4.55E0,4.2698868E1,9.30576E1,9.444353E1,9.5461266E1,9.687031E1,4.6937943E1,4.423369E1,4.7518745E1,1.2946136E2,9.5106506E-1,8.813E1,9.3084073E-1,-2.3993684E-1,-3.349268E-1,-4.7814183E-2,-1.1736331E0,-3.3182862E0,-8.692083E-1,1.1248971E-1,-5.229973E-1,-3.1934848E0,-6.107851E-1,-2.897713E-1,-9.179049E-3,-3.6668545E-1,1.094186E0,-6.393204E-2,4.6987712E-1,-7.8601915E-1,-1.6643803E0,2.3197633E-1,8.876495E-1,-1.9558842E0,4.9695535E0,1.23702E0,-8.1565924E-2,2.9406252E0,-1.7650235E0,-6.627282E-2,3.1058007E-1,1.4706914E0,-3.0778897E-1,3.4527603E-1,-3.5809633E-1,6.909136E-1],"split_indices":[0,0,0,1,3,2,0,2,0,2,0,2,0,3,2,0,0,1,0,0,0,1,0,0,2,2,0,0,3,1,0,1,0,1,2,3,2,0,0,0,0,2,2,2,0,0,1,0,0,0,0,0,0,0,0,0,0,0,0,0,0,0,0,0,0,0,0,0,0,0,0,0,0,0,0,0,0,0,0,0,0],"split_type":[0,0,0,0,0,0,0,0,0,0,0,0,0,0,0,0,0,0,0,0,0,0,0,0,0,0,0,0,0,0,0,0,0,0,0,0,0,0,0,0,0,0,0,0,0,0,0,0,0,0,0,0,0,0,0,0,0,0,0,0,0,0,0,0,0,0,0,0,0,0,0,0,0,0,0,0,0,0,0,0,0],"sum_hessian":[2.4E3,1.949E3,4.51E2,1.94E3,9E0,4.12E2,3.9E1,1.7E1,1.923E3,8E0,1E0,6.8E1,3.44E2,2.8E1,1.1E1,6E0,1.1E1,2.5E1,1.898E3,7E0,1E0,3.1E1,3.7E1,1.38E2,2.06E2,2.7E1,1E0,3E0,8E0,5E0,1E0,7E0,4E0,6E0,1.9E1,1.879E3,1.9E1,2.5E1,6E0,2.5E1,1.2E1,2.7E1,1.11E2,1E1,1.96E2,5E0,2.2E1,7E0,1E0,3E0,2E0,3E0,4E0,3E0,1E0,2E0,4E0,9E0,1E1,1.717E3,1.62E2,1.7E1,2E0,2.2E1,3E0,5E0,1E0,2.3E1,2E0,1E0,1.1E1,2.2E1,5E0,6E0,1.05E2,3E0,7E0,1.8E1,1.78E2,2E0,2E1],"tree_param":{"num_deleted":"0","num_feature":"4","num_nodes":"81","size_leaf_vector":"1"}},{"base_weights":[-4.7486628E-4,-3.6966908E-1,4.109691E-1,-1.5326183E-1,-1.9787173E0,3.2118156E0,2.46291E-1,-4.1994455E-1,2.3679485E0,-4.377812E0,-9.2612E-2,9.8277783E-1,1.6476845E1,-4.509389E0,3.5465446E-1,-3.0703902E-1,-1.2955979E1,5.9566703E0,-6.5265006E-1,-1.3228699E0,-8.74151E0,3.185997E-1,-1.1438599E1,-3.43724E0,1.425328E0,2.286227E0,4.4096004E1,1.1775608E-1,-2.211609E1,2.1029172E0,2.2008501E-1,-4.4744202E-1,4.597974E0,-2.5515717E1,2.1949534E0,1.9789387E1,4.1181776E-1,1.1142523E1,-1.4835079E0,-5.1262527E0,2.3623934E0,1.1917908E0,-1.2986679E1,6.3307867E0,-3.1845418E-1,-5.7825546E0,6.351849E-1,7.144264E-1,4.4818525E0,1.1624291E1,-1.40392885E1,1.841397E1,1.4292332E0,1.878876E0,-5.0015283E0,-2.9837463E1,1.31541E0,8.536695E-1,2.605366E0,1.9725654E0,1.0326779E-1,-1.00924574E-1,-1.9013537E0,3.2568147E0,-4.648281E-1,-1.0514923E1,-2.2429352E0,1.1873693E0,-7.285235E-1,6.2930894E-1,1.1154422E1,6.024358E-1,-1.3800635E0,-9.7321995E-2,4.5218906E0,-7.672946E-1,4.8689577E-1,-2.6173034E0,-4.167714E-1,2.217041E0,-4.2413924E-2,-1.5004461E0,7.610702E0,-1.1577374E1,-2.8260736E0,5.522737E0,5.926307E-1,-3.7378117E-1,6.5099955E-1,-1.7395952E-1,1.0025002E0,3.546669E0,-1.0587379E-1,-7.378032E-1,4.728011E0,-8.855158E-1,-5.432164E0,3.2839677E0,5.045236E-2,-1.4183183E1,-2.4795299E0,7.0889837E-1,1.2346465E-1,1.7689965E0,5.667634E-1,1.0507888E-1,1.3377062E0,-8.0424374E-1,6.503599E-2],"categories":[],"categories_nodes":[],"categories_segments":[],"categories_sizes":[],"default_left":[0,0,0,0,0,0,0,0,0,0,0,0,0,0,0,0,0,0,0,0,0,0,0,0,0,0,0,0,0,0,0,0,0,0,0,0,0,0,0,0,0,0,0,0,0,0,0,0,0,0,0,0,0,0,0,0,0,0,0,0,0,0,0,0,0,0,0,0,0,0,0,0,0,0,0,0,0,0,0,0,0,0,0,0,0,0,0,0,0,0,0,0,0,0,0,0,0,0,0,0,0,0,0,0,0,0,0,0,0],"id":15,"left_children":[1,3,5,7,9,11,13,15,17,19,21,23,25,27,29,31,33,35,37,39,41,43,45,-1,47,49,51,53,55,57,59,61,63,65,67,69,71,73,75,77,79,81,83,85,87,-1,-1,89,91,93,95,-1,-1,97,-1,99,-1,101,103,105,107,-1,-1,-1,-1,-1,-1,-1,-1,-1,-1,-1,-1,-1,-1,-1,-1,-1,-1,-1,-1,-1,-1,-1,-1,-1,-1,-1,-1,-1,-1,-1,-1,-1,-1,-1,-1,-1,-1,-1,-1,-1,-1,-1,-1,-1,-1,-1,-1],"loss_changes":[3.648704E2,4.405303E2,5.231755E2,7.520242E2,6.7833624E2,1.8466069E3,5.5507654E2,1.426979E3,1.1637771E3,8.682721E2,4.0022058E2,3.191294E2,3.426583E3,1.9578545E3,2.4679839E2,6.928019E2,1.7686316E3,3.7501685E3,5.9473663E2,5.72769E2,1.1540278E3,3.199133E2,3.5950632E2,0E0,1.1413403E2,1.2303376E3,1.7470044E3,6.2269116E2,1.1539407E3,4.485211E1,1.9980762E2,6.361647E2,1.0940056E3,5.978867E2,5.0365074E1,4.229723E3,2.9726337E2,1.8517029E2,1.9101239E2,2.5680212E2,2.6539972E2,1.4745084E3,1.3714844E3,3.8447708E2,1.781115E2,0E0,0E0,1.5495639E2,3.5906213E2,3.2999097E2,8.186279E1,0E0,0E0,2.9288892E2,0E0,1.1141201E3,0E0,1.43755E1,1.1378479E2,2.4449893E2,2.9039496E2,0E0,0E0,0E0,0E0,0E0,0E0,0E0,0E0,0E0,0E0,0E0,0E0,0E0,0E0,0E0,0E0,0E0,0E0,0E0,0E0,0E0,0E0,0E0,0E0,0E0,0E0,0E0,0E0,0E0,0E0,0E0,0E0,0E0,0E0,0E0,0E0,0E0,0E0,0E0,0E0,0E0,0E0,0E0,0E0,0E0,0E0,0E0,0E0],"parents":[2147483647,0,0,1,1,2,2,3,3,4,4,5,5,6,6,7,7,8,8,9,9,10,10,11,11,12,12,13,13,14,14,15,15,16,16,17,17,18,18,19,19,20,20,21,21,22,22,24,24,25,25,26,26,27,27,28,28,29,29,30,30,31,31,32,32,33,33,34,34,35,35,36,36,37,37,38,38,39,39,40,40,41,41,42,42,43,43,44,44,47,47,48,48,49,49,50,50,53,53,55,55,57,57,58,58,59,59,60,60],"right_children":[2,4,6,8,10,12,14,16,18,20,22,24,26,28,30,32,34,36,38,40,42,44,46,-1,48,50,52,54,56,58,60,62,64,66,68,70,72,74,76,78,80,82,84,86,88,-1,-1,90,92,94,96,-1,-1,98,-1,100,-1,102,104,106,108,-1,-1,-1,-1,-1,-1,-1,-1,-1,-1,-1,-1,-1,-1,-1,-1,-1,-1,-1,-1,-1,-1,-1,-1,-1,-1,-1,-1,-1,-1,-1,-1,-1,-1,-1,-1,-1,-1,-1,-1,-1,-1,-1,-1,-1,-1,-1,-1],"split_conditions":[1.7198545E1,1.633145E1,1.7821817E1,1.5115875E1,1.89274E1,4.05E0,2.6615494E1,1.4954667E1,2.14981E1,3.05E0,8.687E1,9.372581E0,2.2206867E1,2.5409834E1,2.5E0,1.429E1,3.05E0,8.027E1,1.5238545E1,1.6615278E1,1.4422588E1,1.9181097E1,4.927482E1,-3.43724E0,8.169E1,1.9863377E1,2.4428099E1,2.0522968E1,1.8434668E1,8.566E1,1.9022858E1,1.4054334E1,1.7599558E1,1.5338269E1,1.7599558E1,1.3553963E1,3.55E0,2.2778728E1,1.5997E1,1.7599558E1,1.6584576E1,1.6615278E1,1.4692185E1,1.6469E1,3.4925262E1,-5.7825546E0,6.351849E-1,1.7628841E1,1.74376E1,1.610187E1,2.108118E1,1.841397E1,1.4292332E0,9.372581E0,-5.0015283E0,7.723E1,1.31541E0,2.5526455E1,8.1415085E1,3.362807E1,1.93411E1,-1.00924574E-1,-1.9013537E0,3.2568147E0,-4.648281E-1,-1.0514923E1,-2.2429352E0,1.1873693E0,-7.285235E-1,6.2930894E-1,1.1154422E1,6.024358E-1,-1.3800635E0,-9.7321995E-2,4.5218906E0,-7.672946E-1,4.8689577E-1,-2.6173034E0,-4.167714E-1,2.217041E0,-4.2413924E-2,-1.5004461E0,7.610702E0,-1.1577374E1,-2.8260736E0,5.522737E0,5.926307E-1,-3.7378117E-1,6.5099955E-1,-1.7395952E-1,1.0025002E0,3.546669E0,-1.0587379E-1,-7.378032E-1,4.728011E0,-8.855158E-1,-5.432164E0,3.2839677E0,5.045236E-2,-1.4183183E1,-2.4795299E0,7.0889837E-1,1.2346465E-1,1.7689965E0,5.667634E-1,1.0507888E-1,1.3377062E0,-8.0424374E-1,6.503599E-2],"split_indices":[2,2,2,2,0,3,0,2,0,3,1,0,0,0,3,2,3,1,2,2,0,0,0,0,1,0,0,2,2,1,2,2,0,0,0,0,3,0,2,0,0,2,0,2,0,0,0,2,2,0,0,0,0,0,0,1,0,2,0,0,2,0,0,0,0,0,0,0,0,0,0,0,0,0,0,0,0,0,0,0,0,0,0,0,0,0,0,0,0,0,0,0,0,0,0,0,0,0,0,0,0,0,0,0,0,0,0,0,0],"split_type":[0,0,0,0,0,0,0,0,0,0,0,0,0,0,0,0,0,0,0,0,0,0,0,0,0,0,0,0,0,0,0,0,0,0,0,0,0,0,0,0,0,0,0,0,0,0,0,0,0,0,0,0,0,0,0,0,0,0,0,0,0,0,0,0,0,0,0,0,0,0,0,0,0,0,0,0,0,0,0,0,0,0,0,0,0,0,0,0,0,0,0,0,0,0,0,0,0,0,0,0,0,0,0,0,0,0,0,0,0],"sum_hessian":[2.4E3,1.265E3,1.135E3,1.116E3,1.49E2,6.2E1,1.073E3,1.01E3,1.06E2,6.5E1,8.4E1,5.4E1,8E0,2.3E1,1.05E3,1.002E3,8E0,4.8E1,5.8E1,3.9E1,2.6E1,8.2E1,2E0,1E0,5.3E1,6E0,2E0,1.9E1,4E0,7.4E1,9.76E2,9.75E2,2.7E1,4E0,4E0,1.3E1,3.5E1,3E0,5.5E1,1.9E1,2E1,8E0,1.8E1,7E0,7.5E1,1E0,1E0,4.4E1,9E0,4E0,2E0,1E0,1E0,1.8E1,1E0,3E0,1E0,2.2E1,5.2E1,6E1,9.16E2,9.58E2,1.7E1,1.3E1,1.4E1,2E0,2E0,3E0,1E0,7E0,6E0,2.7E1,8E0,1E0,2E0,4.1E1,1.4E1,9E0,1E1,6E0,1.4E1,7E0,1E0,1E0,1.7E1,1E0,6E0,5.5E1,2E1,3E1,1.4E1,3E0,6E0,1E0,3E0,1E0,1E0,2E0,1.6E1,1E0,2E0,4E0,1.8E1,8E0,4.4E1,3.7E1,2.3E1,3.5E1,8.81E2],"tree_param":{"num_deleted":"0","num_feature":"4","num_nodes":"109","size_leaf_vector":"1"}},{"base_weights":[5.882857E-5,-1.2858061E-1,7.567829E-1,-1.4273849E-1,2.8780646E0,3.0989206E-1,1.663414E0,-7.585711E-2,-3.3400915E0,6.8994064E0,2.2371851E-1,3.1062315E0,9.110335E-1,-1.1787506E-1,3.5592535E0,-1.7117882E0,-1.2824614E1,-1.1096318E0,4.214365E0,-1.0584E0,6.947697E-1,-9.158542E-1,5.6581955E0,-1.2732407E-1,1.5069792E0,-3.7070704E-1,3.337757E-1,4.197699E0,-5.227871E-1,-4.2322316E0,3.8918219E0,-2.510622E0,-6.69052E0,-6.988962E-1,-1.5266594E0,1.6983908E0,3.5484344E-1,-1.4478329E1,1.4434495E0,-6.419279E0,7.689229E0,-4.074637E-1,1.0144552E0,1.1194144E0,2.6086857E0,-7.689737E-2,-1.9757847E0,-2.033669E0,1.4260504E-1,1.0189716E0,2.281569E0,2.7048877E-1,-7.194054E-1,-8.4885633E-1,-2.1103923E0,1.9233325E0,-8.248584E-1,4.6758214E-1,-1.3159703E0,-7.5439394E-1,-2.343455E-2,7.072629E-1,1.3161765E-1,-1.7152116E-1,2.3331246E-1,-1.6691855E0,-7.5203757E0,2.2195108E0,-4.0473857E0,4.090805E0,8.9422303E-1,1.0609875E-1,-2.225017E-1,-1.520462E-1,4.2602235E-1,5.4967076E-1,2.5050408E-1,1.4168679E0,4.137553E-1],"categories":[],"categories_nodes":[],"categories_segments":[],"categories_sizes":[],"default_left":[0,0,0,0,0,0,0,0,0,0,0,0,0,0,0,0,0,0,0,0,0,0,0,0,0,0,0,0,0,0,0,0,0,0,0,0,0,0,0,0,0,0,0,0,0,0,0,0,0,0,0,0,0,0,0,0,0,0,0,0,0,0,0,0,0,0,0,0,0,0,0,0,0,0,0,0,0,0,0],"id":16,"left_children":[1,3,5,7,-1,9,11,13,15,17,19,21,23,25,27,29,31,-1,-1,33,35,37,39,41,43,45,47,49,51,53,55,57,-1,59,-1,61,63,65,-1,67,69,71,73,75,77,-1,-1,-1,-1,-1,-1,-1,-1,-1,-1,-1,-1,-1,-1,-1,-1,-1,-1,-1,-1,-1,-1,-1,-1,-1,-1,-1,-1,-1,-1,-1,-1,-1,-1],"loss_changes":[2.3382158E2,2.8395398E2,1.4088716E2,4.383394E2,0E0,1.3189929E2,1.2200812E2,3.0742676E2,6.266815E2,2.7924237E2,1.4145416E2,4.0548657E2,4.7839836E1,2.2713695E2,6.213617E1,5.3904364E2,5.304902E2,0E0,0E0,8.772834E1,5.7735207E1,1.3124956E3,6.380735E2,9.689224E0,1.8001945E1,9.0472815E2,7.222004E2,2.8765625E1,1.284656E1,8.230057E1,2.1840508E2,3.7371544E1,0E0,6.630739E1,0E0,3.466906E1,5.0989197E1,3.3252124E2,0E0,4.906874E2,5.4736206E2,6.367299E0,4.4220767E0,6.173683E0,2.4679314E1,0E0,0E0,0E0,0E0,0E0,0E0,0E0,0E0,0E0,0E0,0E0,0E0,0E0,0E0,0E0,0E0,0E0,0E0,0E0,0E0,0E0,0E0,0E0,0E0,0E0,0E0,0E0,0E0,0E0,0E0,0E0,0E0,0E0,0E0],"parents":[2147483647,0,0,1,1,2,2,3,3,5,5,6,6,7,7,8,8,9,9,10,10,11,11,12,12,13,13,14,14,15,15,16,16,19,19,20,20,21,21,22,22,23,23,24,24,25,25,26,26,27,27,28,28,29,29,30,30,31,31,33,33,35,35,36,36,37,37,39,39,40,40,41,41,42,42,43,43,44,44],"right_children":[2,4,6,8,-1,10,12,14,16,18,20,22,24,26,28,30,32,-1,-1,34,36,38,40,42,44,46,48,50,52,54,56,58,-1,60,-1,62,64,66,-1,68,70,72,74,76,78,-1,-1,-1,-1,-1,-1,-1,-1,-1,-1,-1,-1,-1,-1,-1,-1,-1,-1,-1,-1,-1,-1,-1,-1,-1,-1,-1,-1,-1,-1,-1,-1,-1,-1],"split_conditions":[9.5461266E1,4.724206E1,8.673E1,8.694E1,2.8780646E0,9.687031E1,1.7824333E2,9.103886E1,9.484503E1,9.590095E1,1.19122444E2,4.4791515E1,2.5067563E2,8.112E1,4.05E0,4.6937943E1,4.6937943E1,-1.1096318E0,4.214365E0,5.7133556E1,7.763E1,9.687031E1,2.85E0,3.05E0,3.3233353E2,8.111E1,-4.6921646E1,9.444353E1,5.4E0,4.5676228E1,9.444353E1,4.135119E1,-6.69052E0,3.15E0,-1.5266594E0,4.2E0,6.028607E1,9.590095E1,1.4434495E0,9.590095E1,4.698994E1,1.8981381E2,8.978319E1,1.4060643E2,1.8449776E2,-7.689737E-2,-1.9757847E0,-2.033669E0,1.4260504E-1,1.0189716E0,2.281569E0,2.7048877E-1,-7.194054E-1,-8.4885633E-1,-2.1103923E0,1.9233325E0,-8.248584E-1,4.6758214E-1,-1.3159703E0,-7.5439394E-1,-2.343455E-2,7.072629E-1,1.3161765E-1,-1.7152116E-1,2.3331246E-1,-1.6691855E0,-7.5203757E0,2.2195108E0,-4.0473857E0,4.090805E0,8.9422303E-1,1.0609875E-1,-2.225017E-1,-1.520462E-1,4.2602235E-1,5.4967076E-1,2.5050408E-1,1.4168679E0,4.137553E-1],"split_indices":[0,2,1,1,0,0,0,0,0,0,0,2,0,1,3,2,2,0,0,2,1,0,3,3,0,1,0,0,3,2,0,2,0,3,0,3,2,0,0,0,2,0,2,2,2,0,0,0,0,0,0,0,0,0,0,0,0,0,0,0,0,0,0,0,0,0,0,0,0,0,0,0,0,0,0,0,0,0,0],"split_type":[0,0,0,0,0,0,0,0,0,0,0,0,0,0,0,0,0,0,0,0,0,0,0,0,0,0,0,0,0,0,0,0,0,0,0,0,0,0,0,0,0,0,0,0,0,0,0,0,0,0,0,0,0,0,0,0,0,0,0,0,0,0,0,0,0,0,0,0,0,0,0,0,0,0,0,0,0,0,0],"sum_hessian":[2.4E3,2.052E3,3.48E2,2.05E3,2E0,2.34E2,1.14E2,2.009E3,4.1E1,2E0,2.32E2,3.8E1,7.6E1,1.987E3,2.2E1,3.6E1,5E0,1E0,1E0,6.2E1,1.7E2,1.5E1,2.3E1,2.8E1,4.8E1,1.274E3,7.13E2,1.9E1,3E0,2.5E1,1.1E1,3E0,2E0,5.8E1,4E0,4.2E1,1.28E2,4E0,1.1E1,3E0,2E1,2.3E1,5E0,3.7E1,1.1E1,1.252E3,2.2E1,1.3E1,7E2,1.7E1,2E0,2E0,1E0,1.8E1,7E0,8E0,3E0,1E0,2E0,1.4E1,4.4E1,2.7E1,1.5E1,4E1,8.8E1,3E0,1E0,1E0,2E0,8E0,1.2E1,7E0,1.6E1,1E0,4E0,9E0,2.8E1,3E0,8E0],"tree_param":{"num_deleted":"0","num_feature":"4","num_nodes":"79","size_leaf_vector":"1"}},{"base_weights":[-3.1717457E-3,-3.3572445E0,2.215396E-2,1.6733442E-2,-5.045628E0,1.1799496E0,-4.896218E-2,-4.9238715E-1,4.6071854E-1,-6.614306E0,-1.5266174E0,-9.024186E-1,2.100386E0,-3.2813308E0,1.5590084E-2,-7.318611E-1,-8.959453E-3,-2.8985224E0,-8.264071E0,-2.1120877E0,1.2228957E-1,-2.7985891E-2,-7.54251E0,2.843075E0,-3.335361E0,-1.3648987E1,3.1305075E0,-2.0506682E-2,1.5895049E1,-2.822983E-1,-1.566925E-2,-2.5808716E-2,2.1776963E-2,-4.161644E-2,-1.1316648E0,-7.181603E-1,-2.7399468E0,-1.9087373E-1,-7.17586E-1,-8.65103E-1,1.7127947E0,-2.500278E0,-6.563267E-1,7.557296E0,2.2551394E0,-1.7621729E1,1.2840853E0,-6.235869E0,-1.0854795E1,1.1280547E1,-1.3237505E0,2.388148E0,-9.7284935E-2,8.733736E0,-2.6207054E0,-1.0128232E-1,-3.6199665E-1,3.1408572E-1,1.4554353E0,7.470591E-1,3.333881E0,1.7985746E-1,1.1082681E0,-7.31418E0,-6.155983E-1,1.0443832E0,-1.5009366E0,-4.899709E0,4.5612884E0,1.5581044E0,7.1256022E0,-1.4149699E0,4.717592E-1,-2.0001187E0,1.3342816E0,3.2843938E-3,-5.378213E-1,-1.3048062E0,1.2548876E-1],"categories":[],"categories_nodes":[],"categories_segments":[],"categories_sizes":[],"default_left":[0,0,0,0,0,0,0,0,0,0,0,0,0,0,0,0,0,0,0,0,0,0,0,0,0,0,0,0,0,0,0,0,0,0,0,0,0,0,0,0,0,0,0,0,0,0,0,0,0,0,0,0,0,0,0,0,0,0,0,0,0,0,0,0,0,0,0,0,0,0,0,0,0,0,0,0,0,0,0],"id":17,"left_children":[1,3,5,7,9,11,13,15,-1,17,19,21,23,25,27,29,31,33,35,37,-1,39,41,43,45,47,49,51,53,-1,-1,-1,-1,-1,-1,-1,-1,-1,-1,55,57,-1,-1,59,61,63,65,67,-1,69,71,73,75,-1,77,-1,-1,-1,-1,-1,-1,-1,-1,-1,-1,-1,-1,-1,-1,-1,-1,-1,-1,-1,-1,-1,-1,-1,-1],"loss_changes":[2.0402553E2,1.02622665E2,1.9635147E2,6.169634E0,5.6144806E1,2.6639832E2,4.6890277E2,6.88053E-1,0E0,2.50878E1,6.523182E0,2.4946042E2,3.970414E2,2.9676604E3,1.2636525E3,5.193839E-1,2.509976E-2,9.121586E0,3.6449585E0,1.3027954E-1,0E0,5.8313995E1,2.9647827E0,2.1854828E2,8.145691E2,2.6141294E3,1.0313992E3,4.0708344E2,1.299946E3,0E0,0E0,0E0,0E0,0E0,0E0,0E0,0E0,0E0,0E0,4.457142E0,2.208881E1,0E0,0E0,1.3447766E2,1.8124338E2,2.656726E2,1.5555925E2,3.2789087E3,0E0,6.357606E2,1.9412135E2,1.297772E3,3.9143323E2,0E0,1.7579409E1,0E0,0E0,0E0,0E0,0E0,0E0,0E0,0E0,0E0,0E0,0E0,0E0,0E0,0E0,0E0,0E0,0E0,0E0,0E0,0E0,0E0,0E0,0E0,0E0],"parents":[2147483647,0,0,1,1,2,2,3,3,4,4,5,5,6,6,7,7,9,9,10,10,11,11,12,12,13,13,14,14,15,15,16,16,17,17,18,18,19,19,21,21,22,22,23,23,24,24,25,25,26,26,27,27,28,28,39,39,40,40,43,43,44,44,45,45,46,46,47,47,49,49,50,50,51,51,52,52,54,54],"right_children":[2,4,6,8,10,12,14,16,-1,18,20,22,24,26,28,30,32,34,36,38,-1,40,42,44,46,48,50,52,54,-1,-1,-1,-1,-1,-1,-1,-1,-1,-1,56,58,-1,-1,60,62,64,66,68,-1,70,72,74,76,-1,78,-1,-1,-1,-1,-1,-1,-1,-1,-1,-1,-1,-1,-1,-1,-1,-1,-1,-1,-1,-1,-1,-1,-1,-1],"split_conditions":[6.426E1,6.8E-1,7.326E1,-7.431122E1,-5.1632904E1,1.4456667E0,7.512E1,5.746E1,4.6071854E-1,5.589E1,-3.2254528E1,1.126E0,5.2E0,1.2475333E1,6.15E0,9.39225E3,-8.2988174E1,1.930125E0,-7.431122E1,-4.9153736E1,1.2228957E-1,-7.33685E1,-6.280068E1,2.401077E0,5.3E0,1.1737389E1,5.2423425E0,7.664E1,-1.0635585E1,-2.822983E-1,-1.566925E-2,-2.5808716E-2,2.1776963E-2,-4.161644E-2,-1.1316648E0,-7.181603E-1,-2.7399468E0,-1.9087373E-1,-7.17586E-1,6.0982144E-1,-1.6025282E1,-2.500278E0,-6.563267E-1,-5.9606735E1,4.05E0,-1.7143429E1,1.4981E3,1.0459333E1,-1.0854795E1,7.508E1,1.9863377E1,-3.1296627E1,4.55E0,8.733736E0,-4.2337546E0,-1.0128232E-1,-3.6199665E-1,3.1408572E-1,1.4554353E0,7.470591E-1,3.333881E0,1.7985746E-1,1.1082681E0,-7.31418E0,-6.155983E-1,1.0443832E0,-1.5009366E0,-4.899709E0,4.5612884E0,1.5581044E0,7.1256022E0,-1.4149699E0,4.717592E-1,-2.0001187E0,1.3342816E0,3.2843938E-3,-5.378213E-1,-1.3048062E0,1.2548876E-1],"split_indices":[1,2,1,0,0,2,1,1,0,1,0,2,3,2,3,3,0,2,0,0,0,0,0,2,3,2,0,1,0,0,0,0,0,0,0,0,0,0,0,2,0,0,0,0,3,0,3,2,0,1,0,0,3,0,0,0,0,0,0,0,0,0,0,0,0,0,0,0,0,0,0,0,0,0,0,0,0,0,0],"split_type":[0,0,0,0,0,0,0,0,0,0,0,0,0,0,0,0,0,0,0,0,0,0,0,0,0,0,0,0,0,0,0,0,0,0,0,0,0,0,0,0,0,0,0,0,0,0,0,0,0,0,0,0,0,0,0,0,0,0,0,0,0,0,0,0,0,0,0,0,0,0,0,0,0,0,0,0,0,0,0],"sum_hessian":[2.4E3,1.7E1,2.383E3,6E0,1.1E1,1.37E2,2.246E3,5E0,1E0,7E0,4E0,4.2E1,9.5E1,4.3E1,2.203E3,3E0,2E0,3E0,4E0,3E0,1E0,3.8E1,4E0,8.4E1,1.1E1,1.6E1,2.7E1,2.199E3,4E0,2E0,1E0,1E0,1E0,1E0,2E0,1E0,3E0,1E0,2E0,2.6E1,1.2E1,3E0,1E0,8E0,7.6E1,2E0,9E0,1.3E1,3E0,9E0,1.8E1,6.7E1,2.132E3,2E0,2E0,1.1E1,1.5E1,1.1E1,1E0,4E0,4E0,3.6E1,4E1,1E0,1E0,7E0,2E0,9E0,4E0,7E0,2E0,8E0,1E1,1.2E1,5.5E1,2.005E3,1.27E2,1E0,1E0],"tree_param":{"num_deleted":"0","num_feature":"4","num_nodes":"79","size_leaf_vector":"1"}},{"base_weights":[-5.2288673E-3,-1.6109248E0,2.7514819E-2,-9.710415E-1,-3.2656486E0,4.4860214E-2,-3.6711323E0,-1.6578472E0,1.1130619E0,3.1419106E-2,7.900054E0,-2.3126411E0,-1.9568686E0,-3.242986E0,-1.0680658E0,-1.315389E0,1.730291E0,4.7002822E-2,-5.465172E0,4.241756E0,3.321844E-1,-8.474526E-1,-3.4662628E-1,-2.6881127E0,-3.2939258E-1,-7.3558164E-1,-4.9539086E-1,1.8510818E-2,-6.104359E-1,5.7906216E-1,8.297123E-1,2.9241167E-2,6.2387276E0,2.5094606E-2,-1.8107644E-1,-1.7701723E-2,-2.9275703E-1,-3.204998E-1,-9.878174E-2,2.611725E-1,-7.9269416E-4,-1.4374422E0,1.1865413E-2],"categories":[],"categories_nodes":[],"categories_segments":[],"categories_sizes":[],"default_left":[0,0,0,0,0,0,0,0,0,0,0,0,0,0,0,0,0,0,0,0,0,0,0,0,0,0,0,0,0,0,0,0,0,0,0,0,0,0,0,0,0,0,0],"id":18,"left_children":[1,3,5,7,-1,9,11,13,15,17,19,21,-1,23,25,27,29,31,-1,-1,-1,-1,33,-1,35,37,-1,-1,-1,39,-1,41,-1,-1,-1,-1,-1,-1,-1,-1,-1,-1,-1],"loss_changes":[1.2628028E2,2.7429266E2,1.5118437E2,6.76885E1,0E0,2.472372E2,2.7529938E1,2.9257263E1,2.0262932E1,6.6659436E2,1.5386797E2,8.083782E0,0E0,1.4697186E2,4.0210896E0,3.0975795E0,1.03185005E1,8.617573E2,0E0,0E0,0E0,0E0,3.821821E-1,0E0,1.1659868E0,2.2170238E0,0E0,0E0,0E0,1.0197463E0,0E0,1.1644381E2,0E0,0E0,0E0,0E0,0E0,0E0,0E0,0E0,0E0,0E0,0E0],"parents":[2147483647,0,0,1,1,2,2,3,3,5,5,6,6,7,7,8,8,9,9,10,10,11,11,13,13,14,14,15,15,16,16,17,17,22,22,24,24,25,25,29,29,31,31],"right_children":[2,4,6,8,-1,10,12,14,16,18,20,22,-1,24,26,28,30,32,-1,-1,-1,-1,34,-1,36,38,-1,-1,-1,40,-1,42,-1,-1,-1,-1,-1,-1,-1,-1,-1,-1,-1],"split_conditions":[-7.431122E1,2.19325E0,8.4E0,4.7033334E-1,-3.2656486E0,6.75E0,6.936E1,1.81E-1,5.955E1,6.35E0,1.81E-1,-3.965284E1,-1.9568686E0,3.15E0,4.1128573E-1,5.757E1,4.05E0,6.15E0,-5.465172E0,4.241756E0,3.321844E-1,-8.474526E-1,6.927E1,-2.6881127E0,7.395E1,2.825E-1,-4.9539086E-1,1.8510818E-2,-6.104359E-1,3.05E0,8.297123E-1,6.426E1,6.2387276E0,2.5094606E-2,-1.8107644E-1,-1.7701723E-2,-2.9275703E-1,-3.204998E-1,-9.878174E-2,2.611725E-1,-7.9269416E-4,-1.4374422E0,1.1865413E-2],"split_indices":[0,2,3,2,0,3,1,2,1,3,2,0,0,3,2,1,3,3,0,0,0,0,1,0,1,2,0,0,0,3,0,1,0,0,0,0,0,0,0,0,0,0,0],"split_type":[0,0,0,0,0,0,0,0,0,0,0,0,0,0,0,0,0,0,0,0,0,0,0,0,0,0,0,0,0,0,0,0,0,0,0,0,0,0,0,0,0,0,0],"sum_hessian":[2.4E3,4.7E1,2.353E3,4.5E1,2E0,2.343E3,1E1,3.4E1,1.1E1,2.34E3,3E0,8E0,2E0,8E0,2.6E1,2E0,9E0,2.339E3,1E0,1E0,2E0,6E0,2E0,2E0,6E0,1.8E1,8E0,1E0,1E0,5E0,4E0,2.338E3,1E0,1E0,1E0,5E0,1E0,9E0,9E0,3E0,2E0,4E0,2.334E3],"tree_param":{"num_deleted":"0","num_feature":"4","num_nodes":"43","size_leaf_vector":"1"}},{"base_weights":[-6.041976E-3,-6.62383E-2,8.318835E-1,-2.8868622E-1,1.2662975E-1,4.150283E0,6.080948E-1,-5.657995E-1,2.4611254E-1,-3.8714358E-1,1.0257372E0,2.5719936E0,2.7532334E0,-5.222693E-1,1.0588098E0,-3.6712205E-1,-1.5469963E1,5.0570292E0,3.43878E-2,3.6559656E-2,-2.7580054E0,-5.43062E0,1.2364997E0,-3.9401817E-1,4.120669E0,1.4708492E0,-2.406023E0,4.9770846E0,6.991733E-1,-4.8169044E-1,4.5450363E0,-9.343143E0,-6.5426054E0,2.438884E0,1.3523169E0,8.847714E-1,-3.2566828E-1,1.3274375E0,-6.4996964E-1,-1.5667857E1,-2.0353286E0,-3.0889316E0,-2.411415E0,1.3831781E1,9.918983E-1,-3.1877673E-1,2.4175416E-1,5.244403E0,-2.2470017E-1,2.029214E0,-8.334335E-1,4.4199044E-1,-1.0311612E0,3.4635317E0,2.712944E0,5.226642E-1,1.9647268E0,-1.2620308E-1,-4.1964464E0,4.8439884E-1,-8.322932E0,7.864503E-1,1.9951858E-2,8.260741E-2,6.6277754E-1,-4.5084736E-1,7.0855334E-2,1.4173798E-1,3.0330255E0,-6.9797244E0,-1.4684744E-2,-7.1616993E0,1.482174E-1,-2.89765E-1,-1.5980155E0,-1.8146309E0,1.4541001E0,7.3723817E-1,9.590949E0,1.1210645E0,2.0479195E-1,1.753893E0,4.2551652E-1,8.605062E-1,3.2131988E-1,-6.116484E-1,5.982216E-1,-1.22973636E-1,1.9568788E-1,1.1198108E0,2.2800294E-1,2.197866E-1,-6.0625132E-2,1.0946594E0,2.993754E-1],"categories":[],"categories_nodes":[],"categories_segments":[],"categories_sizes":[],"default_left":[0,0,0,0,0,0,0,0,0,0,0,0,0,0,0,0,0,0,0,0,0,0,0,0,0,0,0,0,0,0,0,0,0,0,0,0,0,0,0,0,0,0,0,0,0,0,0,0,0,0,0,0,0,0,0,0,0,0,0,0,0,0,0,0,0,0,0,0,0,0,0,0,0,0,0,0,0,0,0,0,0,0,0,0,0,0,0,0,0,0,0,0,0,0,0],"id":19,"left_children":[1,3,5,7,9,11,13,15,17,19,21,23,-1,25,27,29,31,33,35,37,39,41,43,45,47,49,51,53,55,57,-1,-1,59,-1,61,63,65,67,69,71,73,75,-1,77,79,-1,-1,81,-1,83,85,87,-1,-1,89,91,93,-1,-1,-1,-1,-1,-1,-1,-1,-1,-1,-1,-1,-1,-1,-1,-1,-1,-1,-1,-1,-1,-1,-1,-1,-1,-1,-1,-1,-1,-1,-1,-1,-1,-1,-1,-1,-1,-1],"loss_changes":[1.2116162E2,9.6182396E1,1.170381E2,1.5441525E2,5.5518396E2,5.573883E1,7.799274E1,2.0256493E3,3.6244415E2,7.6857526E2,6.0136597E2,4.2964123E1,0E0,1.6873885E2,1.5011801E2,1.212636E3,1.0555728E3,1.5975177E2,1.05003685E2,5.769094E2,1.0503503E3,6.065204E1,1.2925491E3,4.0650644E0,3.676136E1,2.9997074E1,6.906601E1,1.02517075E2,2.1534649E1,5.495433E2,0E0,0E0,1.255363E3,0E0,1.2881098E1,8.1721985E1,1.5974954E2,1.6922498E3,5.775693E3,8.0739404E2,3.8557074E2,2.4071999E2,0E0,1.5718993E3,3.5144434E2,0E0,0E0,3.222168E0,0E0,1.1400169E1,2.1106867E1,1.521483E0,0E0,0E0,1.30952835E1,1.3843033E1,1.5897606E1,0E0,0E0,0E0,0E0,0E0,0E0,0E0,0E0,0E0,0E0,0E0,0E0,0E0,0E0,0E0,0E0,0E0,0E0,0E0,0E0,0E0,0E0,0E0,0E0,0E0,0E0,0E0,0E0,0E0,0E0,0E0,0E0,0E0,0E0,0E0,0E0,0E0,0E0],"parents":[2147483647,0,0,1,1,2,2,3,3,4,4,5,5,6,6,7,7,8,8,9,9,10,10,11,11,13,13,14,14,15,15,16,16,17,17,18,18,19,19,20,20,21,21,22,22,23,23,24,24,25,25,26,26,27,27,28,28,29,29,32,32,34,34,35,35,36,36,37,37,38,38,39,39,40,40,41,41,43,43,44,44,47,47,49,49,50,50,51,51,54,54,55,55,56,56],"right_children":[2,4,6,8,10,12,14,16,18,20,22,24,-1,26,28,30,32,34,36,38,40,42,44,46,48,50,52,54,56,58,-1,-1,60,-1,62,64,66,68,70,72,74,76,-1,78,80,-1,-1,82,-1,84,86,88,-1,-1,90,92,94,-1,-1,-1,-1,-1,-1,-1,-1,-1,-1,-1,-1,-1,-1,-1,-1,-1,-1,-1,-1,-1,-1,-1,-1,-1,-1,-1,-1,-1,-1,-1,-1,-1,-1,-1,-1,-1,-1],"split_conditions":[6.1366573E1,3.25E0,6.188273E1,4.9930874E1,7.983E1,1.4106352E2,1.4106352E2,2.50285E1,7.827E1,7.887E1,-2.4146002E1,4.05E0,2.7532334E0,7.962E1,1.4203473E2,2.4026875E1,2.6049726E1,5.3886272E1,2.5917072E1,-2.1115334E1,-2.9608147E1,8.524E1,-1.3754526E1,1.2946136E2,1.3663101E2,4.1E0,6.457638E1,3.55E0,3.3233353E2,2.3841333E1,4.5450363E0,-9.343143E0,4.7006077E1,2.438884E0,5.4859043E1,5.4170948E1,8.37E1,-2.5959051E1,-1.7143429E1,4.05E0,4.05E0,8.077E1,-2.411415E0,-1.6025282E1,-3.7917285E0,-3.1877673E-1,2.4175416E-1,1.3420528E2,-2.2470017E-1,1.3312714E2,5.2E0,6.27837E1,-1.0311612E0,3.4635317E0,4.05E0,3.5E0,1.8449776E2,-1.2620308E-1,-4.1964464E0,4.8439884E-1,-8.322932E0,7.864503E-1,1.9951858E-2,8.260741E-2,6.6277754E-1,-4.5084736E-1,7.0855334E-2,1.4173798E-1,3.0330255E0,-6.9797244E0,-1.4684744E-2,-7.1616993E0,1.482174E-1,-2.89765E-1,-1.5980155E0,-1.8146309E0,1.4541001E0,7.3723817E-1,9.590949E0,1.1210645E0,2.0479195E-1,1.753893E0,4.2551652E-1,8.605062E-1,3.2131988E-1,-6.116484E-1,5.982216E-1,-1.22973636E-1,1.9568788E-1,1.1198108E0,2.2800294E-1,2.197866E-1,-6.0625132E-2,1.0946594E0,2.993754E-1],"split_indices":[2,3,2,0,1,0,0,2,1,1,0,3,0,1,0,2,2,0,2,0,0,1,0,0,0,3,2,3,0,2,0,0,0,0,0,0,1,0,0,3,3,1,0,0,0,0,0,0,0,0,3,2,0,0,3,3,2,0,0,0,0,0,0,0,0,0,0,0,0,0,0,0,0,0,0,0,0,0,0,0,0,0,0,0,0,0,0,0,0,0,0,0,0,0,0],"split_type":[0,0,0,0,0,0,0,0,0,0,0,0,0,0,0,0,0,0,0,0,0,0,0,0,0,0,0,0,0,0,0,0,0,0,0,0,0,0,0,0,0,0,0,0,0,0,0,0,0,0,0,0,0,0,0,0,0,0,0,0,0,0,0,0,0,0,0,0,0,0,0,0,0,0,0,0,0,0,0,0,0,0,0,0,0,0,0,0,0,0,0,0,0,0,0],"sum_hessian":[2.4E3,2.24E3,1.6E2,1.04E3,1.2E3,9E0,1.51E2,6.85E2,3.55E2,7.64E2,4.36E2,8E0,1E0,4.3E1,1.08E2,6.77E2,8E0,1.4E1,3.41E2,6.49E2,1.15E2,1.3E1,4.23E2,3E0,5E0,2.1E1,2.2E1,8E0,1E2,6.73E2,4E0,2E0,6E0,7E0,7E0,1.01E2,2.4E2,2.25E2,4.24E2,5E0,1.1E2,8E0,5E0,7E0,4.16E2,2E0,1E0,4E0,1E0,1.7E1,4E0,6E0,1.6E1,1E0,7E0,8.9E1,1.1E1,6.71E2,2E0,5E0,1E0,3E0,4E0,7E1,3.1E1,7.7E1,1.63E2,2.06E2,1.9E1,1E1,4.14E2,3E0,2E0,8.4E1,2.6E1,6E0,2E0,5E0,2E0,4.1E1,3.75E2,3E0,1E0,8E0,9E0,3E0,1E0,1E0,5E0,4E0,3E0,6.9E1,2E1,3E0,8E0],"tree_param":{"num_deleted":"0","num_feature":"4","num_nodes":"95","size_leaf_vector":"1"}},{"base_weights":[-6.720884E-3,-4.0246558E-1,1.0970332E-1,4.5768995E-2,-3.014004E0,1.944315E1,5.744795E-2,-2.2257134E-1,6.384666E0,8.8703996E-1,-6.067861E0,2.9916127E0,8.824092E0,-3.0682898E0,1.0016458E-1,1.9385688E-1,-1.1526909E0,2.1216033E0,2.84138E1,1.687725E0,-3.3976727E0,-1.0098878E1,-2.554613E0,1.285488E0,6.0737804E-2,3.4481947E0,-4.153967E0,4.4681826E0,2.4798216E-2,-2.9514962E-1,1.4942468E1,-1.1019493E1,-9.777541E-2,-4.0178924E0,5.835682E0,1.1168184E0,1.1669392E1,-3.172142E0,3.2373588E0,8.4558725E-1,-5.1718736E0,1.214569E0,-8.519871E0,-1.1182821E1,-2.1890552E0,4.331965E-1,1.6014618E1,-7.5896087E0,1.10387504E-1,-4.0999874E-2,-4.813532E0,8.51559E-1,7.9436097E0,2.871E-1,-6.9332223E0,-1.517799E-1,-2.5595584E0,2.1057835E0,1.01900674E-1,1.0680628E0,-7.5447903E0,3.3602593E0,1.6565411E-1,-6.7082673E-1,7.084713E-1,-8.19712E0,-1.1645728E0,3.6634752E-1,-5.9577584E0,3.2614522E0,-1.2732604E0,-3.4014764E0,7.964248E-1,1.3600278E1,1.6049327E0,-7.4714713E0,-4.72551E-2,9.066005E-1,2.6266186E-3],"categories":[],"categories_nodes":[],"categories_segments":[],"categories_sizes":[],"default_left":[0,0,0,0,0,0,0,0,0,0,0,0,0,0,0,0,0,0,0,0,0,0,0,0,0,0,0,0,0,0,0,0,0,0,0,0,0,0,0,0,0,0,0,0,0,0,0,0,0,0,0,0,0,0,0,0,0,0,0,0,0,0,0,0,0,0,0,0,0,0,0,0,0,0,0,0,0,0,0],"id":20,"left_children":[1,3,5,7,9,11,13,15,17,19,21,23,-1,25,27,29,31,33,35,37,39,-1,41,-1,-1,-1,43,45,47,49,51,-1,53,55,57,-1,-1,59,61,-1,-1,63,65,67,69,71,73,75,77,-1,-1,-1,-1,-1,-1,-1,-1,-1,-1,-1,-1,-1,-1,-1,-1,-1,-1,-1,-1,-1,-1,-1,-1,-1,-1,-1,-1,-1,-1],"loss_changes":[1.1066845E2,6.3927563E2,1.8739558E3,7.9577954E2,9.58441E2,7.321548E2,2.475882E2,1.7413373E2,1.7240372E3,1.2923972E2,4.2766777E3,9.954496E0,0E0,4.4299384E2,6.016698E2,2.2473938E3,5.213466E3,4.1109085E2,6.317898E2,2.437308E2,5.6486426E2,0E0,9.3219775E2,0E0,0E0,0E0,3.0698608E2,1.4373435E3,1.1726154E3,7.5163116E2,1.3211777E3,0E0,3.3233137E3,1.06653564E2,6.917139E1,0E0,0E0,1.2732002E3,5.0701746E2,0E0,0E0,1.0818637E2,1.2893169E3,5.623589E2,5.8296814E2,6.5772174E2,2.258987E3,2.5698542E3,5.2640356E2,0E0,0E0,0E0,0E0,0E0,0E0,0E0,0E0,0E0,0E0,0E0,0E0,0E0,0E0,0E0,0E0,0E0,0E0,0E0,0E0,0E0,0E0,0E0,0E0,0E0,0E0,0E0,0E0,0E0,0E0],"parents":[2147483647,0,0,1,1,2,2,3,3,4,4,5,5,6,6,7,7,8,8,9,9,10,10,11,11,13,13,14,14,15,15,16,16,17,17,18,18,19,19,20,20,22,22,26,26,27,27,28,28,29,29,30,30,32,32,33,33,34,34,37,37,38,38,41,41,42,42,43,43,44,44,45,45,46,46,47,47,48,48],"right_children":[2,4,6,8,10,12,14,16,18,20,22,24,-1,26,28,30,32,34,36,38,40,-1,42,-1,-1,-1,44,46,48,50,52,-1,54,56,58,-1,-1,60,62,-1,-1,64,66,68,70,72,74,76,78,-1,-1,-1,-1,-1,-1,-1,-1,-1,-1,-1,-1,-1,-1,-1,-1,-1,-1,-1,-1,-1,-1,-1,-1,-1,-1,-1,-1,-1,-1],"split_conditions":[9.020461E0,7.8065E0,-2.320058E1,7.101E0,7.846E1,-2.7862494E1,-1.4947071E1,-1.0635585E1,7.907E1,4.95E0,7.856E1,-3.0158983E1,8.824092E0,3.05E0,-1.1816625E1,-1.7143429E1,3.59901E0,7.697E1,-1.7143429E1,-2.320058E1,-2.1115334E1,-1.0098878E1,7.939E1,1.285488E0,6.0737804E-2,3.4481947E0,9.34575E0,1.00385E1,-1.1466407E1,-2.1115334E1,7.645E1,-1.1019493E1,4.55E0,-1.4947071E1,-2.320058E1,1.1168184E0,1.1669392E1,7.759E1,-9.91536E0,8.4558725E-1,-5.1718736E0,-1.2886595E1,8.027E1,9.1738205E0,9.41324E0,7.697E1,1.0094292E1,7.856E1,9.881725E0,-4.0999874E-2,-4.813532E0,8.51559E-1,7.9436097E0,2.871E-1,-6.9332223E0,-1.517799E-1,-2.5595584E0,2.1057835E0,1.01900674E-1,1.0680628E0,-7.5447903E0,3.3602593E0,1.6565411E-1,-6.7082673E-1,7.084713E-1,-8.19712E0,-1.1645728E0,3.6634752E-1,-5.9577584E0,3.2614522E0,-1.2732604E0,-3.4014764E0,7.964248E-1,1.3600278E1,1.6049327E0,-7.4714713E0,-4.72551E-2,9.066005E-1,2.6266186E-3],"split_indices":[2,2,0,2,1,0,0,0,1,3,1,0,0,3,0,0,0,1,0,0,0,0,1,0,0,0,2,2,0,0,1,0,3,0,0,0,0,1,0,0,0,0,1,2,2,1,2,1,2,0,0,0,0,0,0,0,0,0,0,0,0,0,0,0,0,0,0,0,0,0,0,0,0,0,0,0,0,0,0],"split_type":[0,0,0,0,0,0,0,0,0,0,0,0,0,0,0,0,0,0,0,0,0,0,0,0,0,0,0,0,0,0,0,0,0,0,0,0,0,0,0,0,0,0,0,0,0,0,0,0,0,0,0,0,0,0,0,0,0,0,0,0,0,0,0,0,0,0,0,0,0,0,0,0,0,0,0,0,0,0,0],"sum_hessian":[2.4E3,5.45E2,1.855E3,4.66E2,7.9E1,4E0,1.851E3,4.48E2,1.8E1,3.5E1,4.4E1,2E0,2E0,2.4E1,1.827E3,3.1E2,1.38E2,1.6E1,2E0,3E1,5E0,4E0,4E1,1E0,1E0,1E0,2.3E1,3E1,1.797E3,3.01E2,9E0,3E0,1.35E2,6E0,1E1,1E0,1E0,7E0,2.3E1,4E0,1E0,2.5E1,1.5E1,4E0,1.9E1,2.3E1,7E0,1.9E1,1.778E3,2.99E2,2E0,5E0,4E0,1.3E2,5E0,4E0,2E0,8E0,2E0,6E0,1E0,5E0,1.8E1,6E0,1.9E1,2E0,1.3E1,2E0,2E0,2E0,1.7E1,3E0,2E1,1E0,6E0,5E0,1.4E1,5.9E1,1.719E3],"tree_param":{"num_deleted":"0","num_feature":"4","num_nodes":"79","size_leaf_vector":"1"}},{"base_weights":[-9.759231E-3,-9.60962E-2,4.9814782E-1,-1.0732948E-1,2.2847269E0,1.5622033E0,3.2737693E-1,-5.556221E-2,-2.582208E0,-1.1617962E0,3.723899E0,-2.0584962E0,4.8584247E-1,-9.712815E-2,1.5114233E0,-1.2596571E0,-1.03075695E1,1.8542078E0,-5.7242694E0,-5.016941E0,5.025543E0,-2.6053674E0,1.167778E0,1.8769526E0,4.0675917E-1,-5.5448063E-2,-9.1216545E0,2.583155E0,5.0054085E-1,-2.8193605E0,4.746688E0,-2.036005E0,-5.3701396E0,3.3820956E0,2.624312E-1,-1.703355E-1,-1.6775358E1,1.873288E0,-1.0852117E1,1.3399878E1,3.1911204E0,-1.9860692E0,-1.9700158E0,2.6287487E0,6.4222175E-1,-5.790818E-1,5.960554E-1,-6.5983444E-2,7.61197E-2,4.9209195E-1,-1.4282601E1,9.875328E-1,2.8728944E-1,1.8961929E-2,1.8462857E0,-5.8679247E-1,-1.1854323E0,2.8057745E0,-6.592052E-1,3.8415015E-1,-1.0705022E0,-6.683205E-1,6.291756E-1,-1.07151E0,5.7136506E-1,-1.1432991E0,-6.4056125E0,-5.6828823E0,7.9942936E-1,4.800773E0,8.387673E-1,1.441745E0,4.7388402E-1,-6.3887906E-1,4.6555713E-2,3.5190755E-1,9.483319E-1,1.14040375E-2,6.4012074E-1,-2.6002425E-1,7.542784E-1,3.6076346E-1,7.540254E-2],"categories":[],"categories_nodes":[],"categories_segments":[],"categories_sizes":[],"default_left":[0,0,0,0,0,0,0,0,0,0,0,0,0,0,0,0,0,0,0,0,0,0,0,0,0,0,0,0,0,0,0,0,0,0,0,0,0,0,0,0,0,0,0,0,0,0,0,0,0,0,0,0,0,0,0,0,0,0,0,0,0,0,0,0,0,0,0,0,0,0,0,0,0,0,0,0,0,0,0,0,0,0,0],"id":21,"left_children":[1,3,5,7,-1,9,11,13,15,17,19,21,23,25,27,29,31,33,35,37,39,41,-1,43,45,47,49,51,53,55,57,59,-1,-1,61,63,65,-1,67,69,71,73,-1,75,77,79,81,-1,-1,-1,-1,-1,-1,-1,-1,-1,-1,-1,-1,-1,-1,-1,-1,-1,-1,-1,-1,-1,-1,-1,-1,-1,-1,-1,-1,-1,-1,-1,-1,-1,-1,-1,-1],"loss_changes":[1.053345E2,1.7866756E2,6.290525E1,2.6262598E2,0E0,2.8697238E2,1.15179855E2,1.3106462E2,4.1613766E2,3.1334363E2,3.324044E2,7.197677E1,3.04804E1,7.363585E2,5.504355E1,3.6000296E2,3.403853E2,2.0695251E2,5.4953577E2,3.3060895E2,3.2592902E2,3.1116676E1,0E0,1.2235744E1,5.0731476E1,9.9282036E1,3.8058547E3,2.5644684E1,6.884317E1,2.1593735E1,2.7641888E2,2.4897253E1,0E0,0E0,6.406923E1,5.620458E1,9.6628784E1,0E0,3.7856656E2,6.565448E1,4.7052643E1,5.5550766E0,0E0,3.266632E0,6.2271843E0,4.133256E1,4.7155525E1,0E0,0E0,0E0,0E0,0E0,0E0,0E0,0E0,0E0,0E0,0E0,0E0,0E0,0E0,0E0,0E0,0E0,0E0,0E0,0E0,0E0,0E0,0E0,0E0,0E0,0E0,0E0,0E0,0E0,0E0,0E0,0E0,0E0,0E0,0E0,0E0],"parents":[2147483647,0,0,1,1,2,2,3,3,5,5,6,6,7,7,8,8,9,9,10,10,11,11,12,12,13,13,14,14,15,15,16,16,17,17,18,18,19,19,20,20,21,21,23,23,24,24,25,25,26,26,27,27,28,28,29,29,30,30,31,31,34,34,35,35,36,36,38,38,39,39,40,40,41,41,43,43,44,44,45,45,46,46],"right_children":[2,4,6,8,-1,10,12,14,16,18,20,22,24,26,28,30,32,34,36,38,40,42,-1,44,46,48,50,52,54,56,58,60,-1,-1,62,64,66,-1,68,70,72,74,-1,76,78,80,82,-1,-1,-1,-1,-1,-1,-1,-1,-1,-1,-1,-1,-1,-1,-1,-1,-1,-1,-1,-1,-1,-1,-1,-1,-1,-1,-1,-1,-1,-1,-1,-1,-1,-1,-1,-1],"split_conditions":[9.5461266E1,4.724206E1,1.0141125E2,8.694E1,2.2847269E0,4.4791515E1,1.1527657E2,4.187467E1,9.484503E1,4.187467E1,2.85E0,8.673E1,4.8547E1,4.135119E1,4.2698868E1,4.698994E1,4.6937943E1,7.661E1,2.85E0,9.590095E1,4.631483E1,5.4607918E1,1.167778E0,7.739E1,1.2661761E2,8.112E1,3.05E0,8.262004E1,9.484503E1,4.5676228E1,9.444353E1,4.135119E1,-5.3701396E0,3.3820956E0,8.673E1,9.590095E1,9.590095E1,1.873288E0,9.687031E1,9.687031E1,9.687031E1,5.3852E1,-1.9700158E0,4.631483E1,1.2253865E2,6.0873222E1,7.962E1,-6.5983444E-2,7.61197E-2,4.9209195E-1,-1.4282601E1,9.875328E-1,2.8728944E-1,1.8961929E-2,1.8462857E0,-5.8679247E-1,-1.1854323E0,2.8057745E0,-6.592052E-1,3.8415015E-1,-1.0705022E0,-6.683205E-1,6.291756E-1,-1.07151E0,5.7136506E-1,-1.1432991E0,-6.4056125E0,-5.6828823E0,7.9942936E-1,4.800773E0,8.387673E-1,1.441745E0,4.7388402E-1,-6.3887906E-1,4.6555713E-2,3.5190755E-1,9.483319E-1,1.14040375E-2,6.4012074E-1,-2.6002425E-1,7.542784E-1,3.6076346E-1,7.540254E-2],"split_indices":[0,2,0,1,0,2,0,2,0,2,3,1,2,2,2,2,2,1,3,0,2,2,0,1,0,1,3,0,0,2,0,2,0,0,1,0,0,0,0,0,0,2,0,2,0,2,1,0,0,0,0,0,0,0,0,0,0,0,0,0,0,0,0,0,0,0,0,0,0,0,0,0,0,0,0,0,0,0,0,0,0,0,0],"split_type":[0,0,0,0,0,0,0,0,0,0,0,0,0,0,0,0,0,0,0,0,0,0,0,0,0,0,0,0,0,0,0,0,0,0,0,0,0,0,0,0,0,0,0,0,0,0,0,0,0,0,0,0,0,0,0,0,0,0,0,0,0,0,0,0,0,0,0,0,0,0,0,0,0,0,0,0,0,0,0,0,0,0,0],"sum_hessian":[2.4E3,2.052E3,3.48E2,2.05E3,2E0,4.7E1,3.01E2,2.009E3,4.1E1,2.1E1,2.6E1,1.8E1,2.83E2,1.958E3,5.1E1,3.6E1,5E0,1.3E1,8E0,3E0,2.3E1,1.7E1,1E0,1.4E1,2.69E2,1.95E3,8E0,2.4E1,2.7E1,2.9E1,7E0,3E0,2E0,1E0,1.2E1,6E0,2E0,1E0,2E0,3E0,2E1,1.6E1,1E0,8E0,6E0,4.3E1,2.26E2,1.273E3,6.77E2,7E0,1E0,1.6E1,8E0,2.6E1,1E0,1.8E1,1.1E1,4E0,3E0,1E0,2E0,5E0,7E0,2E0,4E0,1E0,1E0,1E0,1E0,2E0,1E0,9E0,1.1E1,1.5E1,